#pragma once

#include <stdint.h>

// Weight 0, shape: (6, 200)
const double weight_0[] = {
-0.08082541, 0.2032376, -0.0048230593, -0.032495663, -0.026258951, 0.21712749, 0.0929786, 0.19051506, -0.010099861, 0.18274163, 0.19079839, 0.22189906, 0.26697883, 0.21381849, 0.11773967, -0.007579701, -0.050280806, 0.030496165, 0.10923815, 0.15901609, 0.038204588, 0.2405199, 0.11776114, -0.027055804, 0.14690648, -0.12474846, 0.19052325, 0.20046356, -0.39819652, 0.05877704, 0.19777411, 0.10767626, 0.21544051, 0.17986651, 0.1279391, 0.25077134, 0.24274953, -0.015718771, 0.041391067, 0.22543772, 0.10259811, -0.013668266, 0.17835267, 0.06316397, 0.16343531, -0.25003496, 0.15710934, 0.2527009, 0.27236414, 0.19983064, -0.033236608, 0.02389232, 0.008011581, -0.33534777, -0.11074457, 0.19261464, 0.15088435, -0.041156866, 0.04487333, 0.119799554, 0.096052, 0.23510495, -0.21801719, 0.07309677, 0.010330806, 0.25283286, -0.09354767, -0.07171307, 0.12669675, -0.092753686, 0.15985003, 0.019113785, 0.09870062, 0.13775603, 0.0035971652, 0.20583998, 0.039198183, 0.016966576, -0.03447597, 0.042159293, 0.28783563, -0.12068971, -0.2534385, -0.049544193, -0.16048466, 0.15729885, -0.096763685, -0.038032256, 0.051199634, -0.25193992, 0.23746401, 0.03055165, -0.42493868, -0.026350517, -0.25845, -0.027384361, -0.05951003, -0.08080711, 0.24408147, -0.004131992, 0.052161638, 0.0757236, -0.13316894, -0.057273082, -0.012041401, 0.041587546, -0.28072733, -0.20492126, 0.036609303, -0.0023663165, -0.08350278, 0.15526696, -0.027074046, 0.22450954, 0.14962493, -0.005519885, -0.1840288, -0.03708816, 0.020315459, 0.029596271, 0.11628445, 0.018039353, -0.20254916, 0.04165932, 0.12141563, -0.094310746, -0.02660332, 0.07624477, 0.13678613, 0.017750017, -0.1233868, -0.21253206, -0.14791337, -0.22451347, 0.090019524, 0.11003015, 0.017802143, 0.3390024, 0.1227336, 0.18170977, -0.10269706, -0.0036171817, 0.09375161, 0.04187406, -0.02303997, 0.06627438, 0.034335956, -0.21234627, -0.15879656, -0.07429216, 0.20217419, 0.2224223, 0.19526945, 0.09617754, 0.26278144, 0.17514318, -0.001979464, 0.24351688, 0.589647, 0.28349155, 0.23338248, 0.16295443, 0.15494974, -0.047847927, 0.05657593, 0.074883394, -0.027843032, 0.17541999, -0.052404895, -0.06021282, -0.5567475, 0.08163761, 0.21075054, 0.19618274, 0.233604, 0.19144268, 0.10898607, 0.36922657, 0.22693694, 0.10229321, -0.057325944, 0.16543703, 0.11812422, 0.2442534, -0.07640021, 0.2552325, 0.22405465, 0.20583959, 0.030466154, 0.15263775, 0.366594, 0.04488058, 0.24565323, 0.30196264, 0.67896813, -0.07074649, 0.16469319, 0.12082048, 0.32320935, 0.25528172, -0.014646922, 0.10196839, 0.007612294, 0.031335756, 0.053404227, 0.083640896, 0.056050476, 0.066561855, 0.0015355612, 0.12895587, 0.04942388, 0.2330525, 0.021657908, 0.13531718, 0.08956297, 0.73991454, 0.028149799, -0.04419312, 0.15497224, 0.1219263, 0.09869843, -0.027599275, 0.12759446, 0.030099774, 0.12691465, 0.086660385, 0.13504127, 0.11040131, 0.38619605, 0.026598157, 0.12499371, 0.19043742, 0.10779779, 0.13340038, 0.09694638, 0.20277503, 0.04489044, 0.08917382, -0.07631599, 0.120200306, 0.27560687, 0.31511152, 0.048239417, 0.27764663, 0.076420605, 0.7107322, 0.027925812, 0.07639252, 0.049774382, 0.12063854, 0.011788519, -0.052088533, 0.113631114, 0.2611529, -0.20073774, 0.00087092427, -0.009980263, 0.10454068, -0.043494876, 0.11543754, 0.086896874, 0.23192525, -0.0028764277, 0.18705796, 0.014623979, -0.18749493, -0.003278955, 0.02307766, 0.100434326, 0.017951958, -0.09591767, 0.0008858419, 0.07595331, 0.16458054, 0.07677335, -0.020364739, 0.39128324, 0.1957643, -0.03731125, 0.0056049004, 0.024901683, 0.016890358, -0.0019468595, 0.1824583, 0.13961485, 0.011377552, 0.011127351, 0.07933961, -0.1300293, 0.1650723, -0.045256667, -0.0022008386, 0.29968148, 0.0006164133, 0.5689534, -0.054254603, 0.19293815, 0.2688487, 0.010389367, 0.11367269, 0.040656388, 0.19845553, -0.20409764, -0.16049701, -0.2663772, 0.12949787, 0.088413686, -0.22607918, -0.041971296, -0.19405237, -0.13749523, 0.06302328, 0.015196665, 0.15990129, 0.108258136, -0.021305863, -0.20244293, -0.18868744, 0.015957056, 0.21392201, 0.13673256, -0.007392475, -0.08662403, 0.22276808, 0.044824436, -0.008788834, -0.05629933, 0.03449353, 0.11721917, -0.015724977, -0.122957215, -0.04306542, -0.023093127, -0.22619456, 0.13179177, -0.0022469175, 0.11323588, -0.42938006, -0.55078626, 0.0340142, -0.10166867, 0.0016732904, 0.12655236, 0.1821962, -0.1587797, 0.023768831, 0.13427375, -0.02380076, -0.1210717, -0.07373085, 0.15083756, 0.121638656, 0.2618821, -0.06357817, 0.09961353, 0.40558878, 0.010617449, 0.029129747, -0.62086755, 0.14024775, 0.2000389, 0.19496803, -0.11196584, 0.014178676, 0.2112452, 0.12806243, -0.030891353, 0.22903621, 0.029551972, -0.010393725, 0.21654667, 0.009065827, 0.09815607, 0.08527021, 0.21172878, 0.032971375, 0.06981368, 0.11126071, 0.18269499, 0.074832484, 0.016102659, 0.05820144, 0.24861272, 0.172837, 0.052418873, 0.022041138, 0.2213476, -0.65857434, -0.047992364, 0.036204644, 0.4913705, 0.30267012, 0.17212105, 0.11110944, 0.06041287, -0.010783496, 0.11591186, 0.06728696, 0.21514437, 0.045815825, -0.005149065, 0.18602617, -0.050327003, -0.00050890475, -0.021370675, 0.22308272, 0.03909029, 0.088480234, -0.0068022893, 0.19639413, 0.17617033, 0.108080395, 0.044228386, 0.20275591, 0.25393766, 0.7157562, 0.10994093, -0.086139895, 0.27875286, 0.255244, 0.09126303, 0.2788969, 0.23074307, -0.046002377, 0.19163956, 0.031656247, 0.19605924, 0.19169432, 0.5481816, 0.040731914, 0.22161417, 0.24157459, 0.16353786, 0.18554826, 0.22887348, 0.07582269, 0.13864142, -0.022429483, -0.053858116, 0.17947966, 0.18710054, 0.1902088, 0.2623744, 0.22713126, 0.18800578, 0.7123639, 0.26061004, 0.20446238, 0.1376476, 0.15269463, 0.015926061, 0.13844287, -0.0033041115, 0.2076567, -0.22432947, 0.107155934, -0.07805524, 0.06199191, -0.1426453, 0.19391093, -0.13881671, -0.0152149815, -0.14373899, 0.15784627, -0.19342995, -0.25795272, 0.24812868, -0.049275592, 0.20253365, 0.09681655, -0.14049728, 0.00341978, 0.08808909, 0.11718969, -0.10401764, 0.10459034, -0.193095, -0.022757037, -0.10979093, 0.023761977, 0.011381733, -0.23821682, 0.12589407, 0.056268606, -0.007880669, 0.06938127, 0.104443006, -0.15405409, -0.046938527, -0.060797174, 0.14699043, -0.1281812, 0.17406964, -0.020458283, 0.18664126, 0.00051995454, 0.048682157, -0.046571095, 0.061131928, -0.1532804, 0.12156683, 0.091151804, -0.006566003, -0.14695127, -0.24443273, 0.13732539, 0.27643704, 0.026769914, -0.06494925, -0.23955046, -0.17260249, 0.049315277, 0.02637066, 0.008210111, 0.023714919, -0.0066706617, -0.029601151, -0.22464247, -0.023365246, 0.25915995, 0.07555368, -0.0076191737, -0.037838876, 0.071827024, 0.08040314, -0.09453585, -0.2550639, 0.19551289, 0.055480562, -0.00096075033, -0.13407716, -0.11016547, -0.03980136, -0.19045688, 0.14369124, 0.09777439, 0.23580283, -0.25539938, -0.56899786, 0.1202892, -0.07756776, -0.03154722, 0.066804014, 0.10246282, -0.13998531, 0.12803702, 0.2294295, -0.0522491, 0.01704801, -0.08319151, 0.1769717, 0.19302338, 0.14444041, -0.017509062, 0.18306006, 0.07670218, -0.0013423942, 0.18505132, -0.72376525, 0.13397059, 0.16578306, 0.1775119, -0.08532878, -0.023319637, 0.2764206, 0.31772804, 0.028681463, 0.13760288, 0.03938539, 0.020679533, 0.5647129, 0.15523426, 0.21796872, 0.23156378, 0.123099856, 0.19013016, 0.31423506, 0.10682039, 0.19953248, 0.08658801, -0.036511764, 0.2788024, 0.20057826, 0.14704259, 0.011707494, 0.05873083, 0.09099971, -0.66556734, -0.01851194, 0.22754942, 0.5414746, 0.38546535, 0.14035599, 0.12802923, 0.16895014, 0.04176632, 0.18386328, 0.2532516, 0.032653324, 0.18289122, 0.0044110143, 0.09350705, -0.007655938, -0.061051268, -0.008310476, 0.046707828, 0.069888994, 0.21195096, 0.07165031, 0.07073589, 0.22034767, 0.07964725, 0.011352189, 0.028221583, 0.16118129, -0.29645884, 0.025231699, 0.062215373, 0.0495431, 0.03603172, 0.073735334, 0.24873443, 0.14750533, -0.024273269, 0.21481092, 0.24755757, 0.045352977, 0.070393324, 0.12558722, 0.011314972, 0.024221832, 0.054771278, 0.11237248, 0.08966252, 0.2718967, 0.22449969, 0.23217483, -0.031863917, 0.03373666, 0.05781543, 0.12861176, -0.011642277, 0.10563752, 0.19452986, 0.20538379, -0.21640809, 0.15075636, 0.059220828, 0.165824, 0.1424826, 0.013704654, -0.028516073, 0.039985, -0.30099988, -0.08788449, 0.06387684, 0.17286447, 0.02720907, 0.1871975, 0.12159864, 0.072213136, 0.04357434, -0.18266173, -0.009886668, 0.27745205, 0.29074857, -0.06414711, -0.008648587, -0.068044655, 0.02792849, 0.17698093, -0.02066128, 0.01868523, 0.014523033, -0.0050792387, 0.12905136, 0.24491991, -0.026027765, 0.04515572, 0.0005922914, 0.104375966, 0.015529496, 0.066450804, -0.109422974, -0.21211559, 0.15998039, -0.18448399, 0.0220907, -0.041054737, -0.17261642, 0.18823507, -0.010274851, -0.064920895, 0.58570784, -0.14628167, 0.00778392, 0.071082704, 0.12801574, 0.03926175, -0.02452423, 0.091737255, 0.012375243, -0.08774709, -0.054394223, -0.01594684, 0.20436612, -0.29530194, -0.03713181, -0.016411819, -0.17265427, -0.012545285, 0.017206226, -0.041515622, 0.05723116, 0.039418876, 0.014156271, -0.009536404, -0.02692566, -0.019974014, 0.007390102, 0.06617926, -0.014691038, -0.07064905, 0.14407697, 0.032934867, -0.16295485, -0.08610009, 0.08319238, 0.1562032, -0.0061818403, 0.0036919988, -0.03420301, -0.14998744, 0.044330083, 0.13584808, 0.20764704, 0.23877124, 0.027462415, 0.17728777, 0.025959147, -0.13803414, -0.0034596047, 0.17824127, 0.099413626, -0.07673818, 0.1227499, 0.018382706, -0.072013654, -0.210384, -0.18898672, 0.062343217, 0.03638879, 0.039267477, 0.1523828, 0.046071194, 0.24311085, -0.03615365, 0.17258151, 0.5953908, 0.03224558, 0.0076020774, 0.1705812, 0.2627636, 0.017473046, 0.25586635, 0.12613806, -0.016550306, 0.09554692, 0.033357497, 0.018395072, -0.5723895, 0.26932558, 0.044305287, 0.06832405, 0.032426696, 0.21306609, 0.068283126, 0.041452095, 0.018604128, 0.024613233, 0.02567793, 0.06951723, 0.04340261, 0.0242582, -0.015593537, 0.011438808, 0.17448534, 0.48584148, 0.024376689, 0.26668227, -0.201526, 0.18699603, 0.02876337, 0.050654024, -0.064390264, 0.017029174, 0.14316484, 0.2835471, 0.106407546, 0.120647974, -0.01094691, -0.0151153095, 0.018897383, 0.00045229617, 0.007462625, -0.0062260553, -0.016249288, 0.021649305, 0.020368878, -0.0065473295, 0.0034059864, -0.008198821, 0.050163, 0.02846975, -0.021233726, -0.063932195, -0.010014934, 0.016942365, 0.021315318, 0.017126573, 0.0011075161, -0.029999634, 0.0015760438, -0.03855262, 0.00697261, 0.04149778, -0.025960157, -0.020923128, 0.15479632, -0.002644861, 0.01204232, 0.003950841, -0.0043282234, -0.007369619, 0.0023017505, 0.016683875, -0.053198405, -0.031932563, 0.011675012, -0.018662464, -0.006081816, 0.022070019, 0.011127498, 0.0037833466, 0.004459286, 0.03365146, 0.012663513, 0.09550303, 0.015697775, -0.0032403697, -0.0062266914, 0.055149216, 0.06501987, 0.10487249, -0.044670194, -0.0032596448, 0.15078934, 0.004403465, -0.015334284, 0.010213558, 0.05828307, -0.068286255, -0.0820969, 0.031620976, 0.13846768, -0.042758945, -0.13857155, 0.044681735, -0.05033829, -0.010188204, 0.11333419, -0.003970503, -0.068236776, 0.055483546, 0.20238154, -0.02618613, 0.2701395, 0.14582351, 0.11341159, -0.015398684, 0.029745447, 0.14574985, 0.102554455, 0.024161896, 0.102231935, -0.11744723, -0.0024681448, -0.40810823, 0.0023539332, 0.050986126, -0.069805495, -0.061371837, -0.005256071, 0.014051421, 0.17931743, -0.03753178, -0.0077409535, 0.2546436, -0.11164513, 0.11514158, -0.0059016687, -0.048017383, -0.005324465, -0.060935386, -0.07966677, -0.019655032, -0.012216387, 0.071907684, -0.007213522, 0.020257525, -0.08032896, -0.021009972, 0.0042631216, 0.048028406, -0.008725132, 0.0010738738, 0.1007696, -0.11383271, 0.0021381744, 0.03296189, 0.015929684, 6.895741e-05, -0.12232014, -0.0049940436, -0.013052259, -0.047665518, -0.14088936, -0.036214422, 0.038275603, -0.0050326767, 0.04359381, -0.2397027, 0.06462523, -0.08507366, 0.045636266, -0.04093594, 0.067389615, -0.064471416, -0.007918851, -0.041480612, 0.06687678, 0.0004453042, -0.009651116, -0.03472101, 0.0055286456, -0.066564314, 0.025851773, -0.07785865, -0.03742883, -0.0007409439, -0.0052969824, -0.0075695263, 0.009197325, 0.03590275, -0.0030500446, 0.0009846813, -0.0007876413, 0.0062717986, -0.043570943, -0.012876881, 0.041696064, -0.082443394, 0.03664386, -0.00034642004, 0.060067832, 0.105229795, -0.015361235, 0.005186328, -0.028922345, -0.0025972691, 0.031097371, -0.23264274, 0.024130419, 0.010992102, -0.00865011, -0.008198781, 0.011855897, 0.018518848, 0.06214833, 0.009984271, 0.0008939542, -0.008308476, -0.00028565596, 0.007569461, 0.0063826134, 0.06892629, -0.0021635818, 0.01443739, -0.0051050284, -0.007578884, 0.036434133, 0.12318068, -0.0047157994, -0.012781726, 0.3932485, -0.0085735265, -0.006693952, 0.001878026, -0.0015789767, -0.025364498, -0.015480292, -0.011931991, 0.005542364, -0.0035551628, -0.019185001, -0.019168615, -0.01285704, -0.039236672, -0.010052829, 0.030775102, -0.009478847, -0.0012310414, 0.12302519, 0.023725964, 0.022253666, 0.013573812, -0.043753, -0.0028851882, -0.025606252, -0.00015701633, -0.057818454, -0.099350944, 0.0039811996, 0.008789229, 0.009833916, -0.011099178, -0.04558165, -0.03708526, -0.013336349, -0.0056972266, 0.004045648, -0.013318362, -0.0028127546, -0.0031383473, -0.003450897, 0.067380756, -0.00604152, 0.019876208, -0.015248996, 0.0024259363, -0.023076799, 0.00034376764, 0.08261478, -0.044495597, -0.0079541495, -0.04254429, 0.034346983, 0.010689379, 0.0200115, 0.00881071, 0.04271623, 0.02124047, -0.047853354, -0.16850013, 0.015131688, 0.12198142, -0.13113749, 0.07327669, 0.024813326, -0.018406838, 0.021113742, 0.022466544, -0.047941953, -0.07917055, 0.24060509, 0.021526802, -0.046157997, -0.007978959, 0.086921096, 0.07013679, -0.039478905, -0.027642788, 0.0130271735, -0.018742003, -0.08208653, 0.117436126, 0.19829129, 0.04507127, 0.049692977, -0.016429821, 0.13115272, -0.02131332, 0.058764122, -0.041149918, 0.2261831, -0.10896755, 0.09820633, 0.16481845, -0.008456056, 0.18735933, 0.006031493, 0.047401153, 0.03296469, 0.20813501, 0.06967936, 0.042119328, -0.016237117, 0.03153927, 0.21534725, -0.02402661, 0.0018831864, -0.09632595, -0.015282025, -0.08707076, 0.06934404, 0.03924521, -0.064570256, -0.13900733, -0.003405125, -0.026211483, -0.00894692, -0.0071227774, 0.0029774983, -0.024577474, 0.0039717704, 0.0003155179, -0.0054941354, 0.089113794, 0.0073170364, -0.018806746, 0.031106275, -0.0011010063, 0.15216267, -0.005228442, -0.021088995, -0.016640525, 0.05567718, -0.09947205, -0.010998647, -0.0002912615, -0.038798068, -0.10870004, 0.030018203, -0.027761346, -0.049043722, 0.058660302, 0.011973968, -0.024347683, 0.006199921, 0.0971852, 0.12090644, 0.0038587276, -0.10037847, -0.07386372, 0.0154152075, -0.04559823, 0.047109928, 0.010472154, 0.002011474, -0.02434512, -0.010211917, -0.025171025, 0.0030535285, 0.0021004456, -0.01852392, 0.012821661, -0.011201081, 0.07113786, 0.027015558, 0.005039595, -0.025523, 0.040206507, 0.019635797, 0.030889388, -0.04319138, -0.14142752, 0.019923592, 0.0007561422, 0.028195977, 0.014280557, 0.021325007, 0.19022502, -0.005639988, -0.0055022393, 0.00036013528, -0.0058226767, -0.01194683, 0.020083275, -0.0077136736, 0.025959872, 0.017026173, 0.01039438, -0.011465863, -0.009210882, -0.008435916, 0.08584922, -0.0027118826, -0.110903844, -0.014614453, -0.008635003, 0.093806215, -0.15573037, -0.006153937, 0.0050947103, 0.73132676, 0.024553794, -0.0046764114, -0.022642309, -0.002840919, 0.009450278
};

// Weight 1, shape: (50, 200)
const double weight_1[] = {
-1.613867, 0.10847489, -0.41262895, 1.5008134, -0.57238966, -0.02036294, 2.2105913, -2.3092887, 1.8973886, 0.023052448, 0.055794682, -0.036410067, 0.56588167, 0.017326258, -0.0334136, 1.1320448, -1.2518072, -0.7804776, 0.047627967, 0.09796938, 2.1863158, 1.9158262, -0.09315099, -1.1436329, -0.114856094, -3.1368718, -0.003967312, 0.07287192, 1.1560391, -0.019222468, 0.17826074, 0.054098193, 0.15155122, -0.034744002, -0.034802746, 0.014743987, 0.13189793, 0.67507374, 1.6159029, 0.069903396, -0.030960295, -0.24068822, 0.06655952, -0.055407617, 0.113109104, -0.24385276, 0.0925799, 0.12208376, 0.006197573, 0.068013206, -2.1603856, -1.6990678, 1.2289037, -2.6617725, 2.703493, 0.31841674, -1.2034694, -1.3058509, 1.1724858, -0.01697091, 1.5348687, 0.27916893, -0.11720088, 0.39067712, 2.7712474, -2.2256653, 1.7911608, -0.9667233, 0.6276736, -3.3484983, 0.47772986, 0.23516288, -0.017975949, 0.09499815, -2.3741522, 0.12663351, 6.3550663, 0.57443804, -0.64237744, 0.10957568, 0.045367524, -0.5468314, 6.358808, 0.6868964, 3.1941347, 0.18537073, -1.7430146, 3.044149, -1.8469394, 0.18511082, 0.35763937, 1.2772679, -5.56674, -1.3520627, 2.9325566, -1.3197404, -3.092394, -4.6743393, 0.5263794, -0.599846, 0.02485499, -0.026221579, 0.13914488, 0.07794065, 0.103622295, -0.15751731, -0.45509997, 0.060729437, -1.6089664, 0.033426985, 0.08554953, 0.0138256075, 0.16316745, 0.009392228, 0.033965033, -0.404769, 0.050427232, -0.07019531, -7.0556755, 0.027167585, 0.10439224, 0.71292216, -0.055437412, 0.15893222, -0.09807491, 0.019377429, 0.09174316, 0.027455103, -0.06584635, 0.47755626, -0.091058455, -0.14108658, -0.077967875, 0.0025566742, 0.05398786, 0.030923331, -0.034195293, 0.34728622, 0.42074943, 0.110125385, -0.0041920305, -0.037155945, 0.096409105, 0.015901791, -0.030473804, 0.24278815, -0.11688374, -0.07542083, -0.0121535435, 0.06436133, 0.085780494, 0.0005386824, 0.18004799, -0.48396847, 0.19285376, 0.16979209, 1.5739734, 0.11056948, 1.9879361, 0.23239774, 0.21086206, 0.12974727, -1.8161987, 0.53501296, -0.020086328, -0.03434457, -1.4209001, 0.12387942, -0.23045331, -1.0124851, 1.4826866, 2.5963242, 0.23909251, 0.19987081, 0.023471555, -0.020615127, 0.066714495, 0.23394632, 0.26706043, 2.8835726, 2.4040356, 0.3321827, -0.016925303, 0.16745874, -1.0178292, -4.94721, 0.05691764, -2.9670398, -0.12179244, 0.17867696, -0.45337164, 0.47905168, 0.09553185, -0.12657116, -2.1976988, 7.7411504, 0.17887288, 0.06653816, 0.15441886, 0.22096619, -0.20789446, 0.020949062, -0.6914226, -0.09840904, -2.487308, -0.10857975, -0.96963775, -1.823579, 0.20286566, 0.7132779, -0.051358286, 0.10620503, 1.1564552, 0.088773526, 0.0016968099, -0.12371734, -0.05328755, -0.81897736, -0.02049725, 0.22716713, -0.12631224, -0.7430131, 0.44190854, 0.1475743, 0.29478103, 0.03158634, -0.06688873, 1.3501943, -0.464382, -0.096266076, 0.09042313, 0.149639, 0.04840465, 0.10796873, 1.007109, 0.49895966, -0.006606926, -0.72105116, 0.19909118, 0.23072442, 0.07170192, -0.7687212, 0.6928928, 0.035716992, -0.02694677, -0.033302266, 0.016069015, 0.090835325, -0.090936236, 0.35723576, 0.7020471, -0.3193526, -1.1651679, 0.7727415, 0.9765574, 0.13099205, -1.3023686, -0.18630596, -0.35553163, 0.07935465, -0.2576339, 0.109015204, 0.116051234, 1.8818674, 1.1119608, 0.10328233, 0.109721534, 0.7261982, -0.68981844, 0.70726174, 1.408497, -0.046274837, 0.054954637, 0.09186155, 0.31319195, 0.28564736, 1.8128117, 0.21929076, 0.33640885, 0.37247798, 1.7271594, 0.7059054, 0.48748398, 0.17677096, 0.7370444, 0.72423875, 1.3676493, 0.36328745, -0.5020505, 1.2203962, 0.6705399, 0.8464645, 0.6204875, 0.6111979, 0.71587455, 0.33742997, -0.62874615, 0.085312136, 0.20177487, 1.0864986, 0.6145745, 0.10293457, 0.011547483, -0.07352464, 0.07780807, 0.0937602, -0.4253409, 0.028619586, 0.81770927, -0.103458546, -0.058249634, -0.07321678, 0.16214295, -0.0641725, 0.018933808, 0.031867165, -0.14090858, -0.06607501, 0.20944214, -0.060384344, 0.13048649, 0.040864065, 0.01736739, 0.16332702, 0.9219613, 0.062021133, 0.0037764057, -0.06644535, -0.047837775, 0.18513723, 0.11345639, -0.08046988, -0.010836087, 0.03489307, -0.038238518, -0.039420836, 0.10233868, -0.19819291, 0.18992949, -0.17568961, -0.08811771, -0.9552405, 0.18897639, -0.12389313, -0.06683562, 0.06134662, -0.05468707, 0.034663264, -0.011278975, 0.055773206, 0.14865784, 0.24658155, 0.055901133, 0.41157025, 0.6162125, 0.16205862, 0.030831983, 0.18073815, 0.12995751, 0.35751328, 0.01637491, -0.049242955, 0.11059433, -0.5228639, 0.47501802, 0.13860977, -0.7139118, 0.06715867, -0.45490253, -0.7461138, -0.12192819, 1.5144098, 0.34901682, 0.4208147, 0.039773032, 0.14346327, 0.91594, 0.5619116, 0.3115551, 0.23519222, -0.25893387, 0.7278313, -0.13400747, 0.16417792, -0.32912686, -0.11367318, 0.39727738, 0.12118561, 0.42590854, 0.3811999, -2.6768358, 0.1469193, 0.23098673, 0.32970625, -0.13719158, 0.6289033, 0.10476228, 0.8741486, 0.025536966, 0.09335694, -0.7434175, -0.1774234, -0.70930916, 0.061245233, 0.12058457, -0.09262276, 0.41501862, -0.34270498, -0.44037297, -0.04765918, -0.15890369, -0.1322141, -0.529903, -0.051295392, -0.06285349, 2.7542937, 0.86218405, -0.8083131, -0.033135463, 0.009997706, 1.3492401, 2.5913632, -0.16792886, -0.47593015, -0.07369072, -3.2088115, -0.1795497, -0.02205963, 2.1357117, 1.4678904, -0.21644334, -0.057992294, -0.12902632, 0.027254269, 0.03231849, -0.19930342, 0.014302986, 0.17518072, 1.1608735, -0.027790517, -0.11668055, 1.6683387, 0.044096563, -0.10642781, -0.13251351, 2.2403262, -0.15096861, -0.18098707, -0.08975076, -0.122943304, 0.85530585, -1.1913937, 2.8409207, -0.034165863, -2.0317924, -0.13038239, -2.5178497, 1.6626836, 0.411386, -0.1974309, 1.5117128, -0.09494157, 0.16558799, 0.043704495, -0.78612745, -0.39181224, -1.8615861, -0.18684761, 1.6203828, -0.39044827, -2.7541888, -0.68148506, -0.0073576015, -0.1303101, -2.7894678, -0.021724423, -0.9744412, -0.41711614, 1.4439272, 0.24869956, -0.02624595, -0.8257754, -1.7780678, -1.4715954, -0.63392997, -0.063359015, -0.7489502, 6.3196354, -0.68519276, 2.0854833, -0.106804356, 2.458515, 0.69219095, 0.07205821, -1.6462923, -1.3969847, 2.8175278, -0.6935231, -0.12060483, -5.0885615, -0.14037582, -0.19197513, 0.015289337, -0.008327048, -0.1130728, 0.0022955663, 3.4448788, 0.07497047, 1.1938583, 0.0055401605, -0.040715784, -0.06694417, -0.010342739, -0.009461371, -0.14996041, -0.14776368, -0.07978186, 0.11784809, -0.3524701, -0.0038352227, -0.08407445, -0.12462646, -0.025693528, -0.16575389, -0.04091009, 0.069428794, 0.06659943, -0.008196052, 0.0039271773, 0.1833174, 0.06298663, -0.00909413, -0.06235264, -0.026364565, -0.06102613, 0.045033116, -0.1458985, -1.4316359, -1.223541, -0.0035779662, -0.052715354, 0.106716, -0.026336826, -0.067139514, 0.054218728, -0.23466243, -0.017053926, -0.10370926, -0.02121046, 0.020535814, -0.09214723, -0.11699325, -0.11404727, 0.44192427, -0.14434572, -0.18293582, -0.36042184, -0.07493232, 1.2986754, 0.14964503, -0.13330668, 0.114540115, -3.3905804, -0.25164363, -0.11937758, -0.009935837, 0.010452441, -0.07183521, 1.3370795, 0.4990544, 0.47320175, 2.7149765, -0.0066993344, -0.3758054, -0.12894875, -0.087777406, -0.091373876, 0.023736347, -0.13035528, -1.6309217, 0.022570979, -0.17504267, -0.1707448, -0.055800624, -0.02553626, 2.498704, -0.17692745, -1.5185148, -0.38658312, -0.20923221, 2.0444934, -1.2071779, 0.0072483844, -0.15284911, -0.55451995, 0.068405285, -0.075204924, -0.35666808, -0.13349906, -0.20383756, 9.580879, 0.14622171, 0.42146307, -0.53428274, -0.43987116, -0.064195044, -1.5481917, 1.1108814, -0.6709148, -0.16338259, 0.039450213, -0.039704267, -0.6835025, -0.023969907, -0.13759701, 9.221806, 2.2809622, -0.68750596, 0.03499104, -0.07032043, -0.020851066, -2.471507, -0.07610372, 1.436513, -0.14638202, -4.2588406, -0.04032334, -0.17668197, 0.3156073, 0.840961, -0.13806479, 0.09832875, -0.03917885, -0.111066245, -0.026495665, -0.0748731, 0.09081157, 1.0087377, 1.1790463, -0.13501792, -0.039266028, 0.12229573, -0.082413055, 0.1578124, 0.0669636, 6.6799145, -0.026487928, -0.08674269, -0.13447946, -0.16098697, 0.30783525, 0.88296807, 0.620405, -0.84578425, 10.342732, 0.05024916, -0.82356805, 2.053563, -4.39415, -0.032995746, 0.5334711, 0.10272058, 0.06094252, -0.22522523, 0.027246142, -4.3301854, 0.08500575, -0.13628072, 4.6331954, 1.3694406, 2.0136473, -0.39996055, -0.08664366, -0.08863545, -1.0085769, 0.0058806604, 2.1214867, 2.8405488, -0.85466635, 1.0562927, -0.247931, -2.3703816, -2.4799693, -1.3121266, 4.4549966, -0.14929593, 2.8317344, 3.0899909, -0.60914433, 0.81810963, -0.24565561, 1.6685988, -1.2195112, -0.3877022, 0.21583231, -0.32434338, 1.4247092, 0.8174777, -0.20301029, -0.64788026, -0.06551943, -0.000830149, 0.10621676, 0.024333563, -0.041963242, -0.1243167, -0.896686, -0.10020609, 1.1563654, 0.20494142, 0.058170557, -0.065596245, 0.2837309, -0.10524014, -0.066061355, -0.3901428, -0.0026300556, -0.033290673, 0.3654156, -0.02733148, 0.07181689, 0.08676807, -0.043656472, -0.00035204386, -0.44279933, 0.06369555, 0.0640103, -0.06555726, 0.15313332, 0.10024339, -0.0488647, -0.03862521, 0.11650838, 0.10364995, 0.07869762, 0.06419524, -0.09729415, -1.0043334, -5.211363, -0.030892134, 0.1052746, 0.08070261, 0.07847757, 0.013614762, 0.019428395, 0.0005931775, -0.03065864, 0.05464685, -0.04200065, -0.00141496, 0.121901564, -0.11015425, 0.03653267, -2.6273272, -0.2255915, 0.006118939, 0.67855877, -0.064168155, 3.3569987, -0.13173023, -0.089817986, -0.07215246, -6.55142, 0.6452031, -0.15584548, -0.03494601, 0.74632853, -0.037795864, 0.29332322, 1.6726406, 4.0795007, -6.4192157, -0.053423777, 0.041049916, -0.043042928, 0.12809506, -0.24334434, -0.04279467, -0.11678681, -5.3226423, 0.09672167, -0.07817653, -0.134388, 0.015121232, 0.4455199, 1.8933141, -0.017655086, -6.966699, -0.619992, -0.12596446, 6.9637814, -0.15524192, -0.017290248, -0.058010776, -1.5085467, 1.7697767, 0.009303657, -0.032843053, -0.27228168, -0.07195863, 1.3862181, -0.25187448, 0.52479833, -0.5860811, 0.6696779, -0.35111827, 4.595046, 8.931775, 0.15451062, 0.0606024, -0.13204263, -0.07121924, -0.5339366, -0.00018457753, -0.07726325, 0.9457438, -3.161349, -3.116298, 0.017067749, -0.07545325, 5.2337365, 1.7212344, -0.03238128, -1.2777102, -0.13831341, 1.3578794, -0.1891319, -0.0382061, 6.46869, -1.649435, -0.08199564, -0.23151593, -0.09629284, -0.1445648, -0.09171558, 0.10000756, -0.015529192, 0.6477308, -1.0821779, -0.085377745, -0.10290701, 5.65956, -0.055790205, 0.044361204, -0.13979997, 1.6723304, -0.14096789, -0.08670068, -0.08284944, -0.08027092, -0.21590137, 1.3947487, 5.949052, -3.1006072, 0.5571604, -0.3346148, 7.3379736, 3.5685513, -0.26781827, -0.07353974, -0.24750492, -0.010530785, 0.06317623, -0.22959946, 0.64806, 0.77101296, -1.0693998, -4.822061, -2.3101902, -0.33840635, 2.6726966, 0.4380875, -0.38703167, -0.2151168, -0.80320513, -0.1237833, 1.7037936, -0.48128584, -6.212602, 0.3399762, -0.22190897, -4.8917246, -3.6633835, -3.938122, -3.4337149, -0.23398776, -3.4403632, 0.076937914, 0.8909716, -2.3109398, -0.3939959, 1.0867175, -3.5404952, 3.6393542, -6.232302, 3.9388883, 1.679023, 10.499477, -0.29679254, -0.90312344, -0.01581483, -0.1765387, 0.029684905, 0.025712404, -0.08159103, -0.0049534244, 4.086091, -0.014058543, -2.6840098, 0.123220325, 0.05288848, -0.11619773, -0.16197628, 0.040514693, -0.037111692, 0.18140683, 0.18030003, 0.2512099, -0.1862698, 0.03471309, 0.059477355, -0.4629185, 0.041112933, -0.04110844, 0.09062575, 0.07587636, 0.11144043, -0.14832893, 0.005326339, 0.06832242, 0.02758803, 0.0927293, -0.014508983, -0.009337172, -0.060172677, -0.06498304, -0.1761976, -0.40162855, -2.7043524, 0.08037388, -0.10560481, -0.36978054, 0.034871306, -0.23231904, 0.046291515, -0.2294386, -0.15248765, 0.21675335, 0.07674479, 0.10082111, -0.04063291, 0.06581626, -0.13150296, 2.3591208, -0.09504682, -0.1818286, 0.64453, -0.14946167, 1.3787441, -0.17466043, -0.16953029, -0.04889378, -2.7565272, 1.0807685, 0.05546217, -0.13307694, -0.5356185, -0.08548567, -0.33890158, -0.12026812, 1.2672569, 2.8968775, -0.19755872, -0.2987918, -0.1662308, -0.14249156, -0.14371057, -0.020679004, -0.08375893, -3.6400409, -0.17534055, -0.3065021, -0.40236518, -0.19587752, 0.7053019, 1.3776723, -0.14254618, -4.0670853, 0.01858169, -0.23017731, 7.6818557, -1.9848322, -0.123268, -0.21995428, 0.6893873, 0.42845207, 0.017301135, -0.099844, -0.37623397, 0.06671048, -0.070841074, -0.0051015653, 0.16920891, 0.21311343, -0.45686954, -0.049295623, -0.83655, -1.430224, -0.17877343, 0.03886276, 0.14359699, 0.038372234, 1.0810742, 0.12002535, 0.09180267, -0.1663698, 0.317494, -0.22360006, -0.050161615, 0.17679761, 0.046266757, -0.81619847, -0.031887475, -0.054195963, 0.027624846, 0.1738977, 0.08014698, 0.00803864, -0.28741086, -0.26509738, 0.14703168, 0.03878339, -0.012253127, 0.031074679, 0.10884903, 0.03191655, 0.1610517, -4.6274523e-05, 0.13635534, 0.031718884, 0.024642486, -0.48568082, -0.117890075, -0.013207717, 0.0032738964, 0.054077823, 0.081083626, 0.08498315, 0.010645569, 0.03844323, -0.15589553, -0.3574347, -0.5329307, 0.64196587, 0.9932125, 0.042364016, -0.8235087, -0.9133848, -0.2926568, 0.00018133043, -0.49091104, 0.23232524, -0.17999366, 0.08057091, -0.0807359, 0.23731397, 0.180201, 0.18208861, -0.83091193, -0.3178277, 0.16048662, -0.035338208, -0.118461765, 0.04788084, 0.053078208, 0.23670897, -0.05168479, -0.27091306, -0.2334156, -0.088165954, 0.17725877, 0.24396518, 0.43915468, -0.22576237, 0.32009083, 0.013645636, 0.37946057, -0.6084832, -0.039935995, 0.50514215, 0.11618748, 0.21589382, 0.008499889, -0.23785996, 0.35915142, 0.12722944, -0.633341, -0.01005647, 0.16683109, 0.36228335, 0.10116349, -0.06591341, 0.013321261, 0.077812105, -0.11890889, -0.033463713, -0.34827664, -0.11871385, 0.13984244, -0.24967365, -0.07269818, 0.010632294, 0.063065596, 0.10007173, 0.08905786, -0.034608226, -0.15272352, -0.19573906, -0.063081756, -0.012195552, 0.06950227, 0.10489997, 0.021384988, 0.092103235, 0.0154128745, 0.06235048, -0.11516088, 0.09963623, 0.033832822, 0.10813037, -0.25449562, -0.032280434, 0.047158185, -0.12918113, 0.009016078, -0.0035239684, 0.1306668, -0.030619608, 0.06655417, 0.035732668, -0.17961869, -0.11800412, -0.039771747, 0.0019060379, -0.05248785, 0.12225089, 0.064155094, -0.033993836, 0.0068306546, -0.04078511, 0.092016034, 0.054743733, 0.21527253, 0.16241337, 0.17460062, 0.16432585, -0.005632829, 0.003588064, 0.06176191, 0.08103671, 0.1793286, -0.0061964123, 0.6644755, -0.37804627, -0.013832386, 0.08081251, -0.02075969, 0.1211652, -0.17736748, -0.054302305, -0.16927928, 0.01531179, -0.08788494, 0.25460455, 0.16449605, 0.120398, 0.018763077, 0.02403851, 0.05431808, 0.0032846087, -0.038265806, -0.058916714, 0.008983178, -0.031193046, 0.17238918, 0.452531, 0.109861396, -0.26649836, 0.027361197, 0.14145528, -1.4391328, 0.22876723, 0.13426234, 0.14955224, 0.115147166, 0.19957763, 0.006582358, 0.1251836, 0.087795, -0.049420826, 1.6950836, 0.07904067, -0.6012504, -1.0475308, -1.4169714, -0.081033856, -0.16005124, 1.3236383, 0.33323374, -0.2778924, -0.007382616, -0.14941657, -0.56699365, -0.07096481, -0.012906133, 8.083944, 0.18962397, 1.0905595, -0.106690146, -0.009875894, -3.1437223, -2.3497162, 0.099533804, 0.9248513, -0.14106014, -3.254711, -0.040318787, -0.31762847, 0.8599567, -0.65140694, -0.0029170811, -0.23110875, -0.09937509, 0.013065268, -0.043421794, -0.13388745, 0.085685916, -1.6253091, 0.7302681, -0.0032708545, 0.17552364, -0.6489982, 0.023635866, -0.0440945, -0.06583234, 4.4476304, 0.039225932, 0.02468704, -0.14642037, -0.0004578909, 0.44555187, 0.50505936, -0.48598516, -1.7193452, 1.7400866, 0.02329777, -0.05650578, 3.901764, -0.005800259, 0.12811619, 1.2127312, -0.031983163, 0.0772825, 0.019622153, -0.028261721, -1.5111828, -4.5014234, 0.071573205, 1.4085929, 9.806479, 1.5632262, -0.03422455, 0.056822963, 0.028171329, -3.3211222, 0.037553363, -1.5068395, 0.021095509, 2.909623, -0.08859673, -0.30940503, -5.212991, -3.7548392, -1.1792238, 4.440343, -0.025144331, -0.35196683, 0.20190303, -0.40143237, 1.8024801, -0.18408917, -0.961006, -2.9311843, -1.4163135, -4.697993, -0.8066979, -0.73044395, -6.820135, 0.04450487, -2.2963746, -0.14455436, -0.04805832, -0.15364166, -0.06412261, 0.06635587, -0.15056196, 5.415367, -0.037921038, 1.5363624, 0.030716864, -0.050867446, -0.041122813, 0.067724414, 0.11555645, -0.10405643, 0.31862321, 0.056432497, -0.013212422, -0.15769695, -0.049631488, 0.08948888, 0.12771219, -0.07967595, -0.012593915, -0.28197297, 0.008130689, 0.19270964, -0.02471406, 0.00059941795, -0.2564055, -0.015343082, -0.06277199, -0.011072867, -0.11622555, -0.04183337, -0.0871121, 0.1176215, -1.0033511, -3.5782144, 0.033681553, 0.123394296, -0.08978142, 0.02052806, 0.023830676, 0.04229171, -0.005793369, -0.23416983, -0.032840647, -0.13419543, -0.097205184, -0.054512955, 0.07836151, 0.059448645, -6.1315074, -0.034140393, -0.30017182, 0.3660736, 0.0115847625, 1.7844162, -0.030700859, 0.08084586, -0.008957827, -9.413554, -1.0242383, -0.1934899, -0.086781494, 0.127659, -0.109024204, 0.699086, 2.4673038, 2.7529728, 0.92451125, -0.05645224, -0.14156903, 0.104971364, -0.020113697, 0.20651653, -0.04703785, -0.04150743, 0.51948726, 0.11931355, -0.13013825, -0.007931202, -0.051737793, -0.012882637, 6.8493967, 0.089175336, -6.8590746, 0.5661461, 0.115618795, 8.22978, -0.07826735, 0.026551155, -0.020477375, 1.5535202, 0.33931172, 0.011358104, -0.1086895, 0.054657005, 0.07336032, 1.1076568, -0.20247014, -0.12745555, 0.26699188, 0.7182262, -0.030987218, 0.5136522, 0.4989597, 0.2821465, -0.15267646, -0.22180863, -0.050918635, -1.0548495, -0.006982975, -0.024596501, -0.2682973, -0.18716267, 0.5243834, -0.087007165, -0.11322268, -2.207743, -0.432374, -0.12617984, -0.06424152, -0.08044258, 1.1533135, -0.20333467, -0.069889754, -0.08209216, -0.06160736, -0.13990666, -0.2003627, -0.1395852, 0.038592845, -0.08168296, 0.015728677, -0.14270808, -0.25728554, -0.26887345, -0.14151847, -0.18835172, 0.63991094, -0.079598226, 0.061190274, -0.019859027, -0.121008314, 0.04172063, -0.12424092, 0.04727668, -0.06017811, 0.26572087, -0.7988581, 0.69905126, -0.59429187, -0.94610626, -0.21361019, 0.02059653, 1.822347, 0.7808731, 0.02210264, 0.26252958, -0.28110877, 0.1678736, -0.11124626, 0.77648884, 0.4251167, 1.6370808, 0.13838089, -1.0775182, 1.1821223, 1.1752683, 0.4705381, -0.27368572, -0.109690525, -0.14627512, -0.10027631, -0.29184908, -0.22797227, 1.2756815, 0.3809938, -0.09462748, -0.64107454, -0.168875, -0.39534637, -2.080192, -0.15920117, -1.657807, -1.3352653, -0.19965342, -1.8054333, -0.19400185, 0.0053293607, -1.1003368, 2.0682802, -0.50348425, -0.28282884, -0.053167243, -0.5518457, -0.13458684, -0.63853943, -0.031640034, -0.087643184, 0.07581522, -0.034987263, -0.03099988, -0.119633675, 0.99568564, 0.07513491, -0.54480946, 0.050589304, 0.03518788, -0.054477926, 0.13110986, -0.009936809, 0.05903238, 0.17603764, 0.094140284, 0.027201489, 0.095501654, -0.1240623, -0.06362573, 0.13265674, 0.0003501527, -0.27327654, -0.002022796, 0.015745424, 0.09438268, -0.05102854, -0.009536569, -0.3333093, -0.023863718, -0.00014150777, 0.07056879, 0.023272317, 0.025095835, -0.09479587, -0.09187238, 0.31532714, 0.57367796, -0.1268415, 0.08127652, 0.13489811, -0.048492696, -0.05812944, 0.054177534, -0.22432183, -0.12286344, 0.06410548, -0.008745285, 0.14910276, -0.23752491, -0.034305934, -0.102580555, 0.34352794, -0.09798399, -0.05880416, 0.23718795, 0.017694065, 0.1815861, -0.05461234, -0.18594082, -0.0472531, 0.021025773, -0.482512, -0.18786415, -0.045736756, 0.1084749, -0.20370127, 0.7771311, -0.48592138, 0.415575, -0.2011612, -0.0790139, -0.19700012, -0.15843944, -0.27313703, -0.18457495, -0.038128547, -0.10174809, 0.3767808, 0.20527115, -0.08705091, -0.042867452, -0.14439459, -0.0003733239, 1.5716183, -0.021259325, 1.443522, 0.03472464, -0.017796144, 0.48105872, -0.18337774, -0.06499472, -0.08016214, -0.3348102, 0.31301755, -0.06862276, -0.24172072, -0.12448771, 0.07988182, 0.7709318, -0.019965565, -0.030720774, 0.032650236, -0.13113204, 0.046347428, -1.1256438, 2.3784547, 0.1463717, -0.1370891, -0.2149234, -0.06840308, -0.8362292, -0.064171486, -0.12238471, -0.27026966, 1.4887135, 0.615987, -0.08130331, -0.04666852, -0.2516035, 1.8632203, -0.10829295, -0.52746975, -0.19181634, 2.4699347, -0.08893807, -0.037159786, -0.22971196, 0.24992673, -0.08823154, -0.05266396, -0.13066356, 0.017758867, -0.01207514, 0.060070775, -0.025519332, -0.73813605, 2.5918286, -0.104395255, -0.18028434, 1.1698958, 0.038615216, -0.009218123, -0.104833536, 0.023548882, -0.08466101, -0.12218487, -0.09834593, 0.0022970466, -0.4034662, -0.23693655, 2.016074, 3.2184763, -1.7283832, -0.13663411, 4.333685, 0.21515036, 0.14960995, -0.002104968, 2.6408155, -0.27838236, -0.047362316, -0.0042093447, -0.051085725, 0.96040946, -0.059445288, 0.47187755, -1.4408231, -0.017882563, 2.6785479, -0.08992289, -0.23726772, -0.08359322, -1.2394298, -0.033170182, -1.7986634, -0.9493185, 0.38697034, 1.8061311, -0.14071472, 1.792915, -0.61524713, -0.88518083, -7.6954226, -0.042876024, -2.1532252, -0.45407662, -0.575947, -3.5534444, -0.029847497, 0.51520133, -0.73922575, 0.16623208, 0.13312358, -0.7937457, 1.6871785, -2.5094209, -0.07601598, -0.7349733, -0.11479348, -0.11544921, 0.047593627, 0.058134884, -0.08217502, 0.008144631, 0.07868226, 0.07446863, -0.21428655, 0.1817266, 0.052729033, 0.014990033, -0.030644545, -0.006915287, -0.06203121, -0.011143449, -0.07980301, 0.14886867, 0.86374503, -0.09781408, -0.08936902, -0.11298342, -0.03673488, -0.13993905, -0.04131186, -0.103591345, 0.0699684, 0.08123022, 0.12961954, 0.39009959, 0.034263216, 0.05839659, 0.030626683, 0.03821135, 0.041823577, -0.15673737, -0.098540366, -0.0353037, 0.6263382, 0.020723935, -0.08995469, -0.031266745, 0.006063803, -0.10747174, 0.07506615, -0.1721357, -0.027049292, 0.13446438, 0.003947154, 0.06575479, -0.16407058, -0.07635225, -0.21323608, 1.2397425, 0.0030991135, -0.030004982, 1.1561508, -0.08525351, -0.14431426, -0.028487897, -0.025518032, -0.03491853, 4.049329, -1.3275143, -0.0771648, -0.09456138, -0.38188946, -0.27606857, -0.452989, 0.037264656, -1.8572294, -0.92114663, -0.06807941, -0.16083428, -0.007247374, -0.11729117, -0.10199181, -0.04789613, -0.2736191, 0.15035886, -0.6021852, -0.040273417, 0.0073387185, -0.070365824, -0.2386613, -0.25798076, -0.17963839, 4.0215797, 0.40978143, -0.053459775, 0.3944068, 0.7139091, -0.12228728, -0.25601006, -1.1703519, -0.3452472, -0.13388795, -0.17029558, -0.15049429, 0.028740667, 0.19382274, -0.2485464, 0.059544377, -0.060216155, 0.48472196, -0.06616498, 0.7138305, 1.3487415, 0.13599873, -0.062671505, -0.111184426, -0.21331613, -1.0539495, 0.061407525, -0.0212069, 0.25775594, -0.3513141, 0.15684998, 0.016301226, 0.0076241842, 0.21066411, 0.7388474, -0.064095564, 0.03548833, -0.02774568, -0.002663083, -0.3225109, -0.076971725, 0.40089524, 0.14799236, -0.086460575, -0.077663235, -0.090704076, -0.22467859, -0.13514736, -0.0962007, -0.0957447, 0.10900907, -0.108979896, -0.13653794, -0.11571793, 0.34432656, 0.0525692, -0.10922564, -0.033029746, -0.01402449, -0.016965989, -0.16255876, -0.1079477, -0.039079856, 0.14188448, 0.27409536, 0.70385283, -0.5693413, -1.0352346, -0.06195924, 0.80004805, 1.058226, 0.33475032, -0.017529279, 0.63301224, -0.22320087, 0.15835994, -0.13904153, 0.03946141, -0.14417149, -0.26632982, -0.3294531, 0.37876067, 0.44857585, -0.1009638, 0.06511486, -0.24861649, -0.04315829, -0.12070794, -0.20981462, 0.038649634, 0.20282617, 0.31420875, 0.041571885, -0.045713466, -0.37498438, -1.0418814, 0.13976768, -0.35968912, -0.03289886, -0.3476267, 0.71550095, 0.08090228, -0.5796616, -0.052280318, -0.29458755, 0.005568519, 0.2922273, -0.6889762, -0.06860879, 0.73816854, -0.1073526, -0.23479202, -0.41969156, -0.0040028673, -0.10093802, 0.1184473, 0.049036365, 0.2310639, -0.07873351, 0.2310864, -0.028433546, -0.23074405, 0.042474493, 0.09540196, -0.022778392, -0.043099813, 0.017773986, 0.029572602, 0.05610383, 0.03350817, 0.05993408, 0.106430665, -0.042243317, 0.038273938, -0.18156604, -0.14162572, -0.0908354, 0.1384776, -0.04203265, 0.092688836, -0.1384506, 0.023035318, -0.047681194, 0.038547345, -0.06554145, 0.020688888, 0.036583845, 0.057080798, 0.008503928, -0.019227436, -0.025645325, -0.021310724, -0.026082953, -0.047255326, 0.17118509, -0.002194712, 0.058943275, -0.039440937, -0.11344915, -0.02249345, -0.00870988, 0.060471646, 0.2667043, -0.09204202, 0.18183212, -0.12438303, -0.05050062, -0.09052782, -0.18249118, -0.036365833, -0.10861414, 0.057495404, 0.019348878, -0.094887674, -0.12660544, -0.615349, 0.41478693, -0.11498795, -0.037510972, -0.12988953, -0.28763437, 0.0876405, 0.04611829, 0.08733338, -0.06529872, -0.053835854, -0.25554734, -0.017608691, -0.1881735, -0.2296928, -0.15446682, -0.16823977, -0.098711915, 0.07640044, 0.078732915, -0.27116087, -0.08352192, -0.23785105, -0.36027828, -0.20843434, 0.2659497, -0.04345483, 0.008425744, 1.504357, -0.10331548, -0.23641735, -0.1962174, -0.124205284, -0.29109472, -0.018275274, -0.2698845, 0.036817428, -0.13175139, 0.40310484, -0.21375239, -0.41277668, -0.103048995, 0.3903359, 0.07713828, 0.63543004, 1.160278, 0.13813068, -0.02345438, -0.181176, -0.06513021, -1.2940615, 0.08072816, -0.08546535, 0.273828, -0.67831683, -0.33937764, -0.08679679, 0.11071828, 0.039462876, 1.036454, -0.13723142, 0.34285194, -0.12646364, 0.42893022, 0.0059961947, -0.16987841, -0.60384965, -0.09509005, -0.008752547, -0.17864533, -0.08546374, -0.08304699, 0.008124709, -0.09212013, 0.073233984, -0.4014126, 0.26668572, -0.10473469, -0.069896705, 0.9612324, -0.024653414, -0.1050192, 0.14607309, -0.23707493, -0.0017534827, -0.13802703, 0.1043804, -0.2343329, -0.47893158, 0.11581194, 0.42929718, -0.9796504, -1.0204389, -0.32081226, 0.722915, 0.86187845, 0.32518125, -0.020871464, 0.46774203, -0.10206934, 0.09762612, -0.20031336, -0.16829713, -0.2365655, -0.33730602, -0.121878445, -0.909299, -0.21707605, -0.3778789, 0.3754426, -0.2551201, -0.046979412, -0.5932755, -0.46290863, -1.1498264, -0.3213814, -0.578612, 0.08196984, -0.31997138, -1.2423146, -0.2949298, -0.086299166, -0.8516991, 0.043255497, -1.3086424, 0.39454922, 1.084813, -1.36968, -0.041247062, 0.30697957, -0.48731175, -0.39304858, -1.2065566, 0.06443188, 0.36630046, -0.2890247, -0.19946566, -1.2840475, 0.0769792, -0.19671026, -0.11796252, -0.030892562, 0.014420846, -0.041461222, 0.86460435, -0.08917472, 0.044936992, 0.21737197, 0.061884616, -0.016137943, -0.19744979, 0.002254773, -0.091519654, -0.31262782, 0.015859723, 0.11730826, 0.035523176, 0.034661695, -0.0162057, -0.13277318, -0.049686458, -0.05017136, -0.10245954, 0.012727711, 0.08840643, -0.001218617, -0.08296899, -0.16725054, -0.038397543, -0.059102368, -0.016422916, -0.029622225, -0.055613328, 0.023328474, -0.26602194, 0.046631027, -0.053740412, 0.026302619, 0.12199967, 0.0076261526, -0.11531631, -0.011236892, 0.08248954, -0.11782359, 0.025502201, 0.16469997, 0.017803622, 0.06692644, -0.46440163, -0.2145955, -0.1375043, -0.15199777, -0.030863577, -0.062097553, -0.12223518, -0.017738307, 0.004642816, 0.062356014, -0.09315157, -0.013038868, -0.4314426, -0.029899018, -0.39802667, -0.15228368, 0.27091956, -0.25791562, 0.43361884, 0.43906805, -0.08230178, 0.007414428, -0.08663372, -0.1548384, -0.25355816, -0.05792645, -0.40169242, -0.20622164, -0.1932218, 0.7600899, 0.05516869, 0.011116119, 0.043242436, -0.1456264, -0.1508133, -0.4363405, -0.0011255547, 0.00769272, 0.18037419, 0.026545445, 1.3023578, -0.13689712, -0.120862715, -0.082164325, -0.13836221, 0.30924022, -0.24759741, -0.051223792, 0.038800403, -0.15322778, -0.25166517, 0.06685021, -0.0250412, 0.18818286, -0.43306208, -0.040467005, -0.63936114, -1.3801632, 0.0006546644, 0.086809374, 0.067961805, 0.090804055, 0.95626384, 0.15069696, 0.1277916, -0.16747952, 0.33287337, -0.19091916, -0.07298554, 0.12986627, 0.023792468, -0.7118833, 0.21632215, 0.06089332, 0.14276163, 0.047910903, 0.09878403, 0.024429582, -0.2721598, -0.14271222, 0.23198049, 0.0661254, 0.094818644, 0.02364073, -0.042296637, 0.003283725, -0.035127755, 0.0019664217, 0.18638071, 0.057254862, 0.05678177, -0.4128905, 0.071383424, 0.12117425, 0.014563881, -0.104131445, -0.0015551251, 0.11000313, -0.04491832, 0.06498564, -0.20946917, -0.16474631, -0.6511231, 0.64591074, 0.95706445, 0.00012175481, -0.78804606, -0.9505136, -0.29523966, -0.12345741, -0.5531241, 0.24607359, -0.079385035, 0.07858147, -0.05907563, 0.18951179, 0.25603217, 0.23174685, -0.65894, -0.44755155, 0.17693175, 0.06002727, 0.06962294, 0.15312673, 0.22947256, 0.110106364, -0.06849666, -0.1230991, -0.07312361, -0.1090789, 0.083122216, 0.33950132, 0.3895197, -0.03469931, 0.40482163, -0.046231724, 0.40288568, -0.40262, -0.105257094, 0.68100643, -0.0907964, 0.32157964, 0.09363166, -0.29392138, 0.5563014, 0.16073765, -0.6751198, -0.028078245, 0.1712709, 0.3939349, 0.045594387, 0.021152673, 0.022792662, 0.109296404, -0.090052076, 0.122572884, -0.380246, 0.06334125, 0.20187877, -0.04334329, 0.0069750412, 0.04559349, 0.19554694, 0.067976624, 0.15848486, 0.08603775, -0.032297608, -0.109538615, -0.019159766, 0.1263303, 0.049862042, 0.109706834, -0.06942048, 0.028263314, 0.07420241, 0.07347325, -0.02941345, 0.17825459, 0.08259253, -0.054582562, -0.11626155, -0.09622384, 0.041161537, 0.0402355, -0.21072966, -0.085813075, 0.039658472, -0.085713476, -0.00507129, 0.059686814, -0.04835344, -0.090370335, -0.013687002, 0.07191696, 0.010444451, 0.090431064, 0.0025827333, -0.22906017, -0.016776573, -0.05793897, 0.08686578, 0.1950416, 0.0132663, 0.08233108, -0.0027219304, 0.14047207, 0.23476984, 0.01981796, -0.14759007, 0.03193588, 0.052733894, -0.14439477, 0.6619659, -0.3199919, 0.1913439, 0.14922233, -0.09702606, -0.0341211, -0.3281475, -0.16388807, 0.034658477, -0.042003423, -0.039992854, 0.19180104, 0.16024874, 0.07172035, 0.1350281, 0.20240115, -0.06616347, 0.05180194, -0.033006217, -0.04027564, 0.13110316, 0.07526782, 0.27537215, 0.35791245, -0.01632956, -0.20084919, 0.11375234, 0.17805208, -1.5699328, 0.23871322, 0.12823936, 0.26208198, -0.1068431, 0.4027527, -0.054006662, 0.28406087, -0.080135666, 0.08346433, -0.17254478, -0.1156375, -0.1280088, 0.47856787, 0.056968357, -0.020919507, 0.10849493, -0.2886533, -0.109657265, 0.03071537, 0.022290565, 0.23329732, -0.38425195, 0.11493016, 0.10076655, 0.64120567, 1.1006286, 0.9962213, 0.014194661, 0.040896926, 2.35964, 2.1339886, 0.05731058, 0.011899786, 0.06781644, 0.40443766, -0.0118547445, -0.004390311, 2.0985525, 0.30637538, -0.13239545, 0.13602889, 0.11510555, 0.08181234, -0.006571658, 0.054225624, 0.06406128, 0.52421355, 0.8449784, -0.02180925, 0.0398557, 0.5360928, -0.008974579, -0.11486289, -0.039322495, -0.9935114, 0.06286741, -0.17089921, -0.09778448, -0.049656894, 0.13001685, -0.32091302, 0.16351506, 0.11173256, -1.2199633, -0.0074193855, 0.3951997, -2.7414882, -0.97497904, -0.10305302, 2.6706114, 0.2622765, -0.10706725, -0.25130823, -0.40331742, 1.6539121, 0.3988473, 0.50361264, 0.87164605, -0.6624976, -1.2400285, -0.15209422, -0.025976246, -0.019725902, -0.10317521, -0.104977176, -0.1749241, -0.1550641, -1.6017401, -1.0023009, -0.63824785, 0.58019054, -0.17951384, 0.46620175, -2.1942673, 0.0092284735, -3.8712237, 0.5832037, -1.1566906, -2.211218, -0.0397501, -0.37077773, 1.3899316, -1.6558162, -0.039698545, 0.48661897, 0.28248546, 1.3555938, 0.060858343, 0.50824565, 0.052048035, 0.008194251, -0.12668015, 0.04485806, -0.13777192, 0.037126094, -1.5895612, 0.0077714473, 0.4571748, 0.040483505, 0.048261385, 0.07233278, -0.060308367, -0.023901578, 0.00019461945, -0.102781236, 0.04856762, -0.020175613, -0.06366589, -0.039163787, -0.13154031, -0.118792936, 0.06975774, -0.008452875, 0.12656198, -0.16509826, -0.030935686, -0.04423735, 0.02833917, -0.04209441, -0.048632443, -0.07654051, -0.052278645, 0.10260425, 0.10271139, 0.0146404635, 0.08782041, -1.1913412, 0.30353257, -0.0993495, -0.109443024, -0.016181301, 0.11417821, 0.09957684, -0.020131547, -0.06674461, -0.024475193, 0.12176156, -0.1029519, -0.05788638, 0.07194622, -0.27230325, -0.03128941, 1.4171442, 0.11770012, 0.0037803596, 0.39948034, -0.05951447, -1.7231946, 0.1169021, 0.00015698298, -0.036532007, 0.2109813, -0.7212291, 0.1316682, 0.7601764, -0.0984042, 0.048591234, -0.28561434, -0.5003757, -1.3454643, 1.4532537, 0.02907339, -0.05913975, 0.11461138, 0.11823825, -0.019932674, -0.001445967, 0.048979737, 0.031785812, -0.5726533, 0.07113936, 0.15179314, -0.16073735, 0.19780624, 3.0754554, 0.101801306, 0.6463756, -0.12993819, -0.049362365, 0.5700602, 0.088760115, 0.048067663, -0.06579772, 0.2547349, -0.9036619, 0.01375241, 0.021395177, 0.04885072, -0.017819181, 0.49970236, 0.03628104, -1.3937718, -0.47378692, -0.30255163, 0.08139337, 0.47859776, -0.9540391, 0.9231352, 0.07760911, 0.12788504, 0.09271859, 0.8963751, 0.0629311, -0.023452645, 0.22463496, -0.74100965, -1.0628968, -0.05020614, 0.049927186, 0.13599278, -2.195438, 0.07286727, -0.5855967, 0.047561787, -1.890855, 0.14675729, 0.27836317, -1.3783424, 0.8624249, 0.18628861, 0.16251197, 0.15339412, -0.05613189, 0.09931143, -0.13531718, 0.16918457, -0.09437787, -1.7208153, 0.0020654527, 0.088709585, -0.09248421, 0.033935126, 0.016981905, 0.12946565, -0.10337167, 0.0021091213, 0.035405006, 0.2226095, -0.039025493, 0.10430207, -0.06979756, 1.0438013, -1.483252, 0.39425397, 0.02069161, -3.6134489, 0.18172903, 5.492349, -0.053793695, -2.5699623, 0.19325072, -0.011853241, 0.06834276, 1.5789135, -0.5886613, 0.583261, -1.0836759, 1.0603116, 0.32615206, 0.1762618, -0.4480771, 0.17703138, 0.12647218, -2.2242837, 0.1383557, 0.9482216, 0.6980489, -0.06438171, 0.81019604, -0.0108424, -1.0462623, -0.54448277, -1.3601081, 3.4510067, -7.32041e-05, 1.4238253, -0.060115002, 0.4836438, 2.404066, 0.10966386, 0.37050197, -0.3988364, 0.03925224, -2.301266, -0.62888366, -2.2067719, -0.23765995, 0.122180864, -0.7826789, 0.10047873, 0.18053465, -0.07374579, 0.12685767, -0.008543959, 0.114267066, -0.01705766, -0.13088799, -0.8792832, -0.22281648, -0.038627643, 0.04547368, -0.44822624, 0.089563556, 0.10374425, -0.006077116, -0.13019314, -0.10104556, 0.9764092, 0.036235142, -0.061568573, -0.44824454, 0.00664896, -0.029651692, 0.045076333, -0.037520528, -0.2618262, -0.00538598, 0.06734007, -0.20212877, 0.032638405, -0.10366502, 0.038179494, -0.04722966, 0.011221755, 0.08050636, 0.089704454, -0.01155614, -0.15380368, 0.15514536, 0.1456339, 0.48209983, -0.10052253, 0.17488545, -0.027250392, 0.1253853, -0.047085386, -0.06137994, -0.05399995, -0.08485875, 0.06038519, -0.0034078062, -0.06353452, 0.0110864965, 0.11512766, 0.07678134, -0.56743515, 0.16557206, 1.7349515, 0.1170763, 0.24841586, 0.057038534, -2.4663937, 0.57457405, 0.038475115, -0.016704261, -0.15140234, 0.060886372, -0.011116872, -0.19023715, 1.0196502, -0.42258674, 0.08096606, 0.28096688, 0.19453856, 0.12030124, -0.002688747, 0.040126592, 0.06476587, 4.2850585, 0.873514, 0.06088165, 0.15790515, 0.06943702, -2.9875755, 0.38323924, 0.12611927, -0.3477712, -0.22443041, 0.072107814, 1.3614279, -0.6011499, 0.19934201, 0.18663295, 0.1156748, 1.4645051, 0.110908575, 0.1502221, -0.10555398, 0.115344, 0.14770472, 0.060770802, 0.09908976, 0.027897155, -0.4876052, -0.022763658, -0.5764605, -1.1252228, -0.10936505, 0.06900636, 0.07527116, -0.1440899, 1.219144, 0.13558117, 0.15105997, -0.19810757, 0.234468, -0.11395707, 0.09422379, -0.013609289, 0.06830295, -0.8772982, 0.054400124, 0.033883188, 0.115941465, 0.14437523, 0.16238686, 0.12105334, -0.19078766, -0.15507248, 0.29755905, 0.042937074, -0.0018099457, -0.080406114, 0.05277984, 0.045928143, -0.16429034, -0.14185719, 0.2313741, 0.014156428, 0.11802724, -0.2753906, -0.13241127, 0.08066027, 0.042353712, -0.044369332, 0.113905825, 0.15159684, 0.011576409, 0.07749933, -0.11268966, -0.052054558, -0.5642191, 0.5011327, 1.0723664, 0.025727754, -0.48290104, -0.94260114, -0.1784801, 0.0068751983, -0.6659762, 0.20289633, -0.06524915, 0.11730213, -1.1666589, 0.16970362, 0.035572983, 0.355995, -0.9502274, -0.4081313, -0.056210384, 0.08207467, 0.041895494, 0.050692577, 0.7243127, 0.0499613, 0.19163099, -0.28827333, -0.36665615, 0.06101134, 0.08085197, 0.33049893, 0.5219033, -0.011978926, 0.33544242, 0.0026603271, 0.47764966, -0.5406839, -0.46512437, 0.67559856, 0.08372465, 0.44212756, 0.066162534, 0.17374776, 0.36063242, 0.12495143, -0.5758031, 0.6972632, 0.08482448, 0.060117017, -0.13671067, 0.13479634, 0.0058714002, 0.05863796, -0.11194401, 0.10522228, -0.25585905, 0.036528166, -0.49031833, -0.19925427, -0.036982805, 0.019456606, 0.19536224, 0.15912262, -0.052730326, 0.16314851, 0.08775908, -0.01982646, -0.14756851, 0.16799526, 0.08752393, 0.22607277, -0.043912195, -0.03638666, 0.004297568, -0.035037555, -0.005595548, 0.13732575, 0.10322189, 0.11725913, -0.114860356, -0.13034987, -0.061612222, -0.09458259, -0.10544128, 0.09901109, 0.21069182, -0.08819733, 0.026863737, -0.0721007, -0.02286627, 0.07574458, -0.07578282, 0.04054381, -0.018304953, 0.18645297, -0.0010347363, -0.06726614, -0.0130004175, 0.020481572, 0.1000702, 0.14355512, 0.064648196, 0.26096758, 0.10967412, 0.044693734, 0.10978009, 0.054659538, -0.29128394, 0.009130605, 0.08953382, -0.010340337, 0.80526257, -0.3068114, 0.061853737, 0.1021584, -0.012148641, 0.06316278, -0.024887353, -0.10793226, 0.0001620212, 0.11779136, 0.12813738, 0.32807267, 0.16403593, 0.09143336, 0.1868938, 0.14647834, 0.09489039, -0.42333066, -0.18573639, 0.12271103, 0.0007876392, -0.13938658, 0.5824119, 0.5560049, 0.019211756, -0.10716474, 0.058863584, 0.10337226, -1.615646, 0.23844174, 0.15026334, 0.17247443, 0.21117358, 0.06289375, 0.039015792, 0.07303242, 0.0034102404, 0.0075490014, -0.19887754, -0.16351631, 0.58102316, 0.44445238, 0.14186503, -0.057185933, 0.76835626, 1.2213739, 0.3382532, -0.7453433, -0.32418182, -0.42843202, -0.53274626, 0.02761435, -0.47361445, 2.521091, -1.4575189, 0.37740704, 0.060478833, -0.0067099393, 1.4589881, 0.10345993, -0.35729226, -0.23180972, -0.099212185, 0.34991178, -0.11324154, -0.37246016, 1.2803787, -0.28805313, 0.074183, -0.8503129, -0.8192269, -0.6706675, -0.42003748, -0.12223559, -0.059523292, 0.48455864, 1.2101203, -0.6819083, -0.49623492, 2.8738444, -0.04093425, -0.52264446, -0.46014175, 1.8306154, -0.34514463, 0.013426788, -0.22235997, -0.35208666, -0.34663257, -2.9622405, 0.6921391, -1.3300012, 4.7536216, -1.4600321, 1.0670106, 0.77308923, 0.5286082, -0.01979403, 0.3699018, 0.38645208, 0.06769262, -0.025948318, -0.2376318, -4.2060976, -1.6136322, -1.7518978, -3.6408134, -0.1408706, -2.065523, 0.7247787, -0.22169116, -0.02128131, -0.36236155, -0.94843316, 0.38920754, 0.07774539, -1.123182, -0.14125437, -1.3271762, 1.0736731, -1.1978706, 2.7228596, 0.42759132, -0.076617025, 0.06878324, -3.4181395, 0.35862246, 1.7452102, -1.011635, 1.8161738, -0.6821953, -0.033650555, 0.24516663, -1.8130761, 2.1796005, 0.32336462, -1.4489942, -0.19096647, -0.5140938, 0.009842956, 0.048633784, 0.06286324, -0.023395864, -0.16178584, 1.152242, -0.25228035, -0.2593031, -0.012357878, -0.008995519, 0.021669684, -0.08401675, 0.029571678, -0.22508839, -1.1761153, 0.017837327, 0.15496722, -0.3244926, 0.027449587, 0.055976197, -0.13790622, 0.103849724, -0.033673905, -0.08569197, 0.013650685, 0.2284353, -0.06851561, 0.08795744, -0.26845193, 0.028569922, -0.027784742, 0.05023352, 0.06729876, -0.07938863, -0.1499944, -0.13700427, 2.1926098, -3.4830172, -0.044768363, -0.05040307, -0.12603812, 0.10509189, -0.07465057, 0.08694646, 0.06816306, -0.25562838, 0.039090633, -0.0604964, 0.122438304, -1.0586089, -0.7932768, -0.5521337, 0.7097222, -0.71567816, -0.31521612, 0.29018277, 0.030992951, -0.82524353, -0.41334635, -0.04831446, 0.017446004, -0.074527994, 0.41153815, -0.6186685, -0.07423366, -0.16839184, -0.726148, 0.5745802, 0.028517045, 0.76351154, 6.080942, -0.084452, 0.03569722, -0.40700787, -0.702312, -0.60504216, 0.08509952, 0.05719516, -1.1919961, 0.098001085, -0.51880884, -0.48151854, -0.09714817, 0.5558692, 1.043749, -0.6004901, -3.0025055, 0.030059695, -0.6528658, 0.1630681, -0.45292976, -0.48368385, -0.2895673, 0.44437274, -0.8941028, -0.6904582, -0.20404541, -0.6940159, -0.56557715, -2.3938825, -0.27674732, 1.0010091, -0.13733138, 1.0793262, -0.03359723, -1.5975235, 4.4896097, 0.7390779, 0.05316341, -0.0076032546, -0.08947572, -1.1215582, -0.007857781, -0.05084506, -1.4817079, -0.0065523526, 0.86775917, -0.05383919, -0.07709538, 0.36360478, 2.012508, -0.10162692, 1.0331204, -0.058103688, 1.808338, -0.062146343, 0.037625726, 3.2641459, 0.27296412, -0.08794582, -0.1033048, 0.07315255, -0.12889104, -0.11794322, 0.029800383, -0.16561458, -1.943643, -0.8513535, -0.073452026, -0.32199073, 0.50031227, 0.024748338, -0.1439532, -0.13805148, 1.3575269, -0.13862951, -0.2923039, 0.012777602, -0.098035716, -0.5987254, 4.0796657, 1.9766197, 4.0294366, -1.4325174, -0.32465425, 6.584101, -1.0703082, -0.9902735, 0.040565386, -2.221969, -0.13880712, 0.13354917, -0.05297319, 0.43308634, -0.26926938, 1.9777492, -0.74622184, 3.8210251, 1.6507355, 0.4295465, -0.46411863, -0.17858772, -0.33645046, -0.13913395, -0.0344351, 1.6112999, 0.22800384, 1.1348945, 0.09978009, -0.12262081, 0.54749286, -0.5719346, 0.89961356, -1.1142174, -0.110687196, 1.2529104, -0.37518677, 1.0435095, -0.019211436, -0.2567022, -2.8744798, 0.89130485, 2.1051433, -2.115128, -0.5031818, 2.0030365, -1.5135487, -0.31387457, -1.931253, -0.14039771, -0.23467244, 0.056365516, -0.04134419, -0.062524535, -0.20333232, -0.8284844, 0.075834535, -2.426972, 0.10753393, 0.011084255, -0.032506187, 0.37960562, -0.005860113, -0.07982157, 0.18482351, -0.008999558, -0.07059588, 5.512615, 0.026004788, 0.11277046, -0.27541804, -0.08038934, -0.17993957, -0.054062586, 0.04314985, 0.068666115, -0.09116214, -0.09756757, 0.13545634, 0.076141894, -0.025633713, 0.1415009, 0.05180495, 0.074651204, -0.035481557, -0.2194406, 3.6159678, -1.1143545, 0.04923728, -0.03269133, 0.11285403, -0.11155883, -0.13280587, 0.015636973, -0.23627023, -0.0821188, 0.10440475, 0.13583846, 0.15615933, -0.31769416, 0.013200044, -0.26989993, -0.47585833, 0.06843834, -0.17593175, 0.97133905, -0.09647239, 0.71273375, -0.17168432, -0.15034784, -0.041508608, 2.4639184, -0.6686257, -0.2774099, 0.0063707656, -0.19678372, -0.48898706, 0.41374224, -0.09798509, -1.1083595, -2.0787785, -0.11020467, -0.1953264, -0.118207276, -0.12489827, -0.028890429, -0.1479189, -0.06776166, -2.4934034, -0.6131938, 0.017264042, -0.65061, -0.07335256, -0.4554612, 7.094376, -0.25539747, 1.7243313, -0.32181177, -0.058133706, 3.9800825, -0.61585957, 0.010369409, -0.054291174, 2.444154, -0.6374268, -0.22877747, 0.02802613, -0.24088866, -0.20689158, 0.54431593, -0.1694327, -0.41609135, -0.58317727, -0.37405667, -0.031140378, 0.9382579, 1.3130338, 0.3648498, -0.030314969, -0.0007010155, -0.067926005, -0.6990211, -0.06547405, -0.018275095, 0.7614118, 0.030391555, -0.4153266, 0.010058682, -0.12012631, 0.23057224, 1.9991208, -0.055393778, -1.0945789, -0.025942033, 0.9827273, -0.12302848, -0.043879952, -1.3221174, -1.0887384, -0.21569183, -0.04957623, -0.04165285, -0.040665805, -0.0841767, -0.10011607, 0.10151896, -0.018236512, 0.6555279, -0.073055334, -0.17388938, 0.43682605, -0.14651191, -0.057305556, -0.11304397, 0.2792406, -0.10544332, -0.098309964, -0.10944222, -0.075334, -0.5678902, -0.26921254, 1.0354673, -0.47984156, -0.6590894, -0.12090317, -0.5913446, -0.9191228, 2.1797702, -0.0899287, -0.53133684, -0.10678364, 0.07774326, -0.15613864, 1.8110017, 0.5925674, 0.57518464, 1.6522862, 0.03226061, 0.17807092, 0.44609857, 0.3510692, -0.034384444, -0.08510523, 0.42812678, -0.15002054, -1.088913, 0.53900814, -1.153206, 0.41229248, -0.030665167, -0.12042, 1.3434093, 0.120938316, -1.1357393, -0.035379454, -0.56639844, 0.1769761, 1.2252827, 0.26647407, -0.18785465, 0.45959145, 0.9304352, 0.3506429, -1.9667338, 0.093807004, 0.8674043, 0.8600866, -0.10154967, 0.19417913, -0.039895788, -0.06633444, 0.10259031, -0.00973307, 0.027224863, 0.005042326, 0.73115855, 0.02981105, -0.52544004, 0.021570435, 0.23939347, -0.07934438, -0.15855008, 0.012652964, -0.112017885, 0.07979191, -0.07818661, 0.015509011, -0.26047575, -0.085766666, -0.1086523, -0.29753447, 0.010174495, -0.04584077, 0.0015210126, -0.06029123, 0.057872087, 0.08266472, 0.012053063, 0.19955182, 0.030018011, -0.030907487, -0.019692963, 0.050483476, 0.03254103, -0.19796975, 0.0047925264, 0.024750253, -1.243266, -0.09148641, -0.15317746, -0.107563615, 0.091205426, 0.00826372, 0.033847295, -0.03713907, 0.03790752, -0.07623149, -0.11124238, 0.10873554, -0.16272807, -0.12647705, -0.058922596, 0.66604966, -0.20330064, -0.29569158, 0.2673541, -0.059847288, 0.06718221, -0.1032967, -0.1011128, -0.011508651, 0.87261945, -0.42512414, -0.10571894, -0.13719356, -0.8215057, -0.16622312, 0.029350176, -0.14186177, -0.1852299, -1.4740102, -0.17044097, -0.13721089, -0.17297615, -0.04532388, -0.06508082, 0.048541144, -0.114368066, -0.5208356, -0.32812554, -0.01611672, -0.054970168, -0.0681701, 0.1014087, 0.01843468, -0.21912281, -0.43236294, 0.3517172, -0.08307652, 1.468469, -2.0740578, -0.104212634, -0.18751481, -0.031548187, -0.114334755, -0.11746186, -0.11648595, -0.113970816, 0.046357796, -1.8430326, -0.1606525, 0.20287374, -0.031447105, 0.25503808, -0.002661083, 0.20111488, 1.0130432, -0.24330808, -0.050062776, -0.18699628, 0.021580866, -0.86996007, -0.31478328, -0.078215286, -0.67447746, 0.7188106, -0.15608042, -0.011971554, -0.061013877, -1.0774956, 2.5403974, -0.102558374, -0.6995806, -0.038465332, 3.9596524, -0.1843191, -0.13407041, 1.4329396, 0.40477395, -0.10658723, -0.07235133, 0.001118333, -0.07729721, 0.07018079, -0.15060873, 0.039371047, 0.19544274, -0.44007507, -0.0127026485, -0.104356855, -0.30325624, -0.03631468, 0.032847263, -0.15609418, -0.08805516, -0.14506815, -0.2622971, 0.011173445, -0.04562923, -0.027155615, -0.6521564, 0.4815712, 0.75797904, -0.76090515, -0.076176845, 2.2712743, -0.7037296, -0.3900798, -0.037781026, 0.3093207, -0.18215148, 0.008230894, -0.05138347, 4.2042503, 0.6098483, 0.76482147, -0.74703294, 0.6782261, 0.2548943, -0.20372072, 0.97468823, -0.14878263, -0.15379378, 0.03327909, -0.16776802, -0.788074, 0.14639504, -1.6031747, -0.25725308, -0.17462291, -0.26030552, 4.267397, 0.28072616, -0.97963434, 0.037444282, -1.9954629, -0.28904867, 1.1557287, -1.4437112, -0.08140099, -1.0282117, 0.6312145, 2.0702817, -1.2027959, -0.111826085, 1.0300647, 0.26560768, -0.20795648, 1.2076994, -0.0095746545, -0.14451103, 0.080561474, -0.000109206885, 0.06018201, 0.14274766, 0.6832912, 0.064052194, 1.8290998, 0.06983127, 0.13181429, -0.09842974, -0.08636006, 0.019471075, 0.15301788, 0.34471565, 0.18296029, -0.047715295, -2.6184256, -0.09253344, 0.09552122, -0.38699442, -0.022125028, -0.03656486, 0.026070286, -0.047720063, 0.11032178, 0.09880144, -0.12740824, 0.09209954, 0.013469606, 0.10551721, -0.039669354, 0.05665929, 0.040292982, -0.10241529, -0.09189313, 0.41587383, 0.24923772, 0.025358614, 0.0053134724, -0.12752098, 0.018239366, -0.13980366, -0.08413239, -0.21306942, 0.08876107, 0.010594058, -0.037153993, 0.11691094, 0.023582947, -0.10868849, -0.0946745, -0.64420736, -0.070547916, -0.06868032, 0.5762001, -0.01239145, -0.061303847, -0.06681921, -0.08208762, -0.003404927, 2.402822, -0.3199661, -0.080464765, -0.08495579, -0.19295868, -0.057802048, -0.42671186, -1.13373, -0.24972475, -0.12666586, -0.019376095, -0.34427145, -0.053191867, -0.031084273, -0.15501441, -0.009545583, -0.08542668, 0.13892156, 0.14418887, -0.11157468, 0.081538744, -0.10051381, 0.23066774, 0.06241961, -0.074356556, -0.20972885, 0.5031932, -0.11921846, 2.5889893, 0.7493678, -0.15697552, -0.08985987, -0.33531636, 0.059614986, -0.14767286, -0.086950704, -0.05824853, -0.010241513, 0.5168083, 0.43024322, -0.4594582, 0.4141217, 0.53374434, 0.3866772, 4.1129885, -0.6340957, 0.13293226, -0.026319135, 0.18530707, 0.51977605, 1.0790298, 0.15708604, 0.12476574, 0.4449413, -0.78040344, -0.41910902, -0.015541859, -0.086806506, -0.5569192, -2.4431734, 0.17234027, -0.53125244, -0.027192514, -4.163042, 0.14453712, 0.12987563, -0.58568376, -0.41858688, 0.17852116, 0.1095611, 0.1946547, 0.7055966, 0.19750088, 0.12073188, 0.250945, 0.4022416, 0.0387826, 0.105844066, 0.18347275, -0.21078046, 0.09189763, -0.015254132, 0.07818985, 0.13783753, 0.036904786, 0.03433455, 0.13877314, 0.21850598, 0.26494804, -0.67442334, 0.28318295, -7.0291166, 1.5080937, 0.29493922, -3.2244458, 1.5566592, -1.2450087, 0.07631036, 0.10302714, 0.20985907, 0.046180025, 0.589124, 0.69724524, -0.8347667, -0.35108042, 0.17545365, 0.6849031, 1.1106247, 0.031787064, -0.1326106, 0.846729, 0.229139, -1.6641816, 0.24074222, 1.6841495, 0.51550215, -0.43749997, -0.5999216, 0.203892, -0.47803423, -1.1701239, 1.6439162, 3.3929112, 0.33679283, 0.6205354, 0.59128815, -0.23415275, 0.56982106, 0.432809, 1.9648663, -2.212036, 2.0999384, 0.88231635, -0.0773592, -0.52663094, 2.4951699, 0.43954843, -2.8414028, -0.059262216, 0.1463277, -0.3793162, -0.07661565, -0.00076955237, 0.19437878, -0.16887327, -0.0025774096, -3.4716148, -0.09214485, 0.06597907, -0.001657535, 0.06814692, 0.08207499, 0.14561, -0.54391164, -0.00887997, -0.1084352, -8.254823, 0.007906305, 0.073218904, -0.013898905, -0.00036290934, 0.2226869, -0.055566445, -0.23225701, -0.06413053, 0.01473406, -0.03736138, 0.021811184, -0.1407532, -0.2788142, -0.0058342842, -0.090585366, 0.0015256107, 0.09816901, 0.1444616, -0.73789024, -0.17715855, 0.03023746, -0.1555753, -0.17480208, 0.17327797, 0.12863322, -0.03378415, 0.22772181, 0.12779307, -0.035203837, -0.040415015, -0.1181266, 0.039540082, -0.10014893, 0.401097, -0.2901969, 0.17372523, 0.30516443, -0.9474674, 0.25728232, -0.4169325, 0.65677565, 0.10055086, 0.042266604, -3.5595477, 0.62425417, 0.015197428, -0.07346396, 0.36367652, 0.4584693, 0.61172605, 0.6635675, 1.0334879, 1.4648613, 0.24593933, 0.28001508, 0.16499068, 0.15219039, -0.04122569, 0.04855672, 0.27630684, 0.20722832, 0.2752405, 0.44487023, 0.5309558, 0.38577852, 0.8468743, -1.2043138, 0.3254681, -0.49640322, -0.2759145, 0.0010348128, -0.79001224, -1.1727412, 0.0783152, 0.118550055, 0.36884958, 9.230319, 0.5046886, 0.18702175, 0.38991636, 0.09104124, 0.6376481, 0.023777101, -0.090306066, -6.4775634, 3.3715742, -0.056134038, 0.30964732, 11.002882, 0.107206635, 0.08617735, 0.031299334, 0.049657714, 0.11041087, 0.08024032, -0.033862755, -6.2418723, 11.420007, 11.761585, -0.09881484, -0.0045557697, -2.5317612, -6.48436, 0.12384746, 1.6461422, 0.027657116, -1.3363127, 0.0285101, 0.057134405, 1.8761951, 1.9843394, 0.19022828, -0.013166709, 0.00221824, 0.04037758, 0.07038445, -0.0043848143, -0.091904506, -0.78605515, -5.433536, 0.060780622, 0.14507413, 0.5951777, -0.121724635, -0.06558311, 0.039328847, -4.230331, 0.06256417, 0.051361375, -0.0364822, 0.10593128, -0.26573628, 5.2373333, -2.3950515, -1.8250735, 0.8623054, 0.026062245, -13.278618, 10.759861, -1.8828722, 0.0052851355, 0.71330214, 0.121451914, -0.053631693, 0.023195585, 3.4437664, -0.0816463, -1.7904449, -1.02838, 2.8394847, 4.0304813, -1.4960451, -2.141112, 0.08506605, -0.0049703442, 0.09394449, 0.09140975, -3.9382217, -0.56041586, -1.3960226, -2.262242, 0.04379577, 2.330213, 3.977794, -4.8950467, 4.6549926, -0.009238429, -2.4231753, 1.5131086, -4.4009156, 4.9772315, 0.012677304, -1.6615548, -1.8208401, 2.3746881, -2.49576, 1.0135206, 6.7975965, 1.3798516, -0.0755348, 3.8125727, 0.06272687, -0.11657793, 0.13725227, -0.055074085, -0.055092264, 0.070879035, -2.0297298, -0.10286236, -4.6595173, 0.054405406, 0.0037204768, -0.05778165, -0.43631822, -0.011763947, 0.06288019, -0.69539475, -0.016877862, -0.06334187, -5.870788, 0.030529166, -0.042752422, 0.5897274, -0.22629716, 0.042167693, 0.11157013, -0.11896268, 0.079448484, -0.049730323, -0.065515876, -0.8021654, 0.072148904, -0.061244033, -0.068397194, -0.039296936, -0.0037566805, 0.10094482, 0.08609169, -4.388352, 17.916363, -0.06815577, 0.033021573, 0.37755, 0.089518614, -0.06558533, -0.03291342, 0.06739147, -0.021049371, -0.011492842, -0.10343208, -0.08932034, -0.15276377, -0.14360167, 0.052463256, -2.1997232, 0.09581405, 0.074588224, 2.6367428, -0.0006789468, 2.5577238, 0.0144531485, 0.0014299572, -0.0989185, -7.3526583, 6.778292, -0.019684482, 0.09053595, 0.97152525, -0.0007021946, -1.7479727, -0.9308053, 4.3242774, -2.8632958, 0.079441704, -0.09995851, -0.061711136, 0.09939149, -0.026082965, 0.08850158, 0.09676342, -0.9986129, -1.6845428, -0.14477147, 0.042856596, 0.1324889, 4.5299125, -1.586611, 0.022311132, -3.712593, -0.1545697, 0.01867023, 4.5173454, 0.065089665, -0.071669444, -0.010991844, -0.58182585, 1.1576179, -0.14499177, -0.006427881, -0.024056531, -0.03607223, -0.44338647, -0.08237032, 0.13051017, 0.14265865, 0.48532918, -0.23803955, 0.7133134, 0.6944738, 0.13870986, -0.15929763, -0.2876834, -0.060160138, -0.16988574, -0.087521404, -0.24229327, -2.9635553, 1.2348771, 0.77031165, 0.054542247, -0.10305213, 1.7023082, 1.4167736, -0.17779599, -0.7806578, -0.006764214, 1.9461286, -0.24745885, -0.04983239, 1.7486551, 0.32986477, -0.06992356, -0.20183064, -0.2456353, -0.18789953, -0.12683634, -0.0470511, -0.12304595, -0.16420116, 1.2967715, -0.15205204, -0.2093054, 1.0381292, -0.03519267, -0.14152344, -0.14663894, -1.4100378, -0.031125573, -0.14462964, -0.10531243, -0.25975335, 0.12203538, -1.1579384, 0.70383036, -0.80760545, -1.8653744, -0.44083557, -0.39257443, 0.46606958, 0.7511225, -0.0118193915, -0.2500595, -0.23357199, -0.01340089, -0.14280643, -1.5203092, 0.42527246, 0.5045705, 0.40125737, -1.7936693, -0.51691025, 0.6585768, 0.40951347, -0.16697843, -0.36639485, -0.6724685, -0.18250476, 0.47134492, -0.8768814, 1.1203537, -0.67114973, -0.06004063, -0.89845484, 0.4031773, -0.0985011, -1.2128314, -0.20384742, -0.39005595, -0.40337136, 2.7331972, -2.404435, -0.247941, -0.64459586, 0.18750831, -0.15690652, -1.1438786, 0.13199824, 1.0684713, 0.012549103, -0.18762119, 0.1128653, -0.14490213, -0.30313572, 0.19960956, 0.14594401, 0.16846202, -0.23698553, 3.8859644, 0.01690131, -0.03413587, 0.070896, 0.100691445, -0.13735089, -0.039510585, -0.023280928, 0.007781904, -0.066988856, 0.22764039, 0.055935472, -0.10452997, -0.0426939, 0.03246086, -0.077344455, -0.04146764, -0.043634042, -0.008338772, 0.08505743, 0.028515533, 0.020877806, -0.12226046, 0.070978805, 0.039409712, 0.26196063, 0.076038525, 0.05599487, 0.011926517, 0.0911274, -0.07815106, 0.44323096, 1.2606862, -0.031496916, -0.052425493, 0.029097678, -0.016698282, 0.003798787, 0.040671717, -0.30701435, -0.14239344, 0.07456019, -0.017690675, 0.22282372, -0.083300106, 0.12048738, -0.178925, 0.13955835, -0.1439083, -0.20125708, -0.45062715, -0.28391087, 0.37512532, -0.2765315, -0.16823973, 0.005155862, 1.2575067, 0.097468264, -0.047663484, 0.17520478, -0.07414851, -0.23142043, 0.24749671, -0.6553699, 0.23806119, 4.297606, -0.16693407, -0.32809198, -0.17802927, -0.18546233, -0.028269611, -0.0005721062, -0.093700506, -1.6291845, 0.24431552, -0.20117605, -0.25734884, -0.13583086, -0.33486342, 2.1984823, -0.23699918, 1.9752598, 0.27464893, -0.21490243, -1.5517349, -0.010667995, -0.025207909, -0.1411069, -0.85816723, -0.65938944, -0.33872613, -0.06367809, -0.19928792, -0.14515725, 0.15252861, -0.17215623, 0.25945553, -0.18935573, 0.67627555, -0.17757438, 0.6092094, 1.3548429, 0.016895073, -0.060568158, -0.13898927, -0.04414675, -1.1404835, -0.07373668, -0.07010363, 0.29319763, -0.5069686, 0.119356796, 0.02045091, 0.024858743, 0.044726394, 0.7229296, -0.1230855, 0.061576903, -0.04602683, -0.18060835, -0.16678515, -0.12572004, 0.26516753, 0.16323586, -0.11577723, -0.041867133, -0.099796265, -0.051645726, -0.15553848, -0.11580183, -0.13945343, -0.10046783, -0.16737822, -0.07770538, -0.118762694, 0.42698103, 0.038242187, 0.070009075, -0.30518106, -0.022020353, -0.112221144, -0.05057012, -0.1356104, -0.04420442, 0.18960807, 0.2624784, 0.7118749, -0.6286266, -0.9385255, -0.31532824, 0.9334602, 0.8543409, 0.3850632, -0.09515712, 0.50535506, -0.07141812, 0.042955987, -0.22960545, 0.059039913, -0.08821417, -0.18427336, -0.36357838, 0.64559954, 0.49384576, 0.04110963, 0.017408187, -0.26614377, -0.12795115, -0.34814388, 0.0072257826, 0.043460995, 0.21052158, 0.22149894, -0.04335458, -0.1585366, -0.4505856, -0.9453453, 0.20803824, -0.3787316, -0.13966109, -0.51762056, 0.5031926, 0.09862259, -0.6267561, -0.03299086, -0.25384328, 0.052862447, 0.2687094, -0.7240247, 0.0975779, 0.6541068, 0.06110608, -0.29750884, -0.44949883, -0.028417481, -0.22153772, 0.03149089, 0.10894887, 0.16772534, -0.14387813, 0.40177473, 0.13727285, -0.1020612, 0.08585892, -0.018199941, -0.0957575, -0.111052446, 0.0027408355, 0.03292172, 0.10491761, 0.09748898, 0.18007651, 0.09078936, 0.04947921, -0.048685387, -0.18296812, -0.00289342, -0.122681856, -0.009476658, 0.042008463, 0.0053667203, -0.08637584, 0.10592447, -0.067061745, -0.0063668666, 0.21291237, 0.060285743, -0.04612288, 0.06332168, -0.11234406, -0.19426772, 0.15484035, 0.07613196, -0.061413556, 0.029150704, 0.061220214, -0.013755489, 0.042484798, 0.044471204, -0.13279639, -0.09385494, 0.1045874, 0.087161735, 0.027168725, -0.12712833, 0.058538184, -0.098474056, -0.19035862, -0.16377231, -0.0670157, -0.054638166, -0.19062935, 0.0276676, -0.09387143, -0.06862941, 0.070149764, -0.625794, 0.33731598, -0.09904591, -0.14134298, 0.04179276, 0.0035749718, 0.1454573, 0.11829517, 0.24011691, -0.12833807, -0.15922914, -0.3053261, -0.013663988, -0.21126916, -0.06387653, -0.080015324, -0.08174822, -0.01873285, 0.09661814, -0.044315577, -0.25770038, -0.11731352, -0.024186755, -0.4276575, -0.17910883, 0.19157593, -0.0107482085, -0.08467368, 1.4221607, -0.29477656, -0.08680017, -0.1778337, -0.07964716, -0.24772501, -0.0195513, -0.25310472, -0.13791806, -0.18187493, -0.11268005, 0.05379898, -0.5298765, -0.01811707, 0.22278385, -0.009585242, -0.96262115, -0.7105391, -0.30130228, 0.45325032, 0.08288613, 0.22747982, 0.8371001, 0.7339774, -0.11556789, -1.4887617, 0.49659768, -0.8846684, 0.0598254, 0.9223501, -1.6769263, -1.9433268, 0.22919731, -2.1599565, 0.18773115, 1.8878293, 0.005130968, 0.54506546, -3.5903523, 1.2162734, 0.7780155, -0.023566948, 0.13554698, 0.09786899, 0.34789783, 0.2252789, -0.016572619, -1.7267222, 0.9114669, 0.9304817, 0.12240007, -0.27524683, 0.510034, -0.007812973, -0.101538435, -1.3295094, 0.96092963, 0.38668916, 1.1607823, 0.4373578, 0.19536886, 1.0858631, -0.9398985, 0.01612052, 0.87581676, 0.5973231, 0.5312778, -0.34730193, -1.8685375, -0.033557534, -4.1060114, 0.8524838, -0.09547712, 2.0476027, -0.38160262, 1.007082, 1.1973256, -1.6210744, 2.4273562, 0.101651505, -0.81405073, 0.43879426, 0.89997536, 0.23470682, -2.0849042, 1.3646848, -7.2269955, -2.085343, -0.83499247, 0.35091385, 2.495439, 0.09203957, 0.3621346, -1.0822821, 0.76040196, 0.92624074, 1.6658349, -0.7481138, 2.5065713, 0.5567667, 1.3279132, -1.629557, -0.59365505, 0.1331585, -2.0530465, 0.44015932, -1.6148485, -2.2928905, 2.068338, -0.9755234, 0.26812503, -0.10135999, -0.1428972, 0.020167015, 0.08133904, 0.020327086, 0.2805267, -0.19745909, -0.12329588, 0.08842525, -0.023374112, 0.24328433, 0.19229193, 0.051208504, 0.3192561, 0.04442652, -0.30648676, -0.014912757, 0.1621957, 0.13577734, -0.03510171, -0.03806684, -0.07429846, 0.13877274, 0.5896997, 0.0041409773, -0.053162757, -0.1670286, -0.024615755, 0.55899507, -0.02869526, -0.2637917, 0.056410905, -0.3030945, -0.08075873, -0.081380665, -0.06279447, 0.84996724, 0.6928151, -0.039854627, 0.07986928, 0.81043285, 0.021181904, -0.015073829, -0.00035344547, 0.026946276, 0.011423435, 0.007996469, -0.053314913, 0.16038473, 0.18602726, 2.6737647, 0.4773667, -0.2618592, 1.2862098, -0.04560174, 0.61201316, 0.7943207, 0.67889893, 1.2915003, 1.3956777, 0.070063114, -0.108799994, -0.07627738, -0.021095818, -0.030216739, 1.2931441, 0.8175373, -0.123031564, 0.10250283, -0.16506651, 0.1736015, 1.4372562, 0.13071357, 0.98624283, 1.1125441, 0.33767435, 0.35093853, 1.0044395, 0.9431819, -0.9451674, 1.4050008, 0.2167874, 1.2775853, -0.44954106, 0.25736648, 0.500802, 1.1016173, 0.8449906, 0.7557448, 4.0069366, 2.3288257, 0.1885766, 0.70870066, 0.8319196, 0.97888273, 1.1301157, 0.58334947, 1.1491406, 1.7495849, -0.23594067, 0.17591916, 0.4469523, 0.1535895, -0.33936384, 0.03443437, -0.82211685, -1.4447912, -0.506512, 0.056527138, 0.11474761, 0.09924182, 1.0883619, 0.0043518962, 0.011290571, -0.8559175, 0.39932635, 0.42857572, 0.037453838, -0.009784054, 0.23745938, -0.9840949, 0.2093033, 0.059089325, 0.008850019, 0.71176374, 0.06695444, 0.16255999, -0.600023, 0.265192, -0.010668904, 0.27001294, 0.1424997, 0.09158984, 0.032596998, 0.016995182, 0.010335654, -0.17047018, 0.12355636, 0.08376925, 0.0943195, -0.72628623, -0.1042842, 0.026545612, 0.20948084, -0.23086315, -0.01478826, 0.009571261, 0.01882513, -0.13082588, 0.2372133, 0.10178313, -0.18307734, 0.86260843, 1.2962308, 0.08910461, -0.7783025, -0.68443793, -0.4660642, 0.05914352, -0.77249295, 0.084245354, -0.08433513, 0.17396171, 0.22476414, 0.3251443, 0.33817944, 0.25484926, 0.32404405, 0.19939728, -0.1197264, -0.30228072, 0.15700075, 0.13673414, -0.0773855, 0.26179293, 0.8088463, 0.2511998, 0.27829498, -0.2377224, 0.3579227, 1.431772, 0.4555786, -0.044581324, 0.5686092, -0.039444342, 0.7833717, -0.9313257, 0.70257497, 0.72714156, 0.20904714, -0.2963926, -0.0075253034, -0.294073, 1.2156192, -0.10755553, -0.70256305, 0.6782708, 0.14097142, 0.8644614, 0.052594226, 0.06467556, -0.15687217, -0.096450806, -0.04746404, 0.010236249, -0.60610074, 0.03193416, -0.2617992, -0.2869981, -0.15659714, -0.046579104, 0.26233763, 0.019197458, 0.014401133, -0.17329931, -0.2677358, 0.06302846, -0.24651392, -0.016410092, 0.018988097, 0.22168031, -0.048016198, 0.1626414, 0.18221498, -0.007345443, -0.0044741607, 0.07901089, -0.053196806, 0.1459693, -0.10399014, 0.008229265, -0.19676049, -0.22969322, -0.06943916, 0.059328824, 0.067097686, -0.006343646, 0.48268726, 0.091612116, -0.002673978, -0.11772817, 0.23693693, -0.032030076, -0.18396801, 0.15722342, 0.07434527, 0.10231528, -0.05907231, 0.08181222, 0.047574185, 0.08310854, 0.120634414, -0.23170924, 0.028682975, 0.22767726, 0.03747791, -0.00047255124, 0.29727346, 0.06587862, -0.019065928, 0.09463052, 0.5077736, 0.018227976, 0.03833964, 0.08644926, 0.013158912, 0.01384837, 0.013005721, -0.1764419, 0.2284083, 0.123716384, 0.013919167, 0.26536748, 0.10822387, 0.049479697, 0.019786136, 0.08140152, 0.14950934, 0.34459084, 0.37749115, 0.09800018, 0.16735964, 0.14799345, 0.73021823, 0.5800066, -0.03990969, 0.39443728, -0.2911685, 0.16272692, -0.2585183, 0.28608567, -0.057945028, 0.12870559, 0.18488577, 0.39368314, 0.20530614, 0.09449646, 0.33915737, -0.032118224, 0.42487583, -0.07023761, -0.20858283, -0.08800898, 0.12737106, 0.026754584, 0.5619837, 1.1709781, 0.20770645, 0.03820472, -0.11619655, -0.15123586, -1.1058134, -0.07297671, -0.117383935, 0.086869776, 0.7538621, -0.001397666, 0.041070502, -0.007464327, 0.1999595, 0.74094737, -0.043455776, -0.30284148, -0.1357322, 4.762157, -0.120966196, -0.020822348, 2.2250814, 0.23587753, -0.12082056, -0.029678507, -0.019437142, -0.03227373, -0.035947625, 0.094638295, -0.07291867, -0.26112875, -0.32311425, -0.05614475, -0.070440106, 0.46197414, -0.022507938, 0.113448836, 0.018357068, 0.049573556, 0.06296588, -0.06740031, -0.016682528, 0.15145834, 0.1985872, 0.31560367, 0.6237153, -0.47474325, -0.8979702, -0.1449278, 0.067890055, 0.898738, 0.11054665, -0.040315464, 0.29797316, -0.014165307, 0.12106478, -0.10221555, -0.1523187, -0.07084553, -0.5736759, -0.38360137, 0.667356, 0.3538352, 0.30262062, -0.11108828, 0.016649697, -0.12014605, -0.37125146, -0.094009876, 2.4062405, 0.2662776, 0.28435856, 0.06549184, -0.20506725, -0.26583552, -0.099680096, -0.14317973, -0.36141074, -0.0768802, -0.47934613, 0.36442038, -0.71523947, -0.53304505, -0.08338453, -0.032725897, -0.08608352, 1.775157, -0.38275257, -0.2929996, 0.70455927, 1.8166201, -0.021007314, -0.6387429, -0.14274998, -0.14593375, 0.1989105, 0.1083609, 0.11395968, -0.06337432, 0.44153327, 0.17000757, -0.70724314, 0.14107105, 0.12896642, -0.13365434, -0.04387877, -0.07230704, -0.021755727, 0.020711266, 0.028849307, 0.16601957, -0.20965692, -0.12886925, -0.008169399, -0.16469663, -0.11370293, -0.07570114, -0.118219934, 0.11949467, 0.0792128, -0.19850047, -0.053685803, -0.028499696, 0.032083586, 0.05992771, -0.03057111, 0.08798877, -0.07397534, -0.10955073, -0.047135267, 0.24961495, -0.040207222, -0.05342354, 0.09015616, 0.018412, 0.015251027, 0.02298203, 0.11145514, -0.052434936, -0.022069622, -0.01900753, -0.070584595, 0.1633234, 0.028343063, -0.0764298, -0.03302876, -0.078595825, -0.16447246, -0.13032073, -0.10183231, -0.18196717, 0.43289062, -0.075173624, -0.07190096, -0.050303154, -0.85076565, 0.30355012, -0.04813404, -0.0534866, -0.114222616, 0.09551126, 0.11894007, 0.16021878, 0.067869015, -0.14792445, -0.11605537, -0.118582614, -0.09214652, -0.0993601, -0.06873533, -0.24443997, -0.050410476, -0.09698802, 0.05753794, -0.09490636, 0.009075071, -0.28731975, -0.003253616, -0.7890995, -0.016463734, -0.042464793, -0.11081841, -0.18289706, 1.6065515, -0.2613633, -0.12867703, -0.0074607343, -0.27491108, 0.3806274, -0.09143854, -0.1009594, -0.08018525, -0.1407124, 0.114444755, -0.38392386, 0.04860462, 0.36546275, 0.34591937, -0.3741652, 0.55972373, 1.2110002, 0.11617747, -0.041369684, -0.23490688, -0.2233911, -1.0260779, -0.2561404, -0.076441236, 0.34719774, -0.5704355, -0.2831956, -0.045260966, -0.0070762997, 0.41723153, 0.8020615, 0.11344459, 0.15932111, -0.09843065, 0.20629722, -0.122906454, -0.016232293, -0.3834488, 0.19909106, -0.14103709, -0.11645102, -0.10401698, -0.6990185, -0.086463444, -0.21075413, -0.18552555, 0.056748994, -0.068129204, -0.25571904, -0.08570371, 0.26971725, -0.2699977, -0.084605336, -0.17038086, 0.0060764495, -0.09169241, -0.23303623, -0.41858703, -0.096607536, 0.13588467, 0.0673677, 0.1508289, -0.40336943, -0.9026766, -0.3528282, 0.84927267, 1.0395833, 0.37313944, -0.13113259, 0.5091352, -0.15268542, 0.1686548, -1.0320665, -0.48691586, -0.22656836, -0.25358257, -0.3511508, 0.029302351, 0.45035544, -0.11115591, -0.007992914, -1.0925416, -0.30713144, -0.5210432, -0.16568102, 0.46141925, -0.0223786, 0.20632003, 0.12312651, -0.20059301, -0.31901222, -1.4445549, -1.057413, -0.4314681, -1.2137496, -1.4179018, 0.7383163, 0.31624138, -0.649476, -0.59311914, -0.20963, -0.69447, 0.34917897, -0.9518485, 0.024708873, 0.81666493, -0.26529884, -0.6265568, -0.75513893, -0.042622875, -0.13857809, 0.10768858, 0.040133968, 0.10429455, -0.030563552, 0.3028899, 0.07599814, 2.0120964, 0.12867399, -0.08121778, -0.05572872, 0.13508047, -0.06259533, -0.19258705, -0.01474214, 0.055320043, 0.046937723, 0.12743162, 0.048867427, -0.15287478, -0.13166097, 0.073497966, -0.26534984, 0.0124194985, 0.11775098, -0.047702886, -0.034181274, 0.034994733, 0.06983303, 0.058121916, 0.06962394, 0.13154642, -0.054752577, -0.051375464, -0.1472622, -0.2707094, 0.027837971, -0.02167396, -0.123903394, -0.022105267, 0.24022551, -0.17063347, -0.066236824, 0.050830826, -0.22732523, 0.08587471, 0.12852585, -0.02353975, 0.104574315, -0.23568487, 0.06962874, -0.38297573, -0.33054686, -0.26342493, -0.25020283, 0.11828924, -0.24192025, 0.18170787, -0.8222863, -0.2764306, 0.041386344, -0.7430585, 0.41785952, 0.023278514, -0.025502112, 0.059911683, -0.32439777, 0.23923947, -0.018651424, 0.24197476, -0.3474379, -0.35737666, -0.32757097, -0.2466646, -0.20686606, -0.11944336, -0.08227274, -0.36090565, 0.09780172, 0.15963203, -0.56075126, -0.5308739, -0.36823255, -0.07610058, -0.6181983, -0.3475078, 0.27056447, 0.20300326, -0.23625256, 1.4922508, -0.12697543, -0.2300705, -0.21014513, -0.45108473, -0.14845948, -0.578243, -0.14128274, -0.41832468, 0.00364148, -0.5198087, 0.22840957, 0.3095252, -0.06132022, -0.36205614, 0.3900923, -0.5109526, -1.2221869, -0.1880572, -0.11390331, 0.22408006, 0.63422114, 0.8220893, 0.14234494, 0.23923586, -0.13293943, 0.6613968, -0.17314768, 0.08066715, 0.35735837, -0.8087941, -0.8596668, 0.055665497, -0.086970545, 0.092891924, -0.26152843, 0.02613745, 0.0047834236, 1.4311898, -1.500628, 0.12118905, 0.16948077, 0.13040678, 1.0129571, 0.7743412, 0.490336, 0.19367662, -0.40291092, 0.2579256, 0.36822188, 0.24525595, -0.7919086, 0.27819508, 0.05853313, 0.48319072, 0.033981413, 0.12943624, 0.06769167, 0.42363918, 0.3593124, 0.024899209, 0.3023641, 0.044649966, 0.28492078, 1.1232544, 0.97567314, -1.2699076, 0.104162104, -0.80796826, -0.055506505, 0.18058354, 0.0566649, -0.061564352, 2.132985, 0.31649327, 0.19982278, 0.3950553, 0.41927227, 0.3371688, 0.56858224, -0.27033153, -0.25903413, 1.1849514, 0.34773245, 0.4701559, 0.8077017, 1.2713088, -0.28370783, 0.5460148, -0.43327886, 1.0461674, 0.38769794, 1.2563792, 1.3628073, 0.38628003, 1.6025488, 1.7374734, -0.83751315, 0.46042097, 0.88789797, 0.6252369, 0.7327714, 1.0158794, 0.37833506, 0.7816929, 0.1519373, 0.19560689, -0.1736267, 0.6789808, 0.30016634, 0.010968049, 0.29338735, -0.4952883, -0.13293451, -0.01483446, 0.12408422, -0.29307604, -0.10194445, -1.0312474, -0.2145142, -0.03542944, 0.07370255, 0.4768763, -0.099535495, 0.15410015, -0.01616544, -0.16577828, -0.076640904, -0.17683366, 0.22597304, 0.03530175, 0.31168655, -0.07198262, 0.20627813, -0.008320694, -0.22986212, -0.22442958, 0.0086607225, -0.03935327, 0.5460371, -0.07391863, -0.22998267, -0.1331893, -0.018093461, 0.052723374, 0.09526938, 0.23354192, -0.10253733, -0.09231261, 0.062763415, -0.0785186, -0.077794366, 0.0049240883, 0.062667154, 0.08970561, 0.21737765, 0.058683503, 0.062388945, -0.25029474, -0.128139, 1.190992, -0.055448253, 0.66952854, 0.09406433, 0.49387243, 0.46900916, -0.7948275, 0.37598136, -0.088568546, 0.8027098, 0.26592714, 0.077780716, 0.41658312, -0.3660378, 0.30719823, 0.047617055, -0.53471315, 0.6934638, -0.523954, -0.12159992, -0.40240234, 0.36448252, 0.43612996, 0.2244981, 0.2540644, 0.3930956, 0.87139064, 0.19043134, 0.21007384, -1.4096152, 0.019951701, 0.40763262, 0.6424831, 0.51066446, 0.0063655516, 0.72622967, 0.50751114, -0.41696727, -0.76845735, 0.54433787, 0.73445696, 0.13832654, 0.39485478, 0.47714716, 0.6392338, 0.21594997, 0.73884386, 0.039063998, 0.71206856, 0.43978393, -0.0526788, 0.15908913, 0.06848068, 0.097723454, 0.20936182, 0.10820104, -1.1321199, -0.481618, 0.056141347, 0.077312775, 0.22488034, 0.08505352, 1.0716165, 0.11476483, 0.053035907, -0.6953425, -0.42903808, 1.2976109, 0.050774563, 0.0890313, -0.25345805, -0.9082585, 0.024219941, 0.9262839, -0.001719276, -1.2832557, 0.12726948, 0.25037846, -0.2364208, -0.028066095, 0.05095085, 0.08624137, 0.04672524, 0.104145326, 0.06884473, -0.061445266, 0.05192432, -0.5281204, -0.88011473, 0.03922992, 0.084599644, -0.8911659, 0.039521188, 0.049299978, 0.08562378, -0.11663204, 0.028290799, 0.39328754, 0.17732139, 0.054396357, 0.11727854, 1.1148247, -0.051868364, 0.23270379, 1.0480756, 0.27882463, -0.7487242, -0.6710693, -0.07014751, 0.08914476, -0.091040865, 0.12810625, -0.09386462, 0.13032986, 1.0617169, -0.15768704, -0.012857422, 0.5007206, 0.021534357, -0.33572006, 0.15098593, -0.17398477, 0.11786588, 0.15106176, 1.1470453, 0.12935863, 1.4694717, 0.8846434, -0.36812556, 0.15915398, 0.024219058, 0.37861973, 1.5985222, 0.69517744, 1.0577148, 0.0056878165, 1.2537272, -0.50474364, -0.41593686, 1.2806187, 0.060800273, 0.04444416, 0.5519237, 1.3585426, 0.007736111, 0.27237946, -1.2766225, 0.6825368, 0.24401757, 0.7056756, 0.01058257, 0.07939698, -0.106232844, 0.015278785, -0.13944402, 0.05142448, -0.67659736, 0.0068529896, 1.0418949, -0.04237092, -0.012977011, 0.036343876, 0.2130773, 0.0056489487, 0.1307813, 0.116507836, -0.041301344, -0.17361385, -0.3677077, 0.15643106, -0.0037974592, -0.02923064, 0.03372992, 0.15845403, 0.10740859, 0.010155279, -0.09949128, 0.089449845, 0.025628254, -0.002443123, -0.05468345, -0.144014, -0.17439978, -0.07854039, 0.005974504, 0.0026634173, 0.0989926, -0.063094035, 0.42128307, 0.09066382, -0.0018145283, 0.27712563, 0.125152, 0.054802872, 0.032599833, 0.032063928, 0.09752797, -0.111138396, -0.057453662, -0.21431895, 0.17721733, -0.024408406, 0.098016314, -0.45903766, 0.30230883, 0.13823804, -0.21792372, -0.043731984, 0.9984451, 0.14047913, 0.1530389, -0.0102285715, 0.52093494, 0.006477444, 0.1440605, 0.0036267706, -0.15080053, 0.21332172, 0.14373499, 0.18538901, 0.225225, -0.085561454, 0.13487473, 0.2786488, 0.16949576, 0.09995125, -0.07356424, 0.21185164, 0.0733563, -0.21458058, 0.2706855, 0.027553177, 0.09213534, 0.029123634, 0.1996445, 0.9752133, 0.10343696, 0.34982172, -0.25164163, 0.14291933, -1.1065738, 0.23094304, 0.13685898, 0.17717957, 0.18315779, 0.01258909, 0.18389426, 0.08301458, -0.023414146, 0.022251839, 0.272301, -0.20640568, -0.17650594, 0.28290093, -0.7622585, 0.008574676, -0.18220289, 1.0826082, 0.3214875, 0.019437132, -0.29881468, -0.11905068, -0.23178454, -0.03888316, -0.08358009, 1.2143283, 1.1563623, 0.6638145, -0.031921588, -0.06646108, 2.3525774, 1.3408763, -0.032002535, 0.23344842, 0.08177716, -0.21898209, -0.20570594, -0.25527522, 1.6070946, -2.116299, -0.14646663, -0.2600099, -0.05304178, 0.012297708, -0.10598899, -0.073916845, -0.11781993, -0.42976326, -0.79445136, -0.04691236, -0.19999407, -0.0050743213, 0.117730394, -0.12949243, -0.16624872, 1.7401874, 0.016144497, -0.072273195, -0.02668836, -0.101606, -0.5746034, -1.611862, 1.3802577, 0.78299713, 1.1304646, -0.064690754, -0.92170346, 0.24564195, 1.2232637, -0.056805264, 2.1762846, -0.21065232, 0.15331554, -0.06770958, -1.5152823, 2.305878, 1.3395349, 1.4571813, -1.7844583, 1.3437496, 0.08930759, -0.48603043, 0.0011548005, -0.22701731, 0.51375854, -0.08803335, -0.46114624, -1.4605404, 0.65306646, -1.80846, -0.22226954, 1.8238919, 0.38161734, -0.20279163, -2.7058458, -0.22004305, 0.005343904, 1.9264994, -2.025018, 0.83929497, -0.18737487, 0.5946653, 0.5372733, -0.5149604, 3.8198533, -0.46599483, 1.6911259, -0.7228668, -0.1694616, 0.673205, -0.14503513, 0.07897273, -0.08807947, 0.023414705, 0.045475487, 0.051314726, 0.6356375, 0.12997013, 0.5873322, 0.16239926, -0.14561544, -0.075446226, -0.07209751, -0.039495755, -0.07473665, 0.4243016, 0.07835245, 0.13489088, 0.100436255, -0.13738494, -0.06271318, 0.057212647, 0.07772367, -0.01530907, 0.16158646, -0.06212234, -0.0046169856, -0.018825108, -0.066001646, -1.111855, 0.09816077, 0.010774404, 0.06192907, 0.023227422, -0.020224243, 0.009918562, -0.20068292, -0.957894, -1.8165181, -0.05699052, -0.05912882, -0.07324762, -0.0087936595, 0.021075219, 0.03673036, 0.00775317, -0.10427226, 0.14206186, -0.059389845, 0.17140688, -0.0067949803, -0.106745586, -0.05472295, 0.4392894, -0.20812981, -0.21266495, -0.2310492, -0.0635278, -1.089216, -0.03384965, -0.024355022, 0.012765814, 4.259061, -0.75102276, -0.18588504, 0.084860325, -0.43959564, 0.038663782, 0.5115314, 0.41104653, -0.7220625, 5.021697, -0.10500648, -0.37279385, -0.2369511, -0.04120948, -0.18188396, -0.10293526, -0.095313326, -4.654233, -1.0419569, -0.038833987, 0.0760033, -0.12871625, -1.3875396, 1.2401, -0.24997976, 3.532858, -0.45252028, -0.08597289, -2.6701891, -0.06412684, -0.091698505, -0.20326844, 1.0166402, 0.49934453, -0.08940216, -0.0731681, 0.026095085, -0.0020152328, -0.385883, -0.1909199, 1.1015453, 0.14871266, 0.5332823, -0.5180019, 0.48426765, 0.43247628, -1.5673165, -0.1562844, -0.09484431, -0.27766144, -0.8333116, -0.15808846, -0.0647081, -0.39283973, 0.86102414, 1.0590672, -0.0019820633, 0.08176032, 0.6050281, 2.4595518, -0.11365659, -0.5537171, -0.19132872, 3.4045467, -0.20845485, -0.21134175, 1.1686745, -1.7270093, -0.078809574, -0.18087745, -0.12711762, -0.509417, -0.022277318, 0.0140856365, -0.20096602, 0.8989014, 0.4881511, -0.013495598, -0.16491899, 0.2176208, -0.061535373, -0.10084806, -0.14395458, -0.07553388, -0.109734476, -0.06992461, -0.15587533, -0.17990014, 0.46977875, -1.5975218, 1.7834212, 4.492498, -0.63908505, -0.37122658, 1.3100731, -2.1992207, 1.1826344, -0.10910943, -1.7259059, -0.21798965, 0.05444222, -0.19011657, -2.1187494, 0.2701515, 0.09953471, 0.006250446, 0.37415898, -0.6558127, 0.17271017, -0.98405397, -0.52995837, -0.01788034, 1.7698741, -0.0047883545, -1.3026394, 0.45977896, -1.8680044, -0.4372472, -0.1580237, -1.6236875, -0.92227775, -1.9784837, -3.4050314, -0.1640425, -0.7203872, 0.4994662, -0.42832983, -2.7272127, -0.5053312, 1.0366123, 0.40467662, 6.7486033, 0.50282353, 0.9747576, 1.7932633, 0.15688874, -0.44208857, 3.0137274, -0.045367785, -0.22019449, 0.02975698, 0.043474615, 0.022353107, -0.12138439, 0.19773735, 0.06927597, 2.9741912, 0.097870305, 0.07685269, -0.043317743, -0.6049207, 0.08766308, -0.06505714, -0.48533323, 0.06915889, 0.13158758, -0.44927403, -0.15584533, -0.108978406, -0.77350223, 0.019550627, -0.101882905, 0.062667966, 0.15210551, 0.24187005, 0.03145907, -0.09244893, -0.39874664, 0.20693019, 0.31932062, 0.12380976, 0.117252275, 0.19897759, 0.046024714, -0.15779358, -0.5078679, 0.054564733, -0.07978497, -0.030644296, -0.27522257, -0.059197225, -0.0960249, 0.120606855, -0.14075485, 0.0074924533, 0.036039677, 0.05416227, 0.119544365, -0.00057310204, 0.13829571, -0.1698502, 0.19153485, -0.16074708, -0.2318666, -0.056630585, -0.21234809, -0.723661, -0.23589468, -0.1293371, 0.06102541, 2.24685, -2.2531843, -0.16028495, 0.062963694, 0.3689559, -0.21163361, 0.8449614, -0.57230693, -0.82618636, 0.40765285, -0.13713029, -0.23833595, -0.16540383, -0.16852751, 0.024673317, -0.040125597, -0.08523226, -1.4755297, -0.5270738, -0.42874455, -0.46263847, -0.18628325, -1.6931001, -0.38534388, -0.16830859, -0.06364419, 0.30650276, -0.062302213, 0.610008, -0.78104645, 0.035054546, -0.13042836, -0.42077973, 0.32452086, -0.13891539, -0.14043114, -0.401001, 0.04688777, 0.5955834, -0.10445673, -0.37794498, -0.038601886, -0.25480732, -0.09198867, 0.0036469018, 1.3085227, 0.04141485, -0.034640238, -0.2070404, -0.08263448, -1.0214561, 0.017025111, -0.10678893, 0.6442542, -0.47806054, -0.30753207, -0.18596168, -0.1430525, 0.52045316, 0.88637394, -0.07103135, 0.12975489, 0.07279331, 0.014218719, -0.2302528, -0.20884056, 0.19178061, 0.20991479, -0.073654905, -0.008155863, -0.11204002, -0.18920629, -0.17274377, -0.11876329, -0.20355837, -0.030450001, -0.20849141, -0.06878848, -0.13898292, 0.11367382, 0.17740478, 0.11302881, -0.01465461, 0.2736888, -0.08127793, -0.12584151, -0.09734978, -0.0079782475, 0.071023256, -0.29349917, 0.18652788, -0.3790047, -1.5349892, -0.1365005, 0.2518178, 0.56641644, 0.37272406, 0.06579226, 0.24629012, -0.21155007, 0.058973532, -0.1174031, 0.45469832, -0.18748373, 0.07691877, -0.07005851, 1.1986032, 0.11028301, 0.17035037, 0.0401662, -0.57265276, -0.2754901, -1.0881804, -0.23422629, 0.3598935, 0.111021645, -0.11626181, -0.065020464, -0.21198647, 1.0261183, -1.850482, 0.2504018, -0.03534352, -0.058923673, -0.4832808, 0.9370382, -0.85329336, -0.36144477, -0.097952895, 0.15932594, -0.08870226, 0.6054359, -0.7592728, -0.14141765, 1.0603881, -0.36110955, -0.25455162, -0.29922765, 0.033499163, -0.17975917, 0.16036582, -0.010552987, 0.19262719, 0.0049439752, 0.42461795, 0.049556043, 0.3172127, -0.077866554, 0.06859662, -0.13711394, -0.10160951, -0.10032717, -0.14517388, -0.12327046, 0.010613668, 0.088192545, 0.123754725, 0.035248764, -0.07967855, 0.10104122, 0.13656378, 0.056227412, 0.039370243, 0.04258339, 0.051172324, -0.02530222, 0.101129584, 0.21314201, 0.1561655, -0.108149976, 0.04054897, 0.0774984, 0.02574924, -0.13355012, -0.06087479, 0.001340006, -0.602155, -0.0013089398, -0.07420835, -0.3638796, -0.04938275, -0.012757626, 0.096122324, -0.1945633, -0.012291429, 0.17284378, 0.02850305, 0.14514028, -0.12136677, 0.23052342, -0.0037729787, 0.058893472, -0.046615053, -0.09748657, 0.104259275, -0.029429259, -0.2900605, 0.009961835, -0.098265134, 0.06882425, -0.7842676, -0.39724585, -0.11467861, 0.032913473, -0.22488931, -0.10553657, -0.014199103, -0.09963763, 0.17712685, 0.22788334, -0.072513945, -0.26414362, -0.11334509, -0.07321097, -0.08286844, 0.027225377, -0.09234558, 0.41501173, -0.686805, -0.10013921, -0.26553673, -0.10814413, -0.16887003, -0.38268468, -0.20989539, -0.18984836, -0.0960517, -0.15276489, 1.2569252, -0.22371173, -0.16000694, -0.12284462, -0.15155374, -0.21218915, -0.1346206, -0.19843651, -0.21203619, -0.24894048, 0.23395343, -0.053074375, -0.33730668, 0.22599262, 0.67759687, 0.011339505, 0.77315044, 1.13326, -0.13174975, -0.2659349, -0.12218019, -0.00372378, -1.1896936, -0.18112446, -0.11321346, 0.20296997, -0.34674773, 0.060307164, -0.1441488, -0.13307352, 0.20887826, 0.68411356, -0.12412322, -0.272178, 0.038448967, -0.00977024, -0.07110441, -0.096028864, 0.28612065, 0.11530512, -0.118855566, -0.05742592, 0.036832843, -0.07093825, -0.032258507, -0.017445277, -0.04673937, 0.11006522, -0.42900378, 0.034058254, -0.084245786, 0.5406737, 0.01117989, -0.08016523, -0.12818107, 0.07121825, -0.07480358, -0.20923962, -0.061467074, 0.07911973, 0.31710234, 0.5215915, 0.54582554, -0.5420613, -0.9356193, -0.13997357, 0.7680822, 0.8773481, 0.20421484, -0.015189973, 1.0456902, -0.22725038, 0.110708736, -0.1661966, 0.16616437, -0.13502932, 0.07516433, -0.21530682, 0.57622606, 0.35196254, -0.14819516, 0.017467873, -0.042422775, -0.040004965, -0.05296183, -0.0913046, 0.15380995, 0.50630826, 0.2625925, 0.08720322, -0.14464837, -0.20196313, -0.2467284, 0.08401139, -0.52254385, -0.04520363, -0.39585796, 0.58454484, -0.5842237, -0.6736148, -0.05527485, -0.37678635, 0.16680561, 0.22998562, -0.4225049, -0.19342025, 0.7509002, 0.23198313, -0.18966748, -0.107249595, -0.05034635, -0.12243606, -0.085352205, -0.111284725, 0.03308252, -0.17274307, 0.34588912, 0.08618705, -0.34998286, 0.22225213, 0.115167275, -0.075655274, -0.040691365, -0.045610674, -0.11274921, -0.006156628, 0.11295819, 0.020880314, 0.31876627, -0.106113255, -0.066000216, -0.06834951, -0.040508255, -0.18813246, 0.09092294, 0.17180938, 0.09328362, -0.0959101, -0.10369199, -0.04522503, 0.1152259, 0.07786346, 0.033783734, 0.029078318, -0.05738839, -0.2151656, 0.03015422, 0.14013074, 0.028012225, -0.0053426228, -0.16427812, 0.058143165, 0.034563433, -0.021005223, 0.07887647, -0.06846935, -0.23293284, -0.0068662576, 0.003183857, 0.120330155, 0.0066710934, 0.01772099, -0.18571371, -0.08511613, -0.081542075, -0.1174684, 0.20066163, -0.12246443, 0.06744187, -0.18579827, -0.19937159, 0.122102134, -0.6372491, 0.17619687, -0.17944987, -0.12092236, -0.18158835, -0.0900389, -0.05777132, 0.09426803, -0.06205727, 0.007175328, -0.077473246, -0.091560125, -0.04625895, 0.010023108, -0.10969536, -0.025899589, -0.15843615, 0.04366886, 0.07953066, -0.048375957, 0.019081337, -0.0661601, -0.43847677, -0.48518702, -0.0066370545, 0.16423076, -0.35904068, -0.16541494, 1.5365037, -0.21868919, -0.042087708, -0.22562039, -0.18341683, -0.41173962, -0.084540375, -0.22748943, -0.0006266171, -0.15066198, 0.35272744, -0.25124893, -0.2873144, -0.13353166, 0.5025948, -0.11299194, 0.6501636, 1.190436, 0.21931481, -0.06261823, -0.073196694, 0.08902, -1.0287999, -0.07132632, -0.14117225, 0.079313345, -0.4438598, -0.14073977, 0.035246044, -0.013006422, 0.037340265, 0.77506226, -0.097935155, 0.08566269, -0.022046056, -0.07533239, -0.17184249, -0.21359642, -0.5936671, 0.5361668, -0.10454931, -0.046873506, -0.08862849, -0.095388435, 0.16683856, 0.031596277, -0.12508683, -0.45017156, -0.22196957, 0.043180782, -0.07610114, 0.16464809, 0.18463896, -0.02208484, -0.12851414, 0.009703838, -0.05124715, -0.023343211, 0.13809869, -0.098969735, -0.06001596, 0.064059526, 0.44253245, -0.55576813, -1.106696, -0.003792906, 0.8430531, 0.4066088, 0.36471575, 0.0128136305, 0.5655408, -0.20068824, 0.05529198, -0.14962831, -0.32390344, -0.17594463, 0.31502876, -0.19489762, 0.8854858, 0.59402066, -0.24152282, -0.13913539, -0.13603476, -0.12179574, -0.5368465, -0.1468616, 0.7462689, -0.2627185, 0.08564366, 0.22472516, -0.014826912, -0.40558925, -0.38301945, 0.078992985, -0.7936644, 0.003804587, -0.032708306, 0.69354963, -0.29224434, -0.0987605, -0.16642068, 0.3110268, -0.2589078, 0.38245308, -0.2441677, 0.07416363, 0.157718, 0.36208937, -0.15345252, -0.02038144, -0.02812788, -0.09289385, 0.023628667, 0.14845324, 0.19281058, -0.08180846, 0.4629259, 0.17216013, 0.1775716, 0.080407225, 0.16159502, -0.029409384, -0.2971241, 0.036770396, -0.076615565, 0.5375234, 0.11120708, 0.16686139, 0.15877481, -0.07297555, -0.0630352, -0.12102155, -0.02843889, -0.20909603, 0.08475898, 0.13760239, 0.036072094, -0.14987236, 0.074191116, 0.011436436, 0.016985508, 0.005738553, 0.054717053, 0.059860613, 0.010459878, -0.022213997, -0.08955417, 0.23284018, -0.06657297, 0.025192179, 0.023039695, 0.1498683, -0.072286114, -0.12476343, 0.07982305, -0.18255252, -0.141901, 0.16140683, 0.06320781, 0.15538192, -0.109235235, -0.03054943, 0.003169469, 0.04916646, -0.173539, -0.121405594, 0.058860753, -0.19404732, 0.35846722, -0.22732326, -0.099799745, 0.011366527, -0.41027862, 0.8896391, -0.0010870203, -0.023202794, 0.39101654, -0.24876302, 0.20616028, 