#pragma once

#include <stdint.h>

// Weight 0, shape: (6, 200)
const double weight_0_sonar[] = {
0.50330997, 0.3334713, -0.11310225, 0.37801582, -0.3230353, -0.03980713, 0.38685685, 0.39369518, 0.13395248, 0.71678644, 0.18746446, -0.057678938, 0.22090888, -0.15070833, 0.43642586, -0.35403064, 0.35098925, -0.23470192, 0.33424425, 0.08426903, -0.024285695, 0.31685182, 0.48900467, -0.08324071, 0.35530564, -0.06277523, 0.0062897108, 0.39033556, 0.026064223, 0.3613141, -0.20393702, -0.10255096, -0.06581109, 0.614942, 0.5739185, 0.4131885, 0.41309392, 0.052413914, -0.008370079, -0.3598689, 0.4552996, 0.5808871, 0.17211638, -0.07714643, 0.39525247, 0.65854347, -0.023172325, 0.19934724, 0.72342414, -0.07819354, 1.5283492, -0.2861476, 0.36218867, -0.024502056, 0.15182298, -0.008698158, 0.95389265, 0.11011579, 0.095057726, 0.37426654, 0.034779806, -0.19352801, -0.075196035, 0.021072308, 0.55774164, -0.5434884, 0.13308464, 0.6327997, -0.071675114, 0.33952945, -0.07491008, -0.055965748, 0.26266167, 0.31657025, -0.28338894, -0.11612601, 0.13445355, -0.40907285, -0.04370066, -0.1381145, -0.30873865, 0.9080485, -0.44646776, -0.3422656, 0.35338, -1.1264676, 0.028469536, -0.36209494, -0.033060763, 0.18355383, 0.3773312, 0.12878075, -0.14856161, -0.23417772, 0.056506667, -0.10905447, 0.18251106, 0.15411524, -0.15144286, 0.18900858, 0.1826671, 0.18821521, 0.19306242, -0.1647851, 0.029293697, -0.0510788, -0.21889007, 0.22876199, -0.37670654, 0.13136852, 0.002178833, -0.06774305, -0.08232245, -0.10905477, -0.3971589, -0.23922302, 0.014802991, 0.10532673, 0.22136906, 0.1106012, 0.3741471, -0.07963755, -0.028882848, -0.122771576, 0.09684297, 0.33903822, -0.09479971, 0.19103992, 0.009328681, 0.41301528, 0.015391252, -0.1598867, 0.3736839, -0.24649894, -0.06454027, -0.17057315, -0.24813773, -0.2599064, -0.02205586, 0.36332408, -0.27962548, 0.1430687, -0.03596701, 0.35508922, 0.22390169, 0.19265535, 0.38575172, 0.17845191, 0.25524852, -0.24526481, -0.052724294, 0.39625922, 0.21081173, 0.29538265, -0.10168982, 0.21695475, -0.07434698, 0.3658705, 0.18976998, -0.06976749, 0.042194404, 0.022107426, 0.1585742, 0.019980144, 0.3396136, 0.16556361, 0.37627825, -0.064946055, 0.57199013, 0.55920947, -0.05795956, 0.0007404586, 0.4257302, 0.11439762, -0.03232205, 0.45370755, 0.07275897, 0.38095295, 0.050300945, -0.0860095, 0.3948684, 0.4986348, 0.16315609, -0.05276255, 0.22605468, 0.38807482, 0.50924903, 0.69878453, 0.41325048, 0.5096056, -0.0025075458, -0.09643497, 0.022898363, 0.36961457, -0.009510048, 0.49797076, 0.23344956, 0.04722204, 0.6214183, 0.4235116, 0.49298635, 0.41114512, 0.40473905, 0.08072136, 0.7753044, -0.0048067514, 0.51855415, 0.064999565, -0.15706731, -0.8986933, -0.22721247, 0.13100955, 0.49568146, 1.188077, 0.15456483, 0.54582745, 0.24685572, 0.63935304, -0.3090152, 0.016524574, -0.03830563, 0.18953432, 0.602052, 0.63811153, 0.45180008, -0.021450799, 0.7255033, 0.43260527, -0.03667068, 0.5008675, -0.037005182, -0.0330629, -0.08133671, 0.37351754, -0.029950162, 0.34227252, 0.36612922, 0.021984903, -0.0035994148, 0.38484314, 0.39650124, 0.5093515, -0.1465593, 0.1978395, 0.35077435, 0.32206857, 0.1397827, -0.17264478, 0.3477552, 0.009002224, -0.04356295, 0.3071926, -0.53309655, -0.45565584, 0.039485198, 0.29677925, 0.17717625, 0.10389698, -0.6341561, -0.6865236, -0.030318266, 0.25593504, 0.06261149, 0.44201678, -0.44662705, 0.3935829, -0.020067958, -0.9327348, 0.087892875, 0.19362795, -0.18174434, -0.2627958, 0.28719512, -0.19632511, 0.15962864, 0.34264523, 0.023490572, 0.34072816, 0.055499844, -0.19343626, 0.046327695, 0.27670175, -0.11517622, -0.34086654, -0.4354087, -0.04577925, -0.13880494, -0.25322637, -0.0024782137, -0.079848796, -0.50582105, 0.1212084, 0.7462136, 0.2922725, 0.24199685, 0.14593409, -0.061430134, -0.04582864, 0.24763274, 0.2883766, 0.13591804, 0.28100795, -0.09075409, -0.058573313, 0.1314372, -0.21288759, -0.11936703, 0.2517408, -0.078006886, 0.07295776, -0.04810757, 0.42352158, 0.1137577, -0.06768154, 0.06138493, -0.07887548, 0.00592427, 0.13601615, -0.022253688, 0.08672133, 0.29222494, -0.15679568, -0.009945779, -0.10166542, 0.121780485, 0.12984554, -0.12436866, 0.273973, 0.007688514, 0.2848253, 0.06405397, -0.19035882, 0.24999624, -0.23635073, 0.41938633, -0.2869267, -0.17559183, -0.37163335, 0.020792825, 0.20328481, -0.32873908, 0.20626865, 0.30130136, 0.11819844, 0.25667262, 0.2405913, 0.17564969, -0.48792294, -0.0037854277, -0.13528365, 0.030456964, 0.40073246, 0.343155, 0.39996523, 0.6643387, 0.21074031, 0.0014107507, -0.039704364, -0.2100633, 1.0053062, 0.30703214, 0.055283733, -0.10183206, 0.21735655, 0.2241495, 0.09330065, 0.39266235, 0.19654745, -0.047314283, -0.09058808, -0.044001002, -0.29736617, 0.42243937, -0.19043626, -0.056262262, 0.45762846, 0.5025569, 0.42582354, 0.19715025, 0.02146649, 0.4011083, 0.3988808, -0.020538539, 0.015490961, -0.42912617, 0.41488656, 0.2944348, -0.2142367, 0.41792017, 0.50966537, -0.13518712, 0.0075290073, -0.026409289, 0.31915364, -0.059181344, 0.6311134, -0.094113246, 0.25840178, 0.45790532, 0.43327358, 0.081042446, 0.08827906, 0.8106109, -0.04210376, 0.90706563, -0.057418738, 0.08375121, 0.0073202495, -0.2743161, -0.22463898, -0.18806519, 0.4145332, 0.103351526, 0.6771217, 0.09723433, 0.43604666, 0.12360361, 0.59934366, 0.015782993, 0.4435526, 0.13694817, -0.021141583, 0.08789962, 1.3344765, 0.08672555, -0.0031533812, 1.0894752, 0.083566196, 0.03987157, 0.08200786, 0.019965956, 0.014970996, 0.07862858, 0.07896525, 0.2093372, 0.09347584, 0.090411656, -0.13533245, -0.007285817, 0.028908078, 0.08480308, 0.076559395, -0.40917918, 0.026237149, 0.088769324, 0.6489007, -0.23057735, -0.5553523, 0.66243166, 0.03554825, 0.10649678, 0.14465456, -0.3163291, -0.27821186, -0.20333166, -0.11870738, 0.3369483, -0.30309197, -0.6556251, -0.35247865, -0.10073114, 0.40988964, 0.020480292, -0.23669037, -0.2118891, 0.03445976, 0.024451518, -0.3541495, -0.3591635, 0.16785756, 0.043223634, 0.0726863, 0.06257526, -0.6370739, 0.11047364, 0.09953101, 0.82339257, 0.028861368, 0.47857457, -0.28983817, 0.32310867, 0.3163614, 0.25799716, 0.11658879, -0.42650056, -0.13615099, -0.3174852, -0.016566819, -0.029921034, -0.28923064, -0.482657, 0.040952727, 0.13598305, 0.015943676, 0.20890084, -0.18112615, -0.029739307, -0.3085066, -0.19953567, 0.0824928, 0.06409207, 0.051479347, -0.0730983, -0.060694735, 1.0151999, -0.07824455, -0.059133112, 0.07190683, -0.011646468, 0.6248976, 0.036547888, 0.7808071, 0.03976553, -1.0666897, -0.004203293, -0.07007992, 0.008484587, 0.28997752, 0.043744884, 0.86948216, 0.05562489, -0.0760922, -0.019800588, 0.3469878, 0.08137161, 0.06378042, -0.45990616, 0.051839598, -0.0796478, 0.05537264, 0.08488379, -0.078940876, 0.07296384, -0.059294827, 0.4574753, -0.044402342, -0.044799857, -0.29865777, 0.012923309, 0.05248385, -0.05385423, 0.048819292, 0.15723373, 0.058062956, 0.042467706, 0.053567555, -0.01702381, -0.55833, 0.06445438, -0.06771566, -0.0048524407, 0.09198085, 0.33115497, 0.08733911, 0.42993024, 0.13884029, -0.016087973, 0.14325234, -0.24648148, 0.2587569, 0.036504336, -0.029259812, -0.27053475, -0.09797369, 0.104356885, 0.15696183, 0.093450814, 0.023518253, -0.10350152, 0.24016957, 0.1149119, 0.10615887, 0.08305218, -0.18976343, -0.06677687, 0.08109578, 0.57961375, 0.08786631, 0.16536202, -0.008935167, 0.09396977, 0.0900231, 0.061112016, -0.0057141576, -0.38304427, 0.086198665, 0.09023571, -0.28246954, 0.08953193, 0.08027631, -0.00299513, -0.039408084, 0.058010343, 0.10162227, 0.027708977, 0.1988567, 0.06686195, 0.3628993, 0.09148903, 0.087348156, 0.47709128, 0.49909726, -0.12127448, 0.39264554, -0.11629412, 0.033035293, 0.4899467, 0.026178097, 0.3991344, 0.8221591, 0.26192117, 0.038852856, 0.5255741, -0.115383394, 0.4300625, -0.20208986, 0.5673122, -0.09228031, 0.25472224, 0.024466896, -0.012731174, 0.6720139, 0.47593266, -0.16152357, 0.50944346, 0.064848274, -0.06326809, 0.47935867, 0.0806382, 0.49529746, 0.009765725, 0.02360257, -0.08117561, 0.4980716, 0.06611984, 0.501915, 0.49654788, -0.039311, 0.010051925, -0.08871187, 0.5136082, 0.4735506, 0.26687673, 0.0033307052, 0.5143587, -0.07831163, 0.179837, 0.26416674, -0.08492035, 0.12166026, -0.0115135405, -0.20651537, 0.35030273, -0.08717733, 0.014188297, 0.58994645, -0.05785538, 0.0848445, 0.50534534, 0.8478013, 0.19828567, -0.16133125, 0.13891424, 0.12830698, 0.4997328, -0.016499069, -0.047655843, 0.7664112, -0.03374891, 0.262717, 0.033216454, 0.05195145, 0.19591464, 0.03025605, 0.018755386, 0.6416635, 0.040545214, -0.17249678, 0.034043938, 0.29497084, -0.09417121, -0.075012125, -0.47361553, -0.25999394, 0.13208507, 0.082784064, 0.06414989, -0.2756822, 0.010251718, 0.034973416, 0.10125188, 0.18314259, -0.056842633, -0.14360647, 0.14838998, 0.013220147, 0.002913976, 0.17298959, -0.117810994, 0.27997246, 0.27514252, 0.23287693, 0.21047355, -0.2928517, -0.0026357442, -0.2841153, -0.28293028, 0.26695088, -0.24455704, -0.0044966964, -0.017614031, -0.068839766, -0.3411642, -0.045100212, -0.14718895, -0.15987366, -0.01411316, 0.048669107, 0.21160375, 0.14423364, 0.20571217, -0.2851658, -0.00016041726, -0.043757085, 0.27741048, 0.24503249, -0.08361059, 0.23284493, 0.0056465315, 0.22691602, 0.34234172, -0.26223138, 0.21287507, -0.25833738, -0.053624015, -0.24438773, -0.24811299, 0.21526995, 0.09342997, 0.22022004, -0.22104706, 0.25863054, -0.112198725, 0.24911366, 0.2361699, 0.24852997, 0.2879606, 0.080199964, 0.28322104, -0.26527372, 0.03145876, 0.52195525, -0.084983885, 0.4728574, -0.07362368, 0.60820025, 0.025812307, 0.19549362, 0.21503544, -0.0037840249, 0.036921863, 0.015727123, 0.24472997, 0.09160297, 0.48308018, 0.24740921, 0.52489775, -0.014791102, 0.4016094, 0.0702072, 0.040743906, 0.05378338, 0.50403273, 0.19138278, 0.043057483, 0.49445993, -0.09568514, 0.51530176, -0.049071413, 0.026873628, 0.5120227, 0.5105285, 0.26471376, 0.08139966, 0.28611615, 0.49327686, 0.5006502, 0.12242156, 0.50664663, 0.469566, 0.01443711, -0.026174365, 0.078543924, 0.52089185, 0.0009712229, 0.36451802, 0.13167523, 0.08936129, 0.38811055, 0.5035416, 0.018860288, -0.117451176, -0.32278386, 0.0119480705, -0.3387394, 0.07833193, -0.089253485, 0.058265727, 1.5441881e-05, -0.0121946195, 0.038318407, 0.34542987, -0.16998897, 0.9032293, 0.27740866, 0.13384856, -0.076057546, 0.2757605, -0.14266035, 0.062941656, -0.21045649, -0.15024231, 0.096211016, 0.55263245, -0.082537524, -0.011714002, 0.36112332, 0.15967396, -0.13894212, -0.007421825, -0.15664002, -0.12717916, -0.14783362, 0.044785865, 0.17861106, 0.14932603, -0.13243142, 0.19785474, -0.016109891, 0.10215622, -0.0016983275, -0.18920726, 0.40692252, 0.2370247, -0.18833798, 0.115558326, 0.34537762, 0.36201173, 0.15108863, -0.016977506, -0.40929976, 0.43651038, -0.0034460449, 0.3374312, 0.9061778, 0.6456827, -0.036580827, 0.5065288, 0.33178368, -0.11611345, -0.2796171, 0.31822395, 0.06440742, 1.3460513, -0.06296016, 0.24130197, -0.052314855, 0.024288418, 0.6777745, -0.12992273, -0.32018283, -0.60733515, -0.058367953, 1.1001846, 0.08449812, 0.093009256, -0.31872827, 0.49730998, -0.71730685, 0.19556737, -0.49372095, -0.4239809, 0.089234, -0.0570503, 0.47356567, -0.014860622, 0.084906414, -0.11689949, 0.027268553, 0.34589216, -0.113219894, 0.06691697, 1.0573437, 0.41231164, -0.048257705, 0.5900742, 0.43429783, 0.33285964, 0.69450414, -0.028302686, -0.04144003, -0.13484937, 0.0834086, -0.033017352, 0.29112118, -0.15019755, -0.14707434, 0.15389654, -0.09649857, 0.41076183, -0.08349312, 0.1796502, 0.34455037, -0.114466876, -0.044090733, -0.1574016, -0.0037750662, -0.029661525, 0.43787965, 0.090076625, -0.17195562, -0.24212442, -0.0040017995, -0.12756856, -0.09065859, 0.039747465, -0.07506764, 0.037873704, 0.1398874, -0.1994315, -0.060579978, 0.003662401, -0.11038601, 0.13479845, 0.5123929, -0.16473497, 0.035473727, 0.111746766, 0.02388361, -0.13660766, -0.17231412, -0.07645682, 0.01781655, -0.12024808, 0.091317184, 0.0019517065, 0.099857196, -0.48400873, 0.2448228, -0.15650071, 0.014501965, -0.058957502, 0.29343975, 0.1401564, 0.33007392, -0.13440919, -0.020086534, 0.32601, 0.07146222, 0.60994244, 0.024686983, 0.09926798, 0.05854034, 0.20104013, 0.26047578, 0.21786898, 0.0017145083, 0.20065443, 0.17090747, 0.21784036, -0.21031943, -0.19965564, -0.22897278, 0.061133556, -0.016554773, -0.20505084, 0.24766178, -0.04991236, 0.098682314, 0.050986093, -0.24017496, -0.018803686, -0.017148087, 0.04318273, 0.120456114, 0.09345739, 0.0298962, -0.18112026, -0.054579336, 0.033833403, -0.15635732, 0.022417437, 0.06401712, 0.07769407, -0.09710253, -0.014733396, -0.12354374, 0.50001705, 0.15671799, -0.17724398, -0.40530863, 0.030153893, 0.20556773, 0.22910382, -0.49708202, 0.06829379, -0.32085782, -0.22094825, 0.04397633, 0.03620651, 0.31604218, -0.008392603, -0.21219699, 0.8336824, 0.18776998, -0.00031565354, -0.16711326, 0.78673244, -0.16222838, 0.10387209, 0.053910047, -0.23789376, -0.10112952, 0.6820797, 0.020912094, 0.098059915, 0.42861602, -0.0922382, -0.038980953, -0.09432642, 0.029912664, 0.16178729, -0.012969294, -0.042352438, 0.12759389, -0.23953249, -0.099204205, -0.038099967, -0.0012952492, -0.04403227, -0.23440117, -0.03913265, 0.08536346, 0.053762868, -0.31917882, 0.0662396, 0.21012236, -0.09253191, 0.04243818, 0.2647948, -0.134023, 0.032773547, -0.1110852, -0.07218451, -0.2087664, 1.1344384, -0.14690241, 0.35446393, 0.027312266, -0.0008090561, 0.078701615, -0.21548218, 0.3309038, -0.13276157, 0.09783819, -0.1213423, -0.17569004, -0.13989581, 0.22234647, -0.26363432, 0.008410319, 0.1920779, 0.10246184, -0.8506984, 0.38157368, 0.36238983, 0.08578567, 0.3847884, 0.05275196, 0.3197371, 0.28415826, 0.15555935, -0.1913478, 0.17733504, 0.15574673, 0.33039713, 0.16109788, 0.16969116, 0.04145012, 0.2661796, 0.12902886, -0.14906219, -0.43171483, 0.13264805, -0.010220296, 0.25792652, 0.031919166, -0.08011453, 0.13832664, 0.07008333, -0.022697873, 0.16685128, -0.039507173, 0.073143914, 0.7010338, 0.107113905, -0.033316515, 0.023755793, 0.031488616, 0.2952496, 0.002181823, 0.44023034, -0.68198794, -0.76413226, 0.09519283, 0.038229685, -0.024903126, 0.27758226, 0.1427938, 0.53100246, -0.42511505, -0.08540647, 0.033302195, -0.38553584, -0.18846728, -0.24119359, -0.38986564, 0.018003115, -0.010001162, -0.07223278, -0.15000376, -0.049228106, -0.22098707, -0.0920557, 0.5331074, 0.080594085, 0.009335067, -0.044671383, 0.14257044, -0.21502008, 0.06758774, -0.026877988, -0.045316625, -0.14088164, -0.091744386, -0.069885775, -0.05375864, -0.5305502, -0.05197099, -0.0032584807, 0.11289154, -0.106602415, -0.21172507, -0.013257153, 0.0013377812, -0.2633161, 0.19227014, 0.12981135, 0.06452343, 0.17337568, -0.21963605, 0.0057718195, 0.0888357, 0.0014654017, -0.23966286, 0.22611953, -0.30190125, 0.016303807, 0.08540126, -0.10186342, 0.13809876, -0.050503913, -0.14475568, -0.037209958, 0.11853601, -0.19544616, -0.11303473, -0.044930004, -0.024877306, 0.117192246, -0.28853244, 0.02862824, 0.07533327, 0.21671495, -0.025655031, -0.37099394, -0.25700435, 0.07216498, -0.3355563, -0.31217098, -0.03112961, 0.080183014, 0.041651133, -0.17310257, 0.065433644, -0.2326226, -0.030210452, 0.3047715, -0.31658903, -0.36284444
};

// Weight 1, shape: (50, 200)
const double weight_1_sonar[] = {
0.059837442, 0.11484218, -1.3908471, -0.12013016, 0.026751311, 0.31767556, 0.23340093, -0.37496796, -1.7178286, -0.06818695, 1.49165, 1.832314, 0.045724265, 0.26727578, 0.110287406, 0.5478122, 0.014209357, -0.20149791, -0.16524893, 0.021024475, -0.6203995, 0.3523533, 0.24275908, 0.030503599, 0.08324928, 0.62286353, 0.09838453, 0.07843103, -0.7660244, 0.20682897, 0.032865778, -0.007875603, -0.66615665, 0.36026633, -0.52098864, 0.11233894, -0.11133727, 1.371315, 0.339377, -0.924889, 0.09361316, 0.06881189, -0.32772964, -1.1704885, -0.045671288, 0.04659203, -1.3232927, -1.2288388, -0.116285846, -0.45844084, -0.38579968, -2.080582, 0.5623099, 0.92018443, 1.3408221, 2.3182967, -0.0045513688, -0.35744825, 0.19733416, -0.13408844, -0.3182073, -0.3292496, 2.7052114, 1.2526084, -0.20279038, -1.331467, 0.08430812, 0.10982722, -0.9421974, 0.31628639, -0.99249375, 0.43671766, 0.30550802, 0.30043682, -0.5409185, 0.35172117, -0.11882398, -3.3789098, 0.49225846, -0.34286955, 0.2920025, 0.07343845, -0.22742902, 0.48847276, -0.17545366, -0.061802473, 0.6026235, -0.19072779, -0.48515666, 0.7317641, 0.07923213, 0.18583058, 1.0428193, -2.3304691, 0.37758377, 0.42278787, 0.47990742, 0.41727933, -0.2946517, 0.14738847, -0.0047261445, 0.21434234, 0.21591511, -0.030959284, 0.017721524, 0.0055764425, -0.09442487, 0.071280934, -0.34514147, -0.22725968, 0.042982683, -0.013371478, -0.44145435, 0.012702359, 0.13484603, -0.032577284, 0.05637385, 0.032037508, 0.14486323, 0.27128905, -0.3749394, -0.104336105, -0.05548841, -0.12224407, -0.025148261, -0.0012925286, 0.15624218, 0.15082961, -0.13458966, 0.123676926, 0.20642851, -0.023545558, 0.18891849, -0.0027641729, 1.0032063, -0.036022585, -0.049944766, 0.18877013, -0.8018434, 0.24321727, 0.0043130238, -0.090373665, -0.25038597, 0.346281, 0.0034863793, 0.11464411, 0.0736707, -0.10896745, -0.06237213, -0.045288004, 1.1716188, 0.16930327, -0.55556625, 0.26775062, -0.23181911, 0.1024373, 0.248533, -0.25391388, -0.7960013, -0.15900618, -0.18987551, -0.7226298, -0.3228389, -0.6523929, 0.21095997, 0.28720477, 0.072804675, -0.3120026, 0.20475039, -0.34872392, -1.1293147, -0.18502292, 0.09745674, -1.941243, 0.25466964, 0.17424081, 0.34553856, 0.1274362, 0.29778492, 0.13167214, 0.2570472, 0.102558926, -0.37930977, 4.20802, -0.8923133, 0.057289116, 0.27407488, -0.31779394, -0.10282069, 0.13196011, -0.06564079, -0.6565036, -0.11793026, 0.15778059, 0.052913025, 0.40516293, -0.12808155, 0.009783775, 0.35440412, 0.1563456, 0.050712697, 0.06400971, -1.3453366, -0.4526851, -0.6094711, -0.5352604, 0.11519748, -0.68962127, -1.0998032, -0.051305566, 0.20357352, -1.2183024, 0.10115801, 0.20797706, 0.26009032, -0.8054922, 0.13869521, 0.10721681, -0.14375561, -0.076915346, 0.23821647, 0.34027392, 0.18512392, 0.18366548, 0.094366305, 0.016910544, 0.05370495, -0.03482929, -0.32515725, 0.14077333, -0.29931906, -0.08279651, 0.2169316, -0.0032266593, -0.70362836, 0.15297131, 0.15580618, 0.55942696, -0.19970594, -0.2750255, 0.26573703, 0.06257603, -0.9798924, -0.44652486, 0.107973486, -0.02345716, -0.2986672, -1.2447925, -0.3168693, -0.42239562, -0.23166981, 0.6645836, 0.71914107, 1.7591296, -0.3550589, 0.16775529, -0.11882644, -1.1222714, 0.23747955, 0.31107292, 0.26068604, 0.030980952, -0.2729276, -0.09469135, -0.08214877, -0.5315337, 0.079909675, 0.70230556, 0.6989928, 0.064315856, -0.028311465, 0.9850617, 0.2599016, 0.10868749, -0.49766535, 0.1394172, -0.0027091487, 0.37254173, 0.19762753, -0.017217504, 0.30734622, 0.038277607, -0.21401896, -0.2173272, 0.34835446, 0.3553216, 1.0432792, -0.23330736, 0.32108632, 0.8054424, 0.14237301, 0.027054658, 0.4929174, 0.38890043, 0.18026099, 0.113123596, 0.25170055, -0.8822799, -0.43622017, 0.18460283, 0.05713168, 0.066423975, 0.15282667, 0.010226471, -0.070259534, -0.109362766, -0.056968328, 0.07550781, -0.04639211, -0.03116548, 0.30333537, -0.0064901356, -0.4226663, 0.024646766, 0.14203605, -0.18461153, -0.08395504, 0.035093173, 0.18528338, 0.05172615, 0.16652599, -0.09951957, 0.06825898, -0.56003964, -0.056642003, -0.017401349, 0.12581044, 0.010265874, -0.28882167, 0.14340018, 0.19016357, -0.009920949, 0.13530971, -0.14192693, 0.8576985, -0.020937912, -0.04853729, 0.41259682, -0.047848705, 0.15094022, -0.1050872, 0.112360634, -0.24250767, 0.0685971, 0.07972744, -0.07192911, -0.091225594, 0.105115145, 0.123846434, -0.02638965, 0.10474208, 0.23638058, -0.50261045, 0.04939019, -0.46775544, 0.19414492, -0.40238595, -0.34093496, -0.7599224, -0.22122765, -0.045360442, -1.0366844, 0.20127437, -0.4586698, 0.10512612, 0.08878228, -0.07276429, -0.99191445, 0.40036088, -0.7773756, 0.6545128, 0.29566962, 0.14916994, -0.71698135, -0.6155068, 0.18528014, -0.22305562, 0.094201855, -0.062415164, -1.0267582, 0.29278812, 0.1972558, -0.37714413, 0.3853487, -0.76558477, 0.1799282, 0.14200698, 0.1324225, 0.26234218, 0.05881635, 0.1062874, 0.26635137, -0.7931156, 0.12757161, -0.24257459, 0.16254336, -0.3077839, 0.09454044, 0.30816028, 0.10191297, 0.23114067, 0.097221665, -1.5262412, 0.63410175, -0.75840545, -0.6840053, 0.094561, -0.35198015, -0.7830512, 0.9479437, -0.9110843, -1.1370268, -0.03257066, -0.34388107, 0.32561815, -0.44766098, 0.063146174, 0.21767977, 0.47776175, 0.035040606, 0.022324646, 0.055575494, 0.03590363, 0.3376082, 0.037956662, -0.6594111, 0.24974316, 0.17903419, 0.030313095, -0.05077049, 0.5056611, -0.9887992, 0.26486155, 0.3097573, -0.07491796, 0.11803241, 0.13885678, -0.06290206, -0.12010496, -0.5726013, 0.071457066, 0.01600743, 0.17780231, 0.32064334, 0.007855298, -0.25111616, -0.23200452, -1.0202079, 0.3529776, -0.50560385, -0.4149766, 0.4923132, 3.3615417, 1.2210329, 0.3013549, -0.15423161, 0.029791158, -1.0730293, 0.26342216, 0.39449993, -0.047537, -0.08067745, -0.49674398, 0.044720344, -0.34219173, -0.1059605, -0.3630859, 0.5143037, 0.44894207, 0.48553067, 0.86051035, 0.8691866, 0.15954925, -0.40629166, -0.09076518, -0.032507814, -0.20982315, 0.17278461, 0.11415096, 0.2867915, 0.41189232, -0.10180807, -1.1315131, -1.3442258, 0.048235025, 0.46939257, 0.7170447, -0.07931605, 1.0024419, 0.058455918, 0.25646675, -0.03807031, -0.88722014, 0.3589945, 0.1390753, 0.33824232, 0.13461287, -0.881981, -0.39372462, 0.1100113, 0.008342085, 0.112211585, -0.29149458, -0.073591694, 0.1377588, -0.093001045, -0.076912634, -0.0066828327, -0.0751772, 0.061981536, 0.31137964, 0.14274757, -0.6284304, -0.21399033, -0.16764985, -0.07345152, 0.118403435, 0.063976005, 0.18858655, -0.077977985, -0.1385311, -0.087303944, -0.31232888, -0.13158366, 0.105004065, -0.057221368, 0.24480563, 0.042903177, -0.151162, 0.06492461, 0.19099578, 0.02257954, 0.16145349, -0.005387996, 0.24252789, -0.006983135, -0.14219168, -0.1205384, -0.020090219, 0.12153261, -0.08413488, 0.07815491, 0.10926965, -0.06037153, 0.0757359, 0.039368015, -0.115232006, 0.20836483, 0.1871883, 0.0022537573, -0.3574657, 0.14177598, -0.37738517, 0.18249565, -0.6248501, 0.09372383, -0.33005595, -0.6046566, -0.5314337, -0.2559578, -0.7377109, -0.31623414, 0.14597699, 0.37578875, 0.1029179, 0.14685872, 0.3234126, -0.32014564, -0.2565622, -0.3482719, 0.34100854, 0.0110555515, 0.16621369, -0.70708215, -0.13402608, 0.032777764, 0.2739651, 0.1604536, 0.5356309, 0.45010725, 0.13885409, 0.20840782, -0.17377049, 0.21797971, 0.0015759044, 0.17567995, 0.018346867, 0.09438859, -0.07914279, 0.1725543, 0.07200004, 0.17396931, -0.8573353, 0.14596434, -0.15829532, 1.0905302, -0.6446056, -0.06509575, 0.30438215, 0.10850684, 0.0362819, -0.065752245, 1.4232198, 0.7610368, 0.80217487, 0.51920027, -0.06691088, 0.45046434, 1.2107193, 0.17334938, -0.33508554, 1.0822495, -0.081252776, -0.28527758, -0.12793107, 0.5036598, -0.022157475, 0.031239223, 0.31283134, 0.064125106, -0.2390485, -0.19546469, -0.16792986, -0.31300846, -0.0031286876, 0.33042455, -0.0103057325, -0.036306955, 0.6238743, -0.05067722, -0.40061077, 0.13910332, -0.39162275, -0.10089317, 0.5843548, -0.07370962, -0.1368273, -0.47360483, -0.36194053, -0.11969792, -0.12008324, -0.05640589, 0.6526662, -0.0972928, -0.11709948, -0.06385221, 0.08855366, 1.1668215, 0.18074557, 0.7133692, 0.28406623, -0.752273, -0.6144519, -1.5003572, -0.42698354, -0.21996257, 0.014253936, 1.0914091, 0.11972691, -0.323073, -0.48219448, 0.10379754, 0.22104742, 0.21178165, 0.012336917, 0.3032636, 0.068024494, -0.39782768, -0.7073128, -0.024914464, -0.15328085, -0.43501014, -0.17575422, -0.52048856, -0.4048797, -0.15017259, 0.20084362, -0.15425101, -0.12162968, -0.32106066, -0.35516864, -0.11482518, 0.0891155, -0.033826936, -0.23459351, -0.5948363, -1.1332229, 0.27908397, -1.2068589, -0.5685225, -0.20979166, -0.23866543, -0.32076848, -0.78214395, -0.25062484, -0.33467028, -0.19455026, 0.89974725, 0.040585198, -0.2213622, -0.13384847, -0.20476276, -0.14068826, 0.113159545, 0.0098371105, 0.002077641, 0.020632772, 0.01107342, 0.13317889, -0.019780234, -0.18771078, 0.12541439, 0.4904056, -0.1385688, -0.093921125, 0.11527043, -0.2591254, -0.09913993, -0.073541276, -0.17472507, -0.18665934, 0.080110006, 0.17423119, 0.49563682, -0.12504931, -0.11506677, -0.008222297, 0.03720672, 0.453443, -0.077407725, -0.17563066, -0.015076549, -0.16658035, -0.091187805, -0.8878259, -0.0066102454, -0.09350794, -0.021552958, 0.25111315, -0.0016356182, 0.15360603, -0.14250204, 0.04366176, 0.03166126, -0.17153047, -0.00027566522, -0.039740298, -0.11491594, -0.16618311, -0.019190632, 0.60840416, -0.14623865, 0.52490205, -0.12908797, 0.7437054, -0.024431, 0.22394116, 0.21330966, -0.047351588, 0.22154093, 0.11268931, 0.36285326, -0.38905445, 0.6440403, 0.0363534, -0.15848449, 0.002021937, 0.20362924, -0.026197106, 0.44805554, -0.8043916, -0.45249578, -0.01446996, 0.6226392, 0.11568706, -0.049066737, -0.21702851, -0.1395317, -0.16072085, 0.5800343, -0.151704, -0.107074626, 0.39126632, 0.1339319, 0.367561, -0.23169316, -0.1501051, 0.17557937, -0.124803476, 0.013257567, -0.072750114, -0.6202109, 0.89623284, -0.116527356, 0.4009414, -0.32719186, 0.34792602, -0.038135603, -0.35535213, -0.24679266, 0.09279646, 0.26137415, -0.7230312, -0.2903845, 0.124999784, -0.27223963, 0.05503984, -0.036490183, 0.37619403, 0.60415184, 0.0147399325, -0.7674582, -0.107058264, -1.8529228, 0.18852028, -0.5530661, 0.073172145, 0.11587588, 0.16433991, -0.073719054, -0.34971982, 0.3460229, 0.093901776, 0.6889276, 0.06831303, -0.15070334, 0.030550903, 0.0782642, -1.5087389, 0.103570156, 0.0050291386, -0.29208472, -0.21127315, 0.040465243, 0.5713567, 0.12872943, 0.14422086, 0.14533405, -0.06249499, -0.5370088, 0.16406314, 0.11697672, -0.0996834, 0.947473, -0.048575874, -0.13718356, -0.15086693, -0.425022, -0.016384285, -0.3050031, 0.10480648, 1.1031829, 0.9710517, 2.360705, 0.29345226, 0.014126754, 0.16968092, -0.74870193, 0.48820883, 0.7443572, 0.58120215, 0.007840402, -0.3976564, 0.36971053, 0.4811286, -0.32671222, -0.90630275, 0.8806957, 0.6240725, 0.40077028, -0.65184844, -0.606433, 0.16741757, 0.16541669, -0.050380874, 0.2067472, -0.15849675, 0.45834246, -0.62634933, 0.20800136, 0.21794793, 0.066242784, -0.22170286, 0.21469344, 0.23264673, 0.26318944, 0.8583368, -0.30317646, 1.3562449, 0.2521879, 0.3011479, 0.12456545, 0.8254664, 0.51922035, 0.21782759, 0.67078096, -0.51596665, 1.1409522, -0.091823764, 0.16401455, -0.062359948, 0.24069178, 0.35891536, 0.09685285, -0.29332224, -0.0073256367, 0.086857714, 0.15448932, 0.018281993, -0.13377626, 0.101515464, 0.39984247, -0.525535, 0.114476, -0.004897997, -0.21156274, -0.013551665, 0.12687919, 0.2597636, 0.1724514, 0.22994743, -0.054615896, 0.072645456, -0.3879758, 0.06874313, 0.029423865, 0.21913904, 0.03783544, 0.6643042, 0.21799581, 0.07332408, -0.09096034, 0.1157359, -0.010300702, 0.077891275, -0.05777961, 0.1418109, -0.020526988, -0.19973981, 0.056949437, -0.17633848, 0.0448487, 0.031132447, -0.14447334, -0.07328156, -0.08073526, 0.0039695688, -0.034404956, 0.10234271, -0.153576, -0.46764287, 0.04749102, -0.18825987, 0.14190818, 0.5674714, 0.107755765, -0.48282096, 0.18522795, 0.023798363, -0.24519743, -0.52887326, 0.07309929, -0.30787557, 0.006694407, 0.18864208, 0.28357384, 0.1590697, 0.061608948, -0.44469053, 0.073803104, 0.76239526, 0.061377723, 0.064148985, -0.29018256, -0.7075875, 0.04243811, -0.575147, 0.05892678, 0.119818054, -0.11569894, 0.10397753, 0.07745443, -0.5400345, 0.265065, -0.31753963, 0.05009542, 0.20010465, 0.068458386, 0.10447025, 0.20018889, -0.2871802, 0.6392455, -0.78132284, 0.14121099, -0.20997782, 1.1774881, -0.62742037, -0.27842027, 0.3498612, 0.124971606, -0.25943035, -0.01103998, 1.2799643, 0.023338212, -0.23520903, 1.3757942, -0.20539978, 0.013906977, 2.3639088, -0.047016915, -2.509638, -1.0834177, -0.09289744, -0.268349, -0.39482525, -0.020754578, -0.13952677, 0.07523099, 0.027835432, 0.062744394, -0.04279461, -0.28398207, 0.002622909, -0.065344006, 0.13396254, -0.06843393, -0.011388853, -0.17507674, 0.4768637, -0.15651336, 0.6008722, 0.26297686, -0.21584617, -0.30701628, 0.4997858, -0.10567382, -0.076812625, -1.0779835, 0.2694601, 1.044178, 0.0038159946, -0.015303377, 0.24537712, 1.1692444, 0.10148522, -0.106596306, 3.0683393, 1.6438775, 0.23043954, 0.7291188, 0.224545, 0.85060304, -0.4320114, -0.8268186, 0.087623656, 2.3391886, -0.010491728, 0.33255187, -0.77035916, -0.003637906, 0.34926024, 0.3307873, 4.629131, 1.120659, 0.10233905, 0.9801312, 0.063490145, -0.38386014, 0.44357094, -0.32267874, 0.13812456, -1.26354, -0.22946106, -0.22879288, 0.24836986, -0.27797398, 0.10516228, -0.28269702, -0.5875078, -0.083224185, -0.3047518, 0.028018463, 0.19047268, -0.3645613, 0.4049737, -0.051392984, -0.6155496, 0.20696793, -0.04734323, -0.09712728, -0.11681883, -0.13023704, -1.1841244, 0.38503984, -0.2703995, 0.99959123, -0.50488305, 0.10974426, 0.5697878, -0.10183954, -0.051425096, -0.09709688, -0.27524656, 0.024469744, -0.08741216, 0.03235634, 0.07258285, -0.10740336, 0.11745364, 0.047229808, -0.3461516, 0.039282918, 0.48003912, -0.08004852, -0.098410025, 0.27690887, -0.45643786, -0.082048364, -0.28291032, -0.21830022, 0.31954888, -0.0060623423, -0.88031006, 0.14275114, -0.015255864, -0.037247755, -0.21523294, -0.12300639, 0.30245712, -0.08525789, -0.19960473, 0.0352706, 0.028853562, 0.11356843, -0.9451426, 0.0786776, 0.08964949, 0.08716903, 1.3004789, -0.32903653, 0.006402247, -0.12124751, 0.121217735, -0.14693098, -0.044820942, 0.008337418, 0.115173295, 0.06629635, -0.07771454, 0.09648497, 0.25843108, -0.13462362, 0.35284796, -0.07825992, 0.31200823, -0.15630703, 0.24886185, 0.14407727, 0.30616784, 0.1328944, 0.20676516, 0.01048657, 0.9464388, 0.16089812, -0.10658387, -0.22744656, -0.43538675, 0.185384, -0.20468532, 0.5264054, 0.3024922, 0.29510427, -0.2081135, 2.8019028, 0.6109464, -0.09552985, -0.41743615, -0.10386666, -0.17692982, -0.5412284, -0.30594656, -0.18540053, 0.41844955, 2.0033274, 1.3011231, -0.20260279, -0.35964227, -0.28944808, 0.06696675, -0.14963183, 1.1739922, 0.9041571, -0.13912094, -0.1754417, -0.5118831, -0.31283826, 0.26916537, -0.074305974, -0.2637052, -0.22054055, -0.24510333, -0.17627469, 0.8796258, 0.06186412, -0.26746282, -3.3201659, -0.0322094, -0.0126983095, 2.1026359, 0.13675475, -2.2812624, -2.128029, -0.21289796, -0.17331547, -0.3113321, 0.19812354, -0.21691376, 0.27564603, 0.45260096, -0.32593584, 1.1310883, -0.305389, -0.24974953, -0.0049756593, -0.11250185, -4.7779827, -0.27691516, -0.16645181, 0.30205205, -0.11746931, 2.8570712, -0.057052363, 0.75294507, -0.49556196, 0.35416093, -0.11554095, -0.2510184, -1.1786374, 0.17800145, 0.1031316, -0.2221358, -0.2344473, 0.9961363, 1.3655308, 0.119055115, -0.4123943, 0.24472888, 0.24885564, -0.15650323, -4.5434823, 0.21579504, -0.24901122, -0.78949594, -1.911197, -2.3255892, -4.2879896, 0.0931797, 0.41589156, 1.8146651, -0.4097186, -0.18720481, 0.31234542, -2.612312, -3.8276718, -0.007818215, -0.9184318, -1.1629745, -0.3606289, 0.5994359, -0.39520577, 0.7206462, -0.3146643, -0.24502963, -0.37561828, -0.056821924, -0.29535693, 0.053769097, -0.47530538, -0.60223633, -1.6428337, 0.038055573, -0.8490636, 0.3601841, -0.6064117, -0.8004103, 0.65009207, -0.42679495, 0.5330018, 0.17493337, -2.0488622, 0.0099129155, -0.8693914, -0.9827091, 4.8431716, -0.2621537, -3.0582235, -1.7416862, -0.762933, 0.734458, -0.14475858, -0.21916556, -0.188039, 0.13976975, 0.1400757, 0.0014048363, 0.08425732, 0.06995874, 0.004522044, 0.26447716, -0.03084239, -0.027192049, 0.07434713, 0.58717626, -0.085470274, -0.14398773, 0.09920912, 0.49811682, -0.119039655, -0.7356431, -0.24544296, 0.5825757, 0.006613297, -0.4026916, 0.124756426, -0.060710914, -0.5336879, 0.09338362, -0.22969082, 0.085031144, -0.040142603, -0.04244269, -0.044614743, -0.18919405, -0.0031981652, -0.89634335, -0.02841522, 0.15193483, -1.3887668, 1.1388104, -0.29454836, 0.04151793, 0.030188309, 0.23200674, -0.21137387, 0.0038568638, 0.03179641, -0.10693635, 0.10791354, -0.11770108, -0.13201818, -4.2001977, -0.0124150235, 0.30264345, -0.37633243, 0.08131653, -0.26887456, -2.1079352, 0.2240749, -0.2337253, 0.08575906, 0.47143373, 0.9158133, 0.61865187, 0.8652413, -0.12753154, -0.33629867, -0.49041304, 1.0962579, -0.26232076, 0.15605462, -10.771463, -1.2641786, -1.3721747, 0.3140611, -0.80553406, -0.63769954, -1.015988, -0.2449708, -0.19241087, 0.88443565, -0.18284902, -0.33764908, 0.37827137, -0.27067512, 1.1544532, -0.66287166, -0.65847224, 0.2103757, -0.8951702, -0.25916603, -0.26411742, 0.834139, 0.20413573, -0.7680307, -0.14728892, -0.84667677, -0.55748075, 0.14379612, -0.42285267, -0.9391761, 0.23492296, 0.107098304, -1.4129466, -0.22640751, -0.6021586, -0.42775515, 0.18435793, -0.073866755, -0.49549866, -0.27880722, 0.19346981, -1.0882541, 0.15214618, 0.19223192, 0.28040683, -0.8234797, 0.0738293, 0.12587447, 0.83563745, -0.060606822, -0.36041176, 0.40273395, -0.07461181, 0.13500284, -0.09085783, -0.4517382, 0.10217842, 0.07168353, -0.7524075, 0.0883469, -0.9665904, -0.10135458, -0.08613486, 0.10210272, -1.0838172, 0.13179937, 0.15016226, 0.4356482, 0.13759555, -0.4712164, 0.31438023, 0.18199767, 0.33841482, -0.08534531, 0.181312, 0.0011201021, 0.027575761, -1.1921129, -0.28852013, -0.3540643, -0.24069645, 0.36310953, 0.19533649, 1.3180335, 0.7478501, 0.25290695, -0.056846168, 0.06476949, 0.25550804, 0.7769511, 0.039054006, 0.12689212, -0.22485816, 0.12196885, 0.6393396, -0.15482463, -0.15648772, 0.68008834, 0.69477403, 0.034365814, -0.36643615, 0.5708631, 0.24190784, 0.56214774, 0.2784266, 0.068371855, 0.12683417, 0.6121196, -0.10151749, 0.27464297, 0.08585936, 0.10427646, -0.9331624, -0.55737627, -0.13081458, 0.7252596, 0.7301268, -0.41651735, 0.37262172, 0.49213722, -0.24488163, 0.2808803, 0.29587612, 0.30665308, 0.31519017, 0.4384044, 0.17098886, -1.0569522, -0.09567412, 0.17333385, 0.17004395, 0.1746404, 0.36998928, -0.24514142, -0.08453379, 0.04412444, -0.040003892, 0.022873666, -0.15455757, 0.085850395, 0.06805576, 0.01847578, -0.31486765, -0.034425396, -0.32589465, -0.102152035, 0.1768478, 0.06791487, -0.06848248, 0.10271432, 0.09464874, -0.12634994, -0.002201644, -0.9135965, 0.14190847, 0.1180825, 0.13068224, 0.008396434, 0.06570808, 0.21915258, 0.030761655, -0.017997088, 0.054585226, -0.028811796, 0.77662265, -0.068582475, -0.03600669, 0.02095273, -0.1287479, 0.1376873, -0.14652194, -0.0038728644, -0.1467959, 0.03253313, -0.028481727, -0.018539099, -0.1301895, 0.1998922, 0.12979788, -0.06268876, -0.5562691, 0.18614168, -0.60096675, 0.08293119, -0.71839064, 0.06570883, -0.42902446, -0.23395625, 0.0051146047, -0.13067715, -0.2697321, -0.6327985, -0.5554728, 0.31852725, 0.27332458, 0.2157489, 0.31635687, -0.94685763, 0.60403365, -1.2038387, -0.12565538, 0.29317182, 0.1336621, -0.21342905, -0.57894593, 0.071972005, 0.1897489, 0.20001411, 0.26634428, -1.2750937, 0.119766325, 0.10373809, -0.69475496, 0.09774179, -0.09445864, 0.039789636, 0.058438163, -0.034115143, 0.081123896, 0.14669698, -0.47950822, -0.30291677, -0.54942816, 0.17075565, -0.8477357, 0.24630006, -0.17483391, 0.1167755, 0.32016, 0.04969453, -0.100982465, -0.16371195, 1.2657058, -0.14302833, 0.5178482, 0.015672214, -0.24721359, 0.12972382, 2.9204497, 0.7702321, -1.1077497, -2.4186282, -0.08978862, -0.6520382, -0.25174767, -0.3494178, -0.11128089, -0.331942, 0.15084566, -0.23166564, 0.031482503, -0.038143143, -0.07854984, -0.4387719, -0.11746005, -0.043181945, -0.42981634, -0.16880164, 0.87196803, -0.0029799538, -0.649112, 0.64582485, -0.25122583, -0.26326528, -0.36952117, -0.09953123, -0.22353207, -1.1955504, 0.25970605, 0.3383949, -0.09854475, -0.28074607, 1.6413066, -3.6242034, 0.096695416, -0.3805466, 0.15406244, 0.99445045, -0.23203029, -2.3076441, -0.2513386, -1.905379, -0.13865218, 0.18412177, 0.46849978, -3.0787191, 0.22310813, 0.156553, 0.795836, 0.42008743, -0.32346773, -0.3120034, -0.7276628, -1.7361394, -1.3098109, -0.82840145, -0.62948877, 0.76492465, -2.7954373, -0.382409, 1.7831266, 0.8324274, -0.17754573, -0.041458916, -2.0691798, 0.02396058, -0.06834893, 0.8425569, -1.1096607, -2.574137, -0.3755616, -0.124134935, -1.8691624, -0.627394, 0.28831497, -1.6516957, -0.860982, 0.5664635, 0.7374198, -2.9794142, -1.0605229, -0.59604657, -0.11103743, -2.3387895, 0.020439385, -1.878599, 0.7224607, 1.9520361, -0.98720336, -0.2520158, 0.13287362, -0.12999627, 0.15010235, -0.0005409059, -0.40776396, -0.078057036, 0.12062841, 0.15784986, 0.05268968, -0.09890452, 0.043901317, -0.28577456, 0.010397621, 0.3948248, 0.32654074, 0.2535535, 0.33441144, -0.14800322, -0.24021693, -0.30998465, 0.7221882, 0.0061141266, -0.07536883, 0.16511755, -0.12131151, 0.008828444, -0.17664482, -0.25806656, 0.61836505, -0.29749435, -0.18396194, 0.08039861, -0.12602545, 0.086005986, -0.804353, 0.07056592, 0.19731675, 0.63897705, 0.14824218, -0.18735366, 0.087443225, -0.050763365, -0.43244302, 0.07600324, 0.051183026, -0.1477945, -0.25289798, 0.12906162, -0.15060596, 0.03405724, 1.1010375, -0.10648565, -0.45931995, -0.39715916, 1.0876212, -0.04982643, 0.70477504, 0.38065323, 0.07903287, 0.20982304, -0.1679619, -1.20943, 0.943901, 0.86107904, -0.35474697, -0.15118498, -0.3290907, -1.4895846, 0.70778865, -1.2608014, 0.40752372, 0.22089978, -0.041505154, 1.4190766, -1.2285535, -0.13522092, 0.5494269, -0.13385773, 0.28340375, -0.08432503, -0.22152591, -0.20070598, 0.03242304, -1.049567, 0.62189305, -0.45593685, -0.3547797, 1.246478, -0.013074929, -0.23616429, 0.3743785, 0.33368573, -2.0217636, -0.5806865, -0.33005965, -0.5083463, 0.1386917, 0.049328294, -0.44747302, -0.24335317, 0.108685255, -0.06963403, -1.3835135, 0.29044673, -1.0655442, -0.635366, 0.15310805, 0.22589192, -0.8205028, 1.6402884, -0.26627037, -0.98601395, -0.18950407, -0.19089231, 0.05256934, -0.48604554, -0.0133543005, 0.20825242, 2.479958, -0.07794848, 0.017878452, 0.19084142, 0.003377721, 0.2873981, 0.10886019, -0.56637365, 0.40405586, -0.045280013, -0.31458396, 0.18540168, -0.39116713, -0.85793054, 0.05586465, 0.16083443, -0.8817569, 0.20108913, 0.10833684, -0.14448257, -0.31829676, -0.43864983, 0.09656251, -0.018371912, 0.17108727, 0.15684354, 0.15131485, -0.060131427, -0.4505854, -1.1101685, -0.11834114, -0.671958, -0.42195982, 0.44726324, 1.9595048, 0.82323474, 0.71861166, -0.058809973, -0.08079967, -0.85426307, 0.09955884, 0.47698042, 0.18380818, 0.015077252, -0.5402061, -0.19770008, 1.297647, -0.053091794, -0.31361783, 1.1777828, 0.5706836, 0.03888902, -0.12550771, 0.9392735, 0.26019865, 0.25696424, 0.034561083, -0.03796559, -0.0930461, 0.4718432, -0.05992572, -0.01273807, 0.30324343, -0.1042689, 0.44548813, 4.6357017, 0.4673173, 0.3615342, 0.9057356, -0.28952283, 1.1387559, -0.08358208, 0.07323523, 0.16252868, 0.11940472, 0.40363207, 0.28802598, 0.39256725, 0.23345958, -0.78192836, 0.023571039, 0.16199465, 0.07346751, 0.05997046, 1.3056909, -0.072721265, 0.22991206, -0.008691125, -0.0110156, 0.021487499, -0.08700553, 0.108129576, 0.1119234, -0.13929683, -0.36641204, -0.16074552, -0.105691455, -0.092692636, 0.13064152, 0.072805576, 0.24841778, -0.03576668, -0.23250584, -0.13828878, -0.21710303, -0.31898412, 0.1251142, 0.1425646, 0.1611847, -0.10878199, -0.13901205, 0.17661686, 0.058914844, -0.13704601, 0.07995817, 0.025775874, 0.7498711, -0.08873894, -0.014227878, 0.057255305, -0.360518, 0.04574709, -0.118370175, 0.087596, 0.23948668, 0.049812917, 0.023053834, 0.046856504, 0.0646787, 0.16193786, 0.07869591, 0.06104497, -0.49683607, 0.14149223, -0.64527017, 0.068772376, -0.61303675, 0.21044458, -0.4321812, -0.57586235, -0.5930487, -0.12313578, -1.4376096, -0.33754757, 0.11540219, 0.98402506, 0.12498589, 0.0036097385, 0.0101311635, -0.29239967, -0.19763029, -0.75191987, 0.37108424, 0.20084517, 0.056518793, -0.72434413, -0.39728072, 0.20986395, 0.24787566, 0.1008476, -0.09918588, -0.9464723, 0.07284774, 0.13568184, 0.5277856, 0.3012655, -0.1080528, 0.10113216, 0.13953736, 0.19030082, -0.047275916, 0.1465376, -0.1273582, -0.25948155, -0.47959405, 0.20459959, -0.088198826, 0.42053586, -0.12533602, 6.8305717e-06, 0.2473019, 0.081956, -0.016204268, -0.1814617, -1.0377811, -0.006866748, -1.6790867, -0.29008037, -0.07295763, -1.6181009, 2.090596, -0.8288957, -2.1331048, -3.1963115, -0.014363741, -0.8483909, 0.15419264, 1.8311191, -0.11269143, -1.3631212, -1.2060605, -0.14552124, -1.0299928, 0.51950437, -0.1037955, -1.6128362, -0.047767486, -0.87165403, -0.24605276, -0.19164088, -0.685026, -0.12247942, -0.1379478, -0.69641566, 0.27401587, -0.04229834, -1.5485188, -0.014121156, -0.15674151, 0.37279376, 0.1067524, 1.0460187, 0.01767659, -0.18412395, 1.0246496, -0.28950828, -0.064033724, -1.0396988, 0.16771436, 1.2217953, -1.5449407, -0.76267546, -2.4012198, 0.79000604, -0.92441946, 0.33279303, -0.92753696, -0.7656956, -1.6990324, 1.271962, -1.1286328, -1.0030646, 2.0928307, -1.9890592, 0.24743828, -0.58783627, -1.7894766, -0.5411006, 1.1259496, -0.81743014, -0.6456167, 0.06523878, 1.1111898, 0.49907747, -0.20720966, 0.3427612, 1.780515, -0.27945715, -0.5177464, -0.535708, -1.5009036, 0.03212715, -1.9946667, -1.4094895, -0.8893535, -0.49498683, -0.38438386, 1.5672358, 3.1524298, -0.0044869334, 0.38272497, -0.1323525, 0.21936738, -0.11461837, -0.2939771, 2.1111448, -0.19308408, -0.193737, -1.2952118, 2.0984125, -0.52291787, -0.031136803, 0.0029969215, -0.17667787, -0.23292081, -0.0769493, -0.39055732, -0.05760845, 0.038134597, 0.032390486, 0.085001834, -0.26379493, -1.4848626, -1.1518053, -0.1686444, 0.3926741, 0.23213032, 0.041856304, -0.028430084, -0.076903686, 0.06987637, -0.29113215, -0.04442704, -0.03332406, 0.21531865, 2.457188, -0.0641206, -0.017409049, 0.45397094, 0.10711988, 1.2842944, -0.0073886802, -0.18013985, 0.02930548, 0.14190242, 0.037765935, -0.33131108, -0.00852214, 0.15746473, 0.93016374, 0.22438802, -0.1674132, 0.114353195, 0.028686909, -0.91727364, -0.18549135, 0.037606888, -0.014119907, -0.37495872, 1.1007373, -0.10798716, -0.023762975, 0.014577275, -0.1320625, -0.56773716, -0.105821475, 0.16837394, -0.17341013, 0.11846434, -0.743712, 0.8918423, -0.2989213, 0.21938145, -1.2639925, 1.4708185, -0.5134, -0.24708177, -0.11606003, -0.25093922, 1.4136733, 0.24077195, -2.543143, -1.0919815, 0.16189297, -0.08410874, 0.96735543, 0.9783735, -0.1942868, 0.9266938, 0.010461187, -0.7583145, -0.9804494, -0.07867282, -0.14815922, -0.3508019, 0.10041809, -0.60261744, 0.073853634, -0.04941904, 0.8096641, -0.13715574, -0.09705697, -0.6777769, 0.5581277, -1.2504221, 0.115385756, -0.61041903, 1.6409237, -1.0128738, -0.043709207, 0.19088422, -0.027488574, 0.12510766, 0.20615837, 0.49569154, 0.24265523, 1.3267981, -1.3166995, 0.78776073, 0.49943924, -0.118084505, 1.8764772, 1.1710213, 2.643182, 0.66275895, -0.26256108, 0.797204, 1.8200296, 0.27876994, 0.70435786, -0.8896791, -0.17367141, -0.23630284, -0.14911112, 0.08503071, 1.9770075, 0.19334033, -1.7930166, 1.9385402, 0.42506132, 0.23206723, 0.2270459, -0.29373556, -2.2345922, -1.105902, 0.300395, 1.9026755, 0.09568327, 0.4704955, -0.9272826, -0.043386195, -0.7869302, 0.096012905, 0.19973263, 1.2723624, 1.0722793, 0.027410565, 0.56154454, 0.6080381, 0.22037394, 0.8923843, 0.9436106, 2.0278807, -0.5857756, 0.37075537, 0.5399863, 6.6249347, 2.9211624, 3.474548, 0.7012419, -0.032812633, 0.4497538, 0.103768304, 0.86123115, 0.078189105, 0.36035296, -0.84004945, 0.85201454, -0.49365187, 1.6017426, -0.7636733, 1.361379, -0.9535242, -2.485619, 0.019284276, 0.82063264, -0.4825198, 1.1614133, 0.2669436, 0.25780204, -0.797733, 0.4147817, 2.6188703, 1.8987849, -0.98134977, -0.85195327, -0.29454505, 0.11967739, -2.6448257, -0.55651504, -0.5219216, 1.1990916, -0.41913962, 0.6298023, 2.056108, -0.57581615, 0.26121822, 0.3683375, 0.7934234, 2.2684033, 2.56847, 0.15520619, 0.22803131, 0.050107688, 0.56051725, -0.056002624, 0.5832505, -0.023858836, -0.10985025, -0.057558484, -0.15055431, 0.029745156, -1.1508056, 0.82245344, -0.59706295, -0.20256358, 0.075396545, -0.23586123, -0.24009623, 0.16915867, 0.45363644, 0.22849657, -0.9794306, 0.0037328922, -0.46688116, -0.87002605, 0.058586247, 0.50727415, 0.098187566, 0.12603615, 0.9431126, 0.068915695, 0.159003, -0.09671328, 0.1005473, -0.10802341, -0.00046418022, -0.11276963, -0.43427956, -0.33806175, 0.00020476026, 0.20903511, -0.07384238, -0.041094307, 0.77087045, 0.31379548, 0.018940797, 0.0422426, 0.5514953, -0.6397967, -0.04038925, -0.028711854, -1.4823084, 0.059799246, 0.72668546, 0.024534956, 0.075272046, 0.09566766, -1.3140997, 0.45048478, -0.25485227, -0.28743753, 0.106678575, 1.027689, -1.4755532, -3.681367, 0.08055231, 0.159833, 0.17540349, -0.03537067, -0.3203585, 2.3322592, -0.925981, -1.0026704, 0.99762523, 4.10617, 0.86083835, 0.6708499, -1.0926844, 0.4786158, -0.049568005, 1.2233618, 0.81330466, -0.01515892, -0.17647855, 0.5159536, 1.5632316, 1.07673, 0.6682469, -2.6482348, 0.88516384, 0.5906598, -1.1950822, 0.37652355, 2.4191663, 0.3201027, -0.2012661, 1.1066185, -0.73977864, -0.18555738, 0.5776112, 0.7396522, -0.004024789, -0.27589974, 1.2299962, -0.14151782, 0.7547161, -1.4815784, -0.15886822, 0.0681721, 0.7454565, 0.6351617, 1.1122549, -0.45443252, -0.14958933, -0.16388163, -0.08824984, -0.31020367, 0.17239703, -0.3021374, 0.3016968, 0.030091967, 0.2875056, -0.15930738, -0.066817656, -0.19699366, -0.082506254, 0.6396331, -0.30746058, -0.106999315, -0.6495078, -0.09809652, -0.2512029, 0.9939324, 0.56062263, -0.028487077, 0.08661481, -0.077795394, -0.043794964, 1.0131744, 0.15975672, 0.54548407, -0.06568544, 0.016982114, 0.5718201, 0.46787563, -0.08450097, -0.3007544, -0.17087549, 2.42583, -0.01792923, -3.6510313, 0.24087432, -0.23792884, 0.3951162, 2.3416462, 1.8597362, 1.0237155, 0.21454418, 0.5479036, -0.29950345, 0.58674127, 0.21403956, 0.024272533, 0.73197544, -1.5994891, -1.6937059, 0.12318032, 1.1732079, 0.14318575, -0.8195538, -0.0322863, 0.92934114, 0.038336854, -0.12053234, -0.102784395, 0.2973916, 0.22675967, 0.07520034, -0.6399091, -0.39187193, -0.27020168, -0.2373619, -0.015255555, -0.75613153, -2.4625802, 0.62254196, -0.32760966, -0.3691097, 0.08834645, -0.9860762, 0.46856755, -0.7852079, -0.10511474, -0.9389326, -0.31843105, -0.3019874, 0.5972995, 0.40472966, 0.9682161, 0.18388903, 0.030757984, -0.11539014, -0.07830822, -0.9564941, 0.1671859, -0.435677, 0.021645745, 0.060855743, 0.05138925, 0.055551995, -0.116161816, -0.008710167, -0.10543503, 0.17621344, 0.41746178, 0.19184004, 0.108237475, 0.35092336, -0.07236565, -0.1225612, -0.22909242, 0.41888875, 0.14650454, -1.0351777, 0.5150032, -0.016316572, -0.0003629559, -0.044207048, 0.074710265, 0.5400762, -0.10841908, -0.056077972, 0.11408017, 0.01797836, 0.17892033, -0.8319985, 0.0040997174, 0.0018195584, 0.12021317, 0.541309, 0.031809635, -0.00501875, 0.078170985, -0.12259817, -0.03729521, 0.040307462, -0.10108161, -0.14203587, -0.003774148, 0.026164878, 0.013211225, -1.544666, -0.06570513, 0.3218228, -0.04350421, 0.35684326, -0.026181472, -1.1612698, 0.50824004, 0.85364926, 0.13544318, 0.46737826, -0.8244642, 0.39218938, -0.7262751, -0.04468549, -0.13520932, -0.19930649, 0.39305615, 0.18554069, 0.07203705, 1.0608141, -0.31757298, -0.14974894, 0.64877695, -1.3388355, -0.114181034, -0.5218511, -0.04632909, 0.33653432, -1.6314304, -0.24421623, -0.23065335, -0.94389397, -1.432776, 0.857051, -0.055203095, -0.0018243955, 1.5108865, -0.04320149, -0.1256156, -0.028128268, 0.54722923, -0.41514727, -0.20995255, -0.63850266, -0.42996183, -1.1948069, 0.050244763, -0.4914566, -0.20279838, -0.022682345, -0.23443481, 1.0055602, -0.36953807, 0.30636707, 0.47876605, -0.17704403, -1.1849899, 0.75663286, -1.7549529, -0.22456187, 0.9573951, -0.13397852, 0.9357311, -0.0048067602, 0.22818157, 0.04685536, -0.46712434, -3.1444569, 0.107005686, 0.10376789, -0.18876548, -0.15214519, -0.49473262, 0.0020128977, 1.0546848, -0.33435848, -0.05691222, 1.0672563, 0.07651665, 0.20548372, 0.7130829, -0.20217751, 0.025067652, 0.7091775, -0.10721402, -0.121766105, -0.46401778, 0.20503037, 0.6519481, -0.0752323, -0.058621164, -0.07278178, -0.22301356, -0.09891176, 0.015587611, 0.41514683, 1.217503, 0.0072343587, 1.0808028, 0.012040362, -0.58203644, -0.6964972, -0.9972257, -1.0616413, -0.16494577, -0.046213873, 0.55705696, -0.03210948, -0.866653, -0.70032185, -0.03742569, 0.15912895, -0.77570283, -2.540834, 0.054106157, 0.24063647, -1.4802094, -0.46684337, -0.8527564, 0.1901644, 0.29939422, -0.17723632, -0.23998609, -0.08398904, -0.31077468, -0.032455284, -0.26730633, -0.009060429, -0.17811522, -0.21468262, -0.19914778, 1.4064254, -4.394955, 0.72217697, -0.50999343, -0.66873574, 0.27132234, -1.2385824, 0.17601337, -0.5245725, -0.33990738, 0.5087895, -0.3309471, -0.21474776, -0.23562518, 0.16628431, 1.1236498, 0.092637, -0.13035211, -0.085464075, -0.04167149, -1.1036209, 0.071651146, -0.101352505, 0.06388838, 0.0002851729, -0.035241622, 0.3101035, -0.23551305, -0.21265367, -0.13435267, 0.062598124, 0.2581418, 0.015583237, 0.021176243, -0.022479238, -0.13638136, -0.24153079, -0.1458066, 0.319508, 0.035270173, 0.12951995, 0.13160236, -0.10685508, -0.010768308, -0.21732582, -0.11807548, 0.040779654, -0.09296644, -0.0726626, 0.0082080085, -0.10394436, 0.074920386, -0.28016573, 0.047372032, -0.019119743, 0.100846745, -0.15192232, 0.049156636, 0.073429555, 0.040028274, -0.06887261, -0.06565844, -0.090840675, -0.044616442, 0.049696807, -0.094007164, -0.068335585, 0.09194718, 0.6379841, -0.12895906, 0.5584707, -0.12123054, 0.7385543, -0.19544667, 0.9905228, 0.76663435, 0.7808979, 0.30221945, 1.6236945, -0.1343998, -0.714439, -0.8547575, -0.11892573, -0.13002357, -0.048129372, -0.021313787, -0.09553412, 0.60930264, -0.3097823, -0.15952405, -0.19925636, 0.57302856, 1.1808509, -0.28108975, -1.2833045, -0.19241962, -0.18903063, 1.2658204, -0.10189214, -0.084825285, -0.8991463, 0.17866167, 0.19975664, -0.19397758, -0.0813716, -0.4123923, -0.03343682, -0.08555136, 0.20327628, 0.79367894, 0.18289067, -0.2023434, 0.48210928, -1.3768982, -0.8010594, -0.09160643, -0.47325203, -0.14034414, -0.17139967, -0.07065365, 1.4141331, 0.268237, 0.729947, 0.52209663, -0.18296587, 0.3518184, 0.92890054, -0.059445873, -0.22450604, 1.1813514, 0.03159378, -0.021068268, -0.2148872, 0.6395374, -0.14122744, -0.14464986, -0.28489736, 0.07203354, 0.10879953, -0.39103258, -0.091637716, -0.14393413, -0.06548081, 0.3946529, -0.17303693, -0.1777567, 0.47353116, -0.08175942, -0.033139613, 0.37459737, -0.1786887, 0.024722366, 0.66660833, -0.0800533, -0.04370189, 0.20045343, 0.5323102, 0.37275642, -0.23488575, -0.07181758, -0.11036538, -0.14039926, -0.11351962, -0.090307765, 0.2800925, 1.2939155, 0.13499296, 0.3841171, 0.3008869, -0.45195502, -0.67585707, -1.0277143, -0.04569815, -0.16842975, 0.008900246, 0.8602184, -0.31528044, -0.6172423, -0.41365346, 0.13333704, 0.4362887, 0.16500092, -0.5530172, 0.4272624, 0.30236754, -0.6162655, -0.50938916, -0.008858234, -0.44431996, -0.9602313, -0.30321768, -0.19629315, -0.12386095, -0.113852866, 0.13654543, -0.4458553, 0.038615756, -0.37451613, -0.30343592, 0.058034856, 0.04034812, -0.13102837, -0.09593549, -0.39284804, -0.855925, 0.25887874, -1.3194314, -0.4315349, -0.30133113, -0.16650781, 0.11659367, -0.60019606, -0.09361523, -0.26507828, -0.34197444, 0.9313422, 0.006739687, -0.034517072, -0.089121856, 0.003441863, -0.33717117, 0.051332228, 0.08744782, 0.051398683, 0.04911656, 0.06655055, 0.0062685367, 0.18504305, -0.17983478, 0.08161755, 0.37826264, -0.054929487, 0.016540432, 0.051320113, -0.14802453, -0.036035012, -0.1432331, -0.075153776, -0.11085511, 0.02350942, 0.06539726, 0.2804343, 0.0330434, 0.00090568117, -0.014079744, -0.07149463, 0.11326288, -0.17257021, -0.082360454, -0.028052047, -0.13873549, 0.052346263, -0.88489306, 0.15257876, 0.122165725, -0.042277254, 0.20129466, -0.10988503, 0.15062028, -0.16314588, 0.02892782, -0.061288327, -0.084108055, -0.08038347, 0.075005524, -0.24549264, -0.14274554, -0.015451614, 0.38668498, -0.20036076, 0.67934597, -0.051795494, 0.6174829, -0.12741992, 0.34002644, 0.2269403, 0.6905827, 0.13676223, 0.51320636, 0.27192062, -0.15313303, -0.44282186, -0.080985025, -0.28573066, -0.13208091, 0.47484043, -0.1923774, 0.53253394, -0.37405583, -0.18470015, -0.19644424, 0.6774485, 0.273765, -0.16971934, -0.52117896, -0.2730594, -0.23860233, 0.6092817, -0.11840752, -0.1270928, -0.03183521, -0.22537632, 0.22045818, -0.18809722, -0.1424496, -0.2002494, 0.0029685658, -0.18991138, 0.14752387, 0.19882226, 0.23805779, -0.29224384, -0.09442587, -0.24822533, -0.0439989, -0.076287195, -0.27524865, -0.27628532, -0.076959714, -0.08640327, 1.3232485, 0.2604635, -0.087666385, 0.48426145, 0.046774264, 0.69101423, 1.1887503, -0.21488906, -1.1283277, 3.9605463, -0.17203762, 2.517385, -0.05991443, -1.9956542, 0.02793323, 0.30854297, -0.15619895, 0.23050019, -0.8937777, -0.41630134, -0.015853684, 0.041033376, 0.0067148516, 0.108161196, 1.6016674, 0.103377014, 0.983403, -0.12980396, 2.1181712, 0.28453574, 0.09243238, -0.04339235, 1.823683, 0.052178387, -0.09103017, -1.4650803, -0.26635948, -2.2313843, 0.037017927, -0.12351692, -2.205984, -0.26917687, -0.04181524, 0.6956273, -1.67625, 2.2180421, 2.6981905, 0.69828916, 1.192863, 0.5166001, 0.053000256, -1.5322783, 0.9581075, -0.82315093, -0.08763399, 0.23730846, -0.33384195, -0.6664206, -0.67769754, -0.91652644, -0.86633724, -1.5034186, 0.29723272, 4.046753, 0.057447944, -1.3298582, 1.3558848, -0.016654879, -0.47405168, -0.5920754, -0.09454685, 5.3722334, 0.19924183, -0.36151174, -0.09994126, -0.28131783, 0.54648256, -0.37265944, -3.4434998, 0.37704405, -0.041557655, -0.41600063, -1.3875854, 1.3366601, 5.7652035, 0.26479042, 0.43540084, -0.031940494, 0.11309428, -0.6965842, -2.7679648, -0.20237261, 0.001112417, 1.3921866, 0.14039066, -0.5346629, 2.3743052, -0.1801861, 0.035572827, -0.011000039, -0.09967838, 0.002118603, 0.33721226, 0.0645853, 0.10115392, 0.018876411, 0.21492063, 0.06753103, 0.16405965, -0.056126602, 0.59333676, -0.084980436, -0.19629441, 0.031045768, 0.7246575, -0.15311703, -0.07085298, -0.009851655, -0.37837392, 0.11753424, -0.09124059, -0.93573165, -0.017669763, 0.031160258, -0.17806408, -0.079217754, -0.832798, -0.14162344, -0.010049561, 0.094634905, 0.05442507, -0.050204452, -0.014027004, 0.101365, -0.08249932, 0.7953859, 0.21106945, 0.008164969, 0.11184375, -0.06404189, -0.85684943, -0.07897663, -0.08198621, -0.15086253, 0.09101937, -0.81446284, -0.007940988, -0.005946579, 0.5330085, -0.11803776, 2.7017894, -0.036904056, 2.7528472, -0.1609604, 0.44490203, -0.296738, 1.2122444, -0.44158244, -0.053205337, -2.623332, -1.1205165, -3.1097379, -0.0705243, -0.11872521, -0.007009194, -2.7349277, -0.8147853, 3.392688, 2.2579513, 0.39229825, 0.13334729, -2.7035475, 0.37270764, -0.0461002, 1.6585616, -0.15618454, -1.9958682, 1.0915333, -0.34430555, -0.0065433537, -0.33434424, -0.2632843, -0.4090038, -0.082256764, 0.03946153, 1.0768737, -0.06663554, -0.065391056, 3.9210112, 1.5343782, -1.3551196, -0.054131243, -0.24241176, 0.48455542, 0.24796683, -1.5073535, 0.4516189, 0.099833846, -0.012469428, -0.061192088, 0.85561603, 0.22281744, -0.44328496, -1.0955241, -0.09839575, 0.40606332, 0.6808416, -0.15229538, -0.7606444, -1.1871834, -0.004698518, 0.08504723, -0.2206973, 0.60571676, -0.034251567, 0.47833678, -0.24563062, 0.028506776, 0.89204943, -0.47001922, -0.19383577, 0.10522695, 0.118442185, -0.08834056, 0.08229312, -0.06997918, 1.2468672, -0.0042534675, 1.4082837, 0.5218157, 0.22281791, -0.0546554, 0.71458787, -0.15796968, 0.040956642, -2.0022945, 0.1891029, 1.0882138, -0.07418208, -0.06967648, 1.5587195, 0.20835479, -0.020531766, 0.18068606, -0.30384564, 0.32303977, 0.39177513, 1.7115777, 0.3224988, 0.19261551, -0.5955331, -1.60436, 0.6159459, -0.7319057, -0.011269661, -2.3117716, -1.84905, 0.07567355, 0.5276426, 0.58969617, 2.9509068, -1.6691955, 0.2217358, 1.4244384, 1.8774583, -0.12860788, 0.22455527, -0.045527846, 1.815093, 2.0215604, -0.08994189, -0.05894277, -0.03796926, -0.29393739, 0.13636257, -0.35389972, -0.16416322, -0.13270664, -0.22042933, -0.02951618, 0.0067934394, 0.08377955, 0.7796411, 0.48246217, -1.2919345, 0.0909677, 0.7949562, -1.7095828, 0.3409001, -0.14994818, -1.0240277, 0.110368334, -0.16748834, -0.532086, 0.002648545, -1.1805813, 0.64546126, 0.011022515, 0.0035236066, -0.096541345, -0.10005965, 0.090684466, 0.11685518, 0.044673678, 0.10320646, 0.0076520727, 0.13735075, -0.029000811, -0.13638431, 0.33491465, 0.45161688, -0.05769177, -0.21902223, -0.010854057, -1.0246673, -0.060918782, -0.096430115, 0.010500585, -0.17155688, 0.14971326, 0.71859425, 0.025058417, -0.122259006, -0.1606978, -0.18786612, -0.029263472, -0.4199851, -0.17560646, -0.061174367, 0.11673429, -0.017357744, -0.035656236, -0.6586529, 0.017891016, 0.18855153, -0.16657759, 1.5519007, 0.034363266, 0.10678262, -0.02573578, 0.22003947, -0.14817004, 0.07475523, -0.072474934, -0.073631786, 0.055238377, -0.083941646, -0.04943785, 0.06310967, -0.11416935, 0.66530645, -0.22202557, -0.63664854, 0.030057125, 1.0120583, 0.31210017, 0.8795668, 0.19681734, 0.74819195, -0.8316741, -0.5208609, -1.5073634, -0.01739059, -0.02068109, 0.0033087481, -0.32291636, -0.14709969, 0.79982054, 1.6439861, -0.5008213, -0.14334594, 1.6328576, -0.6205297, -0.18706329, 0.06811185, -0.12737884, 0.04516767, 0.33746973, -0.2720548, -0.08982434, 0.08413343, 0.6364296, 2.0560656, -0.08500478, -0.07228441, -0.009372818, 0.05015383, -0.17555153, 1.6161522, 1.1098382, -1.1131089, -0.11917943, -0.45185715, -0.35879505, 0.13699113, -0.15999925, -0.2736923, -0.05164914, 0.07975081, 0.060195807, -0.15142275, -0.49983704, 0.6880041, -0.7770915, 0.09551824, 0.30670223, -2.2711363, 2.6783175, 3.0161905, -2.704431, 0.032992538, -0.49811038, 0.3790084, 0.44012395, 0.154943, 0.550599, 2.276938, 0.24103132, 1.0290238, -0.059115972, 0.0051563736, 0.6857258, 0.0885473, -0.4324476, -0.124807216, 0.05576478, 0.45638707, 0.16614811, -0.6846454, -0.68573374, 0.42401394, 0.21365027, -0.24071492, 0.09162724, 0.0706369, -0.77762425, -0.1994827, -0.15157239, 0.15534161, 0.3020949, -0.14045918, 9.271668, -0.018757002, -0.33898777, 0.19162463, -1.8817365, -1.460898, -0.10078732, 1.046771, 0.5891396, 0.7066546, 3.1626382, 4.0022, 0.039482586, 1.3348731, -0.71921724, -0.3651478, 2.719068, 0.41089883, -0.09825928, -0.017142696, -2.362301, 3.015691, 0.11938759, 1.2255534, 1.8607682, 0.4402665, 0.61838055, -3.7952888, -3.0766108, 0.15964498, -0.82306755, -0.3298779, 0.3204322, 0.50904655, 0.4798684, 0.3080039, 0.860047, 0.73135823, 1.4948106, -1.2100056, 0.6272567, -1.5351652, 0.24503712, -0.9411861, -0.67886555, -0.42529613, 0.36592802, -0.87097114, 0.57710713, -0.85985214, 0.93589556, 0.20609328, 0.033844095, -0.5386859, -0.074700095, 0.20739312, 0.18593732, 0.23467079, 0.18915781, 0.647047, 0.031413503, -0.019151717, -0.054767106, -0.013203517, 0.03640592, -0.28460884, 0.09748453, -0.07387599, 0.47083703, -0.3051381, -0.22238578, 0.23675247, 0.06394327, -0.11631304, 0.0062616947, 0.53473085, 0.48335457, -0.23258641, 0.061073113, -0.31355613, -1.8790365, 0.13244055, 0.15701778, 0.09924223, 0.090878405, -0.34142587, 0.1728251, 0.10342211, -0.060965534, 0.009037801, -0.011924347, 0.31303322, -0.07025957, -0.02931621, 0.13661097, -0.2888264, 0.1305654, -0.012553903, 0.087338835, 0.099477865, 0.16297026, -0.021996908, 0.19105862, 0.28639358, -0.46833256, 0.14959697, -0.022711946, -0.24827, 0.017690869, -1.2827077, 0.18503144, 0.51497227, 0.091346435, -1.265284, 0.30883774, -0.41525432, 1.0703738, -1.8701086, 0.7302478, -1.6898171, 0.42253113, 0.05836426, 0.4235023, 0.42927557, 0.73567754, 0.35182807, -0.995272, 0.08886943, -1.0844682, 1.1252817, -0.3748851, -0.15401319, 0.2828415, -2.007762, 0.36825618, 1.3120961, 0.777005, 0.118709885, 0.23378105, -0.059373837, 0.094655745, -0.36317298, 0.5541386, 0.24681045, -0.97005737, 0.64870673, 0.2987993, -0.491429, 0.17555453, -0.53855824, 0.3743573, 0.22427331, -0.58638865, -0.29571432, 1.1448189, -0.46117547, 0.45622724, -0.006310539, 0.000574177, -1.1507566, 0.17049997, -0.84160215, -0.7241105, 0.12326326, -0.6567899, -0.4996739, -0.20265979, -0.08787239, -0.73970014, 0.05644405, 0.088465035, 0.01825342, -0.34681952, -0.045434207, 0.1307186, 0.7453832, -0.098822385, 0.014264416, 0.38000968, 0.14420159, 0.15315272, -0.030813502, -0.46895602, 0.046400864, 0.0623028, -0.86767477, 0.11742144, -0.50811094, -0.17448714, -0.040638063, -0.06902687, -0.9254226, 0.04628441, 0.044653688, 0.39150253, 0.10944266, -0.22611812, 0.020934584, -0.0680535, -0.481796, -0.15896033, 0.03229032, 0.1441701, 0.036718618, -0.9686808, -0.39634937, -0.65718275, -0.4056941, 0.7875974, -0.041650344, 2.0531957, 1.2513014, -0.02725154, 0.012660796, -0.2708767, 0.29092047, 0.3804812, -0.007203866, 0.13812326, -0.17207614, 0.12169994, 0.97765803, -0.13643336, 0.019042408, 0.6570927, 1.4906882, -0.04182958, -0.22144128, 0.57325417, 0.36053914, 0.6005671, 0.34866154, 0.22034091, -0.24095194, 1.0571303, 0.07435455, 1.3630788, 0.16873454, 0.14298746, 0.18020487, 0.6573034, 0.6640588, 1.242189, 1.8557268, -0.14365356, 0.58216316, 0.17124401, 0.08948171, 0.05420665, 0.7919193, 0.27634117, 0.17131072, 0.57675326, 0.18796417, -1.3276352, 0.23539147, 0.079153284, -0.05890674, -0.20778494, 1.1221383, -0.04019355, -0.13165975, -0.08057, 0.04271332, 0.084758736, 0.093937874, 0.057253923, 0.18130533, -0.014143692, -0.47871098, -0.19705766, -0.09249872, -0.13682306, -0.075002044, 0.17363177, 0.053949, 0.1323054, -0.05951406, 0.05873812, 0.019900706, -0.64879125, 0.14222275, -0.05474431, 0.25603774, -0.05274769, 0.27496913, 0.20354865, 0.0013986742, -0.020546567, 0.19412492, 0.029385252, 0.76913464, -0.0051305722, 0.0895415, 0.121966235, -0.024213048, -0.041966934, -0.09111599, 0.06421633, -0.12108848, -0.055207595, -0.033001978, 0.07427544, 0.05313337, 0.07927714, -0.052662212, 0.010906543, -0.19316682, 0.0076815146, -0.326472, -0.14379686, -0.39948365, 0.064418375, -0.55170745, -0.51700085, -0.22081369, -0.1207556, -1.1173024, -0.4642002, 0.27507728, 1.8501403, 0.038725704, 0.1398281, -0.060798865, -0.37978017, 0.05257314, -0.8170318, 0.34069243, 0.26144493, -0.08670284, -0.010928071, -0.4401553, 0.060882423, 0.30897123, -0.015230199, 0.14899324, -0.9919974, 0.21755564, 0.12293376, 0.37656352, -0.14475957, -0.03426988, -0.013034262, 0.16720845, 0.16199197, -0.13718328, 0.007486868, -0.3711012, 0.15925166, 1.0507413, -0.030734593, -0.73161834, 0.16597252, 0.31474185, 0.040634446, 0.40197206, -0.087469116, 0.16045572, 0.0007544486, -1.4089434, -0.30838957, -0.4807881, -0.42537323, 0.13883753, -0.47199535, -0.73308533, -0.016087603, -0.011846078, -1.1116208, -0.22636394, 0.023883091, 0.2870665, -0.55832297, 0.26014027, 0.06969645, -0.15759937, -0.097536005, 0.015338302, 0.24259908, 0.09557676, 0.27394524, 0.11620805, -0.4678065, 0.051896296, 0.09974882, -0.40185243, 0.21912025, 0.14131646, -0.35830334, 0.21461101, -0.050648555, -0.40787613, 0.0033719414, 0.10093151, -0.1517252, -0.12286163, -0.39496815, 0.1374061, 0.06619052, 0.15057653, 0.15807988, 0.10333365, 0.3387769, -0.3237458, -1.256, 0.0072740437, -0.27059215, -0.053660955, 0.62199306, 0.55690336, 1.0872291, -0.13623804, 0.15860826, 0.19221196, -0.80814165, 0.23467608, 0.49593973, 0.5890216, -0.055779725, -0.5553278, -0.38339105, 0.124186896, -0.17725633, -0.28388375, 0.48715803, 0.5086807, 0.06488625, 0.50451416, 0.9094628, 0.10098824, 0.28110906, -0.007633443, 0.12833038, -0.17132857, 0.29581738, 0.03883687, 0.010485827, 0.39121026, 0.2233643, -0.13898349, -0.12308505, 0.117243, 0.15826444, 0.75179094, -0.20861694, 1.4361367, 0.43945754, 0.3242483, 0.12944882, 0.072421126, 0.37661153, 0.29367533, 0.3222119, 0.0032486375, -1.0914379, -0.21351016, 0.026427632, 0.20395626, 0.07586261, 0.2797047, -0.043467466, -0.103491984, 0.05332032, -0.036155175, -0.025442852, -0.05858755, -0.14893174, 0.32834837, 0.12635238, -0.3689949, 0.05453175, 0.018221496, -0.11457048, 0.020117348, 0.20548962, 0.16363378, -0.08114364, 0.02490136, -0.03387099, -0.03790675, -0.40759426, 0.029227223, 0.13835229, 0.28560266, 0.13015756, -0.09618372, 0.029197203, 0.24984773, -0.07644773, 0.14815976, 0.03822124, 0.80836827, -0.0036358647, -0.035996955, 0.076503664, 0.030660298, 0.035437442, -0.09475971, 0.18612388, -0.06252663, 0.03347893, 0.053518526, 0.08787215, 0.033537023, 0.11920234, 0.056221236, -0.10644024, -0.469444, 0.101734236, -0.26891404, 0.13164246, -0.5723687, 0.2678821, -0.46288386, -0.15935256, -0.47263765, -0.2067785, -0.007957888, -0.36504427, 0.16315062, -0.33609375, 0.10558428, 0.17498617, 0.49496436, -0.60350984, -0.07992733, 0.09993931, 0.32851702, 0.25445047, 0.20572156, -0.65002596, -0.19088411, 0.25238442, 0.18343952, 0.057006665, 0.4424262, -0.28394723, 0.23256855, 0.17501207, -0.3617646, 0.20396861, -0.1697921, 0.09862319, 0.13484487, 0.09594064, 0.043553934, 0.14986643, -0.10438612, 0.29026613, -0.6174162, 0.024737667, -0.071572, 0.3706204, -0.20748389, 0.07932622, 0.34925455, 0.15106426, 0.29552838, -0.117535785, -1.2744206, -0.34621, 0.26529464, 0.76991624, 0.28318244, -0.5690239, -0.26762062, -1.5826547, 0.544206, -3.940037, 0.10573635, -1.4133639, 0.10396322, 0.02827511, 0.18792897, -0.64115655, -1.5261704, -0.053078283, 0.7637216, 0.5326208, 0.12891996, -0.27398765, 0.24388197, -0.4914635, -0.5489901, -0.04119354, -0.64784783, -0.024346193, -0.7326154, 0.9862386, 0.79585224, 0.1535993, -0.79979867, 0.15813608, 0.103171185, -1.6432883, 0.07231941, 1.0290372, 0.09993782, 0.08322933, -1.811988, 0.45815003, 0.16370043, -0.8501717, 1.8226584, -2.6331308, -2.900218, 1.5713344, -1.2965533, 0.52489793, -1.6881161, 1.740346, 4.692921, -0.86846995, 0.3221581, -2.952589, 1.4733468, -0.9657073, 1.3528899, -3.6282623, -0.5815328, -0.40153748, -0.63613856, -0.88649565, -1.2595968, -0.49464837, 0.26348436, 0.25805813, -3.493929, -2.8252327, 0.116436124, -2.36228, -1.479722, 0.028105944, -0.46759525, 0.3041343, -0.4187125, -1.109892, 0.13491833, -0.5851935, 0.24294254, 0.65251267, -0.15479657, -0.2411171, 4.6231313, -0.22845623, -0.5128181, 1.0075791, -0.33501062, 0.47581077, -0.75870025, 0.16285838, 0.46021554, 0.4113146, -0.6228657, 0.7953987, -3.5149894, 0.14940903, 0.25128454, -0.013452265, -0.42809924, -0.0015520891, -0.3997878, -0.009680467, -0.10751606, 0.057824574, -0.1249576, -0.46646488, 0.4030224, -0.63089305, -0.32805234, 0.023873962, 0.46620128, -0.067991175, 0.047138218, -0.052361045, 0.019273778, 0.12311223, 0.16618462, -0.10091368, -0.18830249, -1.2889924, 0.17018695, -0.048547596, 0.35579425, 0.08548612, -1.0879017, -0.10569516, -0.022890164, 0.008466285, 0.24701144, -0.042290818, 0.37798807, -0.09844563, -0.15694848, 1.3860408, -0.54078174, 0.04224354, -0.33369404, -0.020247752, -2.567726, -0.046714664, 0.07596945, 0.07133392, -0.2179118, 0.85540676, 0.10748809, 0.059626173, 0.35150325, 0.13341811, -1.987864, 0.05436852, -2.3164418, 0.2202718, -0.4290262, -0.41754797, -0.59729403, -0.477746, 1.9711332, -0.8666575, 1.2763598, 0.37367514, 0.1258441, -0.050484702, 0.1261059, 0.20429517, -0.6206995, -0.82236916, 0.61083955, 2.4452567, 0.4011259, -0.8123555, -0.42283192, 0.052717503, -0.021684617, -0.021292647, -0.07815649, -0.6710261, 0.4305603, 0.22141641, -0.53225076, 0.028337069, -3.7567198, 0.24834229, -0.017030265, 1.2695354, 0.18455926, 0.07053632, -0.43941188, 0.33567908, -1.3013295, 0.16494791, 1.5190468, 1.1048988, -1.4290477, -0.22213246, 0.18416089, 0.043133184, -0.16108426, -0.089981504, 1.387149, 0.28519696, 0.855778, -1.149068, -0.06734898, 0.8244383, 2.1376324, 0.30760995, 0.14753687, 3.610603, -0.2098029, -0.045585662, -0.10821503, 0.3733703, -0.16165347, 0.5115745, 0.5955393, 0.07597051, 1.4240551, -0.5598686, -0.02239136, 0.26217324, -0.20166023, -0.055583213, 0.28290355, -0.020441467, 0.5536654, -0.028400598, 1.1127238, -1.0315609, -0.033343207, -0.019140644, 1.2140344, -0.089432225, -0.021726029, -0.9700532, -0.023107631, -0.25435656, 0.015795557, -0.15270355, -0.022559755, -0.8004598, -0.31771183, 0.23628804, -1.7466935, -0.03922922, 0.16750397, -0.2948939, 0.7899973, -2.9586267, -0.53762686, -1.5734584, 0.30823624, -1.831207, 0.33165637, 2.086274, 1.0703946, 0.008341313, -0.49503824, 0.7480704, -0.12835073, 0.9868973, 0.3656887, 0.7389832, -1.4587526, -0.12420598, 0.4552683, 0.13371181, -0.21778944, -2.128374, -0.042501424, -0.08009658, -2.3804264, -0.008355606, 0.4309686, 0.111777686, -0.0987889, -2.5430734, 0.7534364, 0.50681686, 0.057220325, 0.12556046, 0.20032625, 0.22591668, -1.399758, 0.3413077, 0.46208012, -0.18450554, -1.0770456, -0.2746624, -4.3381557, -0.8675069, -0.82457316, -0.4305465, -0.20409718, 0.16301058, 5.292513, -0.060638383, -0.042179417, -0.056049824, -0.069253154, -0.06702218, 0.37497154, 0.021162922, 0.085050456, -0.17737317, 0.057216782, 0.22322102, -0.0006607858, 0.70050836, 0.19917715, -0.033980798, -0.1485007, -0.018904276, 0.050991893, -0.041865997, -0.12646785, 0.16024601, -0.008370144, 0.0047156764, -0.43612307, 0.093737684, -0.019083979, 0.012193589, -0.26717764, 0.050912995, 1.1642412, -0.13863239, -0.007602925, -0.08561264, -0.15232763, -0.06383448, -0.7833098, -0.06871898, 0.06448822, -3.5737572, 0.034980725, -0.10146432, -0.06605242, 0.10496522, 0.27721494, -0.12587741, 0.05597772, -0.09334117, 0.2765025, -0.40463215, 0.0123249795, 0.03778553, -0.56113666, 0.0026007625, 1.4379158, -0.1672395, -1.4558697, -0.29337874, -1.00363, 0.5588033, -0.043346055, 0.39852598, -1.9339513, -0.23101495, 0.52455115, 0.3409383, 0.06918521, 0.13958728, -0.1769345, -0.1463105, -0.13048793, 1.3436381, 0.5324775, -2.8628988, -0.07025371, 0.13961823, -0.37399077, -0.113102406, 0.07063846, -0.012124379, -0.3074102, 0.8037954, -0.24492726, -0.067035414, 0.30437523, -0.611253, 1.2950635, -0.26054156, -0.1272264, -0.43101457, -0.016532367, -0.08670859, -0.7148015, -0.3948411, 0.028039392, -0.027472993, -0.219587, -0.11612054, 0.39766398, 0.22079659, -0.14324786, -0.28126502, 0.009999953, -0.099424556, -0.7339414, -0.16860187, 0.63967955, -1.7137386, 0.11193386, 0.3376086, 0.64873755, -0.043071363, 2.720895, 1.2606016, -0.08505134, 0.32787058, 0.3732722, -0.40663594, 0.1298521, -0.054689873, -0.24460758, -0.17799635, -0.58415824, 0.3351951, 0.15946224, 0.083448105, -0.028553981, -2.261532, 0.13559696, 0.22906755, -0.5142428, 0.2287318, -1.2668256, 0.77884245, -0.22360028, 0.2604723, -0.1680775, 0.12596652, 0.07940686, 1.3201096, -0.19184408, -0.31201002, 0.18704735, 0.14351086, 0.8557302, -0.06524358, -0.17356609, 0.21907343, 0.3157709, 0.020412246, 0.081991896, 1.741911, -0.13236545, -1.0365255, 0.3977685, 0.67078507, 0.53842455, -0.030888947, 0.15164413, -0.9019913, -1.1124972, -0.10448327, -0.58717185, -0.3929014, 0.7086591, 0.31396908, -0.68828064, -0.57152015, -2.0634801, -0.14056295, -2.2649422, 0.123544395, -0.0929515, 1.0206556, 0.19064596, 0.18337727, 1.5323197, 0.23984699, -0.26100683, -1.0504653, 0.4797582, 0.82169074, 0.28370717, 1.0389783, -0.12975904, 0.5967212, -0.30801633, 0.27409086, 0.9195439, 0.027467627, -0.3611085, 0.6267185, 0.22442007, 0.38245866, 0.48761505, 0.91383016, 0.17078075, 1.1971759, 1.3931286, 0.87018025, 0.7832831, 0.12674855, -0.00951408, 0.24331887, 0.13228633, 0.072094716, 0.026740666, -0.012163482, -0.22772269, 0.075740024, -0.3000166, -0.18007512, 0.6955373, -0.099123575, -0.20035139, 0.33308807, 0.27442434, -0.22741574, 0.5510091, 0.09081228, 0.109180614, -0.19765644, -0.26057225, -0.142637, -0.8017639, 0.037354227, 0.11291737, 0.030300442, 0.1431432, 0.05782173, -0.381294, 0.16264188, -0.034557167, -0.041161075, 0.17068157, -0.0673356, 0.9193273, -0.17063944, 0.081413835, -0.033543482, -1.171616, 0.3585285, -0.13939714, 0.0013260916, -0.05943576, 0.14774294, -0.05057042, 0.014941506, -0.0056859846, -0.24850702, 0.052653905, 0.010987784, -1.2046148, 0.123063274, -0.26990768, 0.32992545, 0.76224005, 0.07411736, 0.7769045, -0.15366115, 0.7726718, -0.47381017, -0.32590872, -0.097856015, -0.226036, -0.82369184, 0.17182042, 0.21520571, 0.38933948, 0.4586932, 0.2465191, 0.21803884, -0.48128822, 0.6022614, 0.14172754, -1.9547812, 0.35187867, 0.14517957, 1.2226529, 0.20038085, 0.15753448, -1.2040033, 0.13998778, 0.023565982, -0.17028679, 0.16018942, -0.66297394, 0.45312634, 0.36380646, 0.15143767, 0.009716857, 0.33717158, -0.015393357, -0.4521967, 0.6198859, 0.40796813, -0.36994803, 0.62778604, -0.14889693, -0.042552676, 0.29646498, 0.5106773, -0.16328695, -0.15136085, 0.049297713, 0.38886192, -0.10109514, 3.916487, 0.057694178, -1.0246409, 2.402083, -0.7093682, -2.4053564, -2.3129098, -0.029812735, 0.47812396, 0.19414562, 0.98613477, 0.033018168, -0.3247489, -0.4781851, 0.14207399, 0.3954087, 0.104107775, -0.08303545, -0.30024132, -0.08345644, 1.1814317, -0.47980458, -0.12857617, 0.40540057, -0.067776546, -0.67003065, 2.845987, -0.5922601, -0.23099299, -2.574262, -0.06634774, 0.14552154, 1.4494842, -0.31255344, 3.1723282, 0.03918404, -0.010473781, -0.6799367, -0.89442474, 0.16481197, -1.4465739, -0.09417323, -0.2490956, -0.8235699, 4.022722, -2.17444, -1.819521, 0.036948934, -1.3769019, -1.945368, -2.6113591, -2.2182, 0.5421986, 1.1130947, 1.190336, -0.7262809, -3.3544888, 1.5703398, -4.2584295, -1.0685048, -0.199535, 5.098629, 0.1996302, 0.7680404, -0.5869641, -1.8862913, -2.09745, -0.17155257, -1.4057536, 2.2918944, 0.28587088, -0.19461474, -2.7555852, -0.35010952, -0.16225368, -0.5757014, -1.5607545, -0.20311248, -2.2995777, -0.53587115, 0.5377769, 1.7452145, 0.21067844, 0.2373559, 1.1810004, -0.45789525, -0.14957528, 1.8677282, 1.5847685, -0.15726681, -1.8248547, -2.0008953, 1.118021, -0.12349266, 0.013262384, -0.0791238, 0.023436926, -0.24985018, 0.010366592, -0.02968235, -0.002168421, 0.27215558, -0.07212697, -0.062447872, -0.09751265, 0.9694076, -0.78996515, -0.37954342, -0.0921978, 0.002649068, 0.1574119, -0.23033924, -0.032694064, -0.24969815, -0.4409239, 0.43906686, -0.069122165, 0.6862361, 2.3718832, -0.058259364, -0.035562307, 0.12897211, -0.19733872, 0.41290113, -0.037886232, -0.096906304, 0.05057492, -0.013526356, 0.056033038, -0.64338315, 0.0012628068, -0.040292393, 1.9408013, -1.122321, -0.31719354, 0.09500498, -0.15264513, -1.3131027, -0.031968273, 0.03442299, 0.07364685, -0.31005308, 0.4724873, 0.010353548, 0.09880332, 0.672288, -0.10536488, 1.0697399, -0.14174971, 3.5062435, -0.0658122, 1.2570329, -0.23597486, 0.8610655, -0.5757794, -4.182224, -3.2071097, 2.2691224, -2.7035184, -0.15754475, -0.38916302, -0.11235768, 1.1637615, 0.5313622, -3.1657023, -1.3025905, 0.7711719, 0.015214579, -2.0266476, 2.2486944, -0.032736525, -0.22446856, -0.043700214, -1.8812089, -1.59808, -0.06769649, -0.096219055, -0.45216852, 0.7393758, -1.7931248, -0.0801992, -0.113541715, 0.9290392, -0.09474436, -0.043502204, 4.2650237, 0.54815364, -1.8851168, -0.19434544, -0.38293636, 0.25213182, 1.2953024, 0.46295834, 0.061892755, -0.1328438, 0.046113975, 0.11351952, -1.2438346, 0.4884563, -0.050313536, 2.4033926, 0.50900733, -0.13193128, -0.5726789, -0.0642796, 1.7115649, 1.9878521, 0.2030533, 0.04263639, 0.55990726, -0.15009537, 0.29728684, -0.23923121, 0.0833434, 0.25277042, -0.38366264, 0.17414275, 0.20463072, -0.018869357, 0.1778013, 0.7277739, 0.18641703, 0.53480417, -1.1202217, 0.17416416, -0.23210959, 0.6496827, 0.8033318, 0.42084947, -0.2546503, 0.122807905, 0.7583421, 1.337738, -0.11921482, -1.3074234, 0.106991485, 0.15551707, 0.105096, -0.15831865, -0.10538575, 0.08712363, -0.630312, -1.3735311, -0.12591338, -1.2200686, -0.17789686, 0.9995419, 0.94537616, -2.0035994, 0.17779689, 2.4703248, -0.11873729, -0.15011771, 0.8618726, 0.44153202, -0.69166994, -0.27724653, 1.9476715, 0.9506449, -0.23977378, -0.54965335, 0.33119053, 0.66814864, -0.15974395, 0.43721288, -0.91830206, -0.12819102, 0.17343467, 0.3143861, 1.1707364, 0.1513027, 0.21656658, -1.2222039, 1.0253543, 0.27970502, 0.33492872, 0.9229265, -0.2581297, 0.5077006, 0.09734406, 0.17906289, 0.4718736, -0.69486976, -0.9164747, 1.9856161, 1.0178635, 1.1650549, 1.6189152, 0.55782557, 0.24296309, 1.6512804, 0.23170036, 0.40909085, -0.568972, -0.14043348, 0.27765858, 0.13732131, 0.09079243, 0.044296034, -0.18216603, -0.045579698, -0.058369607, -0.096838795, -0.20174932, -0.0251601, 1.0952821, -0.089422, -0.3739525, 0.069098, 0.10887606, -0.19096051, 0.14745715, 0.12847513, 0.59270406, 0.13283128, -0.483933, 0.033347, 0.15926632, 0.006849307, -0.076384224, 0.21636778, 0.08873558, 0.08282178, -0.21045966, 0.0554832, -0.011077288, 0.031113878, 0.15740776, 0.11086195, 0.81212527, -0.15215631, -0.5688451, -0.1450052, -1.3947548, 0.34821025, -0.01764381, 0.012931692, -0.0836816, 0.049044594, 0.089519635, 0.03994415, -0.043025933, -0.2552381, 0.10001601, 0.028226353, -0.6559581, 0.15123828, -0.3881527, 0.2861371, 0.0031382157, 0.21631457, 0.3186256, -0.18646868, 0.4160477, -0.36690497, 0.36260143, -0.7681976, -1.2729506, -2.5662434, 0.08155312, 0.29462433, 0.1993618, -0.42309874, 0.45291486, -0.18906926, 8.172036, -0.2573006, 1.4399438, -2.5839467, 3.1352158, 0.58644795, 0.7974061, 0.24312541, 0.07052105, 0.9162884, 0.36013174, 0.17457601, -0.42964476, -0.4776097, -1.1909546, 0.8463723, 0.79502803, -0.42233926, 0.77793163, 0.39935115, -0.015171756, -1.196514, -0.11880793, 0.594234, 0.1872471, 0.89210624, -0.11967539, -0.12037883, 0.22811675, 0.91099757, 0.056813467, 0.020732561, -1.3030366, -0.2486337, 0.40277368, 0.49055004, -0.020877458, -0.28686696, -1.4799439, -0.09579481, 1.1107757, 2.0172594, -0.047083955, 0.3106264, 0.22346823, 0.014154764, 0.17434427, -0.29803786, -0.14509676, -0.06914682, -0.74612683, 0.37619564, 0.30426094, 0.11325144, 0.10796481, -1.0816994, 0.0113916965, 0.06300974, -1.4210972, 0.19147792, -0.051689778, -0.2869403, -0.10089424, 0.2440978, -0.7061511, -0.03818897, 0.097713165, 2.9430988, -0.26967904, -0.68506247, 0.10489956, 0.07820607, -0.26229474, -0.9389797, -0.13757382, 0.088563, -0.65335834, -1.4346206, -0.1992543, -5.281126, -0.41438448, -1.2631427, 0.48052934, 1.0500798, 0.9033827, 2.421771, 0.04867342, 0.032890685, 0.71958804, 0.04100597, -0.11984386, -0.36905587, -0.64872056, -0.055647213, -0.14848085, -1.3688004, -0.5782741, 0.19879954, -0.64884084, 0.38048285, -0.8219597, 0.65524065, 0.21335346, 0.29008737, 1.442297, 0.33553824, -0.04382238, -1.3313751, 0.3955468, 0.5601358, 0.3456376, 0.79301506, -0.12866658, 0.27515557, -0.5101805, -0.03536514, 0.33138573, -0.4417227, -0.20896015, 0.519868, -0.043299183, 0.21095446, 1.0285047, -0.6397953, 0.3186075, 1.8434997, 0.21840747, 0.15315464, -0.47659436, 0.22275367, 0.2887495, 0.2189971, 0.1347214, 0.0060235574, -0.15831423, -0.05160925, -0.0530991, -0.038390726, -0.23506075, 0.030782884, 0.047178455, -0.03612445, -0.5230115, 0.028873414, 0.23281659, -0.278502, -0.5999201, -0.025122592, 0.17898901, -0.028763054, -0.3497642, -0.047326386, 0.5913178, -0.022422316, 0.20529166, -0.011162129, 0.10995932, 0.19725418, 0.041159514, 0.06366911, 0.0034939686, -0.09221346, 0.11614307, -0.21344055, 0.92190707, -0.064461514, -0.111923225, -0.0300343, -1.8552616, 0.3182517, -0.08140369, 0.060569763, -0.22831589, -0.03144066, -0.0350731, -0.008162986, -0.1533662, -0.0944257, 0.08743967, -0.07393627, 0.08708545, 0.25827286, -0.41150197, 0.19771701, -0.1833153, 0.07008651, -0.098792955, -0.12616222, -0.40267268, -0.20388298, -0.18347603, 0.5211037, -1.7453889, -0.53187436, 0.18223095, 0.3348324, 0.45915356, -0.34251687, 0.061739653, -0.6368516, -1.7390268, -0.00048742606, 0.29230428, -2.1801572, 0.8953528, 0.13738953, 0.48800978, 0.14343375, 0.19355689, 0.4457396, 0.23735541, 0.13272165, -0.36523336, 1.1010038, -1.2476577, 0.117815465, 0.2640735, -0.09349974, -0.029229125, 0.23468314, -0.5257551, -0.7380392, -0.07740509, 0.11219613, 0.88629854, 0.39575365, -0.17776884, -0.21831569, 0.3203157, 0.4111628, -0.104216255, -0.18904673, 1.4042823, 0.28663442, 0.38468537, 0.8468668, -0.121933766, 0.25126213, 0.7971581, -0.20182547, -0.13091975, 1.0152323, -0.105460815, 0.18691249, -0.24853455, 0.68141925, 0.0037527913, -0.17744975, 0.23836471, 0.025589332, 0.2154971, -0.3047752, -0.04219137, -0.40610763, -0.02671063, 0.27989194, -0.15556894, -0.0687075, 0.54981834, -0.2721811, 0.16924891, 0.5138549, -0.10917295, -0.35764202, -0.089993395, -0.01907402, -0.021283371, -0.18221325, 0.62453306, 0.51272595, -0.13087, -0.14314215, -0.13595934, -0.26438266, 0.021181565, 0.23022212, 0.37091053, 1.1499612, 0.2802849, 0.36378053, 0.23259224, -0.5430222, -0.61656356, -1.2452873, 0.011249544, -0.06301494, -0.13189836, 0.8835206, -0.083897956, -0.2506076, -0.66706026, 0.16823521, 0.31726983, 0.12402281, -0.16961548, 0.2771955, 0.28594032, -0.49583346, -0.5733216, -0.87715554, -0.7037739, -0.7660383, -0.21009706, -0.32967725, -0.094282426, -0.022703944, -0.060664836, -0.36560196, -0.03131018, 0.039704487, -0.44439805, -0.29123408, 0.08649644, -0.77898276, -0.11601028, -0.27355555, -0.80764145, 0.53631413, -1.4448787, -0.2496819, -0.18564047, -0.469437, 0.25701654, -0.53263956, -0.21328722, -0.41828436, 0.05715803, 0.94777846, -0.028477293, -0.01702539, -0.30385402, -0.22154014, -0.17890926, 0.11368195, -0.11739461, 0.13754961, 0.013908727, 0.015417777, 0.28037632, 0.046881016, -0.31460804, -0.13494648, 0.55269736, -0.051065493, -0.039899245, 0.27557862, -0.21628338, -0.023224011, -0.22664079, -0.15847263, 0.37858582, -0.0661193, 0.07006936, 0.40926018, -0.27356067, -0.1874635, -0.19931157, -0.08899695, -0.06957193, -0.19355808, -0.13624434, -0.026662199, -0.026602954, -0.017102737, -0.24575374, 0.12584889, 0.020122632, 0.1050749, 0.1078939, -0.20996274, 0.057688423, 0.026002921, -0.11104357, -0.24135005, -0.08981102, -0.052680634, 0.10202389, -0.29347792, -0.043549795, 0.038832255, 0.61788267, -0.11357993, 0.24375476, -0.22772309, 0.4165092, -0.19937098, 0.4088034, -0.01667074, 0.5460478, 0.36204857, -0.008972571, 0.28122002, -0.1263558, -0.015843978, -0.18346891, -0.42018503, -0.5372561, 0.42809826, 0.1524159, 0.8836686, -0.39135554, -0.07164993, 0.032009665, 0.6620427, 0.16617712, -0.24548937, -0.54674435, -0.20441933, -0.00071850437, 0.7994522, -0.11776732, -0.17111476, 0.4697594, -0.07782663, 0.09111278, -0.44214952, -0.36951715, -0.16897093, 0.13595039, -0.15362737, 0.17238036, 0.16163428, 0.77758306, -0.21706651, 0.14711551, -1.7405757, 0.19741885, 0.012879466, -0.4587469, -0.3960019, 0.0024662425, 0.08955527, -1.1695098, -0.34434974, -0.6484175, -0.43233794, 0.17067207, -0.5254334, -1.0527246, -0.051989216, 0.2268856, -1.2138336, -0.031684373, 0.2599417, 0.3019079, -0.5113551, 0.0063620387, -0.015863474, -0.1282084, -0.08860925, 0.13853662, 0.32262078, 0.12875344, 0.20801067, -0.0697136, -0.3890472, -0.025139196, 0.078747734, -0.4482775, 0.08701342, -0.38569796, -0.14220105, 0.08377259, 0.055557083, -0.5705995, 0.057867106, -0.027800305, 0.36796322, 0.05002569, -0.20145723, -0.010586182, -0.009647866, -0.46752387, 0.052156243, 0.26942217, 0.0033089274, -0.2557315, -1.2266985, -0.26037797, -0.36212757, -0.2992378, 0.81825817, 0.78148526, 1.7316538, 0.29115123, 0.34175792, -0.20273317, -0.75970894, -0.04777555, 0.5241029, 0.48398048, -0.037386376, -0.25419918, 0.09037387, -0.1282537, -0.08394881, -0.09890516, 0.6343538, 0.6803846, -0.07838336, -0.044880886, 0.682771, 0.17384772, 0.2493598, -0.007397138, 0.31242847, -0.08327024, 0.73243594, 0.11535346, 0.5344808, 0.31296086, 0.1131604, -0.22414446, -0.14198616, 0.4495905, 0.23122676, 1.2814448, -0.2683451, 0.551678, 0.84577, 0.24146423, 0.16064562, 0.4575794, 0.44443014, 0.12962145, 0.64259505, 0.30161542, -0.8566571, 0.043166738, 0.16382994, 0.0049929703, 0.12527227, 0.21156365, -0.066303015, 0.048957933, -0.023971107, -0.034917697, -0.041144688, -0.07108318, -0.03201167, 0.47244278, -0.092244536, -0.34364533, -0.027876945, 0.12213376, -0.119073875, -0.084633574, 0.1038423, -0.03304991, 0.16218632, 0.1820509, -0.032909904, -0.11512438, -0.39458838, 0.16615953, -0.03544825, 0.1743192, -0.0068412526, -0.24434423, 0.18159483, 0.082680166, 0.04781095, 0.0021991145, -0.09446918, 0.91625345, -0.06289526, -0.0867486, 0.23183711, -0.19496174, 0.15840353, -0.11733347, -0.031578586, -0.21786071, 0.07976341, 0.11630117, -0.113942795, -0.028033959, 0.080871016, 0.21900262, -0.060447615, 0.106641784, 0.23504482, -0.422359, 0.023231376, -0.59756297, 0.31387553, -0.49024948, -0.22451837, -0.90854543, 0.048901647, 0.066299945, -0.84704804, 0.2290303, -0.76585543, 0.056839462, 0.054267406, 0.05396149, -0.82014203, 0.2632078, -0.5986089, 0.8160519, 0.28468063, 0.13740134, -0.5825213, 0.05514819, 0.15167135, -0.1223223, 0.039982673, 0.04815084, -0.7329508, 0.1336618, 0.31772596, -0.26553813, -0.024488086, -0.7944511, 0.11369906, 0.23514345, 0.11396236, -0.023684131, 0.009274535, -0.09488128, 0.3830225, -0.9581449, 0.20516519, -0.48752883, 0.1247927, -0.3103292, 0.141193, 0.3022253, 0.18356797, -0.36177915, -1.1374494, -0.23328134, -0.3926439, 0.9359767, -0.81024724, -0.6053339, -1.1402999, -0.5614168, -0.21432069, 0.42730692, 3.6208055, -1.311057, -0.6530366, -0.6135209, -1.1069651, 0.0012103951, 0.173514, -0.0043549035, -1.9468043, 2.7344437, -0.80561334, 0.08883981, -0.21165621, -0.773333, 0.7984976, -0.20506185, -1.4917201, 1.9583956, -0.04950497, 2.0894744, 0.3615742, -0.10228503, -0.05125486, 0.42080978, 0.11110411, -0.6609531, -1.7781787, 0.14574656, -0.62595433, -0.18581152, -0.098041505, -2.0404365, 0.18228905, -1.1719058, -0.1718305, -0.6002058, 0.04161512, -0.1547607, 0.67313915, -0.033483054, -1.6887281, -1.6253141, 0.64825195, -2.3648705, 0.10673548, -0.8254971, 0.9699585, 0.47448298, -0.9121927, -0.18066637, 1.1786429, 0.15594001, 0.6177616, -0.22852528, -3.6759703, 1.4795249, -0.8974323, -7.0672417, 0.17083964, -0.012866561, -0.5546679, -0.09670509, -0.82926023, 0.6041083, -0.17026332, 0.44024298, -6.093251, 3.8072376, -0.2857589, 1.2523987, 0.3354635, 0.5591199, -1.7077222, -0.19669823, 1.0652716, 0.24546228, 0.5954974, 0.41892844, -1.9889615, 0.08399475, -1.5800753, -5.0331316, -4.231919, -0.7386142, -6.92902, 0.37705243, -3.38373, -7.6540666, -0.07528037, 0.010952199, -0.25035816, -1.7791896, -0.024302172, 0.14564748, 0.010826581, 0.041368216, 0.10616156, 0.08267391, 0.20679055, -0.7698939, 0.30321348, 0.63647074, -0.29164818, -0.09513752, 0.035628907, -0.008607068, -0.15322877, -0.20204628, 0.18165626, -0.19623265, 0.008811055, 0.11228254, -0.30508032, -0.05396436, -0.12455202, -0.09906119, -0.03430305, -3.079771, -0.09105887, 0.015030257, 0.060716797, -0.056907125, -0.014299068, -0.53380483, -0.07560499, 0.4694864, -1.2581828, 0.40715057, -0.12412921, 0.008092322, -0.07174758, 0.38839844, -0.044721425, -0.0061069676, 0.13096407, 0.22061925, -0.31204617, -0.13140146, 0.05488852, -0.03259536, 0.08291701, 1.3167675, -1.6695243, -2.2881453, -0.731476, 1.0800016, -0.6202166, -1.2925655, -0.010905327, 0.81690663, -1.856407, -2.5980332, -0.87269187, 0.03581573, -0.7476183, -0.083727084, -2.7497435, -0.2304765, 1.1703734, 2.766783, -1.0893062, -0.97484016, 1.2419475, -0.53153765, -1.0238926, -1.647045, -1.0238475, 0.073262446, -1.19397, -0.3651999, -0.06694083, 0.16746055, -0.25932425, 0.7847801, -1.3069704, -1.1105411, -0.7118095, -0.43320072, -1.5444715, -0.4722705, 0.16469535, 1.636588, -0.12110465, -0.24982902, -1.1488528, 0.57940435, 0.09844691, -0.27054116, -0.52661586, 0.10526637, 0.17567964, -1.0316358, -0.6599601, 0.24224088, 1.6147348, 0.21151716, 0.3167934, 0.45468313, 0.5250299, 4.5706935, 2.8575668, -0.1774895, 0.6468042, 0.31105945, -1.1184517, 0.12396983, -0.12687743, -0.04502196, -0.089747444, 0.29039067, 0.3251884, 0.072404176, 0.43365142, 0.16978106, 0.4726245, 0.4303879, -0.0025889177, -0.016245825, 0.13014673, 0.118711755, 0.7317324, -1.1442904, -0.02163995, 0.32316592, 0.21811171, -0.01069361, 1.1169102, -0.15715297, -1.4946536, 0.20796405, 0.0897092, -0.32685864, 1.756243, 0.13893335, 0.2732171, 1.4978133, -1.9360458, -0.024221763, -1.922573, 0.97673935, 2.7572994, 0.408061, 4.7654276, 5.1450143, 1.2728914, -0.075763695, 0.6313831, -0.27620038, 1.9617285, 0.8404105, 0.0575103, -2.0772657, 10.174702, 2.280911, -1.486194, -1.7430524, 0.9192849, -0.18413591, 0.27231875, 0.29331234, 0.19007353, 0.32819307, 0.2151656, -1.0652896, 0.05241195, -0.06024658, 0.9699108, 0.79831743, 0.2892152, 0.35621315, 0.20237035, -1.3530599, -0.76782256, -0.71405095, 0.69240135, -0.8390545, -0.18979682, -0.12892573, 0.5910281, -0.5306609, 0.2475494, 1.0779516, -0.21001525, 0.3351291, 4.790006, 2.006983, -0.70843816, -0.21395452, 0.0617106, 0.36550963, 0.1758073, -0.41611624, -0.02707851, -0.041402623, -0.07075192, 0.077097796, -0.02521942, -0.23426256, 0.023313804, -0.07013939, 0.27400216, -0.37838116, 0.15632796, -0.10424701, 0.008957037, -0.7943001, 0.10903432, 0.09087277, 0.26547554, 0.11803792, -0.21938363, -0.29213387, -0.337933, 0.14180669, 0.0017066178, 0.14367263, -0.018296797, -0.17269479, 0.12551112, 0.14442152, -0.035237834, 0.16618942, -0.09354227, 0.779995, 0.026749548, 0.016157862, 0.14794514, -1.4879413, 0.17083386, -0.1202833, 0.02747343, -0.03450958, 0.08898624, 0.1990422, 0.033968598, -0.123230405, -0.3405884, 0.10377405, 0.15602891, -0.7260611, 0.12020352, -0.31224245, 0.07326529, 1.4442981, 0.18986706, -0.10139838, -0.09785212, 1.5237446, -0.49344215, 0.073948264, 0.6240759, 0.41592163, 0.20697784, 0.003112509, 0.16469216, 0.47250718, 0.3511415, -0.20154294, 1.4155879, -2.8541224, -0.20224041, 0.18251514, -2.391418, 0.071212456, 0.12625442, -3.6375847, 0.058031127, -0.22879787, 1.3946398, 0.059901472, 0.19447957, -0.7481154, 0.23071255, -1.1216031, 0.11284628, 0.20278446, -0.67321765, -0.10468257, 0.15436497, 0.9700218, 0.41058487, -0.5877405, 0.21937115, 0.2328803, -0.67264205, -0.6416722, -0.19963965, 0.15810971, 0.1084995, 0.10410738, 0.14585482, 0.53673136, -0.4263476, 0.56095463, 10.530294, 0.18336947, 0.44254327, 0.14596546, -0.4370868, 4.5246325, 2.26969, -0.04985151, 0.4385466, 0.17260207, -0.7177915, 0.14033939, -0.123344585, -3.1380267, 0.22501282, -1.0280489, 0.20538844, 0.18056753, 0.4628014, 0.08659774, 8.432044, -0.40632585, 0.23635794, -1.6626921, 0.10409443, -1.7104157, -0.5091626, 0.17548016, 0.4750537, 0.4850122, 0.13201092, 0.21903107, 1.2817976, -0.374599, 1.3349268, 0.0023786817, 0.21705925, 1.2251561, 1.1915209, -0.044256184, 0.46773967, 1.1082379, 1.080205, -0.45940855, 8.587221, 0.5998769, 0.75845295, 0.2856393, 5.614278, 3.4729326, 4.1153264, 1.3377019, 0.19172809, -1.7259753, 0.4973488, 0.5571707, -0.5525277, 2.0508597, 2.1183035, -0.27323455, 1.9034741, 0.03294629, 0.7754819, 3.2579348, 0.40849608, -0.8199832, -3.1067593, 0.16731, 0.42896855, 4.983705, 0.3579794, -0.11277474, 2.6451755, 1.3045813, 0.433704, -0.76906466, 2.146231, -2.565861, -0.48810196, 1.662278, -0.20684865, -0.08479506, -0.5690451, -3.7427523, 1.1889067, -0.7447413, 0.7565163, -2.188793, 0.05595674, 0.31210354, 4.4188743, -0.7123244, 0.34897825, 2.6472905, 0.15468134, 0.27118668, 0.19071777, -0.5587078, -0.009570615, -0.12962642, -0.06926186, -0.021559421, 0.056281194, -0.2746976, -0.19927213, 0.49731237, -0.13732511, -0.21597685, 0.20777069, 0.055977665, -0.22811384, -5.539399, -0.022765582, 0.5655237, 0.19340748, -0.5648129, -0.03913688, 1.2204742, 2.1340048, 0.21961312, 0.2909264, 0.16137582, 0.17947607, 0.9579462, 0.22707404, 0.146252, -0.07111961, 0.045475032, 0.054255396, 0.9938105, -0.111937225, -0.16211402, 0.33447897, -2.1216617, 0.23725288, -0.10535865, 0.026599025, -0.13047801, 0.26658484, 0.045883283, -0.013891311, -0.00952713, -0.16472754, 0.09987564, 0.054303743, 0.10382812, 0.18562779, -0.4652787, 0.15130033, 0.23969705, 0.2797593, 2.1991868, 0.40390685, -0.7384024, -1.3352869, 1.1118731, -0.35303974, -0.47192195, 1.5170768, 0.01783676, 0.39689854, 0.5281343, 0.5107431, -0.68990636, 0.57386947, 5.520412, 0.41402042, 1.3704034, -2.316919, -1.4811075, 0.6535959, -2.6776526, 0.14333414, 0.7809459, -0.1406339, 0.12842822, 0.21607292, -2.2196412, 10.072656, -0.50331867, 0.5404551, 0.5301229, 0.07910238, 0.833277, 0.19977827, 2.2865262, 0.023257881, -2.4774358, 0.45205382, -1.1159838, -0.4427804, -2.9567034, -1.0264581, 0.24350186, 0.8553426, -0.2503969, -0.012113521, 1.2813398, 0.27398646, -0.026420653, 0.16394737, -0.07634929, 0.6658986, -0.017482484, 0.15456682, -0.9627066, -2.0591266, -0.018329917, 0.03839667, -0.27759904, -0.66853213, -0.13254862, 0.31978756, 0.32144585, 0.0649005, 1.5029962, -0.30930912, -0.14841665, -0.26043594, -0.18987735, -0.26935306, -0.23667708, -0.17283683, 1.1911936, -0.08890158, 0.9116329, 0.18840884, -0.17761308, -0.17640732, 0.7529094, -0.09740675, -0.031342253, -1.793251, 0.40895823, -0.6947367, -0.0898673, -0.021744348, -0.21291289, 0.07655389, 0.058101855, -0.03231704, 0.45562452, 0.07785035, 0.020447044, -3.2912707, 0.40272996, 4.6999035, -0.63769156, -1.5885516, -1.3082339, -3.0540748, 0.05227728, 1.5362042, 0.9055937, -0.12305628, -0.041939255, 0.3892533, -1.5856208, 0.4443814, 0.021344898, 0.045769475, 0.48453376, -0.09989759, 1.0279121, 0.09482346, 1.1587955, -0.93705773, -0.1357741, -0.39432257, -3.3183396, -0.23764916, 0.14243194, 0.60314065, -0.4317206, -1.2425684, 0.07526809, 0.15399896, 0.41016483, -0.02755703, 0.2667315, 0.3048552, -1.4737302, 0.27296865, 1.7019923, -0.44336742, -0.0072185555, -0.26610562, -0.8697785, -0.12361897, -0.41342175, -2.336289, -0.6082585, -0.39208344, -1.2255621, -0.063197576, -0.063153714, -0.07007437, -0.2103818, -0.03615268, -0.05504394, 0.11701322, -0.08708695, 0.042018756, 0.15663859, -0.04320485, -0.10325187, 0.057055965, 0.43299496, -0.17894073, -0.22492282, 0.12968351, 2.014394, -0.09244364, -0.067233, 0.035339653, -0.026861364, 0.09160167, -1.3041176, 0.20160261, -0.046185866, -0.063989274, -0.3210241, 0.074941754, -0.64377886, -0.12260674, -0.08444429, 0.0381027, -0.11844284, 0.056483902, -1.0124365, 0.018721825, -0.027017612, -0.6496411, 1.7135996, -0.1362914, 0.04450898, -0.07754531, -0.03723062, -0.13710555, -0.0071701272, -0.0888421, 0.023527518, 0.108525425, -0.2069373, 0.09266545, -1.0393306, -0.12750854, 0.5981858, -0.1041685, 0.22960204, -0.12246371, -2.5052528, 0.17663506, 1.0126671, 0.24107619, 0.22396415, -0.42298305, -0.06508293, 0.063863076, 0.013813325, -0.25925595, -0.008057174, 0.09647511, -0.112415425, 0.56785506, -3.1213427, -1.0249578, -0.12723528, 1.0975636, 2.2844467, -0.09792303, -0.48769668, -0.03356891, -0.29901645, 0.9792174, -0.17733158, -0.15211305, 0.21210532, -2.3809743, 0.56762666, -0.11744019, -0.19463979, 0.4665957, 0.019609338, -0.121694826, -0.313875, -0.8404175, 0.21856198, -0.27155256, -0.7468913, -0.6461255, 0.35065007, 0.11040228, -0.26229975, -0.09048215, -0.027099293, 0.017854853, 0.41871414, -0.6269682, 0.34214815, -1.2686535, -0.060883947, -1.0661922, -1.0255141, -0.20283812, 0.052909017, 0.25347307, 0.1076474, 0.41673905, 0.16267893, -9.623625, 0.08529271, -0.6091919, -0.8833816, 0.015437576, 0.2784522, 0.2429257, -0.060344093, -0.2977193, 0.004928851, -0.8212981, -0.45335937, 0.108269915, -1.3393377, 0.022562588, 3.2880538, 0.24361345, 0.14252536, -0.14417468, 0.05741996, 0.10031284, -0.08302752, -1.7517171, -0.83802783, 2.9459789, -0.094310515, 0.08300584, 1.0418017, 0.059638128, 0.066699795, 0.029229147, 2.3859582, 2.153433, 0.31383505, 0.744703, 0.4560145, -5.38502, 0.49675345, 1.4089272, -0.49027637, 0.86867183, 0.24924263, -0.015421482, 0.20746374, 0.47056037, 0.13579863, -3.539679, -1.5915935, -3.8737438, -0.9008125, -5.809542, -1.6914036, 0.5583049, -1.4735512, -0.018837696, 0.45519966, 2.9023044, 0.03539404, 1.1661323, 2.4358842, 0.17575097, -0.18018113, 4.297539, 1.255816, 1.2759818, 0.6006307, 0.11582299, -0.6163771, -0.8378864, 3.5482476, 1.7304288, 2.8560603, -0.0039196545, -0.26766574, 1.9750384, -0.9399504, 0.10809616, 0.3467646, 2.232666, -0.055090196, 2.1067352, 1.4595618, -0.8106329, 0.5462015, -0.032513253, -0.01586875, 0.024146259, -0.2311062, 0.075199015, -0.33312517, -0.028725099, -0.062723026, -0.08172371, 0.021349663, -0.5197554, 3.2565377, -0.3861842, 0.007869785, 0.60212797, -0.03745742, 0.078991055, 0.3817685, 0.020394001, 0.13527147, 0.107524574, 0.13633318, -0.07328108, -0.029059716, -1.3581458, 0.03932094, 0.100691415, 0.3937795, 0.06907001, -0.6814442, 0.14399177, 0.15447845, -0.071976796, 0.10128109, -0.12507068, 0.5294005, -0.11048074, -0.050819788, 2.7956872, -1.300896, 0.011595804, -0.055104587, -0.08014668, -3.3743875, -0.03920233, 0.09895983, 0.0531254, -0.14347169, 0.778196, -0.15517613, 0.12068637, -0.10205234, -0.086690165, 1.8002806, 0.0014597364, -0.5103054, 0.05340509, -0.031243378, 0.27540058, 3.4374874, -0.5919888, -0.16423106, 0.9513651, 3.5439022, -0.41648895, -0.15592416, 0.019691076, -0.11305093, -1.0699182, -0.79104614, -0.012727788, 3.8179216, 1.5783372, -0.004549366, -1.1404397, 1.3743708, -0.017367132, -0.5696483, -0.086107284, 1.1087755, 2.7600055, -0.045358088, -0.03560723, -1.1963495, 0.107281126, -3.9943848, -0.08874306, -0.02867086, 2.9105585, 0.08852119, -0.09210596, 1.76771, 0.8665826, -0.95873463, 0.16370218, 4.93675, -0.00042203369, -1.3695279, 0.21810324, -0.04987077, 0.008029508, -0.13255419, -0.051337373, 1.0668453, 0.3117223, 0.012128405, 0.5936088, -0.06483955, 0.66290075, -0.43084678, 0.0859219, -1.4648253, -1.4958066, 0.015921993, -0.19694455, -0.27283397, -0.050654452, -0.04247796, 0.03155565, 0.23026325, 0.113744825, -0.3103299, -0.35560492, -0.2048192, -0.22711247, 0.02283793, 0.7331103, 0.05458436, -0.07861338, 0.83002895, -0.18972541, 0.847221, 1.2686063, -0.38914472, -0.1769262, 0.66902715, 0.0013140861, 0.005362667, -0.6798131, -0.022163251, 0.8758607, -0.16609962, -0.062983945, 0.4863286, 0.49507612, -0.13983129, 0.05880499, 0.43360522, 2.02037, 0.33782983, -0.22591805, 0.30483788, 0.32743722, -0.2426794, -1.8255808, -0.64113235, -0.9820374, 0.0020435383, -0.293581, -1.1141632, -0.2544518, -0.007726057, 0.3563615, -4.3900604, 0.20766513, 0.2403225, 0.6185992, 0.6601671, -0.39700037, -0.30292758, -0.061716527, 1.2226695, -0.50109637, -0.19096988, -0.12805612, -0.008167306, -0.27572277, 0.19577675, -0.8000001, -0.5958033, -0.09790873, -0.17604677, -0.018317938, -0.06413164, -0.19495077, 0.2492845, 0.10482131, -0.66374457, 0.029088441, 0.63172275, -1.0594428, 0.059267722, -0.20821711, -0.9435881, -0.8656674, -0.28870916, -0.4225782, -0.21352768, -0.060869742, 0.4116033, -0.19367836, 0.06997938, -0.12188568, -0.011030829, 0.15896934, 0.015896926, 0.058050755, -0.018118467, 0.03795224, 0.030198634, 0.046339545, -0.011150133, -0.016989307, 0.42559662, -0.0908156, 0.015248203, 0.27080294, 0.19874758, -0.12049548, -0.12854408, -0.24408922, -0.19513789, 0.17151786, -0.0050715385, 0.28971592, 0.03779045, -0.0516789, -0.11518567, 0.06908863, 0.16019438, -0.11202269, -0.06394842, -0.005298993, -0.1907583, 0.041925333, -0.88360107, 0.07247818, 0.100036815, -0.26567304, 1.2945826, 0.08654785, 0.11297248, -0.04478593, 0.24596311, -0.08391389, -0.101008095, -0.14284772, -0.009444574, 0.14054926, -0.101498626, 0.06892006, -0.48616633, -0.18280445, 0.5291377, -0.0272084, 0.22639762, -0.17296866, 0.6288845, 0.29904097, 0.3310294, 0.24908453, 0.32959986, -0.81723744, 0.52199876, 0.42814273, -0.063660696, -0.16842397, -0.14683077, 0.22647919, -0.2839704, 0.7844927, 1.0518074, -0.17173794, -0.22087799, 2.7111335, 0.09032767, -0.19412495, 0.028315721, -0.15335888, -0.11195921, -0.05717858, -0.3217556, -0.23823334, 0.03032168, -0.56306016, 1.711141, -0.02245698, -0.1830477, -0.5245467, 0.010009296, -0.13682802, 1.0655154, 0.44305226, -0.3625257, -0.16719295, -0.6962818, -0.2202968, 0.31698927, 0.058715235, -0.26246062, -0.26577023, 0.22756135, 0.091095, -1.219877, 0.48786432, 0.15792756, -2.3769686, 0.087908715, 1.9389739, 0.3726587, 0.18424, 0.59512657, 0.88974595, -0.011479014, -0.708104, 0.16116466, -0.09131661, 0.07545721, 0.44424453, 0.7589603, -0.09540503, 0.82978636, 0.043808628, 0.18315655, 0.6809957, 0.07323157, 1.1929445, 0.53852016, 0.16382839, -1.2266065, 0.08987243, -0.11039206, -0.5920098, 1.7378334, -0.035679203, 0.48853388, 0.016735278, 0.074641995, 2.3015893, 0.038046055, -0.8100159, 0.104648665, 0.008056835, 2.5572488, 1.9627208, 0.13833767, 0.21939352, 2.0263126, 1.0748514, -0.17673211, 3.7204442, 1.6928096, -2.727804, -0.21811499, -1.7362969, 2.3023326, 6.2353535, 1.3893915, 2.7770557, -0.25747433, 2.0438135, -1.8211331, 2.7602463, 2.3628633, 0.6115957, 0.1844225, 0.39132082, 1.2363629, 0.9665743, 0.26452428, -0.012066752, -1.0524613, 0.7414261, 0.17685811, 1.278235, 0.31152016, 0.11427702, 0.13995437, 2.8550718, -0.034046277, 1.6598413, 1.4284035, 1.2440541, 1.1184679, -0.079174325, -0.8190579, 0.34252346, -4.250435, 0.0014288028, -1.1325421, 1.2238522, 1.9175625, 