#pragma once

#include <stdint.h>

// Weight 0, shape: (6, 200)
const double weight_0_sonar[] = {
0.23661639, 0.123305745, 0.019874843, 0.08599908, 0.10935821, -0.0068044076, 0.7896281, 0.64705807, 0.10572621, 0.69105107, 0.06149768, 0.02049114, 0.17934813, 0.052716702, 0.4817442, 0.23706397, 0.05675582, 0.15275452, 0.26975524, 0.5524318, 0.0078109084, 0.4013835, 0.046874933, 0.11758209, 0.019858904, 0.13714616, 0.08828519, 0.6360461, -0.04443239, 0.2205878, 0.08688905, 0.17096752, 0.19884367, 0.043966014, 0.1562195, 0.051706575, 0.12413454, 0.014191136, 0.00014429318, 0.15651998, -0.2454375, 0.061223645, 0.26007497, 0.07564408, -0.6114886, 0.14745544, 0.23657684, 0.7240141, -0.37209913, 0.15895255, 0.398883, 0.47444972, 0.1103196, 0.31243148, 0.22005005, -0.09609667, -0.06450673, -0.21483302, 0.005562583, 0.032243732, 0.013007797, -0.25694835, 0.062327895, -0.12492367, -0.024883978, 0.2892266, 0.25325912, 0.017170459, 0.09280289, -0.24428307, -0.123936646, -0.076596625, -0.039934825, 0.037536368, -0.028912092, 0.18294452, 0.3004147, 0.28463227, -0.22843565, 0.11897167, 0.14144397, -0.12785399, 0.5360259, 0.1880569, 0.08844434, 0.07538792, -0.103624955, -0.37019965, -0.026812717, -0.032421686, -0.00048065046, 0.04010885, 0.11845734, -0.18389808, 0.22709358, 0.15421742, -0.517773, 0.14798863, -0.087375805, 0.12794308, 0.63223743, -0.15001634, -0.05684582, 0.023715043, -0.08894924, 0.07914214, 0.0312094, 0.019147083, 0.0011331474, -0.26606455, 0.0757402, -0.13706668, -0.006312836, 0.110948406, 0.059062447, -0.028687323, 0.050347116, -0.23607013, 0.61240935, -0.14605966, 0.057305366, -0.19314879, 0.10917696, 0.26157925, 0.17894433, -0.062576376, 0.11391544, 0.29692447, -0.13220355, 0.25474986, -0.25722829, 0.04024011, -0.14842972, 0.06996588, -0.18969594, 0.04078412, 0.011062292, -0.047565855, -0.054603323, 0.15737933, -0.053905174, 0.021497793, 0.05452567, -0.023603117, -0.11160058, -0.054528292, 0.10182748, -0.16654016, -0.023345493, 0.026931029, -0.52051604, 0.2077549, 0.0886072, 0.04084868, 0.036672015, 0.30752206, 0.040815603, -0.04254137, 0.004846013, 0.087241225, 0.044524517, 0.1473793, -0.0031505323, 0.041357256, -0.17541964, 0.3069143, 0.18403672, 0.11752523, -0.110894725, 0.5504959, -0.05464412, 0.014398203, 0.19852263, -0.08809073, 0.03890187, 0.097708106, -0.07324705, 0.93478245, 0.11433232, -0.15065801, 0.17875631, -0.08874455, 0.08478058, 0.032392517, 0.07029262, 0.21359652, 0.26, -0.06599527, 0.03639312, 0.061880607, -0.0013701785, 0.08292529, 0.42018232, 0.16161594, -0.47637263, 0.054451242, 0.15274243, 0.3190652, 0.111079775, 0.17957085, 0.30608565, 0.24613932, 0.052722543, 0.11167979, 0.8915691, -0.010562863, -0.44039413, -0.24388474, 0.13192587, -0.19950753, 0.105965614, -0.03875292, 0.100763604, 0.07929612, -0.56426424, 0.1588856, 0.09310133, 0.12228382, -0.060895517, -0.66560787, -0.11670277, -0.4737862, -0.10401917, 0.1172731, 0.01878198, 0.11166116, 0.09821585, 0.045830768, 0.026895912, 0.10787821, 0.09969673, 0.108467765, 0.09840716, 0.10597634, 0.16282433, 0.09665503, 0.107061386, 0.115860425, 0.101395145, 0.10815762, 0.67476714, 0.10035285, 0.09481432, 0.10225192, 0.22333772, 0.19285278, 0.10765759, -0.4793857, 0.42263937, 0.10083042, -0.22093886, -0.62473035, 0.099212095, -0.018952027, 0.048801698, -0.2998178, -0.035326157, 0.3775378, -0.081076205, -0.0011010736, -0.38021788, -0.013393429, 0.08218002, 0.020268453, -0.17062187, 0.13413599, 0.069328964, 0.21884501, 0.19356836, 0.041932005, 0.010025984, 0.08782318, -0.084903635, 0.106489666, -0.06544577, 0.06945704, 0.079516, -0.23007895, -0.05896434, 0.07015513, 0.050664507, -0.043082308, -0.6303952, 0.0640509, 0.033436835, 0.06709563, 0.008731054, 0.21591993, -0.2505173, -0.4053154, -0.031521387, 0.08918426, 0.05742582, -0.22201039, 0.09376101, 0.032575466, 0.04949861, 0.13957816, 0.0002197654, -0.22499736, -0.4805586, -0.07018509, -0.83298135, 0.07013168, 0.04848941, 0.10240924, -0.044579834, 0.10220036, 0.09507991, -0.042537864, 0.13979232, -0.09590824, -0.10798886, 0.17190607, 0.025217688, -0.0029446417, -0.18733239, -0.06854065, -0.37888718, -0.18956392, 0.1272264, 0.04642013, 0.044266045, 0.48062733, 0.15244551, -0.06157382, 0.08550218, 0.2100034, -0.08190295, 0.15855533, -0.06578343, 0.04935599, -0.05324896, 0.069193214, -0.073536105, 0.0574787, 0.048136193, -0.047006454, -0.044495836, 0.15351523, -0.040549863, 0.09411645, -0.095028654, -0.11450935, -0.099143654, -0.052367963, 0.04431439, 0.04201429, 0.029071357, -0.10708747, 0.45157772, 0.1522468, 0.038716123, 0.09779638, 0.10205691, -0.23186383, 0.20750499, 0.41243702, 0.013438123, -0.01861162, 0.10433697, 0.09389285, 0.011341566, 0.029856589, 0.17941003, 0.025519425, 0.12080687, 0.21540682, 0.17265919, -0.14874835, -0.2933355, -0.004097472, 0.20558645, -0.04060109, 0.17001306, 0.13807018, -0.02151259, -0.32014242, 0.10734788, 0.033625737, 0.17178667, 0.044110928, 0.101080455, 0.10808478, 0.09655953, 0.1107098, 0.20796658, 0.03452154, 0.20375657, 0.100209765, -0.035249062, 0.1000619, -0.13763018, 0.1005692, 0.20662962, 0.115332685, 0.1138403, -0.062525585, 0.56842244, 0.11099287, -0.388922, 0.03981055, -0.10612184, 0.24563791, 0.68109787, 0.07429116, -0.51037717, 0.5042686, 0.30145496, -0.536242, 0.13938646, -0.04456483, 0.08381396, 0.03332454, -0.13339512, 0.02929058, 0.28111213, 0.043134872, 0.07084944, -0.12805392, -0.092705786, -0.4987866, -0.07361048, 0.04012058, -0.08592871, 0.236944, 0.08287758, 0.13647519, 0.0035124181, 0.04399752, 0.090535864, 0.15002568, 0.22079577, 0.117258355, -0.0326608, 0.22250693, 0.11989734, 0.21369167, -0.0210121, 0.25508147, 0.7691522, 0.14201353, 0.1738991, 0.13345818, -0.5040657, 0.024431625, 0.0019631102, -0.47773778, 0.70078033, 0.20767227, -0.2952776, -0.7463267, 0.10114229, 0.043295335, -0.3030864, -0.20231295, 0.113028556, 0.1326008, -0.05945039, -0.022101011, -0.33493307, -0.0332994, 0.077391535, 0.074486166, -0.11003624, 0.18883179, 0.23626652, 0.18128328, 0.032878026, -0.043368474, 0.0067909644, 0.27738953, -0.03128582, 0.047319137, -0.08104505, 0.15267591, 0.2297416, -0.19881107, 0.032053385, 0.05130133, 0.19732128, -0.10054345, -0.8656501, 0.051773675, 0.2730998, 0.08576293, -0.32708392, 0.3316234, -0.04578393, -0.008442784, -0.10091628, 0.21868896, 0.19366236, -0.10217921, 0.10715481, 0.2482073, 0.10961013, -0.22853471, 0.14448166, 0.0519243, -0.29701412, -0.1332052, -0.71442187, 0.059349313, -0.10530881, 0.027725235, -0.04436138, 0.116095275, 0.12166487, -0.20331343, 0.007980302, -0.03057138, -0.1826425, 0.12495661, 0.036339495, -0.0068853423, -0.16713578, -0.22123916, -0.38300756, -0.18597308, -0.03941441, 0.07022941, 0.1357432, -0.5206934, 0.18062301, -0.007795125, 0.033495247, -0.10063789, 0.04237631, -0.0134145925, -0.13044909, 0.09783499, 0.017561287, 0.1923773, 0.03044891, 0.22125821, 0.07540772, -0.054738726, -0.111327104, -0.01582342, -0.07215438, 0.19441555, -0.1259132, -0.12832011, -0.12317299, -0.014481739, 0.15001069, -0.13097286, -0.0028341587, -0.2069719, 0.55995613, 0.027669907, 0.07835936, 0.17613357, 0.122310504, -0.13317187, 0.11410742, -0.29725683, -0.06801125, 0.054277357, 0.08252921, 0.18020824, -0.0846033, 0.0153641775, 0.18268558, 0.0024864408, 0.013734496, 0.08186185, 0.14376086, -0.11331941, -0.31629363, -0.00045884127, 0.016053302, -0.03857207, 0.17343976, -0.179003, 0.016429638, -0.44435123, 0.23633106, 0.027412578, 0.0020156216, 0.055440675, 0.1245539, 0.10550578, 0.13741268, 0.10788621, 0.01690116, 0.026540613, 0.17982866, 0.20439246, -0.01083417, 0.11411145, -0.05235316, 0.12401901, -0.3774004, 0.1405944, 0.1872367, 0.03397432, 0.1759182, -0.012615363, 0.412936, 0.0745795, 0.024621636, 0.08013503, -0.6669856, -0.0009746444, 0.78628105, 0.51629055, 0.078581296, 0.635889, 0.102240555, 0.14506476, 0.07095464, -0.06986445, 0.61510766, 0.08943631, 0.12317241, 0.08861861, 0.2645904, 0.6803176, 0.18953916, 0.817693, 0.17556359, 0.08607017, 0.018904531, 0.08950817, 0.07266992, 0.4235768, 0.09531196, 0.16225633, 0.07323551, 0.06745288, 0.07481904, 0.11935103, 0.14567061, 0.18273182, 0.08456903, 0.1200249, -0.0016409748, 0.07083297, -0.46883175, 0.076125346, 0.17885381, 0.19132939, -0.5171536, 0.09627483, 0.2080382, 0.7760062, 0.17205726, 0.07641794, 0.21976648, 0.52683455, 0.04213591, 0.39266646, 0.086265616, 0.017299313, 0.073920295, -0.14664029, 0.0038031933, 0.00663411, -0.31219438, -0.22846429, 0.078254975, -0.34724918, -0.09105627, 0.048130885, 0.15768838, 0.06800502, 0.02598674, -0.23943014, -0.016759085, -0.021253757, -0.01755109, 0.057801895, 0.0028200103, 0.075677395, 0.04253459, -0.0023662585, -0.28282556, 0.21588278, 0.07342429, 0.12937324, 0.5305397, 0.15110205, 0.03956439, 0.054792244, -0.055483017, 0.31414863, -0.006671095, -0.045539275, 0.032197215, 0.056126323, 0.18362342, -0.11468106, 0.0908787, 0.07071552, -0.16999575, 0.32191887, -0.05417359, 0.048209902, 0.6310396, -0.07515023, 0.5756894, 0.1806935, -0.1186237, 0.062198266, -0.0048194565, 0.045581445, 0.12168141, -0.037942797, 0.085582346, -0.031498536, -0.067092806, -0.039500266, 0.053864256, 0.01379987, -0.19255348, -0.023389254, 0.6347631, 0.09303993, 0.26306868, -0.0208978, 0.103224635, 0.4965774, 0.029866684, -0.1077109, 0.14865729, -0.4915204, -0.23283891, 0.070179164, -0.035218205, 0.20666541, -0.14223272, 0.12658836, -0.18588603, 0.06120798, 0.1012346, -0.034620237, -0.12632777, 0.07287794, -0.029201439, 0.047060408, -0.03710553, -0.045344904, -0.069637075, -0.039811917, 0.039805762, -0.085074574, -0.01862227, -0.24388191, -0.44215915, 0.0698066, 0.057925753, 0.14173563, 0.16063522, 0.30335662, 0.11588352, -0.19902357, -0.0016604587, 0.10461892, 0.14753301, 0.06832503, 0.00027659856, 0.040012598, -0.0036000079, 0.19025473, 0.18815386, 0.07579092, -0.124062315, 0.47087878, 0.36104196, -0.012943099, 0.07050194, -0.0314896, 0.08241974, 0.08156569, 0.036738522, 0.47666076, 0.078969814, 0.01283639, 0.11029401, 0.07477933, 0.1401965, 0.17814077, 0.07532313, 0.08827489, 0.06593316, 0.005033865, 0.152424, 0.1184847, 0.114919834, 0.072687596, 0.355254, 0.114741325, -0.24698888, 0.080809765, 0.092911914, 0.2427836, -0.09467187, 0.14524546, 0.14527418, 0.12050525, 0.19006455, 0.13429894, -0.046559423, -0.111110136, 0.012248974, -0.08833583, 0.021572087, -0.018636126, 0.08714216, -0.047383565, 0.13345376, 0.012229411, 0.08447099, 0.050085295, 0.102109894, -0.056046706, -0.0046373024, -0.16806123, 0.102856345, -0.056531478, 0.063989244, 0.06491308, 0.100142695, 0.01374235, -0.10244392, 0.017072942, 0.039936192, -0.014356004, 0.1460058, -0.06381459, -0.00805385, 0.037049353, -0.11299315, 0.034194704, 0.1431606, 0.004450555, 0.11019745, -0.11784736, -0.08672835, -0.066166185, 0.08000944, 0.04900282, -0.050261956, 0.098326325, 0.025404511, -0.011200084, -0.2553982, 0.116686255, 0.6671785, 0.107505076, 0.08110078, 0.24088858, 0.2371003, -0.08879647, 0.08594953, 0.067131035, -0.017811306, 0.11163845, 0.012172202, -0.017887143, 0.092280895, 0.049815025, -0.005439334, -0.17207132, 0.09456974, -0.090934396, -0.004283943, 0.10621571, 0.065921396, -0.07258771, 0.042807825, -0.13326079, 0.18228076, 0.074534416, 0.12241204, 0.019807998, 0.15731466, 0.06342367, -0.13193956, -0.032576628, -0.20960398, 0.06768333, 0.09624969, -0.0128626535, 0.6105306, -1.2094852, -0.16642192, -0.2538341, -0.110598825, -0.08602541, -0.08437414, -0.50483733, -0.06764768, 0.008640923, -0.117671624, 0.3093208, -0.12741661, -0.15609652, 0.2096503, -0.10964597, -0.07007258, -0.073595434, -0.31077272, -0.016866922, -0.008635284, 0.061195925, 0.1644204, -0.04049148, -0.10323751, 0.13223386, 0.03186182, 0.09538466, -0.0030469173, 0.005225625, -0.08742403, -0.034196254, -0.046655312, -0.007509759, 0.16038676, -0.09987023, 0.16924912, 0.28883722, -0.023112385, -0.16182588, 0.15503424, -0.72891784, 0.070614144, 0.10993979, -0.027353363, 0.033260208, 0.010705845, 0.060671285, 0.10147612, 0.08040004, 0.12290476, -0.015680654, -0.02048819, 0.042672586, -0.029259395, -0.03213538, 0.07157706, -0.05049319, 0.019705921, -0.035673123, -0.12723236, 0.03615535, 0.05134476, -0.2110876, -0.10097834, 0.00689198, 0.07092037, 0.005557879, 0.09312203, 0.0047107786, 0.010906883, 0.16579595, 0.09538524, -0.1456513, -0.08182775, -0.04247905, 0.1349289, -0.026472056, -0.00125111, -0.024574293, 0.031043118, 0.015699062, -0.0064828373, -0.07054645, 0.096279226, 0.00081331684, 0.13873357, -0.00029052718, 0.10443097, 0.32522792, -0.03537595, 0.08408053, -0.082752936, 0.0111556705, 0.0748917, 0.02852153, 0.046613555, -0.07149915, -0.00663404, -0.08404613, -0.15341547, 0.021300552, -0.0857744, -0.14110774, -0.020782696, -0.07712383, -0.025737582, 0.05318601, -0.27737808, -0.07251147, -0.021562496, 0.015017494, 0.30573928, -0.093944974, 0.4274448, -0.15969485, -0.06950296, -0.18424112, -0.5998184, 0.028798936, -0.21045227, -0.016941614, -0.012059361, -0.01974021, 0.05419731, 0.092519075, 0.12073951, -0.07765951, 0.112496674, 0.050863836, 0.13399869, -0.1404449, -0.049659237, 0.25505346, 0.26704237, 0.38107657, 0.08420356, 0.12317953, -0.0019314954, -0.14570959, 0.0599801, -0.08215643, 0.13844503, -0.03917407, 0.010651448, -0.15441579, 0.041787516, -0.04458037, 0.08311438, 0.09028031, 0.14186937, -0.12904654, -0.0003820688, 0.0043618125, -0.024789885, -0.13064057, 0.16228016, 0.11163469, 0.041455057, -0.036603022, 0.07876399, -0.07615461, 0.07257873, 0.09088584, 0.28605652, 0.11298032, 0.06765899, 0.20630911, 0.00038941135, 0.070865415, 0.13640042, 0.0947157, -0.08210939, -0.02961609, -0.07147121, -0.037973113, 0.011402792, -0.20920931, -0.017721066, -0.016815014, -0.12849648, -0.123158835, 0.11943199, 0.12666343, 0.17309004, -0.29607564, 0.088358566, 0.072604984, 0.05710399, -0.13312581, 0.0136680985, -0.118507765, -0.014380382, 0.1355883, -0.05624595, 0.6009557, 0.1430023, 0.038005423, -0.13924907, 0.2219804, 0.35539147, -0.065334685, -0.16621141, 0.068739146, 0.14622007, 0.1933755, 0.031817697, -0.014505035, 0.17111191, 0.17875367, 0.63067937, 1.5676478, 0.001173995, -0.060534354, -0.21413596, -0.013343179, 0.1623927, 0.10886319, 0.0038767727, -0.034513995, -0.039734147, -0.15277675, -0.016569087, -0.10172761, -0.1434811, -0.072824, 0.022577532, 0.02998104, -0.0827445, 0.040798128, 0.02019665, 0.0923851, 0.013112343, 0.046828, -0.23479167, 0.050403826, 0.124040484, -0.0898214, 0.08940493, 0.013771412, -0.04501131, 0.20326388, -0.04684143, 0.14921449, -0.063310735, -0.060226075, 0.07597121, -0.09599175, 0.16064005, 0.055930536, -0.047789086, -0.0780429, 0.14045642, -0.008981287, -0.0053731017, 0.009970714, 0.03749773, -0.041358754, -0.071758986, 0.021870924, 0.061517946, -0.13485432, 0.0026876016, -0.14632635, 0.22574073, -0.027136503, -0.06960013, -0.059308033, 0.11035094, -0.039625168, 0.0807689, -0.36298335, -0.015111322, 0.07299617, 0.17721042, -0.10443716, 0.014871668, -0.09708734, 0.13792521, 0.19852501, -0.025298774, 0.11163647, -0.017414615, 0.1036169, 0.22100334, -0.052618876, 0.09728784, 0.024235234, -0.11293469, 0.03036735, 0.24779192, -0.22746956, 0.10679171, 0.21503887, 0.02453087, 0.1860848, -0.07491151, 0.03948872, -0.08767575, 0.0082482975, -0.09497832, 0.11557367, 0.0033087893, 0.11803903, 0.1009796, 0.16913275, -0.008118704, 0.0038058613, 0.13845263, -0.12851799, 0.11514494, -0.07637204, 0.98403925, 0.0028888616
};

// Weight 1, shape: (50, 200)
const double weight_1_sonar[] = {
1.0147849, 0.037624147, -0.72748196, 0.23803376, 4.695851, 0.61074954, 1.527746, 0.31683046, 0.026517073, 2.0327556, -0.06293383, -1.5688801, 0.16219561, -1.5713949, -1.8262455, 0.032423973, -0.12127677, 0.15844233, 2.0694113, 0.72274756, -0.42663458, 1.5190207, 6.306461, 0.25569814, 0.35657907, 0.18619277, -0.09225818, 1.5791978, -1.0426636, 0.03910399, -0.08088808, 0.113947086, -0.0615728, 0.19807935, 0.12168731, -0.103557445, 0.2208716, 0.21533898, 0.7315478, -0.033708084, 1.876287, -0.020573411, 0.11654358, -0.035670973, 0.0822014, 0.049932253, 0.16297963, 1.2520556, -4.858172, 0.09936927, 2.0565333, -2.1187234, 0.11452421, -0.5808416, 3.378459, 2.3888655, -0.2386913, -2.9034195, -2.7959204, 1.8363909, 2.2531252, 0.15964592, 0.11997071, 2.6318657, -6.665033, 0.10991719, -0.0008079042, 0.2017302, 0.18351124, -0.29879397, -1.4572862, 0.5254089, 1.4897163, 0.19327359, -9.656423, 0.0783558, 0.06739452, 2.837888, 3.46384, 0.081126876, -0.06253803, 0.9725472, -0.09501959, 0.15185139, 0.07253172, 0.20013827, 7.7867804, 4.379021, -7.5809045, -2.488447, 1.3660486, 0.13021013, -0.030965026, 1.1684054, -0.016512744, 0.26422757, 0.24652599, 1.2396463, 0.26007158, -1.2994051, -1.8996335, -0.047862347, 2.7746, 0.07105853, -0.9068938, -0.05104795, -0.40500176, 0.095348455, 0.02675079, 0.01629851, -0.03666713, 0.044182975, -0.08104404, 0.0585534, -0.10429824, 0.5558157, -0.037005424, -0.114500254, 1.1772451, -0.057450317, 0.030740581, 0.04838273, -0.04435529, -1.5461355, -0.1355136, -0.17534257, -0.0075840303, 1.5527743, -0.31159252, 0.025060624, -0.043397762, 0.098468274, -0.1029679, 0.2635075, -0.06006614, 0.10428162, 0.010863597, 0.003149159, -0.053711556, -0.06680065, -0.16144256, 0.06057362, -3.829061, 0.09203926, 0.033993606, 0.169352, -0.040869553, -0.07199219, -0.3474664, 0.016910803, 3.1446118, 0.1989156, 0.34739158, 0.14821509, 0.019261666, 0.44813877, 0.22203706, -0.09168262, -0.37828895, -0.11303163, -0.028910974, 0.13690013, 0.44425106, -1.0475246, 0.95005023, -0.49169272, 0.19683474, 0.116990626, -1.0587251, 0.22971158, 1.4718823, -0.9319382, 0.21786255, -0.010232392, 0.14236434, -0.11959695, 0.31748587, 2.452908, 0.186353, 1.1202956, 0.121210545, -0.1581361, 0.024125101, 0.20835952, 0.118946426, 0.102088585, 0.12367089, 0.76280344, -0.11517199, 0.23940901, 0.22766651, 0.052756626, -0.25688186, 0.027598562, -2.0015333, 0.056892343, -0.002360887, 0.14013122, 0.7468617, 0.08002202, -0.064549, -0.13463855, 0.001941203, -0.046114266, -0.39855975, -2.1048627, 0.10351408, 0.18110459, -0.027910644, 0.18001282, -0.013628813, 1.0250931, -0.14959736, 1.7426693, -2.889859, -0.062506616, -0.008410451, -0.13323918, 1.2127947, -0.036400218, 0.64034694, -0.08792739, 1.3051256, -0.015505352, 0.14586568, -0.14069267, -0.09354851, 0.5332195, 0.46314347, 0.16242015, 0.011158644, 0.07304024, -0.025814142, -0.07646822, -0.0031831993, -0.038907953, -0.18957746, -0.12606561, -0.61056745, -0.052230056, -0.335555, 0.0049274415, -0.071607165, -0.07451516, -0.09840674, -0.11950247, -0.15541223, 0.20104331, -0.78755605, -0.12883446, 0.51075035, 1.3796611, -0.29187715, 0.5352538, 1.3133831, -1.7034785, 0.4571183, 1.4900259, -0.035140768, -1.4421958, -0.73461, -1.9917262, -0.010505603, -1.1926825, -1.5489368, -0.0369795, -0.057269715, -0.12818766, -0.18760468, -1.9817555, -1.1197451, 0.25689182, 0.5862502, -0.12780917, -0.75374347, -0.27883467, -0.101299755, 0.012963395, -2.4769967, -0.107637055, -0.14487012, -1.1185668, 0.098861024, -0.14457421, -0.17846663, -0.2692669, -1.1086192, 0.099105515, 0.6423245, -0.03717485, -0.454176, -0.19266908, -0.17381005, -2.2031677, -0.17284678, -0.07237104, -0.8524482, -0.087698616, -0.72498035, -0.19215798, -0.6165999, 0.07145388, 0.58978355, -0.16123705, 0.4115235, 0.041209456, 0.03560067, 0.05406671, 0.02515578, 0.29323757, 0.019877553, 0.046766307, 0.014826042, 0.03775352, 0.088443905, 0.26536015, 0.17352146, 0.2571601, 0.099048994, 0.110036984, -0.09910808, 0.023335883, -0.016719494, -0.56243163, -0.08236487, 0.1397851, -0.08169985, -0.056284063, 0.37393665, -0.08460027, 0.1555428, -0.16543937, 0.05618846, -0.050824624, 0.055318214, 0.00097484805, -0.21560337, -0.10757254, -0.007008827, -0.089203425, -0.09440339, -0.041803844, 0.66085774, -0.05249843, -0.087427214, -0.28179735, -0.12016507, 0.06320866, -0.06942054, 0.010243093, 0.83606, -0.13040192, 1.1947072, -0.10676517, 0.0044781193, -0.24608257, -0.2727176, -0.09058714, -0.021208895, 0.35547623, -0.0017101233, -0.115152106, 0.58334285, -0.698499, -0.6461657, 2.361215, -0.04400549, -0.09356007, 0.59889114, 1.9528515, -2.9215763, 0.42695117, -0.20156378, -0.29244027, -0.14398675, -0.7019123, -0.75215596, 0.67707044, 0.007858493, 0.03795713, -0.2668563, -0.5826985, -0.12512836, -0.04785628, -0.14789194, -0.13383362, -0.050315857, -0.66366976, -0.21198054, -0.17931163, -0.041884385, -0.15175967, 2.053508, -0.06793312, -0.0014169661, -0.1356206, -0.06675153, 1.7403218, -1.3758254, -0.07213947, 2.0582774, -0.22640625, 6.2766576, -0.15219776, -7.698295, 0.9257525, 2.6294353, -0.17466824, -0.08414365, 3.8864727, -0.0048278337, -0.2884097, -0.19231217, 0.8304522, -5.0792933, -0.15777373, -0.4235078, 0.03996232, 0.9673842, -0.831021, -2.823419, -0.57265955, 0.21810415, -0.167246, -0.75606555, -0.21252137, -0.23365901, -1.8573327, 0.16838686, -0.011354429, -0.065553054, -0.15235113, -0.1634225, -0.28800094, -0.057895143, 0.056346904, -0.28583017, -1.1044713, 2.8354015, -0.2286624, -0.9446015, -0.8439356, -0.33410293, 0.037672263, 0.1500986, -0.26624382, -0.27358702, 0.35778767, -4.015035, -0.25938937, 0.31732294, 3.5041938, -0.21739051, 4.027592, 8.987294, -1.0860903, -2.140215, 0.6869081, -0.18310724, 0.27032733, 2.3032537, -2.2970202, -0.85595685, 0.7635607, -0.05086721, -0.22475667, -0.6257171, -1.2190676, -0.06253839, -4.9337325, 0.44695055, -1.0214187, -1.3781657, -0.32232395, -0.8261843, -0.7903789, -0.32998455, 1.8682382, -2.3802955, -0.85332376, -0.5335376, 2.0283196, 0.06613462, -0.4826307, -1.7556671, -0.50524676, -2.416611, 0.66084373, -5.3962708, -5.2878146, 0.87126976, -0.38640288, -0.7024788, -3.1479328, -0.12570205, -2.5743845, -0.83237046, 0.89849293, -2.9078472, -2.6772337, -4.398734, 0.15117647, -0.60832727, -0.2548042, -1.8717625, -0.030174188, -0.13502471, 0.09568439, -0.040600836, 0.5634595, -0.018140413, 0.040620156, 0.100435086, 0.03417566, -1.6862895, 0.0018844095, 0.034905754, -0.17446403, 0.15796426, -0.17776546, 0.07706214, -0.6069101, -0.083925985, 4.364975, 0.0013085976, -0.5092634, 0.017301336, -1.9568818, -0.117914826, 0.0028836234, -0.073804356, -0.13363917, 0.10342745, -0.032401204, 0.096161135, -0.4629795, -0.055217903, -0.011241434, 0.14413907, -0.04077289, 0.76456374, -0.10005305, -1.3549229, 0.5108281, -0.006009765, -1.2963461, -0.13076499, 0.13626388, 0.9769402, -0.43349198, -5.0631914, 0.027125098, -1.5023333, -0.7151664, -0.089225315, 1.8099676, -0.77225727, -0.56140834, -0.47056654, 0.8012716, -0.57599735, -0.43705034, -0.12602708, 1.5072936, -1.6060123, 0.59903926, -0.72425926, -0.59852886, 0.42193955, 0.2448655, -2.8070257, 0.28904465, 0.02782931, 2.0289044, -0.106691904, 6.577998, 0.2209162, 0.93939924, -0.4236018, 1.1859058, -0.0018546082, 0.29445815, -0.5139412, -1.3058758, -0.68741584, -1.2079902, -0.40497735, 0.20364243, -1.2557981, -0.4022872, -1.8922776, -0.96512294, -1.9939152, -0.12170754, 0.49398187, -1.7444943, -0.35788354, -2.2449756, -0.29001406, -0.031552423, 0.37290174, -0.06053151, -0.017200386, 0.12901132, 1.1560678, 0.9886192, 0.06997365, -0.041280113, 0.39117146, -0.32707846, 0.031152079, -0.6733905, 0.113947734, 0.4147886, 2.8686225, 0.20306817, 0.15388083, 0.08926276, -0.9896336, 0.09817601, -0.52001405, -0.0794666, -0.82341653, 0.06677452, -0.6719787, 0.21259911, 0.095713645, -0.7827501, -0.19200751, 0.0617764, 0.12913474, 0.03919041, 0.17199917, 0.1123941, -0.1809359, 0.025289034, 0.13431166, -0.053428095, -0.25696695, 0.08865214, 0.61665934, -0.12795725, 0.16473985, 0.03212388, -0.256752, 0.061492406, 0.08491036, -0.09282169, 0.20821665, -0.052673053, -0.2496745, 0.6667008, 0.13491662, 0.18712749, -0.086142525, 1.0922624, -0.18187651, -2.119372, -0.04280896, -0.61777717, 1.4304978, 1.8086565, 0.4589259, 0.8706294, -0.084422685, 0.008911301, 0.036445435, 0.060624924, 0.11411597, 1.9934458, 0.6289345, -0.2828347, -0.26896983, 0.20045483, -0.14661519, 0.20659454, 0.24107023, -0.10976861, 2.8202324, 0.4518047, 0.66124654, -0.00963263, -0.13091138, 0.16046178, 0.9835898, 0.116149515, 0.50686735, -0.07206178, -0.40604398, 0.92322904, 0.69719946, 0.12143997, 0.2834792, 1.2842755, -0.008216843, 0.29583403, 0.60594106, 0.18463533, 0.6611745, 0.46426904, 0.53051233, -0.49822068, -0.12846549, -0.077545725, -0.40654585, 0.025722206, 0.17523953, 0.03169834, -0.13682789, -0.08728849, 0.08743687, -0.015683655, -0.04001132, -0.15316679, 0.2632322, 0.06547685, -0.15796378, -0.11226996, -0.13440704, 0.1186381, -0.082391284, -0.3987475, 0.08114756, 0.5893541, -0.068952374, -0.11010882, 0.039663047, 0.13473824, -0.045878977, 0.06390778, -0.16113529, 0.08652211, 0.016563527, 0.1887917, -0.03439313, -0.056951735, 0.13447814, -0.03984411, -0.022111306, 0.051150724, 0.14673379, 0.011186544, -0.5878965, -0.12856767, -0.11329903, 0.17219242, -0.014674447, -0.1611962, 0.3417127, 0.052575447, -0.17476508, -0.021818137, -1.0066164, 0.1855815, 0.09257241, 0.46801534, 0.08119203, -0.38360152, -0.1489514, 0.22761232, 0.02434601, 0.020048795, -0.6778687, 0.64698315, 0.5016966, -2.204765, 0.12560344, 0.12486107, -0.36520615, -1.9821862, 2.8641934, 0.22130167, -0.023692995, -2.1056163, 0.1599989, 0.31031308, 0.89413595, -0.3883085, 0.13526772, -0.024800774, 0.04704921, -0.15350378, 0.18376407, 0.067726105, 0.16522771, 0.04278106, -0.037972897, -0.3149998, 0.17276113, 0.3436161, -0.102209516, 0.024216339, -1.9191569, 0.010104735, 0.013025252, -0.005377884, 0.07799798, -1.7508063, 1.5132551, -0.060077716, 0.4508761, -0.068697505, -0.2240003, -0.15197577, -1.1033984, 1.5276082, -0.8292509, 0.12955113, -0.0615384, -0.50130624, 0.010437074, -0.115141176, -0.013019349, 0.7988718, -3.1288223, -0.16683844, -0.052734513, -0.063540675, 0.729599, -0.098697886, 1.1307249, 0.8460574, -0.25402933, -0.06335672, 0.8186778, -0.16775487, -0.11170058, 0.28766766, 0.3180418, -0.15542333, -0.042408668, -0.06699335, -0.005441438, -0.1691365, 0.07940262, -0.14516005, -0.12562262, -0.0565534, 0.5457254, 0.018804042, -0.7919371, -0.08032856, -0.050163254, -0.054633502, -0.07585117, -0.15876098, -0.04950461, -0.1416636, 5.748843, -0.10198075, 0.6082131, 1.8939524, -0.10885309, -0.069900654, 3.2221558, -0.5226308, 0.23460868, 0.7814682, -0.16826767, 0.7243145, -0.70091724, -1.2666457, -0.30925184, -0.47949123, -0.44303524, -0.11245999, -0.2057713, -0.13088638, -0.096270844, -2.209766, 0.2852122, 0.30662787, -0.5771629, -0.1725289, 0.10477663, -0.09879176, 0.02213481, 0.2486705, -0.83959615, -0.13376579, -0.12089539, 2.0096543, 0.42046887, -0.0018818644, -0.15115349, -0.16884074, -0.7231965, 0.61951506, -4.2550783, -0.051297136, -0.34418973, -0.121911645, -0.229903, -2.7240627, -0.063635096, -0.081343465, -1.1632795, 0.07088039, 4.7617326, -0.07890839, -0.5231219, 0.114596836, -1.1356341, -0.15113594, -0.8681919, 0.045118768, -0.14103173, 0.02999066, -0.013623284, 0.111375436, -0.044996955, 0.063258655, 0.13603522, 0.036779847, -0.39910653, -0.09593233, -0.0039059706, 0.012927751, -0.23246995, -0.009204667, -0.195807, -0.052880995, -0.009197438, -0.09738051, -0.034544755, 0.061757337, 0.039801925, -0.2547331, 0.20298775, -0.03361581, 0.112679966, -0.22838037, 0.039632488, -0.20236927, 0.18440412, -0.027161496, 0.055729844, 0.06241867, 0.12205198, -0.11944774, 0.1494956, -0.09773431, -0.10084203, -0.01793945, -0.03067864, -0.07220052, -0.18112338, 0.08113619, -0.389762, -0.0067048003, -0.8929578, -0.041568335, 0.62586004, -0.13074644, 0.100235626, -1.0660148, -0.044642195, -0.9915771, -1.2250396, 0.3475906, -0.11946569, -0.32086703, -0.6709282, -1.4394422, -0.030217381, 2.2751732, -0.18815285, -0.06925796, -0.49691987, 0.5872859, -1.9281517, -0.6621958, -0.016001914, -0.024340179, -0.21430913, -0.09652553, 1.8393229, 1.0691993, 0.00084942236, 0.65998566, -0.16196837, -0.30887103, -0.09040616, -0.15481791, -0.18068159, -0.1650244, -0.15529558, 0.9919871, 0.0384941, 0.017352415, 0.39841563, -0.24730904, 1.1800574, -0.024072174, -0.12761584, -0.06451993, -0.25688457, 1.3858346, -1.1954556, -0.07815427, 0.42770568, 0.038870655, -2.2626655, -0.076454625, 1.1859804, 0.7057882, -0.76456827, 0.033055265, -0.03468298, 2.676169, 0.020223359, -0.4709769, 0.12719205, 1.7662438, -4.4314833, 0.1767463, 0.0758518, 0.06086538, 1.3505967, -0.35792568, 1.2240342, 0.8611234, 5.118378, -0.011119076, -3.6534839, 0.049498644, 0.21918416, -0.1934036, -1.1725327, -0.10692097, 0.023497077, 0.019743817, -0.03912284, -0.043248754, -0.0046957047, -0.019009521, 0.014420099, 0.058280498, 2.1622345, 0.13440305, -2.6136594, 0.04517623, 0.1573812, 0.08299607, -0.07524672, 0.022949236, -0.07900532, 1.9366567, -4.382063, -0.041897733, 2.177251, 2.6366367, 0.123060726, -1.0620872, -0.11228773, -3.9088113, 2.224894, 0.49992064, -1.8822659, -4.6518087, 4.0225716, 0.62450844, 0.1464167, 0.88528174, -1.0668935, 0.1931196, 0.13512707, 0.095307395, 0.27361754, 2.44547, -0.18445708, 2.254403, 1.2938793, 0.095985115, 1.0924453, 0.1997172, 0.20379204, 1.7140971, -1.3997834, -0.039681956, 0.2742067, -0.012038039, 3.087851, -0.06274649, 0.6474283, 0.33214936, -2.523058, 0.17723008, -1.4573429, -0.86707354, 2.5110002, 0.3523359, 0.38609198, 2.004891, 0.13900743, 0.4375854, -0.08779326, -1.0820519, -3.902634, -2.4834235, -0.33115694, 0.08114461, 0.8380187, -0.042629436, -0.47198248, -0.09356306, -0.5047501, 0.11650428, -0.08514154, -0.07197238, -0.042263955, -0.063172214, -0.036307927, 0.06306314, -1.5126153, 0.30406877, 0.028142883, -0.048018, 0.48498932, 0.053851772, 0.10439588, -0.56586903, 0.06304722, 0.2277438, 0.060958434, -0.04195002, -0.019901138, 0.28323728, -0.057341315, 0.013959962, 0.008027804, 0.01810446, 0.14459133, -0.087790325, -0.12306243, 0.058025494, 0.030177936, -0.035873454, -0.14012046, -0.030216793, 0.15110937, -0.007197288, 0.8787047, -0.044178944, 0.081443444, 1.0959704, -0.029408965, -0.041745566, 0.6208283, 0.059743848, 2.297838, 0.11279128, -1.3132662, -0.100812346, 0.020402612, -1.1981499, -0.1904001, -0.8778166, -3.1032767, 0.22482856, -0.079183176, 0.010702915, -1.4308689, -2.5139601, -1.486344, -0.028063014, 0.09689813, 0.1947279, 1.9358081, 1.1878906, 2.1589377, 0.8827509, 0.05171931, -0.14493015, -0.122212484, 1.809525, 1.4162964, 0.63144684, 0.051416095, 1.5615897, 0.1517763, 1.9669006, 0.115690306, -0.011858066, 0.032965116, -0.024823679, 0.018574703, 0.17005186, -0.055794083, 0.08793078, -0.49174187, 0.05023843, 2.0336082, -0.03760779, -0.13654667, 0.07498197, 0.0639883, -1.8230803, 2.5195787, 0.08630902, 2.5010781, 0.0697088, 0.01985061, -0.08214889, -5.9650965, 0.3294489, 0.16226844, 0.09625083, -0.031091394, -0.6957554, -0.09496753, 2.2817216, -0.07528117, 0.41762292, 1.0682235, 0.0006580664, -0.25508267, -0.09896527, -1.7802886, 2.2905324, 1.0176699, -0.5036056, -0.7577555, -0.03108143, 0.060670126, -0.15520251, 0.021772595, -0.46776062, 1.321359, -0.056765433, 0.012193005, -0.113118336, -0.10636779, -0.03395218, -0.09790043, -0.018319778, -0.11072865, -0.025120182, 0.05974419, -0.16256718, -3.068083, -0.05141882, 0.0066193016, -0.06558424, -0.08887001, 0.048528094, -0.06284949, 0.9765246, 0.054638732, 0.0038751494, -1.385291, -1.1348109, -0.22105452, -1.2124724, -1.770597, -5.399286, 2.2688046, 1.1445426, -0.4389001, 0.008159428, -1.1281632, 2.289618, -0.1210228, -3.397468, 1.687983, -0.113235004, -0.07134164, -0.06995735, -0.108011715, -3.8002005, 2.3019943, -3.802031, 0.6451095, -0.23183233, -0.043302145, -0.28733113, -0.11785804, -1.2641199, -1.0082351, -0.20809682, -0.13473228, -1.4754586, 2.518684, -0.035402652, -0.080712736, -0.07739424, -0.29249337, 4.2432113, 0.40032345, 0.25138533, 0.57280874, -0.1114728, -0.04027366, -1.0386965, -0.08056135, -0.29637346, -1.66486, -1.9210802, -1.0912606, 0.6180135, 1.7437648, 0.18716472, 2.528601, -0.04694145, 0.8957602, -0.060471684, -0.66936934, -0.1008288, -0.0139015885, 0.08386543, -0.040635906, 0.05167163, 0.008724267, 0.012781971, 0.71427685, 0.4155204, 0.06870127, 0.12403692, -0.2655585, -0.038089518, 0.11725598, -1.7535142, -0.0792285, -3.2578638, -0.073423944, 0.095483, 0.05661895, 3.2999463, 0.28542528, 0.0026482118, -0.013579164, -0.041160017, 0.0420049, -0.12978154, -0.0035755904, -0.04608878, -0.11826573, -0.065770954, 0.04716244, -0.07762578, -0.064416364, -0.0015568319, -0.03696933, 0.0015797698, 0.030611858, -0.048017412, 0.031807333, -0.03452101, 0.11914372, -0.11657174, 2.9470208, 0.09957313, -0.88506085, -0.2397055, -0.0017917431, 1.7879541, -0.07287672, -1.7838824, 0.075892165, -2.1361043, -0.026390757, -0.14312494, 0.19154917, -0.6993464, 0.0011160674, -2.013317, -0.04815995, -0.20017284, -0.9339961, -2.3290775, 0.27942207, -0.15503849, -0.07466461, 1.7608315, -0.1447454, -0.0694826, -0.4625149, -1.5740644, -0.102161676, 0.23530714, -0.13803364, 2.5720708, -0.13153572, -0.14735793, 0.09649357, -0.15460028, -0.056104355, 0.16226557, -0.20896238, -0.23817082, 0.69942886, -0.060782842, -2.230445, -0.007816718, 0.16714513, -0.23551257, -0.07333697, -2.889119, -0.50939506, -0.014289705, 2.638487, 0.23476098, 0.9147817, 0.39689928, 1.7363771, -0.060427032, -8.597586, 0.11985588, 0.12182578, -8.205573, -0.044275545, 1.206717, 0.09855545, -0.20575933, 2.385492, 0.053255245, 0.1466236, 0.02985373, -2.5039716, 0.1060984, 0.30461437, 7.3607783, 1.653072, 0.17043251, -0.5047043, 0.114569746, 0.13846068, -0.49217284, -0.35432905, 0.061801672, 0.2580968, -0.036088213, 0.013143431, 0.3353213, -0.11750603, -0.052694045, 0.64185107, -0.0774787, -0.31764817, 0.051856693, 1.2292498, 0.1986548, 0.20261738, 0.30818966, -0.15856211, 0.15512575, 0.39262035, -1.6324254, -0.03140123, 0.56956017, -1.4732851, -2.1204386, 0.14411779, -2.3739324, -0.7131853, 0.5189957, 3.540077, 1.8170948, 0.3630248, 0.0067558438, -1.0141445, 1.5214745, 0.67003393, -3.3654063, -0.5577414, 0.13164066, 0.20846298, 1.008232, 0.3344479, 0.66058105, -0.9899158, 1.1315271, 1.6322795, 0.0835935, 0.49339148, 0.5892865, 0.22167201, -1.9397396, 1.3667928, 0.538352, 0.40538144, -2.3305995, -0.702915, 0.6143342, 0.9203495, 0.18257798, -2.6238801, 1.7939174, 3.1607385, 2.9278662, -1.0748323, 0.23465669, 0.5304182, 1.0661978, 0.13461134, 2.7180512, 1.5153238, -1.8680998, 0.4673624, 3.3499582, -0.8266215, -0.042436562, -2.7717314, -0.12064594, -2.9895263, 0.06422143, 0.24456073, -0.003954706, 0.048095062, -0.25979257, -0.0605904, 0.04963386, 0.07802905, 0.07232428, 0.08643259, 0.18894368, 0.054797497, 0.07883698, -3.5833557, -0.024200737, -0.18987387, 0.5826241, -0.05266126, -1.7018849, 0.0051501705, 0.5756026, 0.046703395, 0.8899175, 0.023757739, 0.010698137, 0.006988798, 0.07869893, -0.2026982, 0.11498364, 0.101785995, 0.036703307, 0.47016507, 0.04680302, 0.03848625, 0.060160227, -0.4676824, 0.013494663, 0.23488311, -0.057744645, 0.16198094, -0.28398165, 0.068044, -0.061037514, 2.9481463, 0.38102928, -2.5512793, -0.08282173, -0.78277344, 0.5938093, 0.06293442, -1.7955232, 1.0309658, 1.3767684, 0.3703714, -1.1059334, -0.2849465, 0.3504922, 0.06106604, -0.28491566, -0.376249, -6.785319, 0.4150871, 0.24149857, -0.45366663, -3.3789027, 4.4137344, 0.15042683, -0.04515725, -1.7795181, 0.14979844, 1.9224235, 0.175097, -0.42206252, 0.62878424, -0.17863831, 0.07893982, -0.06962891, 0.3607373, 0.17906466, 0.39669508, 0.5304282, 0.32892543, 0.021436926, 0.1936357, -0.012541565, 1.264226, 0.68144375, -2.5864415, 0.09199393, -0.20924953, 0.46859807, 0.32723486, -2.9270926, 2.600443, 0.060949963, -7.4293833, 0.02504236, 3.122188, 0.24471001, -4.2862196, -4.6554747, -2.6312318, -0.07318202, 0.12621424, -17.50015, -0.013494243, -0.52436, 0.23264886, -1.8179637, 4.409788, 0.074445754, 0.029595044, 0.13462843, -2.9897032, 0.12880704, 3.1450872, 7.6305385, -3.7191825, 0.116683, 1.061292, 0.27364022, 0.10976087, -0.5555187, -1.0804367, -0.015020133, 0.12684886, -0.046583604, 0.096322216, 0.03867359, 0.018443896, 0.038947478, -0.0051552183, 0.17982912, -2.910949, -0.068898395, -1.9801903, -0.02006694, 0.17329878, -0.07281, -0.094335996, 0.27033702, 0.17832942, -7.6526446, 3.0978186, 0.045111015, 5.5285, 2.9246635, 0.37885827, 1.049881, -7.414475, 0.9129555, 6.7393746, 2.1321378, 4.8550305, 1.4393202, 1.3091843, 1.761168, 0.106740326, 0.4138627, 5.6812835, 0.1427781, 0.02586707, 0.13726662, 0.12587756, 0.50758517, 0.8016653, 2.0671172, 1.6427245, 0.15679945, 0.21847685, 0.15476124, 0.2208535, 1.5201087, 0.6938792, 0.20811498, 0.10424921, -0.024724843, 2.3819091, 0.026430547, 0.15990697, 0.16320743, 2.1318521, -0.11858807, 5.057892, -1.0082371, -3.5244908, 0.1735434, 0.28520814, 4.0711913, 0.019193837, 0.2094358, 3.2728555, -2.033079, 3.7514796, 3.1535475, 3.1480744, -0.079220556, -1.7679986, 0.095476404, 0.81662065, -0.10548424, -0.2893002, 0.06850423, 0.09146109, -0.16975959, -0.016493635, -0.026783895, 0.04824414, -0.097564004, 2.700525, -0.1950842, -0.018790923, -0.013229841, -2.2485092, -0.014712301, 0.017842581, 1.4082786, -0.0016944855, -1.6225758, -0.008306747, -0.27438036, -0.062435366, -0.32689497, -0.3770091, 0.12272861, -0.1915106, 0.06280632, -0.15063587, 0.0030685398, -0.03543184, 0.033474635, 0.13506874, -0.1309878, -0.04973651, 0.034434363, -0.33592084, -0.07283173, -0.181761, 0.017742703, -0.010586816, 0.085984714, 0.09278957, -0.25672382, -1.087105, -0.06117513, 1.4372957, 0.075733505, 1.1421713, 0.003411927, -0.009784498, -4.817542, 0.13262242, 1.8166885, 1.6197423, 5.0049596, 0.099720046, 0.2184719, 1.9037902, 0.94267017, -0.44126704, 6.993836, 0.23780213, 0.07139765, -6.5833964, -8.2211, 3.2650855, 0.26650944, 0.19526757, 1.8893409, 0.1764389, -7.861754, 2.1496768, 5.283072, 0.065071985, 0.31887156, 0.1281957, 1.7254226, 0.04666175, 0.09444489, 0.079529405, 0.25348544, 0.18497998, -0.35053855, 0.033478003, 0.068801366, 0.28885624, -0.042337146, 2.8938582, -0.06341213, -0.022693168, 0.18481523, 0.09250034, -0.02740255, 2.2222273, 0.10027653, 0.6192678, -0.16599704, -0.120765895, 0.0048351926, -0.61829436, 1.9644828, -0.32277432, 0.10883419, -0.017188547, -1.8336114, 0.03220111, 1.4550991, -0.14877564, -1.0012742, -2.6609404, -0.1307289, -0.0670044, -0.096590474, -5.627532, -0.7784097, -2.516838, 0.057674475, -3.1445208, -0.115591854, 0.38548917, -0.06927119, -0.042793922, -0.39775503, 0.0936033, 0.075504944, 0.09748357, -0.05639765, -0.038159523, -0.14005175, 0.0025017906, -0.19481222, 0.07107236, 0.011003018, 0.54537135, 0.00041170942, -0.58162796, -0.09568012, 0.028320896, -0.04116236, -0.0036875685, -0.027749177, -0.133765, -1.8162926, -0.42023298, 0.16497646, -1.5292666, 1.7158359, -0.32090053, -3.9227219, -0.5216229, -2.2375796, -1.3067373, 0.5969635, -0.23651236, 1.9234489, -6.609156, -1.5593326, -0.019280417, -2.4966931, -2.2841418, -0.043640308, -0.023331009, 0.0009916826, -0.15495144, -5.1318974, -0.5629369, 0.05539098, -4.036288, -0.019234726, -1.1653996, -0.09200088, -0.028900482, -4.097406, -2.8127267, -0.06777365, 0.10510467, 1.4455811, -0.3988487, -0.14892969, -0.23265989, -0.17367123, -0.19472174, 0.15391685, -4.019784, -1.2088219, 0.34586197, 0.0032208122, -0.09307577, -0.83545464, -0.1631549, -0.7050939, 0.47403973, -2.58024, -1.3310001, 0.97602797, 1.3978645, 0.14290096, 0.12606661, -0.18019496, 2.157183, 0.089900255, 1.5452074, 0.02323687, -0.05927033, -0.11948095, -0.02509109, 0.027286706, -0.13522434, -0.027402436, -0.032843128, -2.5332263, 0.041951887, 0.12561655, -2.396243, -0.001016167, -0.031905558, 0.978011, -0.0032316875, 2.5118432, -0.05156483, 0.073731326, 0.06372505, 2.3612533, 0.043105092, -0.072214544, 0.11708599, -0.2568279, 0.24753787, 0.018115744, 0.029518781, -0.124592856, 0.103591196, 0.013652952, 0.07501927, 0.119016245, 0.3165797, 0.1257435, 1.1407418, -0.015757825, -0.0075462554, 1.2775156, -0.017856278, -0.27410015, 0.15868044, 0.032320082, 0.006266782, -0.07638591, 0.49706697, 0.001773789, 0.044551693, -0.32938406, 0.03068234, -0.9482819, -1.0880562, -3.4597926, -0.027993344, -0.070502505, -1.9810535, 0.99903375, -0.18620743, -2.5628228, -0.13939913, -0.046312645, 0.32456574, -2.0225422, -2.500587, 1.3226655, 0.05414427, 1.5941684, -0.20900884, -0.80724895, -1.4788668, -0.7129866, -0.14672144, -4.116844, -0.08349913, -3.7105372, -0.20025526, -0.19367063, -0.15921476, -0.19471383, -0.12947981, 0.2081663, -0.023755426, -0.07778606, 0.98909885, -0.10482212, -2.445994, 0.07527737, 0.2516424, -0.0033487643, -0.15849416, 0.43285164, -1.4007645, -0.031525504, 0.053571276, 0.20728213, 0.08533904, 0.19748558, 0.60231954, -1.0938531, 0.18698792, 0.05573297, 0.15662454, -0.007548017, 0.046024222, -1.501667, 0.05622225, 1.542018, 2.9361598, 0.1119194, 0.054234006, 0.10260637, -0.86030304, 0.11373942, -0.33056113, 0.17031775, -0.8333934, 0.17380093, -0.8162508, 0.20550002, 0.042612515, -0.54857653, -0.5681234, 0.16929655, -0.025399096, -0.03731494, -0.004051779, 0.07822492, 0.053131253, 0.061316587, 0.13385023, 0.08625739, -1.0746095, 0.025100673, 0.35034353, 0.0903366, 0.0090004075, 0.05662959, 0.07813779, 0.05918805, 0.14385173, -0.14707966, 1.2804569, 0.08278317, -0.3188475, 0.18205461, 0.36036897, 0.63243574, 0.07675548, 1.5825982, -0.3147602, -1.4840391, 0.6770116, -0.5992342, 1.2996937, 1.7528977, -0.03982779, 1.1343976, -0.926992, -0.010499251, 0.16498472, 0.16711104, 0.1717755, 2.4040375, 1.0890447, 0.64996314, -0.23462115, 0.37382564, 0.48728332, 0.10855086, 0.04881071, -0.023110935, 2.7246487, 0.20599496, 0.30800986, -0.115497455, -0.6154678, 0.12570858, 0.23976226, 0.1075209, 1.5774003, -0.18679368, -0.17370822, 2.3203971, 0.7776439, 0.080876246, 0.057955366, 2.1103954, 0.018839847, 0.33191213, 0.9580864, 0.04397937, 0.0046670395, 0.98742974, 0.45941702, -0.15720323, -0.060730226, 0.13604604, -0.23907077, 0.011536369, 0.49304873, -0.08899646, 0.07100279, -0.20366104, 0.11199884, -0.14752498, -0.024483955, -0.08630791, 0.2804003, -0.14291693, -0.11994745, 0.014125234, -0.035352297, -0.06460175, 0.21963446, -0.19674966, -0.018552002, 0.69235754, 0.04929052, -0.14583986, -0.06873499, 0.32359982, -0.116067, 0.15920871, -0.15153268, 0.12964007, -0.13565908, 0.1936915, -0.0058062053, 0.052488297, 0.111842565, -0.11509498, 0.031471536, -0.030355124, 0.11095995, 0.101110265, -0.6222562, -0.15796097, 0.12032356, -0.73714346, 0.089742824, -0.07392899, -0.04400885, -0.0970728, -0.6746956, 0.06437035, -1.3888888, 0.08045552, 0.06601012, 0.3409854, 0.06617733, 0.0579397, 1.0327417, 0.11578476, 0.13336074, 0.17699279, 0.108923644, 0.15568985, 0.1347335, -2.0232532, 0.19703169, 0.120092526, -0.3130484, -1.7645565, 2.8637471, 0.48401797, 0.022161962, -1.5218922, 0.11483761, 0.61290014, 0.55268246, -0.64152265, 0.19473875, 0.93684775, 0.19890778, 0.5859788, 0.08465109, 0.09914222, 0.15353096, 0.09883576, 0.17341468, -0.5399479, 0.066395134, 0.2689005, -0.072754204, 0.109652944, -1.7928381, -0.123919874, -0.3175391, 0.07803427, 0.19649173, -1.5253836, 1.5663035, 0.030340407, 0.6049632, -0.18463136, -0.3354065, -0.07517184, -1.5654985, -0.47912318, -1.6189728, 0.10364088, -0.0025989886, -1.3020291, -0.0083529465, 0.084965505, -0.10962675, 1.5739881, 7.8286786, 0.046603177, -0.011117525, -0.14383627, -1.6623893, -0.85806197, -0.58167094, 1.4073367, 1.9281772, -0.16061828, -0.15636127, -0.1275542, -0.06993595, 2.1064215, -0.4289649, -0.12054852, -0.010435848, -0.014201703, -0.07507573, -0.06929797, -0.046791855, 0.04239336, -0.029717376, -0.14369157, -0.13469264, -0.041455753, 0.7781792, -0.11850726, -0.017353421, 0.073174566, -0.22615089, -0.24440978, -0.11219203, -0.65293807, 0.61203694, -0.024208618, -2.4511328, -1.8475341, -0.3605093, -1.9110101, -1.2004257, 0.017336557, -2.313824, 2.182747, 4.1458597, -3.0776281, -2.1805081, 4.465331, 0.023842972, -6.2125, -1.3878123, -0.16425909, -0.19282722, -0.0146115655, -0.05013555, -2.5888946, 2.3566139, 3.0409212, -0.802409, -0.2353467, 0.28261936, -0.17158502, -0.1417291, -4.124373, -0.31595108, -0.07009383, -0.21294722, 0.25345153, -2.104374, -0.28283474, -0.14764227, -0.09703753, -2.2867227, -0.46223512, 1.5399361, 0.61461014, -2.0551443, -0.17298575, -0.09442734, 1.9686295, -0.03823521, -0.7680179, 1.6060693, 0.5276164, -0.3130181, 0.93319964, 0.29979476, 0.03237736, 0.73754793, 0.042262465, 1.3242987, -0.04764868, -0.5484246, -0.07753647, -0.12687811, 0.20999826, -0.07875233, -0.057729512, 0.065517016, 0.1514084, -0.016498469, -0.71401745, -0.050444875, 0.01953212, 0.51242334, 0.07428071, 0.061448462, -0.15022282, -0.058122847, 1.6974744, 0.08398856, 0.15947156, -0.09013855, -0.16802403, 0.24282299, 7.156254e-05, 0.0803731, -0.18292478, 0.13382615, -0.16421895, -0.026736462, -0.07402298, -0.055047687, -0.13461596, -0.08427933, -0.02407969, -0.528005, -0.05425652, -0.49944946, -0.041531157, -0.0016347687, 0.23066191, -0.07317958, -0.027056608, -0.14103203, -0.02426371, -1.7201167, -0.038846713, -1.1777523, -0.062317394, -0.02829814, 3.374446, -0.14165878, 0.51027435, 0.11946285, 1.8023397, 0.0015646276, -0.09727117, -0.6500993, -3.4752407, 0.8260059, -0.10201767, -0.16789162, -0.032504894, 0.030841887, -0.03486483, -2.8166897, 0.7991917, -0.09933668, -2.5656793, -0.20054796, 1.122744, 0.87043726, -1.4756774, -0.11300771, 1.3543731, -0.15462019, 0.9460291, -0.09812846, -0.07515751, -0.095447816, -0.07487084, -0.18410012, 0.8381305, -0.11778338, 0.051768377, 0.45993644, -0.08590418, -0.7737278, -0.008843856, -0.41155094, -0.217056, -0.25028145, 2.079517, -1.2772164, -0.1467444, 6.4012203, -0.15437159, -1.5036663, -0.13646486, 3.3336303, -0.198642, 11.34516, 0.06464464, -0.2213135, 13.912992, -0.037025593, 0.84978527, -0.2474956, 0.952958, -5.108255, -0.031409163, -0.1027771, -0.08797237, -2.3964512, -1.1395503, -2.7890403, -6.6066804, 0.9564276, -0.1808938, -1.2542875, -0.29770437, -0.021715995, -0.67805415, 0.22818965, -0.087792486, -0.025340697, -0.012220419, -0.14109375, -0.22209609, 0.044995237, -0.02886999, -0.25109577, -0.04673031, 1.7488292, -0.09581727, 0.53142595, -0.12185297, -0.144077, -0.02150694, 0.166984, -0.14078389, -0.2178664, 2.8041015, -1.7066658, -0.34318963, -9.168065, 0.030687045, -0.30306035, -1.2168556, -4.158648, -1.1448737, -5.9773064, -0.853754, -1.7820126, -1.0444969, -0.4050641, -0.04962263, 0.060254678, -1.583874, -5.195695, 0.07805881, -0.1323271, -0.1119732, -0.08632157, -0.16773032, 0.30203766, -1.2228135, -0.6316088, -0.22088668, 0.4475612, -0.029490318, -0.07668788, -1.5796591, -0.5905334, -0.2358434, -0.55180556, 4.3999586, -2.3595593, -0.66074723, -0.09085665, -0.081199154, -0.98877746, -1.9300392, -4.3064494, -1.0051583, 2.2320693, -0.30559894, -0.109156705, -2.336192, -0.082846716, -0.387489, -3.2099593, 0.51192516, -3.2577648, -3.575925, 0.47405133, 0.32993925, 2.0640473, -0.13104327, 0.026725758, 0.014409179, -0.12811863, -0.08836317, -0.00030203612, 0.36857158, 0.08086249, -0.052033722, 0.015653303, 0.07821693, -0.28507864, 0.0390974, -0.04181093, 0.0564155, 7.8596635, -0.008718828, -0.036429428, -0.6907652, -0.116566025, 1.4599916, -0.056933533, 0.15400837, 0.027837476, -2.2763464, 0.21169181, -0.08364983, 0.12437283, -0.27661887, 0.02155274, -0.22984509, 0.09749212, -0.12275205, -0.1767248, -0.077505946, 0.1334294, 0.10179195, -0.09938158, -0.05984411, -0.6404598, -0.09510193, 0.0555797, -0.49859232, -0.18926607, 0.26003653, -3.5644398, 0.06586107, -0.7002148, -0.115943685, -1.6722388, -0.07288735, -0.0084991, 2.2712965, -0.238254, -1.6952336, -2.5299342, -2.5544627, -0.2544746, -0.23123446, -0.901819, 0.7232876, 2.3182065, -9.443348, -0.3933434, -0.066413894, 0.80414855, 5.253848, -3.642511, -0.36240596, -0.23250341, -2.0550358, -0.51274914, -10.6877575, 0.0874791, 5.3833027, -0.1026418, 0.01664493, -0.28782538, 0.31002545, -0.15663604, -0.15900752, -0.30195272, -0.25759473, -0.2125938, 0.096023105, -0.0030160728, -0.14243801, 0.52136046, -0.27581254, -0.49572498, -0.07072577, 0.1489265, -0.12456843, -0.34671336, -5.3245506, -1.9027957, -0.39974886, 0.73857117, 0.020553408, 0.7758493, 0.121974654, -3.1653194, 0.6342709, -1.6673946, 0.57455885, 0.033243358, -2.9036858, -0.14302601, 1.0115389, 0.0044032983, 0.6665484, 3.9163666, -0.10374636, 0.024794288, -0.013564185, -0.28905734, -0.049093854, -0.7678078, 0.21926057, -1.6003839, -0.4446041, -0.6779102, 0.013334522, -0.00990616, -0.42889, 0.51180154, 0.001767616, -0.062196262, 0.07998638, 0.0917705, 0.20405342, -0.020090587, 0.098975256, 0.019383227, 0.73753893, -0.12877433, 0.10881565, 0.7342055, 0.082635336, -0.025190962, 0.037688736, -0.35349306, 0.04360861, 0.11457682, -0.41828376, -1.3259782, 0.11857424, -1.5189872, 1.1806866, 0.011703962, -2.5803583, -1.7704738, -1.0266185, -0.5996288, -0.24084961, -4.142143, -3.2707362, 0.70379406, 0.72401506, -0.40218163, -1.6874781, -1.2619746, -0.091012314, 0.06278541, 1.9561802, -0.04590092, -0.9001895, 1.4426048, -0.06523873, -0.7289382, 0.12725927, 1.6377391, 0.020239744, 0.027877076, -2.352304, 2.063564, 0.17125343, 0.1404011, -0.588124, -2.6325731, 0.27736476, 0.4677648, 0.13465741, -1.8493084, 0.13982484, 1.0249406, 2.7025688, -2.2369401, 0.029835803, 0.19413821, 2.7140982, 0.09601806, 1.9491628, -0.43730575, -3.2193804, 2.1562755, 1.7623402, -0.4356871, -0.102562934, 1.4507865, 0.021871585, -0.04510499, -0.07425788, -0.10823026, -0.0698123, -0.07934586, 0.021447109, -0.081221856, -0.03907106, -0.07595432, 0.03595332, 0.10789149, -0.6461047, 0.0800809, 0.042712487, -0.82272077, -0.11925678, -0.07578668, 0.35354093, -0.09791653, 0.051362354, 0.025701933, 0.49589086, 0.041834693, 0.4669106, -0.07848144, -0.004984384, -0.03157272, -0.0694459, -0.1608861, -0.107417785, -0.023210265, -0.02495876, 0.0982366, -0.10881589, 0.0004878055, 0.08128192, 0.14979507, 0.07924627, 0.39989963, -0.030241001, 0.016378738, 0.019863576, -0.046488184, 0.11341485, 0.14429966, 0.50335675, 1.4624274, 0.05803384, 0.4756411, -0.07165253, 0.009964768, 0.87025315, 2.0061564, 0.78439355, -0.046670303, -0.18376304, -0.41558743, -0.08751687, -0.0073493184, -0.58183074, 0.337637, -2.1776342, 0.0032868627, -0.048343536, 0.20018926, -4.8120456, 2.2469227, 1.2340789, -0.017191611, -2.795844, 0.9014469, 0.96311647, -0.40351945, -1.5774006, -0.015298162, -1.4646237, 0.028034851, -0.890636, -0.04228495, 0.7535529, -0.15598384, -0.057405982, -0.024070576, -0.29156, 1.6085569, 0.08832239, 0.9920186, -0.056940395, -2.591734, -0.009615677, -0.24827173, 0.008870104, -0.13361184, -2.3315942, 2.4293168, -0.055180646, 0.41852695, 0.19091621, -0.05338716, -0.06943789, 10.610797, 1.1217817, -0.7050443, 0.05975615, 0.5264761, 0.16984327, 0.055289377, -1.5754479, -0.049204238, 0.16861232, -1.7682838, -0.025560357, 0.111089185, 0.023564335, 0.8474812, 0.27329674, 3.8888814, -0.5555345, 0.04022874, 0.26999655, -0.7672106, 0.114739545, 0.2518113, -2.6711638, -1.3652153, 0.06493112, -0.018120391, -0.01810511, 0.10909711, 0.110940345, -0.035462063, -0.14424369, 0.07017699, 0.19798274, -0.92050743, 0.12162411, -2.3809774, 0.16363396, 0.12724201, 0.10020744, 0.20088747, 0.04193494, 0.0059620654, 0.12377283, -4.6375246, 0.08601027, 1.5619664, -4.051225, 0.27928415, 2.532774, -0.07006712, 1.4698395, 1.1989199, 0.9485006, -1.1084219, -0.93870634, 3.385031, 2.5078182, 0.17268938, 0.458519, 3.0126665, 0.10304892, 0.05315388, -0.011660065, 0.09734625, -1.3454431, 1.7568723, 1.0650551, 2.4876125, 0.28547084, 0.4407252, 0.14679636, 0.23761173, 0.10897945, -1.0116969, 0.21856341, 0.27367207, -1.6417584, 1.4058853, 0.07856364, 0.27764535, 0.09231851, -0.6606957, 0.5374959, 10.062012, 4.218499, -1.9276445, 0.26422557, 0.15518051, 2.7785637, 0.1306877, 0.61375326, 0.8338893, 0.6016625, -2.4899395, 1.1342467, 0.6086811, -0.26773652, -0.83968455, -0.10462591, -0.8074825, 0.08086209, 0.06382953, -0.018498443, 0.0010718905, -0.18346637, 0.13010289, -0.08626052, -0.23655401, -0.11867234, -1.4023187, 0.6292451, -0.20287122, -0.15562816, 0.30028743, -0.027985075, 0.064721934, -0.2508869, -0.11485176, 0.32366714, 0.007747713, 0.08589198, 0.056449227, -0.26461244, -0.091937035, 0.03180498, -0.09388183, 0.0626538, -0.11543106, 0.07094988, -0.003201187, 0.14545697, 0.02379862, -0.023913167, 0.0170936, 0.059599873, -0.5003708, -0.0033268952, 3.7629104, -0.17059277, -0.1152279, -0.54314506, 0.024122747, -0.19201936, 0.305864, -0.05152206, -0.6229307, 0.18113661, 0.12227278, 0.13876297, 0.0076800804, 0.38981208, 0.21080166, -1.0048946, 0.67471945, 2.77804, 0.19630156, 0.3836022, 1.1181437, -0.14210002, 0.4334983, 1.7830038, 0.08059266, 0.04143747, -0.71883345, 0.43464676, 1.864457, -0.38728872, 0.020292193, 0.6041201, 0.38171726, 1.4171462, -0.559934, 2.1411867, 0.12601365, 0.30768183, 0.17926125, 1.5288242, 0.059185117, 0.16807252, 0.25112337, 0.0784627, 0.11099726, 0.11669643, 0.2981382, 0.19919828, 1.3784529, 0.20168303, 0.6927322, -0.06835549, -0.065005615, 0.12554924, 0.31824616, 1.3668611, 1.4925696, 0.031236716, -3.0127232, 0.3295878, -0.055145517, -0.0018659631, -0.1620355, -0.415627, 0.33247817, -0.1237421, 0.08510723, 0.17140457, 0.104714476, -1.7248278, 0.17743099, 0.5105043, -0.93448615, 0.07866919, 0.019741248, 0.103619196, -0.72241503, -0.19068693, 1.0915383, -1.3438869, -0.7228799, 0.107548, 0.081006914, 0.08698755, -0.012912933, 5.5450215, -1.1534528, 0.1987711, 0.15909657, -0.083842985, 0.25890836, 0.19180344, 0.017417336, 0.06790986, 0.10567268, 0.13177985, -0.16624174, -0.030007262, -0.32408714, 0.14192899, 0.13824008, -0.026616469, 0.3200944, 0.14630446, 0.13799097, 0.26954105, -3.021779, 0.0875724, 1.1569018, -5.661526, 0.34017533, 1.1173841, 0.94468904, 0.86512804, -0.91361433, 1.6788448, -1.9653986, -1.6773877, 0.3616694, -1.0932217, 0.10095056, -0.28816536, 1.0347505, 0.13395573, 0.11931273, 0.22306293, 0.17236263, -1.2609128, -1.4459562, -1.3853108, -0.08989983, 0.21499611, 0.5295132, 0.065166436, 0.14680064, 1.6168265, -0.15556432, 0.20419553, 0.5777127, 1.9080138, -1.0030036, 0.1960374, 0.13320589, 0.2218931, -0.8917962, 2.3125136, -0.51240915, -0.31478307, -1.8393168, -0.0034420586, 0.13475971, 0.026003694, 0.093150325, 0.5075687, 0.54308164, 2.3788204, 0.27416345, -0.043328244, -0.7847397, -0.0660197, -0.40036967, 0.0943474, -0.2536136, 0.109955564, -0.34566435, 0.10748838, -0.021774204, -0.18822965, 0.05161506, 0.08523254, -0.13438448, -0.01910111, -0.8534927, -0.96371317, -0.07949133, -0.024718821, -0.1253957, 0.056308717, -0.05642807, 0.391621, -0.047808334, -0.24339798, -0.16130458, -0.034709584, 0.00071545504, -1.2294832, -0.18069799, 0.09791837, -0.20270044, 0.07554954, -0.19816656, 0.21913981, 0.02129506, 0.06332879, 0.24317633, -0.024127318, -0.14756508, 0.05584129, -0.13984662, 0.084586725, -0.046453744, 0.096373, 0.04066004, -0.06803182, 0.16508757, -0.19109999, -0.16686119, -0.085085474, -0.69557226, 0.09925104, 0.92187124, 0.036257703, -0.0036851002, 2.3439248, 0.12225851, -0.15524568, -0.37268993, 0.5766952, 0.05263249, 0.14891934, 0.6321156, -0.32288516, -0.7862296, -0.64436203, 0.24904986, 0.068950444, -0.0071331295, 0.8237194, 3.1105657, -0.6421466, 0.3982249, -0.88321584, 0.29672232, -1.113405, -1.3707228, 0.8086938, 0.07325582, 1.1839333, 0.2917666, -1.5550491, 0.22764558, 0.028947389, 0.12827387, 0.14708973, 0.099705495, 0.19704825, 0.014299005, 0.23956156, 0.018022481, 0.20740317, 0.5916347, -0.043346327, 0.057265446, 0.14015725, 0.15291628, 1.3486823, 1.4260597, 0.33395484, -1.037735, -0.008360272, 0.100371785, -0.06220446, -1.1579361, -0.2426507, 0.12618074, -0.03277342, -0.17626436, 0.19888164, 0.038262434, -0.14745077, -0.084672615, -0.19446346, -2.7916467, 0.08907477, 0.010742928, -0.1861426, 0.97220737, 0.07383367, 0.44621295, -0.1115861, 0.60602766, 0.01414368, 0.43071696, -0.18549646, -0.062192578, 0.4969947, 0.2996492, -0.06924032, 0.10969263, 0.07418036, -0.070425086, -0.16760187, 0.12829891, -0.14586768, -0.17207572, -0.13818105, 0.07386319, -0.089324296, -0.6694972, -0.03502871, -0.019031798, -0.018202512, 0.07200237, -0.0035568883, -0.043310113, 0.20122908, -0.8601949, -0.011201499, 0.41535264, -1.3485805, -0.26883912, -0.066521406, -0.06962381, -0.85721755, 0.5308407, 0.8968723, -0.86443275, 0.37879667, -1.2065514, -1.7172003, -0.020424563, -0.44146147, 0.173796, -0.03831187, -0.16277337, -0.12067584, 0.01570438, -1.320327, -0.9498143, 0.34516573, 0.24464801, -0.12742479, -0.49572146, -0.24330607, -0.24931844, 0.27816975, -2.320468, -0.15229231, -0.2085295, 0.13405365, 0.8442552, -0.08202574, -0.18075721, -0.23416802, -1.0018142, -0.24364042, 0.43178204, -0.81260973, -0.47683784, -0.08322972, -0.14683771, -1.0507088, -0.04475075, -0.111924514, -0.71124125, -0.061418623, -0.5986944, -0.37615043, -0.43177703, -0.008096487, 0.29471865, -0.11943016, 0.3041652, -0.027103186, -0.04062608, -0.07815622, 0.0073427847, -0.022097472, 0.08846897, 0.025102561, -0.068420194, 0.0895201, -0.2759755, 0.31862402, -0.04094871, 0.04604365, -0.041177075, 0.050243344, -0.13617437, 0.15700912, -0.037577458, -0.6605609, 0.098174125, 0.17098236, -0.049623866, 0.054776177, 0.15692674, -0.16687234, 0.080616035, -0.23725182, 0.08336289, -0.10610186, 0.08410692, -0.06810842, 0.051957894, 0.06313928, 0.015380194, 0.022614874, -0.24274202, 0.043419436, 0.23003054, 0.18411851, -0.08604054, -0.08648144, -0.13484013, 0.11350687, -0.06579107, -0.02408349, 1.0442439, -0.0136288535, 0.77587384, -0.028508382, 0.041256536, -0.3034592, -0.14834423, -0.12699196, -0.2803865, 0.19375777, -0.21553269, -0.1497609, 0.557248, -0.2545618, 0.24978803, 1.9674176, -0.028492395, -0.15452075, 0.28167376, 1.8790401, -2.67568, -0.31520087, -0.12489065, 0.946438, -0.09831085, -0.28023246, -0.69136, 0.58614624, -0.083109766, 0.42579928, -0.12881827, 0.30974126, -0.07979955, -0.03432483, -0.16300769, -0.2779314, -0.08965111, -0.39297923, -0.062319923, -0.007938509, -0.15350984, -0.1380601, 1.7116176, 0.018625718, 0.05400125, -0.09892893, -0.045859937, 1.4471047, -1.3817703, 0.019520763, -1.1143426, -0.16812192, 0.13712452, -0.07964379, -1.0474362, -0.283029, 0.22430378, 0.04264133, -0.041859385, 0.22463174, -0.022460788, -0.0753537, -0.18994616, -0.06017286, -2.636072, -0.1515712, 0.04504646, -0.021874126, 1.0877444, -0.11180974, 0.5970084, -0.12101737, 0.5442031, -0.19095227, 0.4898834, -0.12218727, -0.05672002, 0.6608646, 0.18348795, -0.022675864, -0.046023607, -0.043014094, 0.014436893, -0.20880449, 0.024790527, 0.076057196, 0.036737103, -0.12587754, 0.07166518, -0.32624123, -0.6227569, -0.083811454, -0.016611869, -0.17571604, 0.0030402227, 0.05768054, -0.095251, 0.092043236, -0.8583306, -0.014112036, 0.4118048, -1.0080644, -0.1853695, 0.11032474, -0.116857365, -0.86753297, 0.65486664, 0.7148075, -0.7661682, 0.5901409, -1.2052826, -1.5789888, -0.10478795, -0.37264213, 0.030944629, -0.26293424, -0.17557098, -0.026702726, -0.2223324, -1.3379624, -0.96805763, 0.2895772, 0.30023485, -0.13938245, -0.5814415, -0.13477552, -0.25014454, 0.2788955, -2.2792864, -0.19414115, -0.08077827, 0.09457972, 0.9536346, -0.40608716, -0.14240661, -0.16671589, -0.9453914, -0.20303933, 0.5326076, -0.88106984, -0.5459745, -0.20693274, -0.13787095, -1.1608315, -0.0324214, -0.18117103, -0.61671007, -0.038000148, -0.72927254, -0.47641414, -0.2841657, 0.09390202, 0.14664884, -0.25909647, 0.34736672, -0.016919943, -0.12725393, -0.08035749, 0.024614966, 0.17562187, -0.1308735, -0.008217477, 0.014529291, 0.16816865, -0.17688893, 0.2049644, 0.05220772, 0.012289804, 0.023349237, -0.047264755, 0.0062562227, 0.22362071, -0.012518244, -0.6430469, 0.026658589, 0.20199002, -0.10220928, 0.07442872, 0.0015577386, -0.0027021626, 0.010092533, -0.20371321, 0.2246248, -0.21775633, 0.09239458, -0.0089057945, 0.065838695, 0.003231086, 0.17175505, -0.027347371, -0.1782129, -0.0888981, 0.1368219, -0.13294204, -0.10223873, 0.04672539, -0.17898448, -0.0076148566, 0.03702321, 0.11405982, 1.0906798, 0.0029981202, 0.77649933, 0.17933731, -0.17871301, -0.3781189, -0.06385376, -0.16920663, -0.15307294, 0.17644161, -0.21811247, -0.13156304, 0.6299596, -0.28246638, 0.23755996, 1.8337594, -0.043731775, 0.005152839, 0.5007873, 2.0417595, -2.9111454, -0.207533, -0.41266048, 0.88245827, -0.3009956, -0.33699563, -0.6845721, 0.62411463, -0.02090844, 0.30636868, -0.13075392, 0.2072942, -0.27821496, -0.029545397, -0.02435975, -0.09058042, -0.043800343, -0.21434858, -0.16484264, -0.066498406, -0.052367218, -0.072925426, 2.0519636, 0.010560799, 0.054862283, -0.051685244, -0.09245177, 1.3624089, -1.3371416, 0.04205476, -0.97337043, 0.116945624, -0.10869814, 0.10702425, -1.2745856, 0.28232983, 1.7116233, -0.047146138, 0.119608164, 0.9135394, -0.02791953, -2.354015, 0.12002575, 0.046781, -5.912054, 0.024428189, 0.012780701, 0.053335387, 6.0392556, 0.1494096, 0.491596, -0.5466191, 6.4896235, 0.029819125, 1.7995062, 0.08729933, -0.029048372, 0.96749187, -2.8615997, -0.14522362, -0.08719493, 0.017538534, -0.052832987, 0.13161491, -0.054975998, -0.025298202, -0.028621396, 0.03513497, 0.20292398, -0.0346469, -1.0652941, 0.099841334, -0.10154975, -0.0843812, -0.06907411, 0.193315, 0.010471701, -0.93033665, -4.673376, 0.111791864, 3.6300051, 4.2662244, 0.22952464, 4.72901, 3.6535761, 2.195655, 8.652654, 6.029827, 1.5005982, 9.756156, 1.6897149, -1.1713313, -0.0046176575, 9.436613, 11.536711, 0.1042583, -0.004513887, 0.117396854, 0.2500281, 4.240211, -1.1459956, -0.30180272, 5.841286, 0.10875038, -3.173989, 0.107420914, 0.06328706, 6.8407903, 0.15700063, -0.0012923204, 0.061518587, -2.978793, 3.6517913, 0.24731852, 0.23715757, 0.09595645, 7.405083, 1.3007493, -1.430129, -6.6402707, 0.5500849, 0.15523455, 0.11551372, 0.7158582, -0.049460657, 0.51980424, -1.1396704, 2.7013216, 2.5725913, -3.9639883, -3.0915995, 0.011415637, -1.2470794, 0.052669704, -1.0174524, 0.0027003158, -0.041267443, -0.020730719, -0.092029564, -0.050319444, 0.028637221, -0.12616979, -0.07982749, 0.10405886, -1.005161, 0.23005825, -0.007458896, -0.16823937, -1.2802181, -0.0018724229, 0.21325128, 0.51397157, 0.09410789, -3.7174025, 0.074671835, -0.008357448, 0.046547685, -1.0447001, -0.3733653, 0.07207918, 0.04754125, 0.017555527, -0.18551114, 0.029397318, 0.01710789, -0.052303348, -0.04196251, 0.004755388, 0.016820112, 0.10937854, 0.17894152, 0.0822026, 3.402776, -0.0788413, -0.17461793, -0.6726879, 0.04934738, -0.025783038, -0.42238995, -0.060853105, -2.2341821, -0.020422118, 0.3250371, 0.17285264, -0.037891887, 3.1509957, 0.10053768, -0.6831779, -0.7517663, 2.6126802, 0.035469092, 0.110910706, 1.1868584, -4.1852765, 0.92223316, 0.57740694, 0.13831821, 0.060391672, -2.7463446, 1.2533596, 2.024467, -0.93946254, 0.37308532, -1.2142812, 0.19609092, -0.035332344, 2.0498447, 0.80653805, 0.09307516, 1.4765023, 0.18098536, -2.287437, 0.12288157, 0.0929313, 0.29484832, 0.25926858, 0.12133118, -1.0879444, -0.064628795, -0.02007693, -1.0796406, 0.05343228, 1.4643264, 0.043180373, 0.9552034, -0.09240025, 0.10916089, 1.650333, 0.102057196, 0.09904705, 4.127257, -0.066694975, 0.5735604, -0.11463178, -0.6660882, -0.23474583, -1.068669, -0.13708885, -0.06683537, -1.6018264, -0.02732593, 2.1344898, -0.12364351, -2.0313106, -2.7879918, -0.049232803, 0.102330476, -0.21812505, -0.45586252, -0.47902274, -0.41899148, -1.5515298, -2.8035944, -0.04032448, 2.1640267, -0.2709425, -0.009828494, -0.74753916, -0.6092046, 0.036451172, -0.16126733, 0.022658223, -0.036303785, -0.021772893, -0.11064485, -0.010775138, 0.016356379, -0.13847421, 0.49879977, -0.13861099, -2.0777938, -0.097049296, 0.00839408, 0.012870016, 0.30185708, -0.00783556, -0.27611625, -1.0905998, 0.12973228, -0.0061825374, -2.198154, 2.2751074, -0.30530506, -1.5206288, -1.8693595, -2.983559, -1.6268485, 0.85809934, 1.8078862, 0.82541806, -3.4070878, -0.963068, -0.0034074662, -1.4814435, 1.0710967, -0.024540346, -0.14021976, -0.083242245, -0.072236, -1.8527154, -0.06475528, -2.2770073, -3.6523182, -0.046335086, 0.044358153, -0.099193275, -0.11414192, -2.603259, -2.063503, -0.32405826, -0.1317864, 0.5280426, -0.16526185, -0.45248276, -0.25806546, -0.19233958, 0.15644212, -0.20777757, -2.335567, -0.3557749, 0.37930828, -0.14332859, -0.06678913, -0.1559575, -0.07543176, -0.81352067, 0.32045376, -1.1517948, -1.9737427, -0.943351, -0.12642927, 0.08728562, 0.28513741, -0.22994474, -0.7162997, -0.17563628, -0.6588821, 0.05210019, -0.059779115, 0.093429066, -0.000363932, -0.058354355, 0.100738674, 0.084206976, -0.7400234, -1.865687, -0.057047375, 0.23239154, -0.7265339, 0.07337339, -0.12562846, 0.5911409, -0.043052003, -0.6016568, 0.1451904, 0.098370746, 0.12603739, 0.49455687, 0.25223172, 0.02133758, 0.249252, -0.24623404, 0.23355019, -0.25539306, 0.12345312, -0.030938419, -0.07315607, 0.028050156, 0.073803656, -0.12696029, 0.8034857, 0.09922205, 0.53050166, -0.052285474, 0.038362417, 0.7767794, -0.08074291, 0.14632866, 0.78048784, -0.063358836, 1.170186, -0.08543976, -1.6937352, -0.08949774, -0.079483286, 0.4199927, -0.11895395, 0.49213237, 0.49172446, -2.157257, -0.2729407, -0.19086601, -0.9567972, 0.44792733, -0.5438786, -1.7899603, -0.070934616, -0.08361593, 2.2916722, -0.3266479, -2.7454743, 0.7720795, -0.2501903, 2.4685388, -0.40038502, -0.16260973, -1.5298191, -1.215605, -0.115285374, -2.1574326, -0.16239968, -2.4869204, -0.12724568, -0.074858695, -0.12682793, -0.0935545, -0.06249829, -0.0866299, -0.0974145, -0.007941333, 0.73347497, -0.14835152, -1.2094046, 0.0057287216, 0.716949, 0.075167425, -0.3376386, -0.6478267, -3.4989488, -0.115831494, 10.137146, 0.24561863, -1.4250855, 0.22218384, -0.07233665, 0.07864, -4.686427, -0.05098215, 0.17131636, 4.040589, -0.12898615, -0.96367633, 0.0014103178, -0.3017974, -1.4749757, 0.11666148, -0.05841336, 0.084789746, -2.1080215, 4.3273587, -7.25534, -3.6597435, -2.0273826, 0.040104736, 0.53352886, 0.23675172, 0.0658785, 1.1455641, -0.8641459, 0.10488797, 6.342931e-05, 0.0884737, 0.02615086, 0.088595234, -0.06811964, 0.038390625, -0.009676695, 0.183814, 0.17041393, 0.038389206, -4.400895, 0.07968674, 0.12740295, -0.025784412, 0.16309938, 0.08979009, 0.109889135, 2.1660905, -0.20952351, 0.117312655, 6.9666824, 3.3450396, 0.22052847, 5.854762, 1.3587499, 0.6409352, 3.3035934, -0.70191765, -3.1770196, 1.8129761, 2.1405842, -1.0285265, -0.027360367, 3.6409812, 2.8785675, 0.09950167, 0.12144849, 0.08497138, 0.16740595, 1.1722158, -1.6369264, -1.7840607, 2.4681618, 0.105710514, -1.5736192, 0.09106872, 0.0025180848, 4.431447, 2.4401884, 0.11736552, 0.09906748, 2.695427, 2.2873147, 0.24723032, 0.06666013, 0.06752206, 0.10788552, -0.5669671, 1.3197362, 0.98897797, 0.28328347, 0.19782288, 0.11076348, -1.5269535, 0.08441863, 0.6919376, 4.9029574, 3.4342153, 2.0196664, -0.50399923, 2.1425424, -0.027794085, -0.5506522, 0.23131947, -2.2667542, 0.025100227, 0.2723095, 0.095973805, -0.017503986, -0.2196683, -0.050821073, -0.11735412, -0.19552363, -0.04354011, 0.61629647, 0.008559374, -0.0790845, -0.1447985, -0.9606409, 0.05037658, -0.041202024, -0.6151846, 0.027373167, 0.6373708, 0.08449264, -0.15691225, -0.041687198, -4.177596, -0.19931138, 0.07675647, -0.13500708, 0.07556458, -0.25658548, 0.23854367, -0.026615947, 0.060114138, 0.00122455, -0.04429676, -0.06439972, 0.031914033, -1.426406, -0.019354401, 0.55688006, -0.059997514, -0.052629482, -0.067583434, 0.12749222, -0.19808297, 0.017901009, -0.079531506, -0.3716751, 0.0015816397, 0.667204, 0.049716927, -0.07822194, 0.95983815, 0.0038682495, -4.79962, 0.07200167, 3.2036624, 0.13926776, 0.022160694, 0.34660468, -1.9517248, 2.2417874, 6.448414, 0.093762204, 0.06418983, -1.1121624, 8.741926, 1.7175293, -0.727352, 0.08429514, -1.1519585, 0.107026435, 0.056374837, -3.8964176, 11.7569475, 0.1177003, -0.679933, 0.038278725, -0.4602777, 0.23307657, -0.008810394, 0.20287, 0.13980123, 0.25810245, -1.0061635, 0.13056397, 0.20491438, 5.5255365, 0.14971358, 7.4151983, -0.05011464, 1.0644239, 0.16376294, 0.23634207, 4.102279, 1.4102825, 0.18177323, -6.192607, 0.27805293, -0.30106816, 0.0898837, 6.3772597, -0.6001959, 10.357215, -0.22896264, 0.10901704, 4.3769937, 0.012843982, -2.3394334, 0.06549237, 0.122715324, -0.8344948, 0.08578388, 0.037186433, 0.11115454, 0.2341213, -2.7300632, 1.5054733, -0.10372601, 6.491018, 0.030780489, -0.04409426, 0.34759736, 0.043904778, 0.50115275, -2.3776457, 0.047896907, -0.108359195, 0.084991895, -0.024724344, 0.124865, -0.07694152, 0.10133233, 0.052167542, 0.113282554, -0.015868107, 0.029740242, 0.8531401, 0.12693742, 0.11793612, 0.054174595, 0.30117115, 0.092519015, 0.20485653, 0.4846678, -0.28199014, 0.036336645, 3.1915383, 0.6984685, 0.21831194, 4.039989, 2.8709884, 6.6443644, -6.89571, -5.1311636, -0.79727125, 1.9411494, -0.71319693, -2.0329175, 0.15994465, 6.9179544, 0.22603153, 0.14150082, 0.09272856, 0.19239146, 0.32179385, 1.3109417, -5.2646637, 2.7061307, -2.2889051, 0.15348318, 0.30496946, 0.050985876, 0.13877544, 1.9480908, -0.36185035, 0.30743566, 0.21867287, 9.114361, 0.068825856, 0.16154623, 0.16959038, 0.2920379, 1.4150672, -2.3385546, -0.9555796, -0.4276809, -0.6644555, 0.07136414, 0.1249491, -0.7415233, 0.07674968, 0.3612454, -6.255216, 0.30757925, 0.93979037, 0.8299961, -1.5290182, -0.14404848, -2.1163254, -0.032665286, 0.3600665, 0.07417181, -0.8046481, -0.028122973, 0.08988653, -0.1637419, 0.009435565, -0.019827774, -0.08089581, -0.07305972, -1.4609518, 0.61076045, -0.1558207, -0.17525928, 1.1268718, 0.092426986, 0.07787422, -2.878681, 0.0013525402, 6.6264668, 0.1173856, 0.055632237, 0.02392066, -2.9165616, -0.2569339, 0.099435754, -0.044578448, 0.23571503, -0.27102095, 0.019219756, -0.013245808, 0.16070637, -0.0069949646, 0.049609233, -0.09076763, -0.028399166, 0.8660631, 0.090057716, 0.4341639, 0.10101327, -0.025759723, -0.01103235, 0.05538702, -0.15385644, -0.10254826, -0.0027610073, 1.070791, -0.011863179, 0.13162225, 0.06516089, 0.10739675, -0.5846452, 0.13720234, -1.2442697, -0.553694, 5.144224, 0.14235227, 0.10188267, -0.5512365, 1.9315319, 0.4002966, 8.645559, 0.2450898, 0.15751319, 6.8812323, 8.689481, -0.6368128, -1.1211538, 0.2439123, 1.5497341, 0.041528936, -0.8552198, 0.35120565, 0.8917554, 0.07310503, 2.5574412, 0.079492435, 0.74728966, 0.18129879, 0.15736504, 0.13555932, 0.11797835, 0.1711156, -0.40886816, 0.0084855985, -0.047426965, -1.0091308, 0.10622623, 11.432082, 0.006923001, 0.12272401, 0.034730386, 0.104830235, 7.1394033, -0.29286447, 0.14944279, 5.2026205, 0.23482889, -0.930796, 0.10155784, -0.22459047, 1.1738207, -0.7720026, 0.036689784, 0.16139196, 1.186547, -0.050299883, -3.078994, 0.07892593, 1.0239533, -4.208958, 0.07486088, 0.09940104, 0.16276857, 1.6975068, 2.1123085, 0.16281807, -2.5800679, -5.0358944, 0.18288219, 0.030054806, 0.18501136, 0.069366395, -0.6616209, -2.1648345, 0.14258228, 0.19007526, -0.009965936, -0.019468753, 0.16684382, -0.040303014, -0.017150678, 0.16460143, -0.0957723, 0.13264722, -0.099242575, -4.5051126, 0.14138444, 0.028983295, 0.24149212, 0.23361202, -0.09515516, 0.09995849, 1.4036968, -5.3350797, 0.1139317, 4.447814, 0.15054385, 0.2476602, 2.022123, 3.195909, 1.2637987, -0.3032512, 1.3011965, -4.310252, -0.69796926, 3.4040165, -2.1713176, 0.045724116, 5.712256, 5.4718904, 0.06846309, -0.102978215, 0.16376224, 0.10408253, 1.3425086, -0.28145954, 1.9292681, -3.5883756, 0.23108537, -1.8229135, -0.016656673, 0.18693274, 6.3787913, 0.16034754, 0.19674602, 0.2215321, 1.6752447, 0.63317674, 0.18119948, 0.19015189, 0.12066731, -2.7273135, -0.5329196, 0.123573124, 0.74730974, -0.35986897, 0.026274787, 0.26330775, -1.0407286, 0.1574394, 0.6554944, -0.32850876, 1.9896286, 0.56256783, 0.76616085, -0.30459657, -0.062234387, -0.813673, 0.16734035, -1.5649681, 0.047661155, 0.9528582, 0.06560321, -0.0045368294, -0.21947978, -0.018024357, 0.021261564, -0.060774647, -0.056339424, 1.7288058, 0.6337439, -0.029835032, -0.123947725, -1.4223493, -0.01082794, 0.16384971, -0.70904464, 0.1502214, -2.0375051, -0.045407865, 0.05684669, 0.019928481, -0.38677412, -0.050145425, 0.04455153, -0.05559119, 0.06815202, -0.13814715, 0.08755241, -0.028182631, 0.07290273, 0.023892175, 0.012827846, -0.006094771, -0.15123618, -1.0355002, 0.07192178, 1.4467494, -0.03232808, -0.07288333, -0.27217072, 0.16490738, 0.0016719453, -0.15613571, -0.067133754, 0.30073276, 0.09356736, -0.65641755, 0.12168305, -0.0001861841, 0.9895477, 0.09829275, -2.3246853, 0.493247, 0.08549698, 0.07675727, 0.21258007, 0.73989844, -0.8303383, 0.13154009, 2.4528017, 0.103419565, 0.06504802, -3.4761672, 1.0420675, 2.5453506, -1.1107956, 0.04452144, -0.08433382, 0.04536512, 0.9602731, -2.6389241, 5.367243, 0.11431515, -0.7767909, 0.07659846, 0.16038954, 0.094067514, 0.19813035, 0.024568802, 0.21951208, 0.11865619, -1.7429405, -0.060336288, 0.16310017, 2.2563848, 0.103494026, 1.3917022, -0.10455955, 0.45435447, 0.22221664, 0.2405633, 2.059994, 1.4920948, 0.076645866, 0.9219894, -0.037275497, 1.3192604, 0.25725767, 3.871379, 0.90956855, -0.35084066, -0.094477594, 0.066753656, 1.2719662, -0.14114645, -3.2495935, 0.09796204, 2.1383998, 4.1381183, -0.08959362, 0.0046326253, 0.16142376, 0.46775422, 0.08427831, -0.26779047, -0.6179423, 1.4213213, 0.008852203, -0.19630906, 0.119605586, 0.007391997, 3.6641445, -1.8176417, 0.18572648, -0.049443007, 0.054082956, 0.0674092, 0.006833455, 0.07045408, -0.012191186, 0.034031183, -0.100253426, -1.8853751, -0.021191636, -7.2544045, -0.0324876, -0.04904793, 0.20931709, -0.15258236, 0.05240742, 0.0060415943, 1.6533331, 7.990465, -0.004657904, 1.6697028, 1.9714867, 0.19719484, 2.274754, -2.4223576, 8.996016, 2.5590916, -2.7422001, 3.017476, 0.55746007, 8.393879, 7.937361, -0.03141812, 4.6854506, 8.67428, -0.10506468, 0.08057796, 0.17736618, 0.1343101, 12.352804, 3.9257598, 4.161389, 5.635479, 0.18102133, 4.405052, 0.22986032, 0.15451309, 0.71585166, 11.018251, 0.22662699, 0.17470592, 4.1155844, 0.2506943, 0.427966, 0.44104487, 0.42264274, 2.3070052, -1.151272, 3.7550666, 5.2877235, 0.8149987, 0.18811253, 0.3307886, 13.581835, 0.18057054, -0.05864921, 4.6439304, 8.520428, -4.3444524, 3.704305, 0.7157297, -0.20214134, -0.9460633, 0.057010133, -0.78477037, 0.019852052, -0.5875588, 0.021740414, 0.055657424, -0.16523476, 0.13682695, -0.0012156202, -0.040964667, -0.010626228, 0.8329003, 1.7821718, -0.08968196, 0.052479874, 1.4699087, 0.11302457, -0.05616751, 0.07095418, -0.059872154, -1.5895255, -0.056982722, -0.05127001, 0.038860284, -0.9612563, -0.03784819, 0.0028568543, -0.23431097, 0.031574506, 0.025224438, 0.3597879, -0.17671989, -0.028255759, -0.01163137, 0.041672118, -0.08191117, -0.08401507, -0.24071854, 0.03346682, 2.1229413, -0.015686367, -0.02210248, -0.32637307, 0.19073679, -0.001996805, 0.5357425, -0.0886194, 0.031454295, 0.17886776, -4.0185165, 0.23176147, 0.005383232, 3.5552335, 0.07047717, 0.13345009, 1.842321, -1.7261771, 0.2240387, 0.14449902, 0.8663641, -1.1309462, 1.8961028, -1.5347086, 0.18767561, 0.1932138, -2.2115748, -3.1857355, 3.1327069, 0.2761693, -0.045385726, 0.8061955, 0.46382588, 1.491627, 1.7166682, -0.4390411, 0.080655426, 1.8067697, -0.061398637, 4.5527935, 0.43533406, 0.03852046, 0.11344932, -0.033435058, -0.0085931765, 0.6677712, 0.063391365, -0.020336444, 0.781168, 0.116025016, -3.8359544, 0.044152007, 0.7192676, 0.11202815, 0.19935137, -5.16202, 0.9753699, -0.033396408, -10.053565, 0.111364014, 6.739278, 0.17214796, -1.0671717, -1.7658492, -3.0177128, -0.0030206982, 0.19261366, -12.31771, 0.027972097, -1.4591433, 0.257788, -3.9611747, 0.8295928, 0.12432174, -0.058144208, -0.005768581, 8.073009, 3.282774, 1.3474649, 2.1449337, 5.237845, 0.11552364, 0.5486366, 0.025497964, 0.09995264, -2.271968, -2.362519, 0.07971517, 0.1170649, -0.013553529, 0.039676566, 0.036999505, 0.05571837, -0.079413556, 0.092320845, 0.031114548, -2.0186656, -0.0022763798, -0.13665406, 0.058659863, -0.11428587, -0.02032728, -0.1108175, 0.03296807, 0.090587616, 1.3118777, 7.8553877, 0.053718686, 8.827416, -4.378023, 0.31810445, 6.858308, 6.7043943, 0.76365256, 5.2881064, -3.8140996, 0.8013076, -1.5421362, 6.1044025, 2.1010654, 0.5478594, 1.6705456, 0.3366071, 0.23406923, 0.70536184, 0.14094125, 0.041357167, -0.5962167, 0.36347285, 1.9986268, 3.4323971, 0.07483223, -7.194151, 0.25005096, 0.3319636, 6.3247313, 3.9593105, 0.21932842, 0.09412826, -3.8149073, -6.763903, 0.14103523, 1.2263492, 0.50829244, 0.17136307, -1.5645546, 2.8510003, -0.009591522, -1.4228481, 0.1343357, 0.21068238, 12.303205, 0.06247474, 0.032049544, 4.6896424, -4.4392633, 5.5646086, 8.347402, -2.4006598, -0.10506392, 0.2474039, 0.06298919, 0.70661086, 0.009588897, 0.22325148, 0.029358733, -0.0671027, -0.06746801, -0.15663943, 0.013870534, -0.2313297, 0.05620893, 0.8335596, -0.495593, -0.19171101, -0.018238911, -5.9502764, 0.025769025, 0.066617094, -2.638222, -0.06892383, -1.9955964, -0.053769838, -0.03331327, 0.028630728, -0.16386265, -0.013872268, 0.01509887, 0.05847006, 0.1024165, -0.03411283, 0.06765191, -0.12633488, 0.0103331, -0.044651736, -0.0061307196, -0.10592815, 0.07241136, -0.48916024, 0.12445668, -1.7115794, -0.037155908, -0.010605643, -0.16173652, 0.008809673, -0.12049409, 1.234673, 0.08256614, -0.065389074, -0.031352643, -1.0887187, 0.18415694, -0.06804991, -6.510327, -0.14487532, -2.3158028, 0.98839575, 2.7540941, 0.01160888, -0.07089687, 1.7703915, 10.638927, -0.29090217, 3.0162482, 0.03337172, 0.25738737, -0.053027343, -11.512354, 3.7669787, -0.17319898, 0.05669376, 3.4329128, 0.032612517, 7.0622225, 1.034523, 3.8282187, 0.06981463, -0.9953647, 0.1181186, 1.1247452, 0.06717804, 0.012440032, 0.2292734, 0.22475025, 0.18682367, -1.0475962, 0.7347656, 0.14796975, 2.106347, 0.029295871, -4.600766, -0.021137984, -0.33651412, 0.044776734, 0.08842263, 1.4869217, 0.37236136, -0.014086621, -1.7731014, -0.05241917, -0.60172606, -0.049318902, -1.6682196, -1.3826507, -0.35602215, -0.026611175, -0.5021874, -0.15640609, 0.020927612, 0.056013566, -0.2271195, 0.15042712, -2.6761553, -0.01641188, -0.14665142, -0.03575442, -0.25639325, -0.06645443, -0.44001263, -0.058527526, -0.47075254, -0.05703814, 1.9410955, 0.02722272, -0.121497564, 1.0189816, 0.5789634, -0.154347, 0.07667365, -0.02180235, -0.059310064, 0.13364531, 0.011110741, -0.12617768, -0.03096419, -0.02914364, 0.12564255, -0.2050156, 0.7100411, 0.024171598, 0.011222181, -0.13836978, 0.25230655, 0.028366497, 0.023245076, -0.53101766, 0.30220482, -0.072439, 0.30663338, 0.21582964, -0.16637427, -1.8326731, 0.5909124, -0.19652948, 0.13955937, 0.50349873, -0.7913618, -0.15839304, -0.3994458, -0.7198145, -0.27045667, -1.803047, -1.5562242, -0.31880632, -0.023389049, -0.07495031, -0.026932629, -3.0182004, 0.10606911, 0.57501125, -0.57636285, -0.17117392, 1.1934453, -0.17502624, -0.3280192, -0.83651525, -1.6926997, -0.23182756, -0.42459074, -0.2946673, -0.19450735, -0.34620437, -1.0260974, -0.40979612, -0.96745354, 1.5930008, -1.7044607, -1.9571497, 0.9997994, -0.32949814, -0.2479965, -1.7530504, -0.035530224, -0.14651445, -0.11754436, 0.25469726, 0.15952775, -0.63714546, -0.7556733, 0.42616972, 0.6799932, -0.06791475, 0.76811206, 0.0836475, 0.22791469, 0.06991391, -0.16346413, 0.17081437, -0.03267171, -0.033891853, 0.12218661, -0.020028712, -0.43762916, -0.40185693, 0.023417665, -0.04265402, -0.45368937, -0.009340874, -0.05015218, 0.12657766, -0.035509367, 2.0932488, 0.07235279, 0.08609396, 0.07149296, 0.3487209, 0.18561181, 0.08003893, 0.008731074, -0.05400387, -0.018064741, -0.36429685, -0.04674209, -0.064121366, 0.042993132, 0.100525275, 0.080138855, -0.02156512, 0.32137972, -0.06425415, 0.07942827, 0.094173245, 0.070561945, 0.3979402, -0.035252053, 0.29827142, -0.24694578, 0.0137503175, -0.7236434, -0.11833696, 0.06321543, -0.121441856, 0.016265618, -1.5346866, -0.25742844, -0.7112666, -0.5819794, -0.3343391, -0.109838985, -0.13676868, -1.0397956, -0.6069575, -0.26848197, -0.061102267, 0.052930806, -0.045724038, 0.71100897, -0.23398769, -2.8405695, -0.23149496, -0.048443258, 0.73259765, -0.38458055, 0.575176, -0.17864805, -0.17482813, -0.114415236, -0.18696517, 0.072152704, -0.2787936, -0.35208574, -0.121190995, -0.08421537, 0.013233893, 0.033827744, 0.11082463, -0.10087303, -0.39329308, 0.22264944, -0.11481305, 0.20936234, 0.078663036, 0.030554807, -0.044549044, -0.10959583, 0.2738752, -1.4803776, 0.059927303, 1.5402092, 0.17761612, -0.009331533, 0.054135446, 3.449064, 0.08751413, -0.059332818, -0.028564643, 0.24705948, -0.9654429, 0.013658134, 0.3794623, 0.05844588, -0.14241119, 1.3073184, 0.1452498, 0.1201293, 0.11499774, -1.0352025, -0.4268132, 0.5644082, -0.83038676, -0.31179428, -0.117014766, -0.1034097, 0.11281656, 0.052855704, -0.7425203, -0.20529866, 0.16838844, 0.121683806, 0.0770726, 0.16638662, 0.12352525, -0.0104386015, -0.07423115, 0.17256218, 0.042790733, 0.40064228, -0.007724348, 0.495838, 0.16011126, -0.020641413, 0.14410816, 0.28281453, 0.08398556, 0.13871737, -0.33043352, 3.4346755, 0.0637439, 0.8955864, 0.75712144, 0.3353245, 2.0539038, 0.38299522, 0.44431967, 0.025728462, -1.076208, -0.19278358, -0.14819686, 2.245117, 1.4350754, 0.021824447, -0.44495222, 3.2342799, 0.07417746, 0.04444043, 0.12680452, 0.326449, -0.08388293, 1.2399241, 0.41319522, -0.5448473, 0.26788315, -0.3472725, 0.19385332, 0.03868504, -1.587386, 0.2670019, 0.29375464, 0.42210287, 0.7850849, 0.5968205, 0.30634862, 0.13677257, 0.14296351, -0.59479016, 0.24016075, 0.064411186, -0.5217373, -0.34311152, 0.17325673, 0.14767295, 1.5025682, -0.24267703, 0.8352978, 0.7632637, 0.22886191, -0.67878354, 0.0058183116, 0.4738929, -0.04157343, 0.2696123, 0.020635104, 0.033684235, 0.019203637, 0.05854643, 0.019817367, 0.009213631, -0.018047843, -0.059558496, -0.046425797, 0.0023332825, -0.03556032, 0.6121712, -0.14254244, -0.11855226, -0.10479645, -0.203651, -0.059162058, 0.080798626, 0.14481856, -0.00684412, 1.6769896, 0.045825355, -0.17223617, 0.038903877, 0.45336285, -0.38779134, 0.14703563, -0.09860646, 0.13816516, -0.2789605, 0.17342107, -0.116008475, 0.050550744, 0.07918111, 0.020045824, -0.14893639, -0.04092118, -0.4288091, 0.066694915, 0.95039773, -0.0242076, -0.03637281, -0.19903435, 0.017449403, -0.051174246, 0.23906699, -0.088880695, 0.39747682, 0.22464566, -0.279543, 0.07732051, -0.023809738, 0.26662162, 0.19796483, -0.8480103, -0.22147918, -0.5421438, 0.12492186, 0.1244308, -0.22448918, -1.0157675, -0.82163435, -0.38347283, 0.3287911, 0.208781, 0.6181272, -2.3776627, 3.0674403, -0.3716736, 0.287133, -0.3813142, 0.22452165, 0.50709164, 0.50852704, 0.09147801, 0.1372664, 0.29242244, 0.10669336, 0.5660764, 0.020821601, 0.00956515, 0.154336, 0.03987925, 0.15741493, 0.82053673, -0.03729479, 0.031647407, 0.055648837, 0.13646597, -1.8095533, 0.014186375, 0.4732428, 0.2582228, 0.1582602, -0.8986945, 1.5733169, 0.21172084, -0.4721621, -0.14798751, 0.028533544, -0.059517514, 1.5716292, 0.13869697, -0.26424617, 0.05027434, 0.030470349, -0.38483083, 0.08647725, 0.31352887, -0.06487492, -0.5672413, 2.812845, -0.15548126, -0.10925584, -0.055724297, 0.30284703, -0.6982058, 0.2599977, 2.4106364, 0.6676124, -0.09174438, -0.17964534, -0.13667132, -0.053735755, -0.122504175, 0.4156804, -0.12627149, 0.009455566, -0.11583277, -0.12011502, -0.0724712, -0.06616725, 0.037424885, -0.030779714, -0.18254076, -0.10037984, -0.08296266, 1.5046315, -0.19079904, 0.028053578, -0.011252481, -0.29284418, -0.031021394, -0.20157878, 0.21812446, -3.8183885, -0.03416736, -1.8738494, 0.10789094, -0.2894501, -0.63797706, -0.92098564, -1.0587481, 0.10606372, 0.5753024, 0.3674492, -0.80464417, -1.4856331, 0.04962737, -0.053479683, -0.3930447, -0.89469624, -0.21774313, -0.077220134, -0.03978804, -0.14413935, -0.72103965, 0.37429065, 0.15658924, 0.3050254, -0.21831204, 0.43910676, -0.102159955, -0.20495526, -2.4136682, 0.123305164, -0.13781857, -0.33981505, -0.010960721, -1.0951668, -0.05896157, -0.126628, -0.1881085, 0.74854475, 1.3884529, 0.4414905, -0.30665532, 0.08415684, -0.079772696, -0.07425386, 0.058635823, -0.087633975, -0.57001245, -1.1238071, 0.01511534, -0.29204944, 2.1418157, -0.29220447, 0.09685959, -1.2105006, -0.052028116, -0.279945, 0.12857734, -0.17339984, 0.064668104, 0.009674871, 0.08005017, 0.06416322, 0.16627853, 0.02251293, -0.15415268, -0.19398735, 0.014993796, 0.06718604, 0.038451526, -0.2637436, 0.1568599, -0.035321295, -0.36193678, -0.05533081, 1.474867, -0.029381901, -0.047221508, -0.15732443, 2.5383258, 0.047352966, -0.10266571, 0.06238071, -0.23721229, -0.0473226, -0.09257537, 0.065347224, -0.024939807, -0.06201273, 0.04914951, 0.042088144, 0.007516877, 0.0030912599, 0.021163791, 2.134965, 0.025316574, 0.14932886, 0.0676824, -0.2015379, 0.14496866, 0.0023389014, 0.14310387, -0.07003627, 0.03149683, 0.12472076, -0.09994147, 0.05627041, 1.247564, -0.035755068, -0.10973411, -0.14453536, 0.2375865, -0.1377941, -0.1111239, -0.014236918, -0.32358506, 0.1260561, -2.145628, -0.0052017407, 0.07025025, 0.41953838, -0.81496865, -2.299479, -0.12524568, -0.08557557, -1.3236501, -0.090680234, -0.38074383, -0.6966047, 0.36106923, -0.21137542, 0.3915929, -0.07902885, 0.49427527, -0.17029823, -0.19901584, -0.10641284, -0.06833591, -0.17270112, 0.23908113, 0.020541355, 0.00016417429, 0.5256284, -0.057409607, -1.0382546, -0.12948915, 0.20937091, -0.051266808, -0.11991083, -1.4302355, -1.4866626, 0.05174582, -0.14094335, -0.02905644, -0.7640773, -0.28486696, -2.5873249, -0.5028492, 0.22898845, 0.07288121, -0.46438292, -0.5541548, 0.118008785, -0.41055533, -0.06430678, 0.3101941, 0.65627, -0.03253763, -0.17982125, -0.15228584, -0.007424429, 1.2708938, -1.8781539, -0.565006, -0.4466832, -0.028061103, -0.11849949, -0.054289892, -0.19809026, 2.6322434, -0.06110074, 0.021541024, 0.09286714, -0.13636962, -0.08555557, 0.11834834, -0.19065587, 0.03664252, -0.21366563, -0.068798445, 0.8167321, -0.16922663, -0.37378374, -0.1522305, -0.09335953, -0.2762607, 0.001175205, -0.12160727, -0.041103777, 0.10504517, 4.8207035, -0.1175187, -0.112934195, -0.80005795, -0.22417955, -3.1860003, 0.43646857, -3.092331, -1.3810619, 4.302768, 1.453703, -1.8076664, -2.3639333, -2.145597, -0.35812154, -1.582647, -3.2376688, -0.12363363, -0.19267881, -0.082000256, -0.30851337, -2.4501834, 1.0417534, -0.9463557, -2.2288358, -0.13484941, 1.7071074, -0.21271452, -0.1271072, -1.5122612, 2.5000799, -0.29142374, -0.5208238, -1.4785264, -4.6558137, -0.29153457, -1.0920912, -0.35651192, -0.80204123, -0.31763625, -2.0753348, -1.3584111, 0.8428688, -0.3005934, -0.3418543, -1.5840983, -0.25645784, -0.81578374, -1.1990602, 0.7973484, -0.296058, -0.9638286, -0.43756106, 0.19659398, 0.6548128, 0.06167415, -0.121904105, -0.10632204, 0.43173242, -0.061562542, -0.019466866, 0.1624953, 0.036357496, 0.16635339, 0.113901, 0.06779799, -0.47471884, -0.61845535, 0.10896022, 0.14443374, 0.02685691, -0.10255597, 0.019652022, -0.5619031, -0.021045286, -0.6286888, 0.03131845, -0.05234659, 0.026931074, -0.30176535, -0.119864, 0.03469395, 0.10452986, -0.07018384, 0.04503069, -0.051108073, 0.13158481, -0.031497177, -0.0004324236, -0.011387135, 0.041128796, -0.05967884, 0.2933334, 0.009486456, -2.781837, 0.27224046, -0.044329345, 0.038749225, -0.1520638, 0.19218092, 0.09144692, -0.2227807, -1.5620627, -0.00748799, 1.5790132, -0.19047982, -0.07922409, -1.709583, -0.23249276, -0.108843416, -0.4783235, 0.3922272, -0.084766984, -0.14315361, -0.44065467, -0.7215712, 0.20065309, 0.6202428, -0.07129401, -0.119460836, -1.044486, 1.1591302, -3.2620742, 0.59878296, 0.049708463, 1.4878416, -0.48287797, -0.09065772, 2.486367, -1.1648935, -0.13317771, -1.2324002, -0.31961817, 1.0094712, -0.38467115, -0.08721334, -0.1320885, -0.43360353, -0.2531999, 1.2438209, -0.33928272, -0.31785196, 0.8546648, -0.2366833, -0.1347564, 0.07751213, 0.10651561, -0.19112478, -0.1839328, 1.7414256, -1.5714927, 0.099593654, 0.9306915, 0.13900179, 1.2469413, 0.2565141, 9.074555, 0.07382793, 0.38256392, -0.13875094, -0.14917332, 0.13704655, -0.015483759, -1.1148533, 0.04917036, 0.37538397, -2.882845, -0.035188384, 0.07051969, 0.30633768, 1.8458872, -0.3725087, 1.0280291, -1.1149853, 1.1804488, 0.119798295, -0.118490934, 0.330206, 0.10971713, 0.61105883, 2.1313174, 0.09749257, 0.00026708192, -0.05961126, 0.08646729, -0.00036930834, -0.14235592, 0.081659436, 0.07514299, -0.067704774, -0.06504713, 0.021770172, -1.2529731, -0.07291193, 0.080000244, -0.023285681, 0.15279846, -0.05315662, 0.1523662, 0.070105314, -4.7925706, 0.012711497, 1.2447312, -0.23626563, 0.29630643, 1.8987057, 0.016475063, 2.13771, -3.2615423, -2.0627997, -0.47563735, 1.2717167, 2.658275, 1.1648275, 0.00044145007, 1.377256, 1.6218973, 0.02801432, 0.016124545, 0.060442448, 0.15203051, 1.8479533, -2.2495914, 0.7570568, 0.6326346, 0.12738793, 1.2359933, 0.2691054, 0.008288947, 2.6268241, -0.5049298, 0.31626928, 0.15838607, 0.33672827, 0.3315712, 0.11820441, 0.28048185, 0.08206081, 0.9793421, -0.6267403, -2.9160833, -0.509906, 1.0852816, 0.12059563, 0.2254003, 0.8521573, 0.015424097, -0.005809698, -0.29701948, 0.048187274, 1.5943288, -0.73507035, -0.92618203, -0.11270739, -2.6073759, 0.10357405, 0.36026812, 0.061014622, -0.24101058, -0.045446564, 0.0012429431, 0.019228742, -0.12986234, -0.015388336, -0.051520627, 0.03502208, -0.7034663, 0.14273855, -0.0046957945, -0.047908522, -0.6448482, 0.010934237, -0.03840818, 0.7419204, 0.0818521, 1.9102066, 0.004240454, -0.12862232, -0.07638299, -2.1465104, -0.16102178, -0.10141422, -0.060528677, 0.074887715, -0.12478493, 0.1038541, -0.086903796, 0.046923347, -0.05643539, -0.09944865, -0.07635364, -0.08188115, 0.040013146, 0.058239985, 1.4849672, -0.042006552, 0.05201579, -0.1330746, -0.01378464, -0.1427401, 0.11024455, -0.16734527, 0.9710478, -0.09607101, -0.05307805, 0.1384301, 0.046796452, 0.6672496, 0.11779488, -1.2855378, 0.3360687, 0.4997192, 0.11080936, 0.16988298, -0.52340937, -1.5761621, -0.08156616, 0.7390029, 0.14487574, 0.12253155, -0.10803033, 0.76755875, 2.9551733, -1.228369, -0.08463235, 1.372261, 0.24766973, 0.6158728, 2.2975368, 1.8869592, 0.18077308, -0.8459066, 0.0015127489, -0.24531548, 0.13233255, 0.12905353, 0.01509773, 0.1791173, 0.05115224, 0.6403357, 0.1474178, 0.13501483, -0.9355918, 0.08348914, 0.05127769, 0.04516285, -0.07790719, 0.10516147, -0.02652083, -0.15397972, 1.6739882, 0.13742596, -0.918735, -0.09668594, 0.15926109, -0.14877844, -1.3050046, -0.25469187, -0.08275099, 0.10451666, -0.06974375, 0.39913106, -0.14671355, -0.1801722, -0.13634202, -0.23638734, -2.6029665, 0.0011456138, -0.045797568, -0.11741841, 0.96843046, 0.0329138, 0.45342082, -0.22520235, 0.4793602, -0.16439785, 0.49204746, -0.04686508, -0.19402102, 0.642812, 0.15433228, -0.09762455, -0.08504153, 0.044652954, 0.027457468, -0.1052395, -0.027882742, -0.004962743, -0.032560926, -0.11251084, 0.1971049, -0.07506164, -0.7482117, -0.08443257, -0.11333137, -0.03248277, 0.03831765, -0.13666545, -0.055015992, 0.039303713, -0.72469544, -0.08974645, 0.43452245, -1.2023078, -0.18808988, 0.07303933, -0.13436529, -0.9455594, 0.54225963, 0.88937414, -0.87065524, 0.4734815, -1.170719, -1.6996524, -0.17661814, -0.48560938, -0.111582614, -0.10900839, -0.102580994, -0.05332416, -0.010800488, -1.2722018, -1.0578015, 0.3532161, 0.18325895, -0.24768412, -0.6701777, -0.16735262, -0.102208234, 0.17146689, -2.2208962, -0.12191967, -0.15441264, -0.049268242, 0.82956886, -0.16698226, -0.19036116, -0.2807007, -0.93647313, -0.26450288, 0.43681744, -0.79194766, -0.53854895, -0.15659101, -0.12057875, -1.2390137, -0.12982601, -0.19206838, -0.67010367, 0.11647589, -0.72797734, -0.3806631, -0.5681442, 0.009873276, 0.14524291, -0.20943686, 0.32179508, 0.0022371388, 0.13190752, -0.049355507, 0.010460639, 0.07552031, 0.12316987, 0.06900763, 0.0020558378, 0.021773433, -0.1482548, 0.27472234, 0.06450634, 0.026347574, -0.05181391, 0.055608198, -0.029717637, 0.08300802, 0.031476974, -0.7395434, -0.051354818, 0.19362545, 0.105696246, -0.04592022, 0.286287, -0.14597318, 0.09323349, -0.07106682, 0.23255634, -0.28427362, 0.12015982, 0.048454624, -0.032952674, -0.012198524, 0.058462165, 0.04641098, -0.25336713, 0.07590616, 0.20271501, -0.09246686, 0.029617433, -0.09372193, -0.023357183, 0.16953136, -0.13843286, 0.06449616, 0.9977566, 0.0020254948, 0.7703307, -0.25680158, -0.06470368, -0.51871276, -0.12597272, -0.13619514, -0.20859946, 0.2031534, -0.151116, -0.1361233, 0.6397954, -0.295289, 0.15069114, 1.8928057, -0.15716238, -0.10499877, 0.2984921, 1.8994039, -2.9290245, -0.3385858, -0.38318822, 1.0457954, -0.073078446, -0.36453357, -0.6366366, 0.7434989, -0.16355754, 0.18510865, -0.03724367, 0.3237334, -0.22166853, -0.12457201, -0.2739715, -0.2500394, -0.06575339, -0.2108913, -0.029131895, 0.0069007343, -0.05259554, -0.1576555, 1.749595, -0.13900656, -0.02837322, -0.036959056, -0.08688056, 1.3384297, -1.4624985, -0.1507126, 1.2853718, 0.12882313, 1.061524, 0.18908562, 10.335617, 0.09349139, 0.051436547, -0.07112102, 0.10222387, 0.44337198, -0.05876224, -0.4879351, 0.07933376, 0.37652197, -1.0791684, -0.009256174, 0.03752785, -0.016364751, -2.1061988, -0.59070736, 0.35843945, -0.24929519, -0.23840809, 0.045806486, 0.2653845, 0.2046087, -0.0045202426, -1.33774, -0.8850949, 0.046024457, -0.003222373, 0.069495335, 0.108886845, 0.13001925, -0.042439707, -9.251467e-05, -0.04697336, -0.05393512, 0.5304417, 0.08759762, -0.11998172, -0.10060317, 0.038725343, 0.23761946, 0.22687353, -0.037581746, -0.09778902, -0.28937453, -3.1035647, -0.057197075, 1.2910335, -1.2988765, 0.17664117, 1.8232899, 2.958162, 1.0996284, -0.34282255, -1.7762603, -1.1223966, 0.4302421, 1.3534782, -0.3431329, 0.024703097, 2.1759388, 2.5853345, 0.047287196, 0.24026212, -0.020395758, -0.02290091, 0.86543155, -0.6460798, -2.7580914, 1.9363816, 0.06742255, -1.8232682, 0.0043818606, 0.074282244, 1.6916358, 1.8736871, -0.029020926, 0.04202433, 1.2041794, -0.84450316, 0.0022926512, 0.13467303, 0.034409642, 1.282558, 0.3705395, -2.1191456, -0.058930073, 1.1575211, 0.05343817, 0.08618353, -1.1256195, 0.16696203, 0.021304723, 2.0262437, -0.0072558797, 0.8539884, -0.56912684, -0.35094008, -0.014051533, -1.2474638, -0.061552867, 0.5141543, -0.028579049, 0.016373372, -0.07465667, -0.07142496, -0.11385942, -0.016634196, 0.088259794, -0.0086425245, -0.13218178, -0.35842472, 0.10480966, 0.07836818, -0.049148314, 0.10465565, 0.03515358, -0.02012656, -0.37182933, -0.084519885, 0.3500554, 0.07267128, -0.11788122, 0.051918894, -1.2252835, -0.07040394, 0.12225502, -0.054919235, 0.01446872, -0.08413848, 0.054105192, -0.00038129752, -0.12348542, -0.03908801, -0.057379648, 0.03535831, 0.063344724, 0.12385974, -0.03556082, 0.7592684, -0.006107084, -0.15334143, -0.27315563, -0.012092594, -0.0444814, -0.07706693, 0.08017049, 0.11327947, 0.09941968, 0.5265881, 0.08653331, -0.0048154243, 0.7377608, 0.0077310703, -0.13449055, -0.10748925, 1.3534732, -0.062962145, 0.018684754, -0.091430016, -0.16595389, 1.7168143, 1.6876162, -0.04872297, 0.16098803, -0.1899996, 0.8171177, 3.691629, -0.742703, -0.060145374, 0.5298361, 0.05863919, 1.2575161, 1.3260134, 2.25555, 0.044781804, 1.533222, 0.08254201, 0.3233924, 0.067181475, 0.06268015, 0.0031561162, 0.013332136, -0.005096917, 0.2079304, -0.08754173, -0.0508926, 0.4642039, 0.06592478, 0.31642556, 0.0749929, -0.0442668, 0.037342172, 0.0115466565, 0.22641888, 3.271858, 0.13997911, 0.062172126, 0.112563126, -0.66661, -0.19567686, 0.0013971567, -1.087266, 0.16277681, 0.061686456, -0.4235049, 0.5553034, 0.09064143, 0.7394187, -0.06961237, 1.3095012, -3.0445125, 0.0070600254, -0.2922375, -0.19762044, 1.0534886, -0.056626745, 0.65030277, -0.050236538, 0.99469656, -0.14392242, 0.16138966, -0.16348004, 0.1136604, 0.8393883, 0.067807764, -0.09820651, 0.06847299, -0.044801388, -0.12844555, -0.008252118, -0.032789126, -0.012029965, -0.13678432, -0.24539605, -0.047345176, -0.07618075, -0.42376512, -0.25279096, -0.07471294, -0.0074330657, 0.2840839, 0.029240265, 0.15699813, 0.40272227, -0.5032428, 0.020840999, 0.5651841, -0.3877911, -0.37001914, 0.107827865, 0.73339355, -1.3415504, 0.25203922, 1.5417182, -0.5060993, -1.1297591, -0.8083976, -2.025597, -0.5729398, -1.0599744, -1.7970331, -0.09888064, -0.05193797, -0.0442737, -0.15589938, -2.1234288, -0.8544493, 0.40611815, 0.88336146, -0.339948, -0.34712014, -0.15827212, -0.27506083, 0.24104969, -2.5305321, -0.39351302, -0.38251874, -0.6523847, 1.8437356, -0.4264385, -0.16301411, -0.045040984, -0.60168993, 0.17471161, 0.23934579, -1.0538427, -0.602512, -0.1254292, -0.24021713, -1.9627688, -0.052433208, -1.0649751, -0.7194146, -0.056178063, -0.72066134, -0.18877299, -0.4431079, 0.26057407, 0.4286048, -0.06035837, -0.010370349, -0.013501123, 0.0320708, -0.010022186, 0.07971349, 0.022382494, -0.01771309, -0.026355714, 0.13203202, 0.08004835, -0.18850541, 0.07966065, 0.23494475, 0.185516, 0.3924026, 0.0782404, 0.072749145, 0.00013632087, -0.16475612, -0.5690947, -0.06714828, 0.021635681, -0.021398652, -0.040866844, -0.064622864, 0.05530325, 0.12039306, -0.16543335, -0.1226769, -0.36806533, 0.037441578, -0.06982443, -0.19849673, 0.015599722, 0.09563606, -0.0067161624, 0.089209564, -0.062146705, 1.0297831, 0.0020893498, -0.014953852, -0.9523015, -0.11934049, 0.11601667, -0.9339899, 0.08785438, 1.3675469, 0.07078675, 1.2040809, -0.14704457, 0.083116345, -0.39424142, -0.004053709, 0.48215598, -0.08800033, -0.13440584, -0.19053587, -0.099971816, -0.01338081, -0.5761712, -0.43296885, 2.2824297, 0.046390016, -0.20870245, -0.009090946, 2.1107306, -2.8390083, 0.4410688, -0.021073569, 0.39126086, -0.31461585, -0.7323914, -0.5661717, 0.63141096, -0.11222653, 0.24553409, -0.10062373, -0.8151874, -0.18877724, -0.2477278, -0.1904162, 0.0008874986, -0.01888746, -0.36704588, -0.32502857, -0.4674088, 0.21950762, -0.15041412, 1.8810681, 0.041891973, 0.30616924, 0.032406036, -0.04521094, 1.9075631, -1.4651972, -0.05691325, 1.0446571, 0.058351696, 0.42641735, 0.20623925, 1.1591411, 0.3546202, 0.0087935645, -0.002032506, 0.05480464, -0.18026386, 0.014877505, 0.21377492, 0.09358132, 0.29342115, 2.7590659, 0.06556325, 0.06697379, 0.12031377, -0.99987066, -0.17968446, -0.61615187, 0.09907574, -0.5908547, -0.02457224, -0.5448836, 0.27403843, 0.099378265, -0.70302534, -0.14561921, 0.11001429, -0.06346764, 0.079617724, 0.013771023, 0.12201139, -0.053415336, -0.036697038, -0.04965281, 0.17381023, -0.22392169, -0.015769819, 0.51435727, -0.017966101, 0.10187166, 0.24898274, 0.016966255, 0.13962474, 0.20710517, -0.13242981, 0.80271983, 0.06969748, -0.4402842, 1.2910558, 0.28228885, 0.032381196, 0.19468176, 0.83963513, -0.4288289, -0.89701974, 0.7160168, -0.59167975, 0.9978215, 1.7147682, 0.16603321, 0.48504946, -0.06481517, 0.14136356, 0.016123509, 0.24027029, 0.18185587, 1.3114128, 1.0068331, -0.30504167, -0.2541346, 0.27543244, 0.6753607, -0.028411293, 0.058050554, -0.32068396, 2.2531638, 0.11074782, 0.32367888, 0.08073474, -0.9256674, 0.30868626, 0.13418168, 0.057197895, 1.1629112, 0.24100474, -0.5676201, 0.8359435, 0.5654434, 0.08241229, 0.16113612, 0.88591063, 0.09266251, 0.116966814, 0.65235496, -0.027465565, 0.7078119, 0.40688896, 0.53189754, -0.17193906, -0.14374213, 0.039329953, -0.040339943, -0.043307614, -0.036382057, 0.02364141, 0.12965065, -0.13511524, 0.035073202, 0.08761758, -0.10187604, 0.042521916, 0.18655474, -0.38167644, -0.15535931, -0.18305174, -0.12925526, -0.02087799, 0.07378542, -0.27528954, 0.10730795, 0.81446224, 0.039037492, -0.30377048, 0.033384897, 0.1186922, -0.08639451, 0.04032207, -0.013296791, 0.046590384, -0.13765234, 0.023104647, 0.18749654, 0.065051876, -0.066941716, -0.14941683, 0.0047376766, 0.028190576, 0.14621876, 0.062071856, -0.03380349, -0.12898126, 0.050195646, 0.03583476, 0.12280032, 0.09576656, 0.012119584, 0.0866152, -0.82556075, 0.056440994, -0.46462393, 0.16723429, 0.10502747, 0.45307675, 0.10443476, 0.1684853, 0.11069467, -0.03234856, 0.083678104, 0.18888177, -0.9039005, 0.34378037, -0.25563762, -1.7846113, -0.02402282, 0.034997348, -0.30277726, -1.8197659, 2.7641194, 0.2673347, -0.042860754, -1.0047199, 0.041481186, 0.3493472, 0.5596528, -0.739095, 0.15945828, -0.44471458, 0.22365294, -0.30598062, 0.13097027, 0.06477025, 0.13194121, 0.19675447, 0.05258254, 0.08719775, -0.020600276, 0.13138792, 0.13473694, -0.022184646, -1.7043389, 0.04407171, -0.07559434, 0.19093534, 0.14711069, -1.4880583, 1.5464704, -0.0152305355, -1.1499459, -0.15045719, -0.09916646, -0.12957981, -1.1119373, -0.6106967, 0.06532683, -0.046350528, -0.24061696, 0.15779836, 0.114795946, 0.4700375, -0.042576306, -0.26267827, -2.725351, -0.2630377, -0.24408136, -0.2122608, 1.3468996, -0.06537769, 0.58528835, -0.090186484, 0.6166931, -0.14065522, 0.5115992, -0.20281085, -0.17141289, 0.8125341, 0.25708178, -0.0694311, -0.06577641, 0.016834736, -0.033554353, -0.25503966, -0.019228473, -0.14012401, -0.21493368, -0.12675878, 0.04146276, -0.12291589, -0.6192723, -0.15111007, 0.06857956, -0.05651893, 0.01162689, -0.1489642, -0.11478451, 0.2791725, -0.65424395, -0.15795195, 0.4146135, -1.2480835, -0.24855912, -0.06813656, -0.45034346, -0.8069581, 0.4815139, 0.79874575, -0.7905337, 0.4463471, -1.0318099, -1.5908866, -0.20380309, -0.46278062, 0.07727816, -0.18293417, -0.074917376, -0.25033072, -0.18928918, -1.2970834, -1.0427413, 0.32554442, 0.36452043, -0.2339071, -0.74505997, 