#pragma once

#include <stdint.h>

// Weight 0, shape: (2, 40)
const double weight_0_infrared[] = {
0.1289763, -0.27423787, 0.8721412, -0.82015026, 0.51828426, 0.5839448, 0.029484538, 0.027819797, 0.17136686, 0.3230902, -0.050578464, 0.40372762, 0.7238717, -0.7157029, 1.3959891, -0.3465031, -0.71719927, -0.19273129, -0.6591073, -0.25139135, 0.5217007, -0.37822756, 0.4575228, 0.6437049, -0.3706661, -0.841046, 0.44772437, 0.7481887, -0.33641294, -1.006485, -0.44327447, -0.37609333, 0.13511191, 0.07692998, 0.16434053, -0.18267003, -0.6744313, -0.14337073, 0.19766821, 0.56468654, -0.1201942, 0.5386346, 0.51986325, -0.8649143, -0.20191975, 0.3520485, 0.7188257, -1.5509201, -0.38104108, -0.3285235, -1.2043248, 0.25333104, 0.64026695, -0.22075577, -0.2934376, 0.8151275, 0.87157035, -0.23998074, -0.1741462, 0.7469048, -0.5382227, -0.77769107, 0.65211576, 0.1802962, 0.5015636, -0.73302364, -0.4822787, 0.36693177, -0.29597256, 0.16952787, 0.33608416, 0.50053245, -0.01720873, -0.78486776, -0.5600543, 0.12113002, 0.23025092, -0.3234453, -0.4218021, -0.19799237
};

// Weight 1, shape: (10, 40)
const double weight_1_infrared[] = {
0.26715657, -0.37879366, -0.12597351, 0.28928956, 0.37855038, 0.6778831, 0.32795408, 0.12010823, 0.6416309, 0.07470577, -0.10076672, -0.16982459, 0.25438365, 0.20052896, 0.5920917, 0.32603976, -1.1939373, -0.40070894, 0.13116628, -0.2684517, 0.073011994, 0.12628733, -0.2397203, -0.28797874, 0.063163735, -0.27274147, 0.15480652, -0.19680834, -0.06670113, 0.19928351, 0.19566667, 0.4297597, 0.85755175, 0.039682012, 0.25597128, -0.05508328, -0.37915736, 0.2899559, 0.29695293, 0.07343205, 0.08101961, -0.11348263, -0.5123268, 0.5883625, 0.39946002, -0.22534923, -1.0036014, 0.9227137, 0.39934835, 0.2857264, -0.11046622, 0.33413744, -0.22883397, 0.28018713, 0.52608293, 0.38397992, -0.13281429, 0.1869535, 0.4503682, -0.07403938, -0.00914, 0.08313793, 0.13042006, -0.2251531, -0.09855732, -0.11757607, -0.16707446, -0.033702005, 0.21414797, -0.21208765, 0.20577794, 0.053914253, 0.3317519, -0.50803626, 0.52213967, -0.1312978, 0.4297491, 0.6479955, 0.3955382, 0.5576481, -0.10145, 1.3677505, 0.6810801, 0.32784575, -0.10278794, 1.0981742, 0.06393014, -0.6530112, -0.16853075, -0.32497698, 0.036028598, -0.42130738, 0.51398104, -0.36970642, 0.04587221, 0.50104314, 0.14316444, 0.0070304247, -0.121811815, -0.30132017, -0.4543967, -0.08607708, -0.18162002, 0.2163409, 0.12116917, -0.012968004, 0.18331465, -0.06956592, 0.2745254, -0.15750775, 0.56917286, -0.472433, -0.053821806, -0.2179402, 0.5405973, 0.116959445, 0.68772906, -0.8625766, -0.15293686, -0.14156337, 0.042387493, 0.08279428, 0.36294118, 0.67840976, 0.3256293, 0.5494211, 0.43095645, -0.14448078, -0.08559417, -0.27007967, 0.12448106, 0.3479386, 0.2180346, 0.015277295, 0.07683056, 0.053300306, -0.25841826, 0.33964762, -0.62007934, 1.0748332, 0.3473633, 0.219648, -0.13562088, 0.1078882, -0.25582537, -0.3427731, -0.044753917, -0.11980933, -0.19064562, 0.17608584, 0.17755896, 0.7725096, -0.045991797, 0.14040829, -0.18408862, 0.17482409, 0.35037637, -0.0044889515, -0.051888783, -0.082812704, -0.66849667, -0.17558545, -0.39174044, -0.40309915, 0.062981345, 0.10560526, -0.27702394, 0.0028830855, -0.09366926, -0.2536729, -0.31797993, -0.8774162, 0.037448987, -0.9156608, -0.004429907, 0.41017237, 1.1471374, 0.11006838, 0.031904217, 0.4249748, 0.027929723, 0.20737115, 0.08518452, -0.12909569, 0.12548992, 0.32229432, 0.031580854, -0.3014413, 0.5109937, -0.16518551, 0.12188494, -0.5359271, -1.0164659, -0.49526706, -0.07224275, -0.21978085, 0.41652927, -0.065875575, -0.18136372, 0.04077326, -0.6258626, 0.07670507, -0.3607186, 0.35239512, -0.6117829, -0.624727, -0.4990006, 0.21036594, 0.26364452, 0.23091385, -0.022598045, 0.15822424, -0.49282804, 0.4957616, -0.3460218, 0.15629418, -0.03802138, 0.5993882, 0.4079137, -0.80122805, 0.33972728, 0.27669513, 0.034136087, -0.40204442, -0.14228088, -0.14380565, -0.08248904, -0.1522773, -0.022802163, 0.06520728, -0.30041045, 0.22402588, 0.60044277, 0.06939092, 0.030008174, 0.09947752, -0.06266393, 0.7128354, 0.4838966, 0.23852551, -0.0021862034, -0.15609099, -0.80169076, -0.21675111, 0.16389513, 0.44520912, 0.6748545, 1.1010121, -0.43974182, 0.32096553, 0.5822874, -0.48546287, 0.54275566, -0.9180093, 0.31912434, 0.028924089, 0.40614906, 0.5229139, -0.58797675, -0.90156233, -0.15703136, 0.23673357, 0.4353109, -0.20348558, 0.088041574, -0.108169064, 0.13939267, -0.4733833, 0.25789627, -0.026171274, -0.05509812, -0.96225965, -0.85522056, -0.4338146, 0.37477496, -0.32061684, -0.04184473, -0.02146639, -0.2480357, -0.0066847755, 0.016646309, 0.30018604, 0.12388653, -0.6618171, -0.21114716, 0.0052935863, 0.73499733, -0.09353585, 0.19839911, 0.259767, -0.016252281, 0.20296012, 0.09354474, 0.38253093, -0.16380669, -0.38726246, -0.16888191, -0.68456984, 0.01078891, 0.4830532, -0.0008422052, -0.12018905, -0.19223918, 0.17301318, -0.08968377, 0.02641874, -0.2724802, -0.13920355, -0.30525765, 0.33917502, -0.5238587, 0.46889523, 0.42975408, 0.16169335, -0.79705787, 0.1738915, -0.37068126, -0.13892153, -0.16697416, -0.23643045, -0.21025492, -0.51962626, 0.6888573, 0.95991635, -0.33081755, -0.23131944, -0.6170036, 0.053755958, -0.1977148, 0.08885437, 0.4571186, -0.8049322, 0.49416393, -0.8269291, 0.42379382, 0.0801368, 0.20171115, 0.6065558, -0.124392495, -0.3783438, -0.11084303, 0.085545115, 0.02416972, -0.11770581, 0.41054964, 0.00971944, 0.11666715, -0.14923348, 0.15997949, -0.13300513, -0.03224518, 0.14551927, 0.21535385, -0.22587408, -0.062475774, 0.17017251, -0.06972969, 0.24624705, -0.31489173, 0.3847202, -0.61459225, -0.15717189, -0.6441088, 1.0587295, -0.38231462, -0.62476176, 0.7664189, 0.09160981, 0.3428581, 0.113312766, -0.420541, -0.02247681, -0.48076734, 0.40338877, -0.70534664, -0.0892586, 0.33183143, 0.06981823, 0.5527737, 0.061683394, -0.06876018, 0.03127532, 0.20988224, -0.15385135, -0.009744969, 0.112985894, -0.1341594, 0.078800656, 0.25355354, -0.09555758, 0.107502274, 0.48901534, -0.023424823, -0.35583773, 0.06918658, -0.046471156, 0.83682543, 0.039366167, -0.36136183, 0.09496874
};

// Weight 2, shape: (40,)
const double weight_2_infrared[] = {
0.64251345, 0.6927568, 0.8007497, 0.063211404, 0.46446255, 0.44000617, 0.6172853, 0.21072938, 0.01749898, 0.79331356, 1.016918, 1.5330627, 0.4989911, 1.5200025, 0.9664468, 0.9585554, 1.3164797, 0.7815275, 1.1759517, 0.81295455, -0.093297586, 0.04301254, 0.025821518, -0.18064235, -0.039955176, 0.0824208, 0.0532566, 0.07127812, 0.0007550651, -0.20115556, 0.3435249, 0.07932124, 0.28187358, 0.12254292, 0.37870193, 0.2967895, 0.44694737, 0.42884654, 0.12030583, 0.097133875
};

// Weight 3, shape: (10, 2)
const double weight_3_infrared[] = {
-0.83010197, 0.8644209, -0.40543568, -0.88814765, 0.72923076, 0.9141695, 0.5722061, 0.46724996, 1.0100696, -0.6169009, -0.71301055, -0.1340083, -0.8733475, 0.9344047, 0.26300982, 0.2848453, -0.4585997, -0.118636034, 0.3232159, -0.8805964
};

// Weight 4, shape: (2,)
const double weight_4_infrared[] = {
0.00020057199, -0.023361487
};

