#ifndef LSTM_WEIGHTS_H
#define LSTM_WEIGHTS_H

#include <stdint.h>

// Weight 0, shape: (2, 60)
const double weight_0[] = {
-0.94717300, 0.17705636, -0.08408888, -0.24025734, 
    -0.65281999, -1.23704088, 0.25046664, 0.83603430, 1.54672360, 
    -4.18307495, 2.35736918, -0.34390256, 2.24823809, 0.13969795, 
    -0.23204488, -0.46811715, -0.29052126, -0.50944197, -0.52415293, 
    -0.61266506, 0.92105520, -2.76354146, -0.01324908, -0.33584028, 
    -2.35372949, 0.39286059, 0.17580864, 1.08022439, -0.42233190, 
    0.21267822, -2.36182857, -1.15301859, 0.05341354, 2.41280103, 
    -0.27428901, 1.20736384, -0.75089157, 0.75675911, 1.30765629, 
    1.17113817, -0.69154841, -1.01043022, -0.11569148, -0.20121725, 
    0.25481212, -1.27904415, 0.43819603, -1.47878969, -1.11346102, 
    0.56823903, -0.58465540, -1.26309335, -0.53257388, 1.43168807, 
    1.07681453, 3.36667871, -0.14499602, 1.22911370, -0.55515504, 
    0.67249840, 1.29829800, -1.39171469, 1.65141940, 0.17876808, 
    -1.51619887, -0.73461378, 2.26452470, -1.31663764, -0.54888088, 
    -1.52864611, -0.10380755, -1.05308807, -0.37121144, 0.28383109, 
    1.69660079, 0.33923790, -0.90153551, 0.02697935, -0.13990666, 
    -1.56326556, -0.50867742, 0.14775872, -0.53926593, 0.52471423, 
    -0.63713175, -0.48737034, 0.75814873, -0.01779112, 1.57932866, 
    0.95324069, 1.18221116, -1.97873533, -0.85640603, 1.19363725, 
    -2.16670966, -0.06562229, 1.56416523, -1.70461273, -0.40563411, 
    0.22301221, -0.49419865, -1.85890269, -0.20837450, 1.06051254, 
    -1.51858640, -0.10298625, -0.42797112, -0.53442174, -0.28911132, 
    -1.28488481, -0.62045556, 0.90130717, -0.19692653, -0.16451931, 
    1.00055504, 3.63527036, 0.91486508, 0.20565557, -0.09002136, 
    -0.88266832
};

// Weight 1, shape: (15, 60)
const double weight_1[] = {
-0.18148139, -0.22430772, 0.48376426, 0.50451314, 
    -0.63471222, -0.14492804, 0.73668909, -0.07415133, 0.62809467, 
    -0.81799644, 0.86647707, -1.25661087, -0.19550937, 0.24105169, 
    0.64175516, -0.19414884, 0.17042361, -1.07290006, -0.34903896, 
    -0.24300432, -0.91606200, 0.96565348, -0.29395950, -0.30849928, 
    -0.79610479, -1.59677196, -0.70689100, 0.24250583, 0.15241694, 
    0.27478459, 0.31460586, -0.06268659, 0.07485157, 0.05313997, 
    -0.62642413, -0.12478907, -0.45735684, 0.36919981, 0.21797672, 
    0.42024252, 1.09523582, -0.21401300, -0.30150256, -0.98875999, 
    0.47473940, -0.06201496, 0.35210019, 1.42718005, 0.17109521, 
    -0.25253534, -0.45362663, 0.24231789, 0.63341135, -0.08593751, 
    0.09595893, 1.30075288, 0.41061947, 0.39300552, -0.20072204, 
    -0.84726763, 0.75592005, 0.57430983, -0.51789743, -0.89170969, 
    0.63079548, 0.40031224, -0.03688284, 0.63375676, 0.17938893, 
    -0.00403025, 1.73463273, 0.75661224, 0.06548691, -0.27798322, 
    0.29709750, 0.47677180, 0.45803440, -0.14703722, -0.30083650, 
    0.08172899, 0.32611525, -0.40850618, 0.05863523, -0.43065470, 
    -0.43894142, -0.54238665, 0.11157925, 0.00448945, 0.92399341, 
    1.10942030, -0.33247474, 0.14150800, 0.87762731, 0.35520351, 
    -0.12485298, 0.14286263, 0.46779948, -0.05069527, 0.25722516, 
    0.20286874, 0.36982152, -0.18460996, -0.34498063, 0.17607713, 
    -0.11753872, 0.58834422, 0.54015249, -0.11845476, 0.82253659, 
    0.84713864, -0.18717884, 0.16439733, -0.17909472, 0.36870623, 
    -0.17218500, 1.78969002, -0.53604192, 0.27271712, 1.21094966, 
    -0.02771235, 0.61853862, 0.12139317, 1.42773879, 0.96441323, 
    0.51778293, 0.34110072, 2.42192030, 0.11965401, 0.66527671, 
    -0.17023048, 3.49346900, 0.72530317, 0.71185654, 0.40829647, 
    -0.15502127, -0.63205987, -0.14342923, -0.12818086, -0.96923268, 
    -0.40501675, -0.66495711, -0.56055111, -0.41205272, -0.37643406, 
    -1.68208396, 0.26231152, -1.50140011, -1.62553227, -1.10429311, 
    -0.50547516, 0.25668931, 0.16022812, 0.06278314, 0.15661186, 
    0.45668492, -0.80091429, 0.54770631, -0.30986765, -0.04937161, 
    -0.53007126, -0.66666257, -0.08535361, -0.67244029, 0.19494461, 
    -0.52499175, 0.43154410, 1.37419891, 1.02807081, 0.30586323, 
    -0.32013360, -1.10507059, 0.34244540, 0.16797689, 0.02443344, 
    0.36612701, 2.23410797, 0.60774553, -1.02739882, -0.01554102, 
    -0.46611485, -0.18641496, -0.78296697, -0.18923478, -0.09483423, 
    -0.39668798, 1.69650364, -0.67986351, -0.51657581, -0.52200681, 
    1.02445126, -3.33692813, -0.60603684, -0.09347293, -0.03714102, 
    -0.74412763, -0.07574502, 0.64417648, 0.25859809, -0.16352126, 
    -0.43888846, 1.05382240, 0.54892778, -0.32317308, -0.10326807, 
    0.22703587, 0.19498619, 1.06047475, -0.18267399, -0.66207975, 
    -1.39631164, 0.29143932, 0.49456310, 0.14599682, 0.14303192, 
    -0.30960783, -0.08191248, -2.03355622, 0.05596724, -0.39456713, 
    0.22241844, 0.54299945, 0.02975724, 0.82960606, -0.75822967, 
    0.29687390, -0.47634995, -0.78034288, -0.33779696, -0.35613400, 
    -0.64265811, 0.18319318, -0.59361106, -0.17567219, -0.36708564, 
    -0.46160734, -0.80630797, 0.23586550, -0.68198311, 0.50326931, 
    0.01698008, 0.85185671, 0.31960300, -0.55719984, -0.61219150, 
    -1.27240551, -0.28641072, -0.20775561, 0.20251988, 0.10276714, 
    1.59430754, 0.94242537, -1.48726344, -0.27799934, 0.24070612, 
    1.64808691, 0.00169963, -0.02696572, 0.24643132, 0.53566635, 
    -0.93773955, -0.39806396, -0.63689959, -0.51629841, 0.04901564, 
    -0.24375044, -0.65502143, -0.25464344, 0.25507170, 0.29972574, 
    -0.55385607, 0.33516130, -0.30599239, -0.24770166, 0.47043696, 
    -0.40816310, 0.63600588, -0.81470096, -0.07736953, 0.03738337, 
    -0.13001405, 0.32003736, -0.82772237, -0.39492601, -0.02543037, 
    -0.65072954, 0.74108315, 0.83293492, 0.58670175, 0.82035679, 
    -1.23342097, -0.11920053, -0.02146512, 0.28590038, 0.25961640, 
    -0.22366491, 1.25500178, 0.13741255, 0.29760644, -0.13069227, 
    -0.18690389, -0.22486614, 1.01804674, 0.23299912, -0.03133196, 
    -0.83700758, 0.27411321, 1.30077255, 0.28638959, -0.71952391, 
    1.31960869, -0.14993145, -0.04020890, -1.42204690, -0.11551744, 
    -0.09751694, -0.27328250, 0.42680436, -0.00128302, 0.43148425, 
    0.15218201, -0.13517788, 1.91421473, 0.26464248, 0.30314663, 
    0.82038987, -1.09801769, 0.14854564, -0.95202684, 0.72100991, 
    -0.61912727, 0.05120629, 0.42693198, -0.09552089, 0.51450300, 
    -0.46235827, -1.15236557, -0.37706736, -0.43005276, -0.21523111, 
    -0.13102646, 0.34742811, 0.01914547, 0.62824506, 0.37409014, 
    -0.01793935, -0.17997977, 0.03724474, -0.85303009, -0.02901238, 
    -0.13877843, 0.41379678, -0.93125474, 0.11757387, -0.15005881, 
    -0.38657412, -0.61952603, 0.06777411, -1.21061873, 1.41594970, 
    0.35868600, 0.73436409, 0.47851530, 0.73567724, 1.02322733, 
    -0.26251680, -1.26934826, 0.72142339, 0.26826036, 0.96015829, 
    -0.38910943, 3.12687397, 0.01924177, 0.21715190, -0.05243896, 
    0.06291702, -0.34999543, -0.39009127, -0.83171368, -0.59859776, 
    -0.11872830, -0.74378568, 0.11115206, -0.17565952, -0.38935682, 
    -0.94064552, -0.53209138, -0.92379445, -0.43507528, -0.69645780, 
    -0.62398016, 0.06346160, -0.13154034, 0.26162145, 0.07015472, 
    0.00281170, 0.97152096, 1.16166401, 0.28456044, 0.43637750, 
    0.45199910, -0.19892590, 0.59910905, -0.96501106, -0.66027874, 
    0.08138800, 0.62815732, 0.87171137, 1.65748096, 0.86944765, 
    0.15459125, -0.20558019, 0.00939345, 0.94707966, 0.33451757, 
    0.48122799, 0.29729617, 0.62585366, 0.41838697, 0.14953798, 
    -0.15298909, -0.84106445, -0.40064836, -0.98806369, -0.47366366, 
    0.82932419, -0.68953609, 0.81551629, 0.71853143, 0.11806516, 
    1.33207595, 0.12896666, -0.58569741, 0.03884590, -0.50942355, 
    -0.15811929, -0.46194014, -0.94842482, 0.06495310, -0.56051171, 
    0.77385199, -0.31977922, 0.45563343, -0.55542994, -0.03666320, 
    0.65522784, 0.14689605, -0.00900792, 0.67033964, 0.04896168, 
    0.25910226, 1.00977457, 0.15573986, 0.11413279, -0.26117164, 
    1.18363881, -0.36981910, 1.38749325, 0.05870057, -0.12130827, 
    -0.33839205, -0.03450600, -0.14630669, 0.41524205, 0.33523434, 
    0.61653823, -0.27671632, 0.08400182, 0.00314456, -0.60955638, 
    0.82651877, 0.02496075, 0.17894264, 0.14236374, 0.38918096, 
    0.26321366, 0.38318005, 0.24760960, 0.61164826, 0.66530085, 
    0.19864897, -0.58318204, -0.52575344, -0.59705740, 0.14315122, 
    -0.49974656, 0.40394524, 0.67571640, 0.93958366, 0.14281023, 
    1.57700610, 2.62957764, 0.66315287, -0.67675328, -0.30117920, 
    -0.14773475, -0.90771806, -0.48068994, 0.04864058, -1.08066654, 
    -0.60758692, -0.17397903, -0.07592696, -0.07603018, -0.34032336, 
    -0.21911830, 0.23483664, -0.20514928, -0.31227753, -0.00338776, 
    0.22491360, -0.17036703, -0.04314865, 0.98572367, 0.34166229, 
    -0.17152926, 0.18972956, 1.23266494, -0.19490634, 0.42280164, 
    -0.19387500, 0.14677835, -0.39471114, 0.55498189, 0.50893420, 
    -0.21564066, 0.68037850, 0.90048820, -0.33060041, -0.36123696, 
    -0.43780336, 0.48708367, -0.31762061, 0.17108023, 0.34328836, 
    0.35819501, 0.88143861, 0.19241649, -0.55322349, 0.73382205, 
    0.01102307, -0.25965744, 0.14641543, 1.05657792, -0.84519458, 
    -0.63106084, 0.64273638, 0.20099811, -0.09973076, -0.06435521, 
    1.27862954, -1.68647027, 0.79423308, 0.18548365, 0.63679510, 
    -0.84793001, -1.10449612, 0.73212272, 0.16422835, 0.16079548, 
    -0.40591723, -0.25849283, -0.47301111, -0.15379503, 1.35284972, 
    -0.13859333, -0.08231492, -0.61502218, -0.29170993, -0.30545184, 
    0.19041319, 0.12031528, 0.31012923, -0.38265279, 0.48840895, 
    -0.42231193, -0.25431815, -2.70288491, -0.02695164, -0.38724312, 
    -0.18465236, 0.04404543, -0.54205328, 0.75776833, -0.02789449, 
    -0.05731615, -0.83488119, -0.09829208, -0.28314406, -0.75766057, 
    0.97458684, 0.48863250, 0.03524445, -0.51875651, -0.72963619, 
    -0.21967492, -0.73838913, -1.04202330, -0.86951429, 0.49533427, 
    0.52570689, -0.25201258, -0.56432486, -1.26719415, -1.13312483, 
    0.29516602, 0.21980853, -0.66460478, -0.39261571, 0.08511052, 
    0.23720695, -3.57543731, 0.01924195, 0.41379938, -0.45355117, 
    0.14183508, 0.67245930, 0.70292532, 0.54156566, 1.01188755, 
    0.07589350, 0.48981228, -0.66875190, 0.41426727, 0.46649891, 
    -0.01325300, -0.19128838, 0.54693401, 0.62880349, -0.12443364, 
    0.77675503, 0.42487276, -0.07245757, -0.48220089, 0.11559965, 
    0.28741843, -0.21193126, -1.59776270, -0.06917845, 0.38170502, 
    0.29059166, 0.32991797, -0.12765837, 0.12168599, 0.16680120, 
    -0.36160454, -0.56765443, -0.81241542, -0.23838647, -0.68029183, 
    -0.91126049, -0.27406779, -0.11945163, -0.47558159, 0.17876700, 
    -0.39129415, -0.05695982, 0.34158036, 0.74648857, -0.72426718, 
    -0.14185567, 0.42683369, 0.29241672, -1.10898221, -0.22044754, 
    -0.10108753, -1.10691690, -0.33170372, 0.99309397, 0.50374472, 
    -1.43875599, 1.45187175, 0.92281568, 0.24692906, -0.20210426, 
    0.62390780, -0.27625626, -0.51165253, -0.91862226, 0.30148223, 
    0.37792632, 0.41782397, -0.65707862, -0.42124364, -0.49170333, 
    -0.21986718, -1.51269770, -0.05597589, -0.18094796, -1.40865743, 
    -0.10192768, -0.31127575, 0.26412520, -0.44493419, 0.09229486, 
    1.04903591, 0.15714705, 0.92083150, -0.02394551, 0.48516443, 
    0.86965817, 0.12347751, 0.48677576, -0.14639466, 0.96900916, 
    -0.43582711, -0.48258668, -0.53834218, 0.32637742, 0.70816779, 
    0.23610415, -0.79599017, -0.02082377, -0.35656953, 0.12925699, 
    -0.26677808, 2.41741991, -0.44846618, 0.47397429, 0.15688396, 
    -0.36907101, -0.19366901, -1.07497132, 1.82754934, 0.75995731, 
    1.09931946, 0.00895017, 1.18243670, -0.41500354, -0.80909139, 
    3.31437993, -1.82326818, 0.61672640, -0.50941312, -1.47825336, 
    0.20634156, 1.11030674, 0.18307963, -0.21638682, -0.06555698, 
    1.37769186, 0.67984730, 2.28967357, 0.50611341, 1.30745745, 
    -0.74285805, -1.56403458, 0.40076873, -0.29710257, 1.24235868, 
    1.17937541, 0.48882848, -0.02922066, 0.30590454, -0.30149060, 
    -0.33566990, -0.43490979, -0.41241360, 0.11312643, -0.06973102, 
    -0.01794421, 0.54525298, -0.21411838, -0.25899762, 0.27038261, 
    -0.19820385, 0.81059915, -0.66211045, -1.20987546, -0.09915450, 
    -0.51522976, 0.19794825, -0.37235171, 0.26464871, -2.21700478, 
    -0.51523823, -1.10455596, -0.29463744, -1.41912520, 1.10725284, 
    0.11409271, -1.05466461, -0.48262405, 0.58663404, -0.87134421, 
    -1.46061063, 0.69199371, -1.03959954, 0.43025798, 0.46577582, 
    -0.09259835, -0.84691590, -0.27078831, -2.08960080, -0.01116998, 
    0.38051367, -0.54940432, -0.44903833, -1.14500976, -0.28786767, 
    -0.87673831, -0.12166464, 1.88467121, -0.67619401, -0.94221807, 
    -0.36142814, 0.53235221, -0.11385006, -1.71304095, 0.47779509, 
    0.04906721, 0.49218431, -0.54697055, -0.17626171, -0.58635402, 
    -1.38950336, 0.11372419, 0.54651052, -0.32515639, 0.09400967, 
    0.22490661, -0.20234850, -0.54078382, -0.30324930, 0.45641723, 
    -0.54428005, 0.02261777, 0.12269240, -0.83678192, -1.06207538, 
    -0.56489116, -0.26585960, 0.39645752, -0.44530335, 0.38340980, 
    -1.19113314, -0.66751641, 1.11421371, 0.18492290, -0.42455763, 
    0.88495457, -1.03603113, 1.02791178, -0.57246208, 1.39682925, 
    -0.45559978, 1.00095618, -0.39904296, 1.15090060, -0.65928018, 
    -0.35416576, -2.30682492, -0.19022429, 0.73967648, -2.16186261, 
    -0.18898915, 1.05508149, 0.39227393, 1.15819573, 1.19452870, 
    1.32172143, 0.91359299, 1.30580771, 0.25005317, -0.31364650, 
    -0.05662118, 1.68983507, 1.08378613, 1.68534946, -1.43646789, 
    1.19857824, 0.53250813, 0.27912289, 0.75860488, -0.07282858, 
    1.28766394, -0.07839936, -0.15126671, 0.38434678, 0.68097079, 
    -0.08149957, -0.56116349, -0.85254145, -0.38069236, 1.44150651, 
    -0.31017166, 1.31998253, -0.20312993, -1.84158826, -0.16235192, 
    1.45616233, 0.34445679, -0.51811111, 0.11779635, 1.39320564, 
    0.24539037, -0.23077346, 0.23961067, -0.64140946, 1.81642044, 
    -0.85685247
};

// Weight 2, shape: (60,)
const double weight_2[] = {
1.29604805, 1.33345211, 1.26412332, 1.72011471, 
    1.06137645, -0.04592922, 1.59544933, 1.08864045, 0.21370603, 
    0.53168112, 1.20681643, 0.86667895, 0.08859257, 0.27998871, 
    0.37597826, 0.23683766, 0.77584326, 0.55695361, 0.11348123, 
    0.99499416, 0.44481260, 1.07502627, 0.41021135, 0.63949651, 
    0.88439667, 0.45011541, 0.67026192, 0.79241985, 0.39673918, 
    0.32536462, 0.10451078, 0.13808244, 0.84414381, -0.23544545, 
    0.18722765, -0.05202431, 0.69050390, 0.05015521, 0.37821013, 
    -0.24328323, -1.48163652, 0.17706968, -0.01981413, 0.25564119, 
    -0.22062285, 1.83126378, 1.33597970, 0.80156207, 1.17758024, 
    1.26007247, 0.34490058, 0.53202313, 1.29147780, 0.51428217, 
    0.76998276, 1.73459160, 0.88932067, -0.07433358, -0.02021701, 
    0.93756044
};

// Weight 3, shape: (15, 2)
const double weight_3[] = {
1.14318645, -0.08056416, -0.19017032, -0.97989613, 
    -0.30879179, 0.02843474, 1.20773542, 0.08548619, -0.07023929, 
    -0.33473006, -0.33753261, 0.46177977, 0.50668287, -0.81391793, 
    -0.26298991, 1.45730972, -0.30808213, 0.76178116, 0.14759551, 
    0.60022533, -0.19822110, -0.42434782, -0.60755372, -0.43928412, 
    -0.04866749, -0.14484911, -0.23403393, -0.00754788, -0.75776368, 
    -0.46871334
};

// Weight 4, shape: (2,)
const double weight_4[] = {
-0.07295030, 0.00153725
};

#endif // LSTM_WEIGHTS_H
