#pragma once

#include <stdint.h>

// Weight 0, shape: (6, 60)
const double weight_0[] = {
-0.2287764, 0.11602378, -0.016693017, 0.016960867, 0.20769803, 0.28865874, -0.0039950893, 0.3311621, 0.13397631, 0.19338617, 0.25344592, 0.12792434, -0.02638956, -0.14814974, 0.0064068567, -0.0025806765, -0.044561103, -0.15678562, 0.0075159534, -0.4061983, -0.17003249, -0.23345919, 0.2887567, -0.15850304, 0.23797691, 0.1583998, -0.11621608, -0.037281245, 0.17548355, 0.2668526, 0.14921558, -0.015054369, -0.14020585, 0.012411177, 0.29164365, 0.094540626, 0.25189185, 0.102449, 0.14915153, -0.22664124, -0.0055888137, 0.011650746, 0.18877533, -0.24901953, 0.067151286, -0.30051637, 0.009681894, 0.15417716, 0.04324238, 0.0019194279, -0.052369595, 0.035295274, -0.02452758, 0.37441435, 0.25744718, 0.08137604, 0.1391113, 0.3604676, -0.16154747, 0.0041780556, 0.13724454, -0.02685672, -0.00045245126, 0.07247306, -0.20266135, 0.105587095, 0.02947125, 0.09213773, 0.11837726, 0.14411384, 0.1190882, 0.20013398, 0.007896792, -0.06983414, 0.051838193, -0.16743514, 0.28496525, -0.08605665, 0.015334852, -0.09604923, -0.17687398, 0.014972718, -0.019233065, -0.061618768, 0.028483449, 0.31111923, -0.029625261, 0.0031875707, -0.26563287, 0.2478707, -0.10819498, 0.036667924, -0.16294527, 0.062249184, 0.088374816, -0.032060664, 0.26494965, -0.08802847, 0.05299875, -0.2739147, -0.0004515857, 0.1136522, 0.24114533, -0.2553178, -0.1360594, -0.13642019, -0.021301229, 0.1992523, 0.14251281, 0.09014188, -0.012959213, 0.07325461, -0.0024593226, 0.11244899, 0.04902813, -0.01921797, 0.24112852, -0.00023434428, -0.29947236, 0.026667528, 0.04786325, 0.16625765, 0.00041817414, -0.0504816, 0.22187355, -0.18813384, -0.03686983, -0.1298528, 0.16339965, 0.16740775, 0.09779221, 0.04235367, 0.012928502, -0.2414028, -0.044229314, 0.25516212, 0.1405458, -0.18464357, -0.011660207, -0.08681455, -0.032177404, -0.12978685, 0.11192824, -0.1902116, 0.38110432, 0.0074055553, -0.17651159, -0.0017666657, 0.22303057, 0.12130988, -0.15553802, -0.056145966, 0.007651841, 0.270508, -0.0096261585, -0.10146206, -0.016493853, -0.020848887, -0.10632904, 0.16308606, 0.00087228935, 0.032904275, 0.22717093, -0.17587923, -0.27134585, 0.29741246, 0.034030776, 0.06218994, -0.08174822, 0.36189955, -0.006995497, 0.13116312, -0.002275087, 0.11301707, 0.01413852, 0.20327224, -0.06585569, 0.0064762016, -0.107986644, -0.02133927, -0.2508085, 0.117468536, 0.016961241, 0.014034304, 0.28447592, 0.23352271, -0.006491345, 0.18079656, -0.019883728, 0.25270176, 0.25356555, 0.053272296, 0.055731762, 0.21309721, 0.0033668946, 0.09291076, 0.2547247, -0.050225437, -0.0034234845, 0.06867421, -0.06377466, -0.044996586, 0.069798455, -0.025452036, 0.0215313, 0.02612967, 0.059668034, 0.036701664, -0.084979564, -0.022064306, 0.116386145, -0.0171852, -0.058399167, 0.009394616, 0.035983674, -0.4474146, 0.046580046, 0.20634112, 0.2527284, -0.19423716, 0.0060768723, 0.16164055, -0.13150574, 0.057871908, -0.17169936, 0.24104106, 0.0063782725, 0.048004296, 0.036526132, 0.04584054, 0.022145575, 0.08777171, 0.018364012, -0.018344777, 0.14530796, 0.25877804, 0.11257711, 0.071796626, -0.23724326, 0.0027168852, 0.13377666, -0.02824995, 0.0015426726, 0.00040568394, 0.061663326, -0.18525724, 0.006871906, -0.14851697, 0.10402223, 0.12502533, 0.088451296, 0.18786563, -0.0021538422, 0.22325814, -0.019546254, -0.24523029, -0.042035278, 0.20573947, 0.05002774, -0.014955124, -0.0064075375, 0.024627335, -0.10250095, 0.21227236, 0.22406635, -0.3202692, 0.116478756, -0.009214742, -0.15145634, 0.09840718, -0.112631485, -0.0028090496, 0.12958711, -0.039428413, -0.02939642, -0.0006109207, -0.2890395, 0.030272821, -0.14458333, 0.076248735, -0.0003493689, 0.075686716, 0.19094451, -0.2992199, -0.17791666, 0.10731524, -0.019518815, 0.1274643, 0.101665944, 0.24230748, -0.0058245985, 0.19401899, -0.0017220642, 0.08031819, 0.28963524, -0.054932997, -0.20330702, -0.05371508, -0.20986149, 0.01301898, 0.012727171, 0.11656731, 0.0014236877, -0.0023715093, -0.019838601, -0.008718669, -0.0007543992, -0.013624487, 0.084625475, -0.009529352, 0.04641643, 0.30056998, 0.01797627, 0.27988964, -0.0072017103, -0.1431091, -0.16155343, 0.021478789, 0.010165368, 0.027434021, -0.0016721925, -0.07265764, 0.18966, 0.034769043, 0.17025152, -0.11433419, -0.14386727, 0.0637833, 0.18398637, 0.12835072, -0.12837759, -0.00028653647, -0.118349105, 0.10741961, -0.014464708, -0.41189513, 0.14234155, -0.25560254, -0.08375527, 0.14269826, -0.00023105885, -0.10348176, 0.08710228, 0.05712551, 0.0768229, -0.095947415, 0.003206651, 0.12496294, -0.0060982727, 0.13020131, 0.009463564, -0.06924412, 0.0074778874, 0.17168069, 0.10871744, -0.059134778, -0.0056821085, 0.117387414, 0.049572676, -0.0008248323
};

// Weight 1, shape: (15, 60)
const double weight_1[] = {
0.03930962, 0.0007633518, 0.029413188, 0.24554278, -0.0321838, -0.15284455, 0.031644925, 0.012102418, 0.3528893, 0.071382076, 0.08636182, -0.01559126, -0.21437986, -0.019873096, 0.03667704, -0.005986418, -0.10163035, 0.0048214765, -0.036729433, -0.19211751, -0.024152907, 0.0029270153, -0.08428948, -0.15720226, 0.10472171, -0.010084539, 0.086914524, -0.048616108, -0.06425782, -0.23670633, 0.1625827, 0.2973874, 0.03532275, 0.05334511, 0.037622757, 0.30268723, 0.10511615, 0.10772888, -0.054953627, 0.048277035, -0.0489061, 0.21937858, 0.32447198, 0.055292517, -0.03434054, 0.010226778, -0.05291202, 0.16669703, -0.032934442, 0.17584588, -0.025268037, 0.049240414, -0.11428002, 0.1373817, -0.10373358, 0.13817792, -0.053328734, -0.080495074, -0.13199806, -0.10092669, -0.19888693, 0.13401945, 0.035339966, 1.444352, -0.2122753, -0.014778405, 0.40362468, 0.13793729, 0.11003951, -0.29985458, -0.033535488, -0.029497785, 0.121036045, 0.123195924, -0.16516171, -0.020188535, 0.022753304, 2.7774122, 0.1203144, -2.065532, -0.9927377, 0.09396659, 0.31200776, -0.50779873, 0.0119176265, -0.13087125, 0.8134122, -0.36695716, -0.11292662, 0.029891957, -0.06667802, -1.7614611, -0.0869152, 0.05723563, -0.68662363, 0.06953229, -0.03910569, -0.043822058, -0.017852098, 0.15181127, -0.041365597, -0.123604715, 0.010275333, 0.023898803, 0.02645274, -0.02430028, -1.0574429, 0.07713962, 0.6601055, -0.017556487, -0.581395, 0.29991013, 0.24503697, -0.20436415, -0.026784822, 0.16279408, -0.068720676, -0.19461095, -0.08588047, 0.46355966, -0.01590375, 0.12725319, -0.57032377, 1.4182917, 0.015246047, -0.06789909, 1.4587333, -0.09000976, -0.43238884, -0.075463064, 0.012486138, -0.27944428, -2.3932967, 0.066674314, 0.89120555, 0.09732965, -0.2028992, -0.6698046, 0.14381984, -0.29892948, 1.2088683, 2.648545, 0.0024692728, 0.59130967, -0.07182162, -0.26761398, 2.4699843, -1.4489415, -0.018893076, -0.009133125, -0.17993036, -0.19791065, -0.14558387, -0.09334565, -0.93543166, -2.7048178, -0.15097913, -0.876231, 0.00829005, 0.102145426, -0.6202576, 0.120985255, -0.054206025, -0.11981576, 0.45856708, 0.04388117, -1.6417093, -0.21514897, 1.7785418, -0.26625198, 1.0461819, -0.1842019, -0.44237974, -1.2601972, 0.15341319, -0.5342643, -0.25071347, -1.053091, -0.084530964, 0.6127291, 0.20661688, -0.13347757, 0.1092445, -3.0694735, 0.0058553764, -0.061703894, 0.5626865, -0.0074576344, 0.23946224, 0.22590734, 0.044125028, 0.010789621, 0.055075128, 0.03136621, -0.14053616, 0.13692309, -0.034366302, -0.6419815, -0.8556036, -0.69106245, -0.6220529, -1.1687042, 0.15838799, -0.7697464, 0.16010444, 0.23285806, -4.530147, -0.40089524, -0.021417346, -0.008498784, 0.04048423, -0.4476489, -0.05096875, -0.07013621, 2.1245844, 1.131641, -0.09505792, 0.24299818, 0.18652944, 0.09886308, -0.10957321, -0.1430701, -0.05617292, 0.0662893, -0.07877037, -0.20617077, -0.58400595, 0.021768296, 4.099199, 0.28388628, -0.37082395, -0.1398131, 0.07746405, 0.22059701, 0.3412506, 0.24020462, 0.49250573, -0.015694031, -0.3241955, 0.22259717, -0.0064401533, 0.24673963, 1.6384633, 0.6896836, 0.043814924, 0.041895814, -1.429623, 0.09202067, -1.1188942, 0.118252724, -0.08756358, -0.47789586, -1.8048544, -0.010375457, -2.8233604, -0.15360318, -0.15608408, 2.903867, -0.36380965, 0.15741362, -2.6055489, -2.0425758, -0.28598845, -2.4307911, -1.0702636, -1.0114919, -2.9806538, -3.8757565, -0.16288699, 0.054431595, 0.14508724, 0.13749753, 0.64049596, -0.02863571, 3.6260102, -0.12998393, 0.16930048, -0.5000786, -0.121440254, -0.12533869, -0.047513038, -0.005022583, -0.17462249, 0.14250965, 0.30444783, -0.13446368, -2.3571858, -1.4735566, 2.4522326, 0.015115809, 2.529179, -0.061914664, -1.784155, -1.3330874, 0.12230667, -0.6123115, -0.80515087, -1.3268417, 0.008329981, -0.47316554, -0.07818858, -0.17585911, -4.109093, 0.15083835, -0.07196521, 0.13053337, -0.049489237, 0.09865028, -0.2184029, -0.102535374, 0.10100793, -0.07551363, -2.7629807, 0.3593037, 0.785744, 0.12442608, -0.016913326, 1.0248682, -1.0664272, -3.512171, 0.24007519, -0.49996507, -0.022626154, 0.026154138, 0.10900661, -0.21980307, 2.124229, -5.9793873, 0.051307224, 0.020062987, -0.0420382, -0.61724913, 0.2208013, -0.12821636, -0.5584636, 4.1803184, -0.043086465, -0.20921251, 0.30910233, 0.0053749206, 0.17182198, -0.011806726, 0.0030030352, -0.085750245, -0.03065557, -0.1752286, 0.051847328, -0.04899226, 0.5307321, -0.36287403, 0.2987796, 0.019399624, -0.7440683, -0.16827504, -0.2283724, -0.1036357, -0.101772584, -0.29955637, 0.007412588, 0.008643666, 0.023037108, -0.15918306, -0.06452099, 9.658017, -0.051471327, -0.038168784, 0.36723706, 0.06025547, 0.79146475, -0.058561873, 0.08722651, 1.1340543, -0.122077584, -0.10079654, 5.337324, -0.061401434, 0.085046254, 0.16951597, -2.8681514, 1.3859187, 1.5312082, 0.66778636, 0.16896522, 1.6264735, 1.393141, 1.5322055, -2.0809264, -0.047597192, 0.07474679, -0.1355117, 0.054567624, -0.3762435, 0.07081064, -0.31870088, -0.56159806, 0.016723635, -0.124672726, 0.05083208, -0.20244952, 0.04435227, -0.015252986, 0.072701745, -0.12213317, -0.02672771, -0.23113708, 0.20193626, -1.9719139, 1.0254744, 7.6195545, 1.4851217, 0.41885066, 0.057710323, -0.29550484, 0.5761654, -0.09162782, 2.0271277, 0.3699603, 1.226689, -0.08068014, 0.97605395, 0.21280266, -0.054329447, 0.60361916, -0.3732846, 0.08546175, 0.2048213, -0.3631834, -0.053644985, 0.16995895, 0.13955699, -0.076085344, -0.17350404, 6.6738815, 0.043678615, -0.3790355, -0.0535753, 0.16340052, 0.66575617, 0.22598585, -0.026025726, -1.5436274, -1.0638757, 0.32688898, 1.1578842, 0.7554614, 1.1022747, -0.49827802, -3.4934123, 0.03095961, -0.3372567, -0.019965619, 0.30697092, -0.051194593, 0.118555345, 0.016275184, 1.5951576, -0.036934424, -0.06696671, 0.04706419, 0.18183716, -0.06291708, -0.068526834, -0.08619055, -0.07481815, -0.22515084, 0.034367748, 0.8295449, 1.4701619, -1.0469363, 1.9769605, 0.028322967, -0.0902845, 0.9540249, 1.452976, -0.043809757, 1.3472852, 1.1798784, 1.7937555, -0.02035628, -0.1135037, 0.05206406, 0.052458514, -1.0256522, 0.8672492, 0.23732798, 0.058554158, -0.15041448, 0.1745424, 0.3303787, -0.043936685, 0.10901579, 0.34646848, -0.06046182, -0.17099518, 1.0947531, -0.030295191, -0.11902157, 0.7438552, 0.10098746, 0.12262572, 0.1967649, 0.028236307, 0.33937055, 0.53084624, -0.035826676, 0.16292636, 0.51262295, 0.78492725, -0.13235712, -0.06554906, -0.056446858, -0.49221426, -0.19898006, -0.060157888, -0.030064037, -0.5580795, -0.11478586, 0.4955629, -0.022857677, -0.11565112, -0.11754979, 0.16219456, 0.1106789, -0.14279832, -0.22475104, -0.1990209, -0.27218935, 0.20295723, -0.014012195, 0.14665182, -0.39161035, -0.10420063, -0.42114997, 0.06936847, -0.16201165, -0.009420832, 0.10740978, 0.12622021, 0.009144086, -0.62756187, 0.20528613, 0.20643419, 0.9164511, -0.4401758, -0.02668569, 0.15658328, -0.5480717, -0.023540234, -0.112900086, 0.107052214, 0.11436841, -0.028180975, 0.16657421, 0.05927757, -1.5811112, 0.1304928, -0.062368583, -0.9628218, 0.043603837, 0.8905495, 0.17867453, -0.09830171, -0.16470632, -0.48138824, -0.13723361, -0.03315289, -0.5293959, -0.38371807, -0.006405022, 0.13886553, -0.1799318, 0.16697837, 0.14625908, 0.017654786, 0.0532263, 0.95216393, 0.14513153, -0.09752979, 0.059329342, 0.13886139, 0.037159927, -0.038949735, 0.03783031, -0.072147295, 0.31321275, -0.16490231, -0.051943645, -0.030877708, 1.2713004, 0.038903262, 0.47633144, 0.09622642, 0.6399925, -0.12179863, -0.26872793, -0.08645523, -0.153249, -0.093918525, -0.18999548, 0.4529343, -0.057297103, -0.09562785, -0.13698612, 1.1956581, 0.0044010896, 0.07784352, 1.1068699, 0.105563805, 0.07542223, 0.0011947388, -0.07639277, 0.26771823, -2.868375, 0.12401307, 0.78726065, -0.2201762, 0.0020295891, -0.4537199, 0.84899396, 0.70283645, -1.4371743, 3.3989549, 0.045415785, -2.2721567, 0.3145375, 0.23150438, -5.2393546, -1.9845604, 0.2245166, 0.12686625, 0.16723973, 0.17199798, -0.034611963, -0.09040836, -0.027646588, 3.569174, 0.07410742, 0.10285833, 0.03399849, 0.048207983, -1.3127205, -0.07130535, 0.082164906, -0.12163693, -0.03266963, 0.14394975, -0.8966995, -0.064035, 2.0271134, 0.43814918, -2.6678805, -0.13762385, -1.3382256, 0.12826556, -0.09662633, 0.26617634, 0.19573489, -0.1950438, 0.2290996, 0.50933254, -0.0042916113, -0.12871775, -0.5457322, 0.9464196, 0.33479044, 0.061375577, 0.17706768, 0.14532684, 0.09629899, -0.040266592, 0.15384622, 0.043740816, 0.30313984, 0.06465221, 0.95999616, -0.023306826, 0.19283193, 0.585142, 0.28203607, -0.16385075, 0.61600393, -0.5317772, 0.31245482, 0.7601803, 0.3733161, 0.14330319, 1.1012379, 1.0372492, 0.0564278, 0.055136234, 0.06377345, -0.34535897, -0.015736785, 0.09844952, -0.3015361, -0.54878235, 0.16932352, 0.29098555, -0.11300877, 0.16305402, -0.05463762, -0.11828126, -0.016256005, 0.11070145, -0.3233422, 0.022502908, -0.7396436, 0.166037, 0.14505479, 0.35014522, -0.38711646, 0.023203148, -0.42540658, 0.00021660578, -0.0035856348, 0.097299226, -0.08680503, 0.31922442, -0.08806778, -0.21167232, -0.18852322, -0.024683125, 0.20987016, -0.32239026, 0.07452362, -0.1153315, -0.059375986, -0.1472597, 0.36423165, 0.18258442, 0.00038058497, 0.4266577, 0.85843104, 0.16151784, 0.9648349, -0.16448137, 0.16578464, -0.5816623, 0.60925174, -0.7947223, 0.71337366, -1.2912114, 0.12217284, 0.23124385, 0.21195574, 0.451865, -0.025716502, 2.31218, -0.037255853, 0.033563506, -0.26284564, -0.04752436, -0.01683618, -0.0536502, -0.8657979, -6.650494, -0.051858317, 0.605212, -0.22452277, 0.22289737, -0.19158936, 0.29054695, 0.006056568, -0.14366059, -0.13514863, -0.14606099, 0.41831157, 0.16330324, 0.083986275, 0.32153323, -1.0535592, -0.1283108, 1.6595914, 1.0375037, 0.047941424, 0.1487245, 0.12127129, 0.3656074, -0.07619214, 0.0038633824, 0.106415935, 0.053643756, 0.092531145, -0.116316, -0.07085729, -0.22241257, -0.055994168, -0.074734, -0.13063802, 0.07792078, 0.042716123, -0.10496302, -0.0367235, 0.045308076, -0.1150867, 0.11375988, -0.0074758194, -0.14139941, 0.08296424, -0.056377206, 0.023229824, 0.02238622, 0.111766025, 0.19329017, 0.064653, 0.07456858, -0.13304995, 0.13560098, 0.2359181, -0.22285351, 0.028417429, 0.011100337, -0.24822684, 0.1855318, 0.07284081, 0.0368604, 0.0875363, 0.06288417, -0.05623744, -0.3915574, 0.03378019, -0.07614969, 0.0756551, -0.044012714, 0.025107704, 0.07056618, 0.10193746, 0.052566983, -0.14385666, -0.03491144, 0.045176074, -0.092647135, 0.13045026, -0.24636789, -0.33694074, 0.09258026, 0.18972953, 0.09040733, -0.13233888, -0.060344428, 0.2139837, 0.07157703, 0.1603641, 2.687404, -0.09977117, -0.20539062, 2.0644913, -0.002151533, -0.03467581, 0.017413713, -0.2316275, 0.022936443, 0.20469327, -0.099816665, -4.410275, 0.12458313, -0.10007438, 1.7375331, 1.1184796, -1.0958431, 0.036443595, 4.8655176, 0.013824211, -1.2357337, -0.15926638, -0.13076696, 3.729673, 0.49716556, 0.072635196, 0.15713213, 0.103625074, 0.38264686, 0.60290724, 0.23080924, -0.10753615, -2.2233818, 0.034396797, -0.24930555, 0.16662306, 0.19727457, -0.09762461, 0.009500003, -0.16720264, -0.14982668, -0.0011812622, 0.10874321, -0.1221181, -0.047002614, 8.831596, -0.5994778, -0.5806326, -0.18551482, 0.42728308, -0.49308962, -0.044191055, -0.1794759, -0.4740378, -0.47529227, 0.05024229, -1.0827895
};

// Weight 2, shape: (60,)
const double weight_2[] = {
1.6556196e-06, 0.0, 0.36449912, 0.57001656, 0.08294913, 0.0, -0.11328173, 0.026170963, 0.18311459, 0.0, 0.0, 0.17057271, 0.52884626, -9.58908e-24, 0.17971544, 1.0, 1.0002004, 0.72928095, 1.3795532, 0.93128055, 0.8769269, 0.97813404, 1.0928243, 0.8970318, 1.1459445, 1.2280618, 0.8834155, 1.2085546, 1.0, 1.0046761, 5.13771e-11, -0.25466463, -0.111173406, 0.0, 0.12775531, -0.38015553, 0.0003886224, 0.10029416, 0.0, 0.0, 0.1271225, 0.017397244, 0.0575236, 0.0, -0.07044776, 3.3168842e-08, 0.06648247, 0.094897784, 0.97836936, 0.19205299, -0.24971008, 0.0026311392, 0.010973025, 0.21473818, 0.0, 0.02914073, 0.10965125, 0.25006342, -4.487143e-23, 0.34744748
};

// Weight 3, shape: (15, 2)
const double weight_3[] = {
-0.04218346, 0.5260787, 24.114702, 2.8863184, -27.502268, -38.800674, 38.12827, 4.717111, -0.061243273, -17.424149, 3.0215774, -57.80681, 57.629345, 2.9998116, 11.264066, 40.257687, 7.4755135, 19.67702, -5.0606527, -15.400816, -18.490408, 49.557114, 6.784713, 20.643303, 4.5567656, 38.349785, -0.37526536, -0.08673233, -47.176773, -1.8947265
};

// Weight 4, shape: (2,)
const double weight_4[] = {
8.178738, 17.282482
};

