#pragma once

#include <stdint.h>

// Weight 0, shape: (6, 200)
const double weight_0_sonar[] = {
-0.02086903, -0.003233005, 0.06991143, 0.06471879, 0.23004201, 0.024424393, 0.0485694, 0.7849613, -0.006627057, 0.08049822, 0.122905135, -0.0063835382, -0.036789052, -0.030332401, -0.060739335, -0.2884752, -0.2050362, -0.0071889525, -0.043193735, -0.00035576455, 0.11200661, -0.17645913, 0.04479556, -0.008779677, 0.27922577, -0.072304286, -0.034055043, -0.08169206, 0.05927556, 0.25110215, 0.019208882, -0.20540452, -0.076499455, 0.17003536, -0.11447706, -0.06266161, 0.14262307, 0.22895548, -0.050507262, 0.28123155, 0.015833596, 0.41934875, -0.09149565, -0.15095854, 0.4652368, 0.0051368023, 0.03985974, -0.03761255, -0.133971, -0.23268399, 0.12716039, -0.09707037, -0.046046045, 0.07437735, -0.15132098, -0.17426452, -0.34732577, -0.022250623, 0.007402539, 0.052968185, -0.07697815, -0.03654902, -0.07655825, 0.20830649, -0.07556449, -0.20868656, -0.04175724, -0.11157338, -0.07524242, -0.007397266, 0.2168392, -0.1816767, 0.13153295, -0.006040507, 0.0013575878, -0.1749314, -0.017478041, -0.029490465, -0.20549174, 0.23976615, -0.01488802, 0.62830704, -0.08755471, -0.16207151, 0.77991766, -0.05283921, -0.15046807, -0.0047269836, -0.051652722, 0.0018566786, 0.1798575, 0.08236287, -0.18858643, -0.1206751, 0.23228116, 0.0054040533, -0.08334266, 0.10767065, 0.2975446, -0.18297407, 0.10815542, 0.10209777, -0.16980337, -0.14476007, 0.15409261, 0.028014246, 0.16855669, 0.09124355, -0.006519371, 0.23255827, 0.032316573, -0.36927208, -0.035347648, -0.15092087, -0.039145477, 0.0077144555, -0.28986242, -0.012626962, -0.10600157, 0.18093206, -0.17940657, -0.04199435, 0.016534448, -0.15857999, -0.15975772, 0.005119836, -0.06663415, -0.0074186884, -0.14090419, 0.69653064, -0.14745985, -0.10196117, -2.1267743, -0.13093838, -0.81011266, -0.03546634, -0.11577779, -0.10016361, 0.23634225, -0.08599459, -0.0978467, 0.107121825, -0.23449107, -0.23269323, 0.11261572, -0.07788017, 0.035782766, 0.37194696, 0.25731608, -0.35773283, 0.22500321, 0.09197927, 0.011628131, 0.05720921, -0.04171551, 0.45473847, 0.019767353, 0.24241595, 0.4347563, -0.6473154, 0.07951381, -0.074689634, 0.274852, -0.05369927, 0.17001472, -0.038479008, -0.07330878, -0.07274694, 0.31704968, -0.11933635, -0.020109834, 0.001911258, -0.16781919, 0.4435264, 0.18393277, -0.027189728, 0.0006380305, 0.06687236, -0.009796978, -0.043148898, -0.10249617, -0.24495682, 0.5770968, 0.037258755, -0.08538733, -0.0037021697, -0.067841925, -0.00977822, -0.06776281, 0.20656125, -0.042598, -0.14549069, 0.009067363, 0.04080111, -0.04171025, 0.018571286, -0.10916634, 0.08796842, -0.09726797, 0.25875708, 0.18115816, 0.05909128, -0.20473021, 0.07621563, -0.5119365, -0.012536758, -0.066309385, -0.18042901, 0.03977131, 0.049539935, -0.14432374, -0.07501024, 0.004558659, 0.10361039, 0.7464392, 0.6384482, 0.13974015, 0.14320055, 0.08887757, 0.09803835, -0.04110183, 0.8630499, 0.036359865, 0.22076115, 0.14483608, -0.08928617, -0.22037303, 0.2876255, 0.17317836, 0.23038617, -0.023393596, 0.76607615, 0.03535211, -0.059986513, 0.91709673, 0.3964567, -0.1808983, -0.10289848, 0.091268934, -0.041707613, 0.04228058, -0.36577466, 0.08233508, 0.021251222, -0.21394749, 0.37967375, 0.02576707, -0.012866355, 0.07871749, 1.1190189, -0.09469444, -0.016756639, -0.14692816, 0.018236298, -0.34296036, 0.10607875, -0.2205154, 0.18290383, -0.014477414, -0.09758946, -0.024779499, -0.016535215, 0.08306764, -0.1505421, 0.57029474, 0.051381744, 0.2690561, -0.14573912, -0.0016109867, 0.04010177, -0.081640325, 0.66668034, -0.3376324, -0.032869574, 0.26987192, -0.39248404, 0.07942503, 0.02878824, 0.23168783, -0.5744839, -0.07735235, -0.2760254, -0.003451328, 0.17795213, -0.31784108, -0.011147718, -0.04880922, -0.14820144, 0.15101276, -0.05843311, -0.58544147, 0.007026907, 0.3874341, -0.01828026, 0.2593046, -0.22015476, 0.069467865, -0.17263696, -0.66380197, 0.5837411, -0.0023352327, 0.1801965, -0.23366395, -0.15661578, -0.537226, 0.0041426206, -0.84709615, -0.03688394, -0.056782562, -0.18663323, -0.01172897, 0.43438408, -0.059398405, -0.17238936, -0.061579317, 0.098477475, 0.49136904, -0.029234793, 0.2981556, -0.17937718, 0.011972311, -0.05154571, 0.18345213, -0.19649757, -0.09998933, 0.41711283, 0.57373905, -0.014333162, -0.20316401, -0.35480735, 0.25813723, -0.05862321, 0.18327077, -0.14858752, 0.3727414, 0.0043968298, -0.14447273, -0.14072755, 0.13572276, 0.04929266, 0.5439495, -0.25331655, 0.37030545, -0.16459298, -0.07807448, 1.0338622, -0.38163528, -0.13498513, -0.2696088, 0.0029764378, -0.20017609, 0.06193707, 0.00679612, 0.18739592, 0.37953177, 0.3336434, 0.031164613, 0.035034332, -0.06138053, 0.7816854, 0.07024744, 0.043268073, -0.28904748, 0.010789674, -0.2928433, 0.11396756, 0.030600164, 0.08324274, -0.14197728, 1.373578, -0.042659655, 0.0045639984, 0.3991467, -0.30907616, -0.31660634, -0.07414865, -0.043489404, -0.010356817, 0.1486018, 0.025465565, 0.48687428, 0.47923848, -0.4466202, -0.008393693, -0.0002370791, 0.00055489026, -0.039847817, 0.027674155, 0.15796414, 0.03805479, 0.24677351, 0.18224926, 0.017956473, 0.063626334, 0.0597699, -0.011547966, 0.082995124, -0.15963024, 0.028482474, -0.7926527, 0.11746913, -0.008173992, 0.065151826, 0.1986437, -0.4867765, 0.0008729424, -0.12491646, -0.21464185, 0.02565896, 0.050317433, -0.038829714, -0.041284885, -0.0040558, 0.07221751, 0.49820486, 0.73742205, 0.030817784, 0.02199873, -0.008744357, -0.09117071, -0.0016036523, 0.85726434, 0.11663836, -0.0354265, -0.3107943, -0.13215375, -0.39272246, 0.15545307, -0.016506666, 0.057742342, -0.0057336167, 0.4806867, 0.034557205, -0.31774253, 0.02659126, 0.25138894, -0.038408212, -0.23845921, -0.013586559, -0.06154837, -0.05553544, -0.28690895, 0.06352771, 0.0054039666, -0.24939811, 0.40459257, 0.051854704, 0.0036095548, 0.15011595, 1.3143363, -0.035968155, 0.11223277, -0.17147525, 0.5379344, -0.15979448, 0.22001767, 0.057454363, 0.025059456, -0.0019619528, -0.08519689, 0.09978114, 0.0019420773, 0.0013060269, -0.2308137, 0.17507373, 0.31768367, 0.6589963, -0.0013469023, 0.001557226, 0.010556819, -0.0801304, -0.10657971, 0.20240021, -0.071445316, 0.15334971, -0.5419585, 0.2269422, 0.26546076, 0.03424731, 0.062222943, -0.010845702, -0.045243625, 0.01383653, 0.18858375, 0.0059845382, -0.3159434, 0.15493086, 0.14949994, -0.042633735, -0.08764146, -0.33497974, -0.039576523, 0.3182668, -0.005185734, -0.2289085, -0.019444238, -0.064045645, -0.019137926, -0.23619033, 0.871971, 0.0069723646, 0.061894763, 0.59923786, -0.09085145, -0.5099991, -0.010486031, -1.0187415, -0.0067613125, -0.014525474, -0.12092012, -0.012589938, 0.37748325, -0.059679046, -0.13346961, -0.04241219, 0.104403615, 0.15146084, -0.017718272, 0.2969053, -0.12616405, 0.12585619, -0.024965132, 0.024230693, -0.15974815, -0.0057511055, 0.11919672, 0.047268007, 0.033717737, -0.025062105, 0.042330373, 0.24407318, -0.09210529, -0.11154921, -0.070025206, -0.035839867, -0.04779501, -0.13676944, 0.04878267, 1.1789681, 0.0043546464, 0.06872104, -0.20722607, 0.48749885, -0.07540414, -0.01273029, 0.61598295, -0.46940735, 0.03258851, -0.15358885, 0.207819, -0.27209017, -0.027545925, -0.08017395, 0.34336743, 0.32473636, 0.02525007, 0.17756929, -0.034709, -0.13198516, 0.74485743, 0.023262266, 0.13787918, -0.13373141, -0.0024335908, -0.29515675, -0.004994779, 0.0045241946, 0.2853883, -0.256975, 0.8884815, -0.0055397362, -0.09867371, 0.4117924, 0.041047323, -0.3575474, -0.050086793, -0.022731043, -0.008379798, -0.025817243, 0.030313713, 0.64456177, 0.5137469, -0.48005065, -0.08727053, 0.01857907, -0.06779307, 0.08732568, -0.06295438, 0.1250327, 0.0017577442, 0.17109008, 0.113123044, 0.02051508, 0.04420501, 0.009879511, -0.13910966, 0.36889833, -0.017290343, 0.08428294, -0.7875601, -0.13533813, -0.04115596, 0.3570769, 0.024769861, -0.009444368, 0.0331285, 0.049202666, 0.7666192, -0.024832115, 0.14115267, 0.15465735, 0.08824415, 0.039707497, 0.056656826, -0.3300266, -0.13609199, 0.13468795, 0.012317752, 0.02253867, 0.009725329, 0.104346745, -0.030856837, 0.066710085, 0.030753614, 0.08989198, 0.2750933, 1.5605108, -0.079205796, 0.03921046, -0.041121073, 0.03427273, -0.23711084, 0.060189974, 0.4002836, 0.18628703, -0.017215526, 0.120845646, 0.23817077, -0.0063396017, 0.13567287, 0.019080278, 0.45962557, -0.050272424, 0.022703376, 0.38288963, -0.13209938, 0.06610748, 0.020209232, -0.024350464, -0.11923431, -0.095936865, -0.013321177, 0.073255114, 0.05735571, 0.26349533, 0.36491653, -0.13366248, -0.040609196, -0.11689974, 0.030854428, 0.099806406, 0.06809263, 0.13761838, 0.39957833, 0.010082913, 0.11693548, -0.07213118, 0.012205677, -0.21230507, 0.011360367, 0.069277436, -0.12645799, 0.1426921, -0.018264845, -0.3374485, 0.109386206, -0.039157223, 0.07167836, -0.046679128, 0.04110783, 0.0781131, 0.51916605, 0.045329325, -0.3386502, 0.63815093, 0.046628144, 0.01609748, 0.054313064, 0.013843356, 0.12854412, -0.003863046, 0.060907196, -0.32934445, 0.06516933, 0.25634375, 0.2789561, -0.09420547, 0.21874087, 0.4138258, -0.016649378, -0.011504649, 0.11918328, -0.31843433, -0.043537203, 0.44369033, -0.029015968, 0.13734399, 0.10795225, 0.032989882, 0.23431733, 0.016944584, -0.78267413, -0.07406481, -0.077063404, -0.003713281, -0.018207263, 0.12380691, 0.031184532, -0.13373631, 0.30970544, -0.4695628, -0.031735882, 0.12659709, -0.05273643, -0.13377418, 0.31168103, -1.1568046, -0.0076126847, -0.059845474, 0.57704335, -0.18298556, -0.33628833, -0.23378827, -0.16699344, -0.6006507, -0.07797366, -0.15011711, -0.14865546, 0.1969124, -0.08703739, 0.4878055, 0.13553739, -0.21923251, 0.036356196, 0.14954221, -0.68247503, 0.1226005, 0.3576666, 0.3031638, -0.17267433, 0.29343605, -0.01323859, 0.0011106817, -0.11458447, -0.21965829, 0.22161329, 0.026399178, 0.16333741, 0.23861508, -0.6361625, -0.008035778, 0.18670417, 0.3460843, 0.056802332, 0.20071593, -0.020591695, 0.015480509, 0.44639954, 0.34608132, -0.81613046, 0.12882015, 0.017317079, -0.16306253, 0.26559463, 0.24788685, 0.08309781, 0.045159664, 0.101170935, -0.00470383, -0.01745979, -0.043217175, 0.25474134, 0.7504473, 0.05250608, 0.032589484, 0.041878637, 0.008749517, 0.0005081148, -0.08452792, 0.013795031, -0.15490788, -0.12810998, 0.009908535, -0.018847387, 0.08603231, 0.025088776, 0.36632085, 0.16866416, -0.065725155, 0.33567145, 0.045113016, 0.099778235, 0.14726228, -0.31375113, 0.09014612, 0.029763091, 0.06721601, 0.28954732, -0.014596003, 0.28400984, -0.023764709, -0.011064365, -0.06319684, 0.21313092, -0.10925213, -0.013126778, -0.005712987, -0.07451321, 0.1258017, 0.16761552, -0.12396812, 0.6688097, -0.22023837, 0.24744716, -0.030112721, -0.19345692, -0.16785717, 0.028789537, 0.2569827, 0.029974531, -0.0784562, 0.4038789, 0.03646387, 0.3882216, 0.64632964, 0.18762696, -0.24884017, 0.1912797, 0.11478435, 0.09953634, 0.091336064, -0.19308689, 0.020609787, 0.021434246, -0.039483827, -0.37774846, 0.023998164, -0.023596255, -0.06127298, 0.062412765, -0.0526515, 0.16075283, 0.20746349, -0.06065711, -0.55824506, -0.009994531, -0.15918459, 0.29235393, 0.11914856, -0.03238984, -0.28473857, -0.035455238, 0.11563642, -0.0069798967, 1.1105957, 0.16051117, 0.7739524, -0.09776509, 0.0028259768, 0.58593386, 0.12389353, 1.3380396, -0.39565083, 0.17556635, 0.91208893, -0.04279119, 0.34673256, -0.34064674, 0.46346998, 0.044112053, 0.011003407, 1.042704, -0.05099397, 0.13204437, 0.56055975, 0.31327, -0.12026452, 0.17143922, 0.2430514, -0.027797904, 0.2335419, -0.107623875, -0.005434636, 0.22506934, 0.573825, -0.33828604, 0.30940682, -0.08261014, -0.89353496, 0.39488545, -0.061085377, -0.025756694, 0.28461355, 0.18478724, 0.018063812, -0.00145988, -0.016717892, 0.027145503, -0.053136967, 0.12984365, -0.0018532602, 0.2799697, -0.013441195, 0.08006364, 0.18940319, -0.08387209, -0.20067371, -0.016213583, -0.024869757, -0.49597955, 0.12065757, -0.17018108, -0.22232255, -0.3542982, -0.08427776, -0.16069444, 0.008336558, -0.01991637, 0.16537364, 0.3964509, 0.0046472508, 0.4061586, 0.69077563, -0.1437761, -0.20089418, -0.07726993, 0.31047446, -0.11764949, -0.3836142, -0.028834391, 0.33036762, 0.2010127, -0.08245645, 0.07795897, -0.19404098, -0.07465745, 0.36842284, -0.8784106, -0.15038168, -0.01640587, -0.043288283, 0.16240042, 0.08826868, 0.029545737, 0.0115812, 0.49757516, -0.16843659, 0.35060897, 0.12049864, -0.019788176, 0.01994363, -0.2495447, -0.19189684, 0.016054364, 0.10368862, 0.11421489, 0.03386851, -0.05939568, 0.071249805, 0.28093955, -0.058425777, 0.14059855, -0.04115698, -0.100468785, 0.021145076, -0.020947188, -0.0048817657, -0.16760886, 0.18858778, -0.010219251, -0.0074662967, 0.07404126, -0.17404439, 0.1492958, -0.028206628, 0.11868907, -0.15942246, 0.14741015, 0.06443725, 0.026100276, -0.0012977383, 0.05139501, -0.007840548, -0.118041605, 0.042385563, 0.12678528, -0.111008905, -0.30339625, -0.043961793, 0.5122874, -0.17058082, -0.042014733, -0.058240283, 0.0026722709, -0.1721712, -0.058109023, 0.006250324, -0.43864125, 0.010370857, 0.19306709, 0.120787576, 0.07443091, 0.04116315, 0.17780134, -0.19884795, 0.07802538, 0.26855892, 0.19279358, 0.06988046, -0.004914075, -0.40968868, -0.089855425, 0.04593574, 0.03176596, -0.10342279, 0.3467864, 0.26641896, -0.041855704, -0.056227315, -0.38026935, 0.02851682, -0.1815348, 0.23928598, 0.19756712, 0.6100252, 0.17613307, 0.10122247, 0.089261085, 0.034169625, -0.3341576, -0.01676481, -0.19565687, 0.025739407, 0.21277481, -0.32126498, 0.08798162, 0.16362272, 0.08007489, -0.1441074, -0.19340423, -0.28888562, -0.24453734, 0.017142853, 0.24198379, 0.30939463, 0.45133987, 0.16296263, 0.74347675, -0.20462786, 0.083379656, -0.15544061, 0.13658088, 0.2588733, 0.10899877, 0.89829856, -0.525712, 0.44697654, 0.2435126, 0.19930492, 0.18480062, -0.38214988, 0.22970092, -0.40061632, 0.020327816, -0.20312668, 0.43252677, -0.57807827, 0.040956303, 0.1331786, -0.0060507013, 0.071669295, 0.7560436, 0.17358042, -0.1738447, 0.22724244, -0.05636401, 0.4292604, 0.082339756, 0.16080403, 0.16903748, -0.018912638, -0.039593514, 0.271147, 0.9625843, 0.03268668, -0.21893501, 0.06577185, 0.09547768, 0.1891296, -0.2824316, -0.11504843, -0.15374616, -0.048167925, 0.452627, -0.034151174, -0.063802525, -0.12549761, -0.13806018, 0.053833995, 0.054869868, -0.017774953, -0.62797165, -0.2412392, -0.56660855, -0.03739055, 0.25052094, 1.1615121, 0.065440685, -0.027799455, 0.03002792, 0.14731202, 0.22327624, 0.9125379, 0.45272186, 0.16185406, 0.041332547, 0.2938752, 0.0044533294, 0.033739273, -0.5225933, 0.010890262, -0.118124366, -0.16197465, -0.005414754, 0.12862079, 0.003001454, -0.0038797841, -0.22489731, 0.4038127, 0.03832811, 0.1061727, 0.6268997, 0.29106876, 0.051687222, -0.16480759, 0.08438513, 0.2617158, 0.40305835, -0.058436267, 0.25412688, 0.14782697, -0.09185152, -0.007409946, 0.26450503, -0.0034586124, -0.23545581, -0.0006831933, 0.5618196, -0.038173188, -0.035355553, -0.10474432, 0.21013437, -0.32091394, 0.15174724, 0.033237766, 0.03482963, 0.08068028, -0.1316292, -0.17376618, -0.16972329, 0.24603307, 0.015212281, 0.024626048, -0.04966423, -0.0050306674, 0.13361947, 0.056350783, 0.05990008, 0.033568155, 0.014572012, -0.5056167, 0.0011993381, 0.0017011978, -0.0019099943, 0.13886899, 0.015500095, 0.1184097, 0.01483997, 0.036402475, -0.25206974, 0.010752013, 0.041700747, -0.015307153, -0.050074577, 0.1483728, 0.020639326, -0.056758787, 0.3060954, 0.017673694, -0.16112605
};

// Weight 1, shape: (50, 200)
const double weight_1_sonar[] = {
0.2226864, -0.21625344, -3.4131987, 0.2564409, -1.5011349, -0.48018327, -1.0529536, -0.61361593, -0.4601184, -1.2264705, -1.5661789, 1.810608, -2.4229255, 0.12991706, 0.39665627, 0.5820347, -0.4938282, -0.55256903, 0.5477741, -0.4678056, 1.2610155, -0.44748256, 0.27855393, -0.06721542, 0.21802057, 2.2174108, 0.7634324, 0.15677473, -0.009379428, 1.6580832, -0.25935516, -1.0986694, -0.3424025, 0.13354488, -0.96965784, 0.077199526, -1.0453146, 0.028733024, 0.1969231, -1.788636, 0.07252749, 0.21123992, 0.68508637, -0.21928737, -1.3389357, 0.6061068, -0.35324672, -0.72367823, -1.4164631, -0.9983406, -0.17748572, -0.030947419, -0.18092176, -0.31176046, 1.3513734, -0.8976254, 2.7956414, -0.06967595, -1.4031267, -0.307514, -0.8833734, -0.17480288, 0.26458502, 1.430681, -1.4661347, 0.5582949, -1.4495918, 1.2390337, 1.2322445, -1.2763218, -1.6582093, -0.21918255, 2.3755653, 0.71187973, -0.38024548, -0.6954144, -0.09526352, -0.33011916, 1.9031754, -5.659294, -1.5998163, 1.8478433, 0.5289866, 0.352179, 2.2388291, 0.70715916, 0.64389795, -2.598099, 0.2890232, -0.23429465, 0.7460449, -6.5825014, 0.52522635, 1.8022363, -3.688581, 0.3152028, 1.0607721, 0.02318411, -0.28287247, -0.36317614, -0.823339, -0.05575901, 0.19384892, 0.20053048, -0.39050046, -0.12651315, 0.007996708, 1.2972678, 0.59955484, -1.6304829, 0.036107685, 0.8096104, -1.9006093, -0.058394082, -0.30838746, 0.46670824, -1.5541484, -0.03946018, 0.15932082, -0.2932145, 2.0200772, -0.42989472, 1.1351008, 0.32717752, 0.10209723, 0.10801668, -2.75244, -0.037043642, -0.0037673174, 0.8567221, 0.13341567, -0.6351486, 0.4207437, 0.008262344, -0.0084422445, -2.203157, -0.3630784, 0.5829686, -0.01819181, 0.46789977, -1.0652654, 0.079841524, 0.118914925, -0.12784237, -0.3496448, -0.4740862, 1.6779099, 0.36145815, -3.5577478, -0.0347045, 1.764876, -0.56185, -0.12449021, 2.6954522, -0.32988608, 2.126048, -0.059236612, -1.9759656, -2.36222, -0.63034654, 0.63433063, 5.2538724, 0.54257655, 0.4806659, -0.09220007, 0.21756391, -0.7894034, 2.9433627, -1.9247512, 0.25703174, 0.16830432, -0.33156404, -1.2188097, 1.6424493, -0.3357336, 0.049114987, -0.21268757, -0.06488744, -0.4610834, -1.3031574, -2.0277364, -0.08678697, -2.7119536, -0.4119652, -0.525953, -0.35123736, 0.5513235, 0.45850655, -0.5375906, -0.11367747, 0.90271, 0.1696904, -0.24173401, -0.9896594, -0.55181223, -0.27189758, -3.483034, -1.6141449, -1.0309699, -0.18008435, -0.29159883, -4.0409746, -0.16941603, 2.353123, -1.5583315, 1.4825654, -1.8381747, -0.6954285, 0.56981844, -1.9265404, 0.05575877, 0.17858656, -0.6863035, 0.8685713, 3.3004756, 1.1034428, 0.61198896, -0.01635331, 0.23076789, 0.88916034, 0.8432563, 0.32329524, 0.3003353, -0.31147215, 0.92026293, 2.1234617, 1.3785915, -1.3668985, -2.0438302, -2.0312428, -0.92916113, 1.2751962, 1.2551066, -2.1642725, 1.3755591, 0.51659125, 2.8391209, -0.44858563, 0.10240278, 0.27651972, -0.73688793, -1.7276757, -0.05232093, 0.031898446, -1.4298579, -0.502379, -0.20135005, 1.4932591, 2.8740678, -1.3439262, -0.4630817, 1.1736269, 0.046973594, -0.42910907, 0.8562692, 0.96858144, -0.88916, 0.568354, -2.2852974, -1.2871084, 1.2684355, 1.1569904, -0.71551377, -4.068317, 0.48133633, 1.6375465, 0.19103375, 2.2072453, 0.01395395, 0.8339192, -3.0148313, 0.27650625, -0.28426182, -0.16047177, 1.7492667, -0.5394089, -0.7546383, -2.2950811, -0.683924, -13.533439, 0.62893224, 0.32996392, 1.4780682, -1.2039863, -0.2827342, 0.23747323, 3.639453, 3.4850032, -0.7380633, 0.47602016, 3.6651573, -5.6948028, 0.07147778, 1.4321895, -8.421166, 0.9540132, -0.298103, 0.10439263, -0.6485382, -0.44014162, -0.6910342, 0.07697171, -1.5173509, 0.49570277, -0.89210445, -0.26997492, -0.11446261, 0.20507894, -0.17458901, -1.5600754, -0.50741434, 0.06890251, -0.78390265, 0.6218552, -0.06885436, 1.2787788, 0.7641751, 0.19368574, 3.291094, -0.8358101, 1.0547471, 1.1330565, -0.74614954, 1.5500283, -0.039180867, -0.42535773, 2.9833686, -0.05049016, -0.21153234, -1.7128656, -1.0665157, 0.5214936, 0.30213374, 0.06259933, 0.5311612, 0.4971993, 0.07289828, 0.5024177, -0.6429722, 0.8184092, 4.17895, 0.39815927, -0.7723817, 0.034235083, -1.1612558, 0.02644582, 0.38293108, -0.8699523, -3.5350246, 0.011369258, 3.1664717, 1.0138751, -0.08792987, 0.2251633, 1.2086587, 1.2854455, -2.0965717, -3.5084045, -1.9391242, 0.9321717, -2.0266552, -1.2043227, -2.6658146, 0.21243542, 0.06520051, -0.6190756, 0.14952941, 0.14183937, -3.0958383, 0.05147899, -0.14387062, 0.1788901, -0.27442333, 1.1498555, 0.031784005, 1.1166317, -1.1963447, 0.98883957, -1.5713634, 1.1425134, 4.2380323, -0.6217036, -2.6121552, 0.07766485, 1.8200959, -0.7540941, 2.5473602, -0.51920617, -0.96922606, -2.2726724, 0.07550155, 0.65159744, -4.5419836, -1.4689925, 0.33152607, -0.10093292, -0.5919128, 3.1556673, 1.0409518, -0.8794427, -0.3755783, -0.95005614, -6.8936715, -2.3961177, -0.4531416, -0.28392074, -1.040576, 1.6359279, 0.8213632, -0.41697153, -0.51000077, 0.5853683, 2.202482, -1.1421196, 0.8835758, -0.9365308, 0.6350524, -2.8991444, 0.46854746, -0.19246991, 0.5409192, -0.09374669, -1.1424266, 0.28687605, 0.77391016, -2.1708894, 1.7825954, 0.8869504, 0.95144916, -0.59066087, 1.3076339, -0.74870193, 0.5267253, 2.7984583, 0.43354893, 1.414199, 0.72725487, 1.5003626, 0.09300911, 2.2705178, -3.8866808, -1.2095327, -0.67182046, 0.7842289, 1.9047666, 1.9994677, 1.296543, -1.0485563, 3.0609994, -1.5193877, 0.5466083, -1.5003561, -0.014336973, -0.17796783, -1.1267098, -2.3903584, 1.1082125, 0.24081732, -1.3865598, -0.77258605, 2.348162, 1.0431719, -2.1876206, 0.2002919, -3.3036625, -2.4139602, -0.2837847, -0.014054203, 1.3839351, 0.8384615, -0.2709409, -1.2384481, -3.4191527, 2.1027267, 2.7785957, 1.7221972, -0.93419456, -1.3043252, 0.62417436, -0.3494903, -0.97538406, -0.29975092, 0.4545517, -1.7755282, 0.34327617, 0.4924722, -1.6497805, -1.6124812, 2.5284586, 3.5988321, 1.3165189, -0.59940773, 0.2573914, -2.0172884, 1.6489385, -0.08208429, 1.2887819, -0.79089224, -1.1018203, -3.1184123, -1.4532465, 0.16933283, 2.914773, -0.10168867, 0.7534676, -1.4097046, -0.17429875, -0.631861, 0.8323247, -0.78035766, -0.14504986, 1.5737023, -1.8784891, 0.032174077, -0.9306972, 0.094845906, 1.9050488, 0.53319937, 1.9151455, -0.16641591, 1.6592829, 1.6837742, -0.29547477, 0.19026875, 0.038860474, -0.055302784, -0.15322141, -0.18445913, 0.1654046, -0.30449015, 0.105870984, 0.6295198, -0.13605696, -0.20878154, -1.4587597, 1.0522386, 0.23441751, -0.6395505, -0.46022823, 0.12691487, -3.3006039, -0.29367086, 0.07056566, 0.052112, -0.27795583, -1.1392152, 1.2074203, 2.5773277, 0.30966157, 0.15846035, -2.6573079, 0.060651984, -0.94934124, -0.22512288, 4.0321245, 1.9076366, -1.2229904, -0.22095445, -0.4313136, -0.8951178, -0.7785166, -0.1805143, 1.0096253, -0.60389006, 0.22019216, 0.18371467, -1.3698475, -2.7835324, -0.5556821, -0.58913076, 0.4872819, -0.08573587, 0.57153255, -0.8782557, 1.6769698, 0.14372964, 1.5107231, 2.2053819, 0.89756364, 0.44176972, -1.9851204, -4.2598953, -2.050542, -4.333981, 0.558699, -0.15625708, -1.5384107, -2.7467325, 0.7972961, -1.1183943, 4.2233696, -0.8396762, -0.74262583, 1.0969214, -1.0904217, -1.8310243, -3.4546487, -0.57530284, 1.3508077, -2.0108256, 0.34904948, 0.84304166, 3.0863955, 0.1158673, 2.9739153, 1.4441835, 1.8877877, -1.5630972, 0.55802387, -0.3216902, 1.2483633, 0.8223827, 1.2746782, 1.4538331, 2.6364675, 1.6195306, 0.52889514, -0.6461124, -0.038543325, 4.3376102, 0.851093, 0.8093191, -3.0910358, 0.6649037, 1.4318839, 0.2429577, 0.08146162, -1.3980324, 0.21660067, 1.7896914, 1.2580565, -0.4990775, 0.100554794, -0.4434094, -1.3085735, 0.5709655, 0.38099313, -0.9358556, 0.869887, -0.48542142, 0.569399, 0.43470845, 0.59802794, 0.12326374, 0.4369396, 2.0145926, -0.08504693, 0.88733214, -0.007696377, 1.2059919, -0.10975129, -0.31954196, 0.05836266, -0.4144791, -0.2317251, -0.33620486, 0.47356477, -1.0121336, 0.03271027, 0.10289639, -1.0388215, 0.36251286, -0.70093787, 1.056126, 2.6864862, -0.94296956, 1.4037853, -0.04733128, -0.6565738, 2.0736077, 2.608335, -0.0012914167, -0.18983658, -0.94422674, 1.9239609, 0.50382096, 0.030490158, -0.5511957, 0.4837108, 1.3381965, 0.33639863, -0.72655207, -1.2735174, -0.5601612, 0.33228934, -0.026056297, -0.25039363, 3.6448028, 0.057242285, -0.5094917, 0.97840095, 1.6660672, -0.129637, -0.6722134, 2.6377766, -0.17603168, -1.1237067, 0.7043263, 0.40987465, 0.32845768, 1.0236244, -0.01742093, -1.708997, -0.010002686, 0.7992165, -0.8023454, -0.36155435, -1.2426559, -1.3329973, 0.7286981, -0.22580215, 1.0214769, -0.25221968, -0.14828384, 0.040499087, -0.31488827, 0.28288755, -0.21989846, 1.425427, -0.066960156, -0.9577962, 1.042905, -0.20710297, -0.074035, 0.044751056, -0.07223349, -1.8057448, -0.755745, 0.15610126, -0.10510163, 0.32049447, 0.3180896, -0.18196368, -0.059849806, -0.402407, -1.3764482, 0.1857212, 0.14016609, 0.46343043, -0.6921282, 2.1640475, -0.51490414, -1.4653401, -0.09944814, 0.23080564, 0.28403604, -0.9582138, -0.7617301, 0.9797194, 0.028266488, -0.8587969, 0.05352316, 0.43221685, 0.8678642, 1.0934361, 0.12542357, 0.045504976, 4.2788415, -0.17260608, -0.34993804, 1.1844027, -2.4573045, 0.7730988, 0.23458289, 0.5818348, -0.21487246, 0.52057576, 0.36261797, 0.6523557, 1.0087168, 0.37765297, 0.7630918, 1.4517894, -0.17115054, 0.4776276, 0.033918828, 0.7972642, -0.5581275, 1.0040414, 0.7190595, -2.3922274, 0.8934909, 0.26378655, 0.66421336, -0.14053357, 1.1331502, 0.18446364, 0.41631576, 0.7007748, 0.8823816, -2.3867738, -0.6148028, 2.3391976, 1.9072403, 0.7794469, 2.3921015, 2.1014276, -1.3381925, -0.16074236, 1.0173318, 1.374777, 2.4815507, 6.376781, 0.72390765, -3.3587353, 0.7073261, -0.5125993, -1.3850954, 1.2092087, -1.3019102, -0.85543627, -0.091812894, 0.86890346, 4.563045, 2.6286266, 2.198921, -1.0407286, -1.4125464, -1.4496657, 5.6103187, 1.2898909, -2.6429513, 0.6766686, 0.06679855, -0.026230881, -2.6119792, 0.31439131, -1.8517671, -5.296071, 1.6806012, -3.7191262, 1.4104277, 1.21854, 0.88682467, -1.111709, 0.9451122, 0.9142718, 0.6496955, -1.2311234, 0.12285463, 2.3679423, -1.3795168, 1.5253958, -1.4201208, -4.4417787, 2.2940912, 0.67435336, -0.5731474, -0.055829644, 1.870298, -1.7179562, 5.5474586, 7.07969, 0.093958035, -2.4720562, 8.67665, 0.83352363, 1.5890638, -0.5912545, 0.77789664, 3.7977958, 2.3405437, -1.0545183, 2.1797132, 9.942738, 0.51483667, 1.9748087, -4.90264, -0.43628645, 4.1372614, -2.1149137, 1.9315284, -0.58796835, 2.921653, 2.654832, -0.89719, -0.31495416, -1.4139401, -2.5248706, 3.6551197, -2.8751717, -0.90200007, 5.5865073, -0.82480705, -0.08674858, -1.1611184, 5.869004, 6.6294947, 3.9984016, 0.34138995, 1.1829399, 0.24360777, 0.5789001, -0.3490851, 1.357684, 1.2095181, 8.726455, 0.4296738, -0.09951245, 4.326404, 3.112451, 0.05278115, -4.3497934, 0.3322302, -0.09479116, -0.50085044, 0.63088137, 1.1903337, -2.424323, -0.07971325, -0.78573895, -0.076269224, -1.6545641, 0.56056833, -0.23833843, -0.64553386, 0.30477214, -0.39280397, -0.81271285, 1.4069269, 1.0995601, -1.0347227, 0.041430835, 0.10292821, -0.04251307, 0.123509936, -0.24102703, -0.27662235, -0.110591754, -0.34678167, -2.0690453, 0.010325667, -0.14548488, 0.0323312, 0.15991566, -1.8140347, 0.042399, 0.7073527, 0.08593748, 1.9925853, 7.1345863, -0.23832701, 1.4467388, -0.13182029, -0.017021032, 1.7412184, 0.017873533, -0.33805093, 0.6639612, -0.05562478, -3.9931319, 1.2151107, 0.42245916, 4.1596613, -4.248204, 0.13243468, -2.8168073, -1.6274886, 1.3325307, -0.35498685, -3.6320658, -2.927177, -1.6820179, 2.658175, -1.669218, 0.50374186, 0.770285, 9.779097, 0.0086366, 0.9000949, -0.10352534, 3.2676706, -0.71137094, 0.07720272, -3.9316065, -0.63082343, -3.6207001, -0.77058417, -2.3165336, 1.5237768, -1.9453835, 2.7118447, 0.27547672, 7.6169353, -1.5204905, 2.8823125, 4.367481, 9.213826, 2.6761365, -3.073861, -5.521662, 2.4456708, 1.1746275, 0.28932074, 0.5504911, 2.5126977, 5.9797964, 1.0495163, 0.1949172, 1.3247662, -0.83663225, -0.19588016, -2.1872425, 1.12924, -2.2938392, -1.5407542, -0.97086453, 1.1201781, 0.0027698216, -1.0170307, 1.1228414, 0.017702445, -0.98360103, 1.1241462, 0.46697393, -0.07172833, 1.4107298, -1.306707, 0.18337665, 0.5399353, 2.6377285, 1.8910794, 1.4851538, -0.44996512, 0.9294868, 1.5327299, 0.3215721, 0.93808955, -0.6820196, -2.013145, -0.09098962, -0.008454825, 1.6686431, 3.7334242, -0.19645515, 0.099066794, 2.2791934, -0.20963675, 0.27623856, -0.7337374, 0.2044347, -1.759846, -0.24336386, 0.42664224, -1.4190345, -2.5206368, 0.006029161, 2.0145822, 0.8073074, 0.21986918, -0.09054866, 2.185605, -0.008252838, 0.35916507, 0.09920689, -1.6351484, 1.2209129, 3.1173232, -1.7502358, -0.54562354, 5.452877, 0.5060927, 0.42539033, 0.40634346, -0.12478757, 0.3138511, -1.983526, 1.5084693, 1.8247013, 1.6974715, -1.5812683, 0.26741531, -0.11797785, -0.256216, -0.7909158, -0.2750465, -0.55288464, -0.3680456, 1.3867335, -1.1241195, 1.1013219, 2.7572634, 1.8299958, -2.3937025, -1.64171, -0.3122234, 1.897259, 1.0565481, 0.6758846, -0.21017976, -2.017248, -0.62040925, 0.6006517, 1.134433, -1.4328703, -0.2624149, 0.58090895, 1.3306022, -0.52274, 1.1117269, 0.69631314, -0.10631494, -0.34227765, -0.10450215, -0.63328993, -2.6402264, -0.6208515, 0.16288769, 1.1005088, -1.46586, 0.25301296, -2.7302244, 2.108548, -0.23363838, 0.225972, 0.84231377, 0.24144897, 0.26278213, 0.56629103, 0.021131048, 1.7329276, -0.4630512, 0.55815506, 0.51718897, 0.09946742, -0.17193154, 3.2377641, 0.010179036, 0.0032301184, -0.88286453, -2.6333086, -0.84030503, -1.5223435, -0.113193065, 0.4966389, 1.6544154, 0.046288986, -0.016337004, -0.30254862, 0.22716731, 1.0093389, 0.5173906, 0.96947366, 0.040668484, 0.21490075, 0.21380098, -0.88361996, 0.7561738, 0.33173993, -0.05269811, 0.497646, -2.2849166, 0.133988, 0.26643956, -0.73510474, -3.8394318, 0.40836528, -2.4044049, -2.6118171, -1.0369989, -1.4780978, -0.8520763, -0.09210044, 0.67957467, -0.32813743, -0.019521853, 0.7648696, 0.7786515, 0.5930544, 0.47834665, 0.6474272, 0.7946349, -0.08817096, 0.250237, -0.33919474, 0.49800313, -1.0120289, 1.0384488, -0.31215155, 0.67479265, 1.8829566, -4.2764406, -0.58515334, 0.036183838, 1.1095185, 0.34936604, 1.4018575, -0.23773134, -2.8698728, -0.62138337, -0.39165163, 0.89948684, -1.4364976, -0.46455282, 1.4111257, 0.11968881, -1.142924, 2.5655105, -0.29669186, 1.0440646, 0.09961121, -2.1208389, -0.49417093, -0.76307213, 1.173814, -0.54238653, -0.81292087, 1.7049142, -1.6783097, -1.3504033, 0.9418801, 3.1883051, 1.5267777, 0.21784717, -1.7274227, -2.2401924, 1.0152136, 3.5970185, 1.2408292, -2.7687917, 0.5379386, -2.1479392, 1.5937989, 0.12209459, -2.4185977, -1.0951831, 1.9620498, 3.2235532, -4.2954597, -4.5626082, -1.5902917, -1.8617052, 2.7467413, -2.5365648, -0.26976648, 2.6946886, -2.556598, -3.6559825, -0.7574416, 0.7957157, -2.4305868, 0.2496963, -2.9744248, 0.93085057, -1.9460196, -2.5573268, -2.4499989, 0.7241713, -1.0820034, -1.5586613, -0.40977794, -3.2361984, -6.9250383, -0.051499907, -0.01496502, -5.081934, 1.408548, 1.8229576, -1.4502019, -0.20330837, -2.6921296, -1.3427029, -2.5310788, -7.0666294, -5.0228424, -3.4931133, -1.5102792, 1.3292108, -2.1745515, -2.4535568, -0.66013646, -2.1834478, -0.3976049, -2.3923085, -2.6036818, 1.2050078, 0.026821287, 1.1640012, 1.8707613, -4.7881336, -0.14267685, -1.8458624, 0.4602713, -3.5440955, -1.0131593, -5.6324973, -0.5275419, -1.9176856, 2.900375, -3.6873791, -4.3106055, -3.5622783, 2.1875608, -3.777046, -2.3921049, -1.6009866, -4.1065364, 0.5017311, 2.0601442, -2.6209369, -2.4024305, 0.0355016, 0.29004985, -0.18938978, -2.6472402, -0.91144097, 1.9667261, -0.32195762, 0.32457447, 0.9140497, 0.18898018, -0.80498594, 2.988601, -0.30491668, 2.6099114, -0.7001254, 0.43600523, -0.32538295, -1.9449139, -0.22817262, 0.26692444, -0.092472665, 0.37582093, -0.15758197, -0.030369522, 0.22273286, 2.0081663, -0.05314057, 0.11073553, -0.096760094, -1.9116734, -0.9129763, 0.13776179, -0.030341884, 0.49632108, 2.4876866, 0.0615459, 0.4305221, -0.32725203, -0.13219701, -4.108565, 1.91199, 1.3097748, 0.030777737, -0.030062957, -0.7824358, 1.6969569, 1.1442064, -3.1184852, 0.03506616, -1.0556635, -0.51700747, -1.1886067, 0.16542895, 2.2881117, -2.188065, -2.4084053, 0.189374, -2.1740565, 0.5847712, 0.5148438, 1.5562584, -0.010172622, -1.3960996, -0.7368133, 1.0275272, -3.5029051, 0.42855814, 3.2561169, -1.2058353, -1.2127833, 0.2606963, 0.6333376, -8.414159, 3.1121917, -0.7351397, 0.41419488, -1.8367122, 3.355756, 0.3998807, 2.28742, -2.0240924, 0.54317874, -2.715638, 0.40785798, -1.0636066, -1.9466044, -3.143234, 2.8951187, -1.9361027, 1.9408151, 0.22256929, 3.4135563, 0.050234478, -0.4935914, -1.3535905, -1.2836355, -5.638127, 4.123874, -0.5112387, -0.20773071, -0.20179579, -3.4526198, -0.09181724, -2.459536, -1.6718538, -1.6494756, 1.7590913, 0.2878706, -0.11360997, -0.23089896, -0.57923484, -0.6748069, -3.151472, 0.54868674, -1.921457, -0.85092837, 1.2467713, 0.12907161, -2.0722716, 1.01761, -0.7480212, 1.3659506, -0.4797502, -2.8390543, -0.018373188, 0.32380742, -0.6047505, 1.1797068, 0.87964743, 0.34271505, -0.9311473, -0.12462896, 1.8917695, 0.67868626, -0.7334454, -1.1530933, 0.68852526, -0.16188121, 1.7687595, 0.09839851, 2.2636666, -0.26440647, 0.33796084, 2.9628468, -1.5248172, 0.82715434, -0.73462176, -1.4854317, -0.9617635, 0.7827586, 0.4891327, -0.6241074, 0.44142208, 0.995515, 0.054335646, 1.1096106, 3.9547389, 3.935146, 0.29235992, 2.1394088, 0.23672077, 0.43557954, -0.61680067, -0.6080143, 0.664961, -0.53978497, 1.2079718, 0.72617, 0.3650787, -0.0033854225, -0.12343324, -2.056192, 0.9590128, -0.6527926, 0.270248, 1.9429744, -0.13434282, -0.44354984, 0.014312442, -0.11140427, 0.3028589, 1.3495852, 0.42924955, 1.6132963, 0.039937776, 0.55599207, -1.7960795, 1.4344208, -0.4295985, 0.271434, 0.04834336, 0.5260149, 1.8122958, -1.139144, 0.24370623, 1.7829834, 0.14922878, -1.3067051, -0.47407952, 0.15963335, -0.0017774331, 0.50589675, -0.07812865, -0.029759377, 0.16509227, 0.25484762, -0.32165658, 1.4015667, 0.2613774, 0.1852427, -0.56711346, 1.0214623, -0.26276043, 0.25220114, -0.008947528, -0.15508988, 0.38367307, 2.0958762, 1.2766261, 0.8421396, -0.24095735, 1.0741922, 0.8097462, -0.2448222, 0.13184176, 0.8358488, 0.38265112, -0.09536746, 0.8913268, -0.0044400115, -0.7500258, 0.63708794, 0.1096524, -0.4981844, 0.9558842, -0.12085593, 0.044381436, -0.93297875, -0.7806902, -1.6576728, 0.6037131, 1.551094, -0.104495384, 0.19691215, -0.047741365, 0.61069983, 0.79026705, -0.45454073, -0.110243306, 1.1391779, 1.0106429, -0.20613952, 0.18702304, -0.32510212, -1.1994364, 0.20880017, -0.858135, 0.4783714, 0.16538516, 0.36749056, 1.5194849, 2.1007373, 0.061692074, -0.7754134, 0.0052081165, -0.05297036, 1.8297402, 0.6798666, 0.81383276, -0.58881164, -0.43193272, -0.39209086, 0.87572014, -0.43498096, 0.41418853, -0.4456993, -0.5844455, -1.0271744, -0.5929811, 2.4758, -0.13769005, 1.1030535, -0.2598898, 0.116008535, -0.11073366, -0.18297622, 0.01599981, -0.121224284, 0.45153332, 1.908471, 0.66228324, -0.6453957, -0.2513795, -0.8714339, -1.0178713, -1.7382827, 0.96166503, -0.6188407, -0.8024467, 0.64213216, 0.47777686, -1.4806898, -1.8052714, 0.064558096, 0.7443915, 0.34769955, -0.94105667, -1.3090981, -0.30579627, -0.36606756, -2.3002362, 0.4935206, -1.9760528, -1.9120104, -0.9883018, 0.60205257, -0.31875628, 0.30856615, 0.8711468, 3.5176504, 0.44283116, -1.6670036, 1.2893447, -1.2564303, -3.0264804, -0.6076707, 0.46015844, -0.92338836, 1.6795001, 0.7748198, -0.646069, -0.7231265, -0.4819243, 0.11095984, 0.3114852, -0.8963564, 0.99114895, 0.098525934, 1.0445131, 0.4993548, 0.3454419, 0.1999134, -0.050472103, -1.1372939, -6.863476, -0.6799676, 0.5281929, 3.7307327, -0.34431186, -0.27064043, 0.5959374, -1.8963368, -0.9402049, -1.1327852, -1.0545212, -1.0953214, 1.3862891, -1.4809319, 0.1932443, 1.6274819, -1.2245458, 0.6509347, -2.004461, -0.9431906, -2.164695, 1.6448135, 0.3267839, 1.0216554, -1.4127053, 0.38739887, 0.853406, 0.9888773, 0.860378, -1.6286292, 0.76772547, 1.8154519, -1.4589505, 0.69066435, 2.0766692, -1.4994051, 2.492828, -1.2657913, 0.4072645, 1.7042707, 0.6536161, -3.906638, -3.0585165, 0.5163873, 0.20130675, -3.4818923, 1.8082346, 0.13826044, 0.16767113, 0.88377595, -0.36247537, -0.059513077, -0.42195976, -1.4951397, -0.8180085, 0.11891013, -0.104725264, 0.33755162, -0.07878241, 1.1589189, 0.94859385, 0.8039746, -1.1750418, -2.4939506, 0.23422341, -0.12297642, 0.94097894, -2.6088092, 0.3044372, -0.46401533, 1.3099742, 1.1405101, -0.37347806, 0.99526095, 0.69646835, 0.38695556, -0.18002331, 0.5848634, -0.6341883, -0.020780828, 0.36312726, -1.8000771, 0.29621074, 0.11270424, 0.39172316, 1.4268154, -0.26076877, -1.0173774, 0.018056514, -0.6617223, -1.6857202, 0.21296225, -0.26167047, 0.91032326, -0.6399869, -1.8657607, -0.41902125, 0.20910159, -0.13388492, 0.4011419, 0.08216113, -0.07464465, 0.50352734, 1.678502, -0.103710644, 0.2690949, -0.80250794, 0.5846733, -0.40236604, 1.5409031, 0.001043782, -0.84413743, 1.5157309, 0.014934839, -0.23568788, -0.6166221, -2.0794406, -0.44831672, -0.34779632, 0.51350904, 0.35100308, -0.014906595, -3.7571363, -0.8535725, 0.08336075, -1.2052472, 0.06739145, -0.5076606, -2.1124024, -0.08893058, -0.6860558, -0.40387607, 0.09804357, 1.0935056, -0.38902095, 5.8369684, -0.7721418, 0.1814255, -0.5112825, -0.60385925, -0.027632134, -1.7477297, 0.20132917, 2.4735463, -0.02864694, 0.20789349, 0.4866826, 0.9726177, 1.2898812, -0.42165396, 0.82464355, -1.7310523, 2.1763864, -1.3687975, -1.8128148, -0.13556746, 0.25010738, 1.8235712, -1.1734351, 0.05264605, 0.024419641, 0.34377325, -0.80946106, -1.0060096, 0.5264454, 1.4060796, 0.5224189, 3.6531606, 0.78333765, 6.8438253, 3.5683184, -0.50318503, 4.012727, -0.46719408, 2.1571999, 1.4577467, -0.4747165, -1.8503402, -0.17228612, 3.6592515, 3.4621384, 1.2718059, -2.9603734, -0.71301454, 1.1181694, -0.13210055, 0.5057675, 0.17419131, 5.506865, 3.4269235, -0.9524908, -0.58789146, 0.3451064, -0.4718792, 0.97160625, -0.26648775, 1.5451804, -1.1336044, 0.5317606, 3.0185845, 1.2412391, 0.27061573, 0.8521101, 0.91402787, -0.7429231, 0.23468831, 0.91500574, 0.9081746, 0.33297893, 1.8166801, 0.54204345, 1.6240708, 1.8226728, 1.1917236, 2.61579, 4.5031595, -0.02710479, 3.802013, 0.58421427, 4.7962832, 2.5392988, 1.3048109, -0.06436891, 2.846384, 1.7380066, 3.503183, -2.1390724, 0.61615974, 0.6045546, -2.0786245, 0.036797248, 1.2058747, 0.94040346, -2.3343673, 1.9713832, 0.693911, 0.25409228, -0.21869513, -0.31552798, 0.1610467, 1.4718428, 1.1189451, 3.9074256, -0.18740225, 2.4976044, 2.3063586, 2.0765834, 3.9571252, 0.4273211, 1.3208126, -1.2192894, -0.9019101, 0.41810676, -0.8790769, -0.05361764, 0.8870664, -0.075997315, -2.4303417, 0.15580697, 1.4704425, -1.6566037, 0.08188749, 0.5390416, 0.44464773, 1.2033536, -0.13173066, -0.5705935, -2.3371751, 0.15352531, -0.36417675, 0.9656959, 0.3669309, 0.07995379, 5.483602, 1.0507238, -1.2649044, 2.0360515, -0.67517763, 0.7682637, -0.012586, 0.17515433, -3.8181777, 0.092620715, -0.12430169, 0.24358924, 1.1209664, -0.21300523, 0.8208228, 0.0436554, -0.44631425, -4.355994, -0.097494274, 0.73099, 1.0188794, -0.82933193, 2.433475, -2.3333614, 1.7043397, -0.11201565, 1.216801, -0.8307618, -2.2073593, -0.5631335, -0.025518263, -0.13323472, -0.33369732, 0.5424988, -0.088218205, 1.8714414, 1.8260456, -0.6467979, 1.2724748, 3.5347185, 0.40627414, 2.9640052, -0.35135305, 1.8416014, 3.5581105, 0.16521749, 1.002408, -0.43290713, 0.04768627, 6.7779174, 0.63768107, 3.3512862, 1.3699498, -0.0955281, 1.6130301, 0.37328488, 0.9062194, 0.41056782, 0.4047839, -0.3575193, -0.5163812, 0.8109338, -4.105785, 5.3755274, 1.42097, 0.06285604, 0.04101657, 0.12039937, -0.48389685, -0.2452598, 1.0209011, 0.10443542, -1.7986053, -1.4255261, 0.5252049, 1.0676699, 1.0696446, 0.47561526, 0.13245574, -0.7166989, -0.7376219, -1.0049664, -0.8666946, -0.35609627, -3.2774472, 0.91644824, -2.5182464, 0.13100937, -0.54669803, 2.9650314, -0.9983669, 3.717121, 3.6326904, 1.9628404, 3.9972005, -3.2817028, -2.5023048, -1.5052644, -0.08466814, -2.0276463, 0.7767647, -1.2316959, -1.740659, -0.3887886, 2.0100887, 0.12537234, 3.1042404, 1.454151, 1.6036986, 1.1309377, -1.5010599, -2.1510963, -0.5377713, -0.24158233, 1.0434245, -0.17409234, 0.044872694, -0.8407204, -0.044589058, -1.6939064, 0.31916237, -3.682184, 0.13961373, -2.8558278, -0.15773924, 0.07518078, 0.97694975, -1.9519025, 0.31996298, -0.1813717, -1.0613567, -0.72867644, -1.0900903, 0.76454324, -0.28651544, 0.087064736, 1.3680865, -3.5486848, 1.3745453, -0.058611408, 0.22599128, 0.5142312, -0.99939954, 0.2672603, 0.8268655, -0.17884059, -2.2976272, -0.0630448, -2.014589, -0.26059845, 0.019141816, -1.1403309, -3.2619412, -0.26116127, -3.1375043, -0.023013651, -3.0607967, 0.62981856, -0.4769456, -0.16413851, 1.0136026, -1.8875132, -0.81727797, 1.0420117, 0.4933224, -3.1037407, -0.8410992, 2.3034606, 0.4813472, -2.0334642, 0.35270903, 1.4382809, -1.763432, -0.598076, 0.720246, 0.53444284, -3.1306927, -0.54624575, 0.74381435, -0.6331102, 2.3193107, 0.000594181, -0.007681984, 0.033400055, 1.2674841, 0.33190393, -0.43049133, -0.7148713, 0.09015841, 1.001145, 1.0553002, -2.1071274, -0.6963154, -0.32573527, 2.2259176, -0.23201092, 1.2421756, -0.64171755, 0.026071059, 0.20163253, 0.38785073, 1.406525, 2.040272, 0.075327605, 0.6110037, 0.73400205, -0.019058976, -0.005069785, 1.8871821, 0.35297453, 0.02979188, -0.23104416, -1.017699, -1.0113798, -2.5875928, 0.018007917, -0.7347593, 2.4354312, -0.026178978, 0.9730162, -0.9989215, 1.4466863, -1.722237, 0.9085071, -0.4538731, -0.02759902, -0.99564534, -0.40285438, 1.1777499, -0.10324772, -0.65108865, 0.007324384, 0.25245476, -0.2981787, 0.31332463, -1.1575187, -0.8845837, 0.9133457, 1.122127, -4.517448, -1.9995056, -0.14435878, -0.023576671, 1.5302757, 0.6419843, 0.78913546, -0.5085364, 0.0150457015, -0.017342966, -1.2588851, -2.3946998, -0.5535089, 0.8996341, 0.38444462, -1.365035, -1.0614946, -0.05903086, 1.1325144, 0.28032705, 0.08588889, -0.08327074, -0.7311362, 2.7002308, -3.5393667, -3.0167449, 0.35816267, 0.9904895, -0.322367, 0.45585468, 0.16326629, -0.42923602, -0.7257848, 0.9923323, 0.4331543, -2.3474224, -0.10979027, 1.2242451, 0.37505767, -2.655142, 1.2040192, 0.92436296, 0.7190431, 0.11913576, 0.17231937, -5.9315066, -2.750873, -2.4853327, 0.51430196, -0.9226107, 0.55963016, 0.5988774, 1.5920303, -0.726081, 3.9790797, -1.8005135, -0.15424445, 3.8080072, -0.8514821, 0.68458545, -0.9206056, 1.0583175, -1.8094553, -0.11245664, 1.4689115, -1.1123797, 0.7892424, -1.0640616, -0.40031612, -1.5845842, -3.2201648, -4.0864873, 1.9744117, 1.4434059, -1.8282948, 0.43101093, -0.92013067, 3.526525, -1.9180778, -0.9237835, -0.48409763, -0.19891351, 1.5403078, -0.5718314, -0.86284494, -2.3486893, 1.973688, 2.2211103, 2.706406, -0.27770495, 2.617657, 0.3480895, 1.9129479, 1.4357132, 0.45514017, 1.6689395, -0.65075177, -0.8067101, -1.8644218, 0.9269781, -0.3236182, -0.91535723, -2.2853193, 1.1080616, 4.9632163, -0.35690057, 1.8476764, -3.95794, -1.7001431, -0.52005935, 0.43476576, -1.897854, 1.3631972, -0.5080091, 0.8485979, 0.83528566, -1.7156631, 5.255967, 1.9571576, -0.61267745, 0.050650675, 2.7260869, -3.2175958, 3.4592962, 2.9388144, 0.14342618, -2.3754072, -0.63115644, -0.23513237, -2.1805754, 1.5769466, -2.288491, 0.30839542, -2.7985818, -5.1911693, 0.056821607, -2.3379657, 0.5677788, -0.6063846, 0.7495916, -2.553095, 2.7253911, 0.33660987, -0.38951477, 0.027068758, -2.7552118, -0.41894275, -0.35523325, 0.013233987, -2.3894486, -0.44295523, -0.13014717, -0.5071734, 0.3689004, -0.23827302, 0.4628788, -0.5139228, -1.6279215, -0.19822337, -0.95704776, -0.13440722, 2.4187922, 0.7551231, 0.011536845, 0.2913266, -1.1299415, -0.3555352, 0.05267771, -0.1144026, 0.14126468, -0.29893792, -0.020538626, -1.3745936, -1.8540479, 1.0356754, 0.02830895, -0.08069982, 1.1343416, 1.1507974, 0.20140432, -0.831344, -0.051081467, 0.6617233, 1.8757621, 0.5374876, -1.0990633, 0.24092376, 1.1595491, 0.06640288, -2.4715822, -0.60755396, -5.7253, 0.1139067, 0.4860741, 1.695567, -0.02570836, -0.8170054, 0.59164125, -4.6997547, 0.4476343, 0.11695521, -0.7540145, -0.89207935, 0.8824656, 0.8620212, 0.4711041, 0.016177695, -1.1030924, 0.1746417, 1.222837, 0.68572277, -2.400436, 1.1677536, -1.3762575, 0.35655066, 0.21312293, 4.0948305, -0.5560976, -0.5607899, -1.6289549, 0.7601466, 0.7025072, -1.1877109, 0.21489802, -1.2272111, -1.5594767, 0.40852383, 1.021754, 0.99943024, 0.99724096, -0.14716871, 0.21708708, 0.7362957, 1.4061056, 0.8189004, -0.60205007, -3.0330136, 0.7770019, 0.7085694, -4.4639854, -1.8887739, -0.04162753, 1.6933016, 0.39937037, 1.2534423, -1.9608471, 0.8495245, -1.455562, 1.5153, 1.0727948, -2.448383, 1.0455996, 3.3299022, 0.63929254, 0.40251586, 4.5768876, -1.212222, -0.9767486, -0.5308523, 1.2021112, 1.9523596, 1.0582501, 0.9971091, -1.3572816, -0.86884946, -1.6852701, 0.46258804, 1.0152172, 0.28241396, -0.1658097, 0.41031668, 2.1639338, -3.7317667, -0.54800916, 0.2440262, 0.6248083, 0.20587608, -4.382318, 1.5422529, -0.5498864, -1.5948436, 0.03354547, -2.8826525, -0.2919013, -0.47137907, 0.24298058, 0.23469928, -0.821177, -2.5541565, -2.7615783, 0.04222196, 0.98864204, -1.5363176, -0.93750876, -2.274609, 0.3247755, -0.18188842, 0.8758791, -3.7912822, -1.9788328, -2.9631846, -2.2038767, -0.516739, -0.8244996, -0.1688634, 2.4098094, 0.12095957, -0.754214, 0.20419209, -1.0776762, -0.82073754, 0.7105904, 0.37459278, -0.46278542, 2.6972926, -0.61334133, -0.41110158, -1.6875062, -0.21625279, -2.0439224, -1.4413915, 0.6643289, -0.6878161, -0.14728895, -0.015075798, -0.90141976, -0.46579745, -2.412931, 1.9094003, 0.84145796, -2.3425505, -0.067583054, 1.650998, -7.0478024, -0.117396906, -0.55672646, 1.0366526, -0.46584108, -1.1590734, -0.11335262, 0.7461649, 0.9312963, -1.4866413, 0.6475768, -0.013301655, 3.7420905, -0.14583321, -0.11706306, 0.5392386, 0.4753771, 0.24756111, -0.124876976, -1.489887, -0.18783103, 0.17020907, -0.24797435, -0.17362356, 0.33507216, 0.32200468, -0.023510633, -0.066262364, 0.09860742, -0.86794364, -0.27481937, -1.0291564, 0.04851877, -1.072686, 0.1198822, 0.058239453, 0.68334043, 0.048714973, 0.043111883, -0.64694864, 0.008047338, -0.19134632, -0.14369814, 0.007034678, 1.0272613, 4.6174855, -0.08700546, 0.2736729, 0.18455268, 0.54586464, -0.6068842, 0.26789948, -0.8626457, 0.0974608, -0.31369245, 0.040279765, 0.03294562, 0.14480945, -0.41778794, 0.020571252, -0.31934223, -0.045831226, -0.51176196, 0.832179, -0.29841524, 2.1070344, 0.74046755, -0.77066237, -2.5133138, 1.0314367, 1.1558663, 3.6129625, -0.51939464, 0.81779593, 0.49234793, 1.0380664, 0.12591098, 4.398538, 0.8385251, -0.27816406, 1.2287431, 0.5078356, -0.18067718, 0.49473172, 0.39552337, -0.026372598, -0.30243844, 0.04734057, 1.3990934, 0.09823046, -0.8610368, -6.0328174, -1.0707098, -0.55828124, -0.020522213, 0.1510785, 0.11437558, -0.106770955, 0.11033371, 1.6240629, 0.6113024, 0.008322013, -0.70044506, -0.09421463, 1.3942854, 0.38042971, -4.2663627, 0.039523326, 0.68558836, 1.1154908, 0.95907384, 0.8621101, -10.660945, -1.1231186, -1.6295544, 0.9979335, 0.8316696, -1.7827089, -1.5562129, 0.9076012, -1.0198358, -0.13217944, -0.6670251, -0.6734738, -3.2578628, -0.8346144, 0.8910039, 0.22910544, -0.04276695, 0.7739322, -0.57301193, 1.5334541, -1.3205262, 1.2913741, 3.0837543, 2.1169014, -0.3539593, -0.3215689, -0.4090682, -0.05708371, -0.66479945, -2.7095606, 0.7589167, -0.16258085, -0.117629185, 1.0642675, -0.9885663, 1.6097233, 0.25012773, 4.055366, 0.040229723, 0.21165241, -0.25406525, -0.34791467, 0.06080766, 1.6407932, -2.5022423, -0.21679552, -0.74040556, -1.4176958, -0.5890759, -2.52264, -1.1771027, -0.072628364, -0.388691, -5.948226, 1.1955668, -0.116397515, -0.25816625, -0.12014106, -1.3340532, 0.116417244, 0.042792168, 1.5929925, 2.42285, -2.5710804, -0.3600823, -0.37086633, 0.7927768, 0.6291235, -0.6545437, 0.9558359, 0.4231523, 0.11855496, 1.1499714, 0.18259707, 0.6536946, -1.9342355, 0.2916435, -1.0965496, -0.047015738, 0.6892383, 0.9627371, -1.8694323, -0.17165093, -0.063953735, 0.3711755, -0.73632807, 0.6638524, -6.223804, -4.254103, 2.3733275, 0.12786822, 0.06982646, 0.027005503, -1.6871421, -1.0916493, -0.28677517, -0.7373009, -0.22496356, -1.0767392, 0.01830197, 0.3102753, -0.21724226, 1.3252796, 0.716365, -0.9368899, -1.1968485, -0.7216505, 1.2420523, 0.015552882, -0.09852663, 1.5619524, -0.0076848865, 0.24698354, -0.91184276, 0.8353294, -0.30170995, 4.010832, 1.7357407, 1.1159456, 2.4781284, 0.07577317, 0.6119765, -0.02616432, 0.10635906, -2.4365218, -0.64115256, -0.0010512853, -0.003260951, -3.5447562, 0.14451128, 0.71130866, 0.1136905, 0.04678974, 0.36227277, 0.14057708, 0.1311911, 0.22892456, 0.5740253, 2.0898736, -0.117056124, 0.3877124, 0.113197096, 0.660777, -0.96323913, -1.549625, -0.21677212, 0.59654635, 0.09600392, 1.1025591, 0.49189436, -0.33002585, 0.87719375, -0.1131882, -0.64426345, 0.6970646, -0.16703576, 0.48711097, 0.24047011, 0.23868285, 0.45826265, 2.8951123, -0.17013128, 0.7317476, -0.6111962, -0.6572424, -0.67289037, -1.9128728, 1.5049856, -3.659819, -0.119556464, -0.349361, -0.4679972, 2.4524477, -0.27922463, -1.0321252, 0.31958145, -0.5504719, -0.2133355, 0.41762283, -2.3434198, 1.0847162, -0.6706148, -0.32201615, -0.37831587, 0.09027595, -0.4572054, -0.8430941, 0.38609204, 5.0322657, 0.23178297, 0.9864822, -0.5429856, -3.1285198, 0.19399698, 1.70801, -0.6790458, -0.95554626, 0.7453111, -0.9504929, -0.65333617, -0.46347535, 0.60006994, 1.5163356, 0.050840583, 1.9874662, -1.1726266, 0.346963, 1.4015536, -2.1501942, -0.1568998, -1.8063663, 0.27066666, -3.433369, 0.76907116, 2.0869136, -2.3991902, 0.16646911, -2.459615, -0.007942761, -1.2761223, -0.3610314, 0.3310155, -1.9804562, -1.3236437, 0.64926475, 0.48538262, 5.238866, -2.7085357, 0.3499077, -0.9694725, 0.60151714, 0.05595822, -1.5526131, -0.66570497, -2.1880069, -2.082896, -0.2615073, 0.79749495, -1.404707, 2.745905, 1.755689, -0.8981188, -2.0500114, -6.454386, -0.020866437, 0.031840637, -0.43038127, -0.064411156, -0.68997854, -1.5341005, -0.4181954, -0.36533394, 1.5730593, -2.1529582, -1.1797154, -1.990661, 2.1977103, 3.341537, -0.92052424, 0.606866, -1.7492763, 1.7686852, -3.197632, -1.9899925, -2.0667396, -2.6375074, -2.747351, -2.8225565, 0.59238845, -1.0211009, -1.1677065, -0.07260416, -4.8398094, 0.3178149, -1.605279, -0.37221557, -0.5629857, 12.656181, -2.208106, -4.619933, 0.029903688, -1.2815726, -2.6005197, 0.20020242, -0.008109806, -0.9975304, -0.97911114, -1.8369857, -3.8324199, 5.5518193, -2.6984906, 0.83304554, 1.0925747, -1.0423256, -2.3841968, 0.67282397, -0.9702528, -0.34457752, -0.60134894, -0.000710556, 1.2696066, -0.47091264, -0.33479702, -0.5573153, 0.24482895, -0.23307729, 0.08917522, 1.1814921, 0.40565255, -1.2048262, -0.21109398, -0.0516647, 2.3560877, 0.6625655, -0.6120452, 0.020701516, -1.9430655, 0.5941495, -2.539854, -0.4164071, 0.8369284, -0.74412805, 0.012273252, -0.18397376, 1.2702994, -0.47801942, 0.16389209, -0.71701515, -0.75332713, -0.025269661, -0.008802857, -0.047153037, 0.6666918, 7.120218, 0.23944442, -1.4900883, 0.71690553, 0.28716582, -2.6231687, 0.6966348, 0.14759329, -0.020896127, 1.0124165, -0.7725883, 1.2042489, 0.28576753, -2.0705771, -0.006812035, 0.3906019, -4.559966, -0.8436041, -3.6095285, -0.2866657, -0.8808671, 0.16273943, 0.83090097, -0.28573313, 0.6050649, 0.2881502, -0.34594217, -0.060253847, 0.6030378, -2.5374448, 0.17944336, 0.73519903, 2.1010678, 4.1657743, -2.27782, -0.19021487, -0.29463854, -1.1520228, -5.1961756, -3.3759553, 0.37741, 0.42950335, 0.92674696, 1.2802349, -2.9547958, 1.6300632, -0.60553515, 1.0150999, -0.48478633, 0.16359957, -0.5329636, -0.43123457, -1.91959, -0.7856981, 0.5596692, -1.5430735, -1.3940654, -1.1552774, -4.6060586, -0.48900205, 0.001080471, -1.4172683, -1.1750984, -1.138285, 0.22418024, -1.2674643, -0.65751106, 6.0326357, -0.8878987, 0.8616187, -0.24270847, 0.45166302, 1.912065, -1.1629187, -0.16121121, -1.6544431, -1.3043302, -0.94121873, 0.44527623, -3.8255038, 0.3818437, -1.0508101, 1.7656748, 0.25590554, 0.91784155, 0.21985592, -1.0693102, 0.22581825, -0.96596706, -3.3479722, -3.4133108, -0.38026762, -2.5603502, -0.21479255, -1.209019, -0.30983087, -0.7896065, -0.106488526, 3.7024517, 0.7831029, -1.941104, -0.15210654, -0.15031275, 0.44943708, 0.70531744, 0.07738205, -0.12627955, 0.12596685, -0.59408504, -0.24717404, -2.6135159, -0.020730471, 0.5483293, 1.738771, -0.35057512, -0.92553735, 2.0877397, 0.533423, -0.13027444, 1.2272654, 3.8450024, 2.2307038, 2.0818143, 0.54049504, 1.1447945, 2.57722, 0.09951019, -0.059149705, -0.6606249, -2.3562212, 4.1210685, 0.20935059, 1.1962634, -0.27703202, -0.11036411, -0.50123453, -1.7974046, 0.115236655, -0.79442143, -0.19332615, -0.51758724, -0.37326285, 1.3788987, -0.5759281, -0.6451277, -0.30892706, 0.3879927, 0.3950835, 0.2889045, -0.4041074, -0.5924477, 0.6913756, 3.5703561, -0.11278591, 0.3434362, -0.15517518, 2.196276, -0.64553684, 0.19646919, -0.63927054, 3.6737444, 1.1505978, -0.4851814, 0.90895706, 0.4834221, 0.072759695, 0.073315084, -1.1897869, 0.909344, -1.5161853, -0.10960585, 1.8561991, 0.16175027, -0.29088712, -0.39097282, -0.34755, 0.85770327, -1.7180822, 0.54205084, -0.7185418, -0.32095522, -0.533517, -0.14137049, 0.4917183, -0.378674, 0.08457929, -0.68535846, -0.8902239, 0.026581494, -0.0066762525, -0.26446334, 2.017312, 0.63708544, -0.14326908, -0.1854505, 1.6830893, 0.22474442, 0.71349454, -0.066543, 0.38078484, 0.3628138, 0.5710882, 0.859421, -0.8701576, -0.735977, 1.4643348, -0.1956629, 0.6681419, -0.14856817, 0.23314801, 0.49095237, -0.6533291, 0.010366266, -1.0396812, 0.018439857, 0.5008243, -0.40225646, 1.934026, -1.2857836, -2.1607199, -0.34608537, 1.6836723, -1.3375511, 1.0033711, -0.25784004, -1.5276064, -2.6091683, -0.8934256, 0.15162413, 0.648737, -0.20447099, 0.64345825, -0.70678574, -0.47460592, -1.2578763, -0.37419283, 2.7529364, -1.8511397, 0.09208034, 0.66834795, 0.014989419, -0.34148312, 0.17897284, -0.84783185, -0.24004935, -0.977126, 2.1927025, 0.06783771, 0.012214097, 0.037362445, 0.84793097, 0.42753768, 1.3827077, -0.7147624, -0.97143614, -4.684398, 0.46955606, -0.96373963, -1.0542852, -0.16827632, 1.7955091, 7.4418864, 1.0587183, -0.24403013, 0.5372064, -0.75659823, -2.886715, 6.6218586, 2.4228418, 2.1120062, -0.1031698, 2.654484, 2.082724, -0.08596418, -1.6211252, -2.2424843, 0.48889524, -2.2472334, 4.908709, 3.017857, -2.8879797, -3.326384, 0.0923458, -0.8084541, -1.3326603, 0.17040768, 1.3999213, 2.1872008, -0.2660182, 4.5907974, -0.488047, 0.7374197, 0.40448835, -0.62219447, 3.6860008, -1.3974167, 1.3852262, -1.2348623, -4.3554783, 0.6478148, 1.0897079, 0.8082897, -0.14968836, -1.5134165, -1.5726111, -0.17737713, -0.11887082, 7.9036174, 0.41002542, 0.14617887, 0.36493057, 5.139064, 1.2503947, 1.0531887, 0.41281778, -1.0765648, 9.209567, 1.5536373, -0.66440433, -0.5913995, 6.567481, -1.8462338, -1.7134858, -1.3313864, -0.22882544, 1.5494237, -0.33604547, 1.8946848, 0.98349786, -0.9892563, 2.8736985, 1.3793246, -2.5406616, -1.856701, -0.9111325, 2.5131, -0.98533714, 3.9418502, 1.3543239, 0.6931776, 0.005995766, -0.07188061, 2.171878, -0.92054754, 2.088817, 1.988698, 0.40956205, -0.9317797, 0.42562717, 0.6894455, 0.71413565, 2.6966386, -0.38089922, -3.897309, -1.4770899, 4.251393, -3.7760637, -1.8491629, -0.92316854, -3.25144, 1.1807717, -0.80376655, -1.7464852, 0.14795402, 0.03565556, 0.7593132, -0.12395256, -0.85768205, -0.19465417, 0.059186243, -0.46967423, 0.032616273, 0.35199857, -2.2907753, -1.3356049, -0.29017934, 1.0287126, -1.4827529, 0.2482586, -1.2691047, -1.1999649, -0.4291066, -0.53085715, -2.1612744, -0.028546074, -1.3240857, -2.3022513, 0.2825766, -0.879464, -0.1786676, 0.12944503, 2.0396526, -0.36219355, -0.102421634, -0.15144545, -1.5348967, 0.5578632, -1.577798, -0.0017152932, 0.11962945, 1.8382281, 0.0016602724, -0.5549897, -1.1019334, 0.45375183, 4.824068, 0.23193783, 2.6686697, -0.116413966, -0.69826406, 0.849549, -0.3071643, 0.756477, -0.32555676, -0.07852366, -2.6592996, -1.8561579, -0.064069055, -2.7266161, 1.6456366, 1.3537792, -2.6457198, -0.22577804, 0.2873746, 0.5315181, -0.36733714, -0.90388376, 0.6802075, 8.127971, 2.3375802, 1.9931878, 0.7584936, 7.0250816, 0.7697503, -0.5557876, -3.259279, 0.91067773, -2.266997, 1.7348323, 1.3522292, 0.08424073, -0.8964792, -0.16494112, -0.741657, 0.77849275, 2.9223795, 0.5367583, 0.76600724, -0.4265896, -1.2226102, 0.982515, -0.01620285, -0.769368, 7.8396425, -1.978003, -1.4083191, 0.0834447, -1.6060538, 0.7949062, 1.7388182, -1.6154099, -0.5901461, 2.5210106, -0.15063722, -0.26345143, 0.09460912, -0.6345457, 2.3837311, -0.35155258, 0.34651121, -0.031016232, -0.2948603, -3.0175648, 0.047001157, -0.40770444, 1.5959147, -0.31736153, -0.44805408, -0.106554106, -2.1177704, 1.0318006, -1.8106344, 1.8306177, -0.42076075, 1.6084522, 0.21230003, 0.41277376, -0.5101628, -0.23331746, -1.5413439, -0.17325413, -1.9758476, -0.42788243, 0.2723119, 1.6898491, -0.4565235, -0.5233939, -0.36496302, -1.2366108, -2.8357882, -0.055096276, 0.5829817, -0.048802324, 0.7066864, 0.0061833607, 0.027946923, 1.0989416, 0.23382743, -0.72550607, -0.23591518, -0.39522782, -1.4057897, -0.25943995, 1.496301, -0.30140495, 1.1891744, 0.16111955, -1.3624394, 0.13232319, 0.41725257, 3.134041, -2.727589, 0.8602708, -0.6456366, -0.4979792, 1.9196008, 0.052718442, -0.84122956, -0.77685297, 0.9878369, -3.3920546, 1.6133492, 0.24489646, 0.31037253, 0.34907356, 3.373517, 0.62045497, 0.09087754, -0.37457442, -0.8545844, -0.3678779, 0.10945931, 0.6379356, -0.44263324, 1.9856969, -1.041132, 0.4730131, -0.42732212, 0.44923759, -0.5050929, -1.6795468, -2.1606476, 1.1465337, -0.8155317, -0.5885987, -0.66357255, 0.033016603, 0.3756169, 0.65801036, 0.6222101, -1.4840641, 0.8219988, -0.42858133, -2.3939595, -0.52280766, 0.16630794, 0.0722216, -2.5854464, 0.11990687, 0.98205465, 0.08604894, -0.8101713, -0.46827346, -0.06883913, 0.4562133, -0.1343887, -0.07830071, -0.9960469, -0.11001818, -0.40335804, 0.67918307, 2.0351663, -0.030290958, 1.2045227, 0.45388323, -0.63675165, -0.42990527, -0.27564466, -0.7479564, -0.028276771, 0.037041727, -0.8968223, 0.6284097, -0.06852361, 0.09421829, 1.2800602, -0.5856107, -1.3869472, 0.008303784, -0.085123, -2.1856294, 0.48775175, -0.29188085, 0.9047386, -0.3780131, 3.3682399, -2.1009007, -0.31879985, -0.058762025, -0.122603476, 0.119558126, 0.08955882, -0.1993962, -0.10467695, -0.1298633, -1.5721548, -0.39017707, 0.1264087, 0.7191246, 0.51579666, 0.8731616, -0.0044003897, 3.1767502, 1.2630423, 0.13551214, 0.039832417, -1.6773767, 0.2687089, 0.0078018643, -0.5129572, -0.11191577, 0.3337782, -3.0091043, -1.5520682, 1.335921, 0.37649608, 0.006522921, -0.556416, 0.40991086, -0.9900863, 0.87220865, 1.1627046, 0.6270055, 0.20217477, 0.4498047, 2.0585425, 2.793461, 0.3760668, -0.09853148, -0.29887563, -0.23498136, -0.46714982, 0.035532754, 1.2175288, 0.47930047, 1.0715516, 0.13818803, -0.02333546, 0.63289386, -0.28042665, -0.04546721, 3.487005, 0.09646081, -0.7576843, -0.030441921, -0.6687568, -0.24758898, 6.775141, -0.36703292, -0.00409589, 0.46746182, 0.8889176, 3.4577074, -1.7653418, 0.9904857, 0.051003717, -0.2526393, 1.1921444, 0.68793577, 1.3235497, -1.4473342, -0.44151857, 2.5795412, 0.102462, 3.1264894, 2.5996401, -3.3797026, -1.2392118, -0.57578623, 3.5901263, 3.7155833, 0.24226178, -4.6314263, -1.0400096, 3.8839371, 0.3228388, -3.0592358, -0.41652334, 4.3115225, 3.2108061, -1.8630971, -0.7082257, 0.39693022, 0.6321596, -3.1967554, 1.1428552, 1.1432606, -0.21326476, 0.46382335, 1.3497821, 0.7588146, -0.28211847, 0.07994912, 0.16734943, -0.6336407, 0.9523448, 2.468935, 3.4243443, -0.38728362, -0.53885436, 2.788489, 2.2665803, 0.36070532, 1.2681596, 0.23822585, 1.1366647, -0.21566479, -3.0320227, 1.8772599, 4.7180634, 3.735704, 1.0960443, 0.14842218, -3.2787054, 1.4526418, 1.5912323, -6.3415594, 1.3917898, -1.8600504, 2.8208678, 0.5441087, 0.84280884, 1.1156867, -0.27574664, 1.3783262, 2.2671876, 1.6241022, 0.071788624, 0.12695457, 1.9908837, -0.89615244, 6.9160337, 6.067254, 1.8382752, 3.274627, 2.5409482, 1.7271087, -1.3551241, 0.20494121, 3.1326544, 0.53881687, 2.6146083, -0.7741603, 1.8633025, -0.7647587, 1.7569454, 0.10329479, -4.1916957, -0.23277378, 1.055471, -0.9032115, 3.0466158, -0.28653356, 0.0044757985, 1.4995294, 0.16573295, 2.8636608, 1.6663473, 0.025895247, -0.8141918, -0.4046643, 2.4155273, 0.0012311015, 0.6448848, 1.5521846, -0.5638275, 0.2339769, 0.43735957, -0.39030343, 0.035433717, -0.026503844, -1.439673, -0.3088957, -0.07095638, 0.96414495, -0.43056348, 0.84866863, -0.53045523, 0.02835075, -1.7219124, -1.1582061, -0.37207544, -0.5335349, -0.58260405, -1.4887978, 10.626635, -0.5922679, -0.4205524, -0.0894417, 1.0762885, 0.72127193, -0.35410395, -0.3976965, 3.532844, -0.050799537, -0.39540577, -0.8272371, 0.3415653, 0.76162094, -1.6953037, 2.1330335, 1.7401751, 1.0680828, 0.15900482, -0.9053005, 0.21282199, -1.3179724, 1.4440925, 0.37218475, 0.060741268, -0.1369945, 0.38161007, 4.332286, -0.050197907, 2.2080195, 0.33665335, 1.4906619, -0.50506055, 0.8695116, 0.12576115, 0.6642838, 0.020727329, 2.940237, 0.25731203, -0.44868436, 0.86790967, -1.6800982, 1.1534545, 0.9385493, 0.30328974, 0.20084256, 0.5083356, 2.7162726, 0.6504298, 0.8519262, 6.0312867, -1.0777576, 0.15408999, 2.3689132, 0.51380515, 0.8429901, 7.176894, 2.338064, 0.20481342, -0.0036846898, 0.507681, -0.16272244, 0.03248615, 2.6125722, -2.3996942, 0.37233958, -2.874713, -1.5596184, 0.097822055, -2.5480323, -1.7296716, 0.24636398, -2.1353445, 0.4307676, 2.6364095, 0.6490506, 0.05833648, 0.26991472, -0.75014466, -3.48373, 3.7665288, 0.40505886, 0.38697046, -1.6206502, 1.9809719, 1.1186508, 1.1274259, -3.1728752, 0.8990596, -1.9670204, 0.14456034, -0.38102728, -0.15889953, -4.203378, -1.5900961, 0.20637998, 0.39924616, -2.8281019, -0.3689405, -2.6227007, -0.41494682, -0.101938814, -0.005657407, -0.6342312, 1.1528873, 1.2860873, 1.8229814, 0.14388424, 0.2370686, -0.4236615, 0.13596746, 1.2583146, -0.5779478, 0.37541598, 1.6102558, 1.4125452, 2.038714, -0.07055543, 0.9518842, -2.9727178, 2.0042589, -0.7793339, 0.0035393732, -2.4399402, 1.2799678, 1.438835, 0.74848104, 1.991957, 0.5453543, 0.94455695, 1.5517318, 0.32722396, 3.685473, -1.3090959, 4.6550417, -0.6766964, -0.30515882, -1.4927846, 0.2795438, -1.9094912, 0.7117509, 3.167299, -0.5220936, 0.9821694, 0.8421367, 0.6972457, 2.3308709, 2.1767087, -0.8170272, -0.58909744, 1.3931608, 1.3178347, 0.467988, 3.1359406, 2.7734103, 0.52851814, -1.4733214, 0.20699844, 1.9508437, -0.1052252, 1.9487432, -0.025574053, -2.0224223, 0.2080868, -0.3273384, -0.10273898, -0.32831076, 0.71569955, 1.1099702, 1.6561556, 0.2975659, -0.397904, -1.3594766, 1.0345598, -1.3317897, 1.6094735, -0.65754485, 0.16338412, 1.2363963, 0.14869717, 1.7489436, -0.013800129, 0.34938768, -1.3311665, -0.0037629646, 0.09438323, -1.589344, -0.87474203, -0.053983282, 0.70593643, 0.16346179, -0.67000085, -0.0034272417, -0.0545895, 0.25341126, -0.45028725, 0.14054446, 0.3831424, -0.078024484, -0.92619985, 1.4029938, -1.8302643, -1.5699465, 0.10602231, 0.31380078, 1.3464382, -0.9009991, -0.9441331, -1.167555, 0.048340287, -1.690554, 1.6039151, 0.021770755, 0.4121686, 0.75728554, 1.3720115, 0.3946689, 1.7357329, -0.12623714, -3.101634, -0.9304866, -1.8232566, -0.6548293, -0.28805137, -0.099757336, -0.54152656, 0.3361851, -1.5822643, 3.7576163, 2.7319682, 0.29527983, 0.16959606, 0.6474567, 4.5719185, 0.15988648, -0.12704132, 0.34531975, 0.3065113, -1.4569793, 0.16511464, 1.6120577, 0.92943233, -1.1355414, 0.07612459, -0.09082794, -0.19634539, 1.3687679, -1.598327, 0.56138176, -0.1488386, 2.3769505, -1.388935, 0.51379406, 2.50921, -0.1721515, 0.44668302, -0.41315442, 0.7850116, -0.08563366, -0.43704775, 0.320771, 0.102317385, -0.616405, -0.87379885, 0.36686414, 0.60091794, 0.23787053, 0.78436494, 1.1589056, 1.1340858, -0.23317584, 0.05893005, 0.49136105, -0.84260094, -1.2859528, 0.41782627, 1.0695554, 0.23859853, -0.006468806, -0.18077856, 0.16238007, -0.68721616, -1.2759165, -0.3223274, 0.09857589, -0.20222424, -0.9453125, 1.2114874, 2.5011215, 0.9162467, 0.21406199, -0.45005813, -0.018331533, -0.027741468, -0.0820389, -0.8575374, 0.7812586, -1.757635, -0.19986379, -2.1682897, 0.7149067, -1.1362385, 0.23251371, 0.09827193, -2.5134072, 1.441194, -2.87296, 0.14802451, 0.60303074, 0.3326766, -0.42738256, -1.6426086, 0.9560548, -0.06903021, -1.1101543, -1.7157993, 0.2988176, -0.83152854, -2.2037454, -0.5192737, -1.2667141, -0.15930033, -1.5235082, 0.59191483, 0.9756383, 0.0048235273, 1.9899621, -1.0124843, 0.8651451, 0.5778599, 0.92887425, -1.0264366, -1.1783665, -0.413662, 1.0186334, -0.48216164, -1.7258191, -0.34959164, 0.5399653, 0.047164153, 0.6279349, -1.0069412, -1.2417872, 0.2372803, -2.4520054, 0.002998089, 0.66444606, -1.1879259, -0.46568903, 0.23522834, -2.388843, 0.27166572, -0.49279204, 0.2975915, 0.40964797, -0.27926362, -1.2826253, -0.17753331, 0.71714437, -0.41213384, 0.2995464, -0.004226549, 2.5806985, -0.14487794, 1.6529434, 0.2906299, -1.6109568, -1.5608829, -0.25856474, -0.40209877, 0.22096273, 0.42557752, 0.07825749, 0.07039691, -0.8933213, -0.5185173, 2.759898, -0.41342604, -0.79074705, -0.59253544, -1.2098823, 0.66435003, -0.2762782, -0.6022828, 0.0012452303, 0.10757209, -0.46243683, -0.42482808, 0.14086309, -1.2077076, 0.7281211, -0.050873037, -0.22646016, -0.043393213, 0.6933886, 1.6784726, -0.043516133, -0.48219448, -0.4312183, -0.121931426, -0.89212084, 0.240138, -0.086733624, 0.055584144, 0.865876, 0.32669255, -0.5645203, -0.81355673, -0.7703348, 0.12352121, -0.6442724, 1.4866831, -0.44171715, 0.591237, -0.8518647, 0.7516387, -0.49210465, 1.7071131, -1.7179552, 1.0145127, -0.23418619, -0.06749107, 0.45918494, -0.28733197, -0.23152842, 0.21913938, 0.2013668, 3.7529912, -0.18199433, -0.37103802, -0.02629599, 0.8970002, -0.6182615, 1.5005008, 0.31996867, -0.67251766, -0.103496194, -0.031703137, 0.94851595, -0.072006024, -0.44263807, -1.8330113, -0.07489042, -0.07224852, -0.39912048, -0.10880505, 0.112741046, -0.45102072, 0.36922783, 0.10845053, 1.0277584, -0.5484249, -0.69189805, 0.056233965, -0.22605306, 0.4607223, 0.19784492, -3.3125086, 0.5902419, 0.61425287, 0.6980554, -0.24771994, -2.9225457, -0.09691873, -0.26089835, 0.35458964, -2.6513867, -1.9444581, 2.0802476, 3.2953963, -1.536217, -0.619811, 1.5883276, 0.82978594, -3.3897977, -2.3747919, 2.329908, 0.72887415, 0.44013977, 9.035979, -3.8982668, -1.6737761, -1.2224221, -0.36318877, 5.099124, -1.7490382, 3.158864, 1.4225405, 1.6428397, -2.8294086, 0.82973665, -1.8352139, -0.68870497, 4.632427, 0.50152105, 0.85746294, -2.5859303, 2.9630864, 2.544877, -3.164607, -5.701806, 1.6177497, -1.4591651, -1.0773908, -0.9536481, -0.74471176, -2.2426167, 1.4101264, 0.7243476, -1.8701712, 1.485483, -1.3411496, -2.5933022, -0.20740291, -0.1800955, -1.8513523, 0.10136457, -1.4290534, -3.516142, 1.997678, 0.19530644, 0.39726636, 0.244625, -3.138792, -0.8092833, -1.3466957, -1.24502, 3.3149571, 2.7552187, 0.11337892, 0.3196883, -0.66379327, -1.2745104, 0.2130098, -1.529925, 1.0459578, -0.07667917, -2.0325272, -0.50610644, -4.297976, -0.8137694, -0.037393775, 0.1299251, -5.0520673, -0.7281137, -0.6461141, -1.8965245, -0.39870903, 1.0525819, -1.6004369, -0.14539391, -0.25843206, 1.685303, 0.15455884, 3.175597, -0.58111185, -1.4277894, 2.3114138, 2.431927, -2.212085, -0.53217643, 0.0067621786, 7.17902, -0.09856221, 1.0306679, -0.6648034, 1.4744519, -1.0582849, 0.18555552, 1.3794336, -0.8182499, 0.007095439, -1.2642083, -0.015029745, 0.42717096, -1.0022414, -0.40607354, 0.58745974, -1.3234285, -0.12609792, -1.054174, -1.075658, 0.19807258, 0.10288705, -0.048595775, -0.20130776, -2.0741198, -0.11882211, 0.024482736, -0.16928478, -0.6636765, 0.09897665, -0.0659578, 0.09546445, 1.4173887, 3.3158302, -0.29372698, -0.3148909, -0.5335785, -0.55638695, -4.7675276, 0.029789696, 1.1774384, 0.054685418, -1.1442456, -1.3509204, 1.0054773, -1.414026, 1.9963031, -0.17066167, 1.7735646, 0.99271965, -0.45585433, -2.4680035, 2.2817733, -0.06373283, -0.83954346, -0.6734988, 0.97855616, 3.924177, 0.022826487, 0.24711423, 0.44912547, 0.08299779, -1.2773124, 0.38534126, -0.15975033, -5.137077, 0.341983, -1.1583649, 1.3589573, 0.0017282343, 0.8449083, -1.8245085, 3.684192, -0.44383374, 1.2381618, -1.5448344, -0.4769616, 1.4645414, -0.32144436, 0.6504998, 0.13496284, -0.57470787, -0.33266404, -0.16028602, -0.57461, -5.5697284, -2.4230256, -5.353349, -1.5901655, -2.5260856, -2.322314, 2.1250722, 0.118774995, -1.1137354, -3.652075, -3.4827826, -0.489087, -0.2987695, -0.4430404, 0.78049153, 3.2423556, 0.4859891, -0.9009515, 0.60392565, -1.1232169, 1.5054957, -1.1534249, -0.29113954, -0.7144886, -1.051637, -1.1163381, 0.62037176, 0.44963488, -0.5955138, -0.14487678, -0.07268867, -0.17792416, 1.2665797, -0.17849238, 1.632926, 1.7666191, -0.042677272, -0.1945825, 0.36778745, 0.28797, -1.6709105, -0.53749925, -0.5163529, 0.31448153, 0.38054556, -0.39768264, 0.41195872, 0.6830279, 0.06466522, 0.24387896, 0.85466564, -0.3718731, 0.2668515, 0.16615151, -1.075071, -0.34820387, 0.016858993, -0.17908017, -2.1227927, -0.1575859, -0.7985825, -0.5658826, -0.10761737, 0.2972455, 3.0291023, 1.4281099, 0.0035862683, 2.2319856, 1.8207484, 1.9308437, 0.4805713, -0.5663628, 0.17954867, 0.3643031, -0.16851573, 1.0316864, -1.0155588, -0.041630927, 2.5400455, -0.6814151, 0.94549584, 0.84195244, 1.7917819, -1.439255, -0.49297443, 0.054890763, 1.9187676, 0.92341995, -0.31978443, 0.47664484, -0.32742226, -0.19538057, -1.2835671, 0.7340579, 0.30835173, 1.1083685, 1.6973774, -0.5511368, 0.40087354, 0.11987196, 2.1968324, 0.028870134, 0.92836356, 1.5406475, -0.79759043, 0.391513, 0.58529127, -1.8319843, 3.176613, 0.98886585, -0.80771977, -0.5768767, -0.11816776, -0.7056969, -0.031229246, -2.7331202, 0.15604538, -0.9497141, 0.5840892, 1.5571171, 1.7903944, -0.63099474, -0.70564675, 0.20230208, 0.2621047, 0.22364603, 0.08253298, 0.6384016, -0.23505741, -0.47194102, 0.15576607, -0.6677115, 0.40329665, 0.6126465, -0.66015875, 0.59001625, 0.62533647, -0.008187347, 0.16888356, 1.2791872, -0.33671963, -0.07438744, -0.15410103, 0.57622737, -0.041451287, 0.19816741, 0.067821875, 0.26973188, 0.93896794, 0.101973645, 0.6050455, -0.62490207, 0.07520301, 5.1506143, -0.08120841, -0.045370076, 0.0012906062, -0.19367401, 0.5351561, 0.16593291, 0.42144114, -0.7284768, -0.065516464, 1.0189201, -0.3160851, -0.7611357, -0.5551744, 0.69489473, -0.2091898, -0.48111233, -2.9450479, 0.9552082, 0.43640855, -0.9724479, 1.2934898, 1.5357629, 0.40214112, 0.16033465, 0.2434969, -0.098425284, 0.8457273, -0.44551274, 1.1350542, -0.7427892, -0.28342167, 0.38762134, 0.15969072, -0.18733142, 0.24419022, -0.5220202, -0.1667374, -0.80682975, -0.7104775, 3.88983, 1.8450571, -0.40408674, 0.19424729, 0.22332415, 0.23179163, -0.18222205, 1.3136092, 0.07085481, -0.5512282, 1.0904245, 0.6804227, -1.9129592, -1.5339116, -0.5199654, -0.05641683, 0.6843341, 0.9644094, -0.044146754, -0.07222269, 0.38858184, 0.5762397, 0.5176141, -0.23666288, 2.3226051, -0.11010517, 2.3425477, -0.35752848, 0.48420855, 0.07621459, 1.292526, 0.015724787, 0.90712047, -1.0456522, 2.9181416, 1.0926571, 0.9797037, 0.84730035, 0.3460612, 0.23334384, 0.41856065, 1.3257666, -2.0769804, 0.7628266, 1.0616872, -0.50882083, -1.5055684, 1.2896456, -0.23917477, 1.4833044, 0.62608576, -0.8827587, 0.1772843, -2.2598646, -3.2858574, -1.234522, 0.69693303, -0.12174581, -0.16387103, -0.08494207, 1.3292811, 0.44453463, 0.68012613, 0.6482568, 1.3410128, 2.1266794, 0.1883285, 0.42493215, -0.89463234, 1.6756878, 0.05009848, -1.0631322, 0.38893038, -0.14344132, 0.20929894, -4.646483, 0.390537, -0.35426039, -1.7298534, -0.72052044, -1.6384994, 0.79222554, -0.6435347, 1.2774986, 0.96556044, -2.491505, -1.059356, 0.9935985, -0.853863, -0.030971402, 1.8865951, -1.3311558, 0.020126522, 0.92113405, 0.07731652, 0.5299782, -0.5711622, 0.2510806, 0.107431635, 1.9872848, 0.5494217, -1.674532, -0.16914928, -1.1436954, 0.07552925, -0.58863074, -0.558323, -1.2125844, 1.0730305, -0.7076614, -4.1684723, 2.182865, 0.1545274, -3.0060084, 3.1228013, -1.1514878, -1.3088776, 0.1869325, -0.9275373, 0.68694997, 0.67494845, -0.053634714, 0.840358, -0.17436302, 0.7092544, -0.3357514, -0.2970122, -0.51017267, 0.8958759, -0.04864392, 0.024142088, 0.99379975, 1.5513256, 0.06766202, 0.84217024, -0.95116764, 0.12701073, 0.19019681, 0.49971747, 0.8164415, -0.51722497, 0.06923435, -0.14904669, -0.9825798, -0.09083151, 0.23408154, -1.3038062, 0.13361114, 0.8205597, -0.11894957, -0.2019671, -0.6092939, -0.4588922, -0.017567683, 0.5010116, -1.074745, 0.1722737, -0.19193211, 0.86588204, -0.012687867, 0.7531763, -0.47157282, -0.5262225, 0.23958904, -0.1772361, 0.269612, -1.2986966, 0.7351708, -1.226142, -0.03658289, 0.024254087, -1.4905105, 1.7090265, -0.058584675, -1.1034126, -0.057063945, 1.0933787, 2.6491685, -1.0140306, -1.9311509, 2.1137373, 0.002001464, 2.5257819, 0.092572704, 0.6735668, -0.2657937, 0.75545746, 3.8474545, 1.6040268, 0.6948387, -0.68864715, 1.0705017, -1.6950994, -1.5259176, -0.29022518, 0.27893296, 0.26562837, 0.5567106, 1.1418871, 0.7735986, -1.9417026, -0.51178676, -0.15244363, -0.7411238, -0.07546447, 0.7752558, -0.1849176, 0.44954917, 0.099123, 1.9905127, 0.4013758, 1.3441708, 0.66186184, -1.2439283, -0.033993747, 0.50921685, 0.13248447, -1.768695, -0.19514877, 1.9677113, -0.25168532, -0.34066936, -1.9347448, 0.018926132, 4.277482, 0.112876914, 1.9690362, 2.2193644, -0.078735486, 1.3644601, 0.07102689, 1.2702544, -0.3768476, -1.742197, 1.0733167, 0.69058233, 2.3183644, -1.8253357, 0.5732866, -0.6787074, 0.46362892, -0.35902628, -1.6847358, 0.8368966, 0.6558639, 0.05530833, 0.7276167, 0.6577457, 4.014272, -1.6842319, 1.457251, -1.9765785, -0.73864293, -0.1833643, 0.31178227, -0.27522215, 1.1673397, 0.57232326, -0.6176761, -2.7561634, 0.71799463, 0.36640176, -0.35389838, -1.9868363, 0.38454327, -0.63071483, 1.3426625, 0.12630896, 0.014505415, 0.8866267, -2.3100545, -2.2651558, 0.042702608, -1.1419432, -0.453388, -2.6553168, 1.7262555, -0.6447618, -0.5478191, 0.6542629, -1.7815617, -0.87687236, -1.3845328, -1.43606, -2.4537685, -2.2697785, -1.2186536, -1.3635031, -3.3074253, 1.3055602, 2.4019232, -0.83494794, -0.24228193, 0.47839037, -0.7543979, -0.4428663, -0.33660388, -0.54181206, -0.6247809, 14.793155, -1.3163781, -3.9352543, -1.269636, -0.5668019, -2.2798765, -1.759873, -0.11076554, -1.1498363, -1.0624818, -1.3647747, -1.1200159, 6.182898, -1.1257093, -4.2883754, 4.531465, 0.17976098, -1.1913408, 1.0645319, 1.8178014, -0.06367678, 0.6659977, 0.14477015, 0.6950611, -0.5013469, 0.038398795, -0.28073072, -0.101490736, -1.5152208, 0.014787303, 1.0397768, 0.009354042, 1.1223794, -1.5178813, 0.19592485, -0.09748466, -0.6787018, 1.9153477, 0.22614932, 0.2831731, 0.7858157, -1.2376924, 1.1582301, -0.61514103, -0.6792508, 0.1093181, 0.23742662, -0.9633315, -0.24717456, 0.47827664, -0.69973195, 0.041425798, -0.058781732, -0.48780164, 0.08288249, -0.011998485, 3.525727, 0.10341667, -0.900694, -0.13278252, -1.002873, -0.90032023, 0.27707586, -0.07761549, 0.19682159, 1.3179305, -0.19871868, -0.352729, 0.37933832, 2.0122156, 0.041356217, -0.87935793, -1.4496905, -0.4237988, 0.2523264, 0.88836116, -2.1042366, -0.18454626, 2.5757644, 3.0439036, -1.8858855, 0.51047873, -2.3609996, 3.2931821, 0.017571356, -0.89518356, -0.45219558, -0.122602016, 2.785995, 1.041713, -0.3651434, 0.940487, -0.5953502, 0.48993185, -6.867528, 0.023345808, -0.06559812, 2.0389829, 2.479441, 1.3239174, 0.8422974, -1.2861999, 0.12829949, 1.5685577, -0.19562712, -0.5011351, -0.12618859, 0.48863846, 0.40654382, -0.052016415, 0.10210596, -0.24679878, -1.3604083, 0.34591532, -3.3749325, 0.20666818, -0.10763184, -4.8530264, -0.54801035, -1.4134705, 0.7368075, -0.70863324, -0.77829444, 3.326048, 0.7020968, -3.169988, 0.847647, 0.008604577, -1.4846805, 0.87635237, -6.299992, -0.87202865, 1.3643242, 1.7579219, -1.3800018, 2.2210584, 1.5509025, -4.6180058, -2.8526478, -0.16063385, -1.5761997, -0.25643563, -2.0528667, 0.5274653, 1.0199401, -0.4712181, -1.9045557, -5.177121, -0.7841266, -0.9456579, 0.18575643, 1.1928978, -1.6628352, -1.2181739, 0.75750417, -3.4715605, -0.43304864, 3.6820958, 0.274064, 0.8884461, 3.6468787, -0.98166317, -0.8539692, -0.10400647, 1.4007071, -0.6793919, -1.6587303, 0.5107105, -0.6793428, 2.0816438, -0.031907856, 1.100586, 3.185976, -0.13506204, 0.22109342, -0.21105316, 1.4730097, -0.45940956, 0.97838205, 4.2738457, 2.117753, 0.6950838, 0.91255426, -1.5864373, 0.40428075, -4.2079535, -2.3577397, 1.0041064, 2.657268, 1.3089964, 0.18204518, 1.2361327, -4.919167, 1.4756858, -0.037738837, -2.6546295, 0.07342464, 0.1460644, -0.081182584, -2.2355335, 5.039924, 2.958882, 3.6130216, -1.6007454, -0.3024404, -0.78719395, -0.75898737, -2.997717, 0.21752773, 0.8128208, -0.37649047, -2.5893836, -1.8653898, 4.4364004, 0.34042612, -0.43107402, 0.5573764, -1.3702272, 1.8773324, -4.3332896, 1.4134456, -1.2702614, 0.024041338, 0.75194126, 0.076555416, -3.5493004, -0.17843483, 0.7177598, 0.11723945, 0.469236, 0.020786727, -0.36016598, -0.9494764, -2.3823674, -0.106097385, 0.53486705, 0.553429, -0.638725, 2.3307154, -0.00976951, 0.7310032, -0.8874358, -0.8712866, -0.24323143, 0.18963721, -0.120783105, 0.3491426, 1.7925246, 0.8867138, 0.06264986, 0.0027018494, 14.312876, -0.7516862, -0.28228137, -0.07450057, 0.023750622, -0.035114605, 0.07868833, -0.1805981, 0.9591691, 0.23221485, -3.846703, -1.4194878, -0.6864617, -0.20245369, -0.52518857, -0.29598942, 2.263774, 0.6059922, 1.4924957, -0.0313413, 1.529754, 1.2329869, -1.4266813, -1.3775272, 0.86004204, 1.3006108, -1.3536189, 1.5066062, -0.9013586, 2.024583, 1.9388882, 5.510457, -0.8120825, -0.009038018, -0.0550123, 0.3394047, 0.53989, 5.9876475, 7.63159, 0.112734, 0.30584574, 0.83602685, -5.3691373, 8.937764, -0.025563976, 0.24836142, 1.2766889, -0.5786324, 0.37538025, -0.1181645, -0.5265686, 1.3078356, -1.3896543, -0.42836693, 0.19965978, 1.6842982, -0.9886653, -1.620064, -3.0745063, 2.7349427, 0.27997416, -0.2549823, 3.066964, -0.5713183, -0.016252741, 0.07095766, -4.590843, -2.0000606, 0.17673321, 2.1523504, -0.6649, -0.7044028, -0.6750484, -0.9063397, -0.2948208, -1.3591603, 0.27387404, 1.4513094, -0.029662594, -1.1657672, -1.6449838, 0.8106614, -4.576815, 0.1442639, 2.4975698, 0.24444264, 3.1038513, -0.7952404, 0.06732356, 0.14816856, -0.68956447, 0.43202916, -0.6280087, 0.47184092, 0.7993928, -0.83197534, -1.2239217, -0.5857739, -3.2565262, -1.9312544, -7.1604657, -1.3022568, 1.8639888, -0.18166032, 4.469536, 0.7838789, -2.5982852, 0.6623784, -0.42634577, -0.58560467, 0.47385973, 0.24738464, 0.46887016, 0.2829159, 1.4928244, 2.298908, 1.1039957, 1.877681, 1.5487876, 0.26092026, -1.5056978, -0.6500851, 3.101592, -0.3558982, 0.7777526, 0.5805281, 1.3541214, 0.26508975, 0.85817164, 0.19061098, 2.9909205, 1.6143124, -0.7373657, 1.3470148, -0.8722329, -0.32118014, 0.0316722, -1.5479952, -2.077624, 1.9849474, -0.7383009, 3.4567556, 0.5369931, -0.7866478, 5.170202, 0.51565135, -0.5373001, 0.7218426, 2.3934498, -2.304718, 2.164367, -3.41732, 1.253215, 0.65359557, -0.7609761, 0.7803943, -5.6758523, 2.1412709, 0.3822182, -0.5450762, 0.75314194, 1.3375425, -3.2952173, -1.3355616, 0.8400161, 2.5460286, 0.8559571, -2.1302326, 1.5322737, 0.97882223, -0.97956955, 0.052851267, -0.67909986, -0.51601684, 0.9261666, -0.10692769, 0.5126413, -0.7012029, 0.48027423, -0.17468315, 0.21844988, 0.053494237, 0.26684296, -0.23596598, -2.3623056, -0.51056737, 0.9652338, -0.92013526, 0.004557714, 0.39217237, 0.45620203, 0.09431567, -0.43052626, 0.60060644, 0.011885563, -0.1353223, 1.3809471, 0.59430426, 0.08474828, -0.867579, -8.146855, 0.73735607, 0.2498584, -0.02075484, 0.24954492, -0.20819892, -0.49166438, -0.743852, 0.27751282, 0.55573505, 3.775992, 0.5084936, 0.1381943, 0.11754775, -0.24429949, 0.9051721, -1.568439, 0.07273419, 1.1953734, -0.06757867, 0.8270159, -3.6252148, 0.9544642, 0.04590372, -0.6796166, 0.7496328, 1.113816, -1.0988854, 0.7271397, -0.5952566, -0.48197713, -1.6369983, 2.0311458, 0.14953336, 1.31168, 0.59148496, 1.0194564, -0.4819245, 1.1377729, 0.7729279, -2.0872242, -0.58019114, -1.9850242, -5.320502, 0.94684, -0.32660958, -0.9093054, 0.7404109, -0.29977998, 0.08830404, -0.02351942, -2.3972974, 1.6288698, 0.7215756, 0.3432006, 0.40949088, 1.2258254, 0.09930194, -1.0180995, -1.8862432, -1.3352418, 0.44442397, -0.7120033, 1.6584003, 0.7809546, 0.1747823, -2.362339, 2.4191966, -0.610237, 0.27639288, 0.44004208, 1.0819389, -6.9188194, -1.4171231, -2.5938585, 0.05236901, -0.022852559, 1.6296182, -0.4451209, -1.0505694, -1.4020779, -0.6566063, -0.60893816, -3.1864638, -4.1178803, -0.7280091, 0.45033452, 0.44348606, 1.3839422, -1.47523, -1.5529531, -3.160866, 1.5712242, 2.0936997, -2.503266, -1.5408833, 0.65699434, 0.6703958, 0.03137502, -2.05518, 1.011017, -3.0825536, 0.74925137, -3.3169856, 1.0837214, 2.8334715, -0.543984, 0.32654735, 0.72180057, -0.36017802, 0.6071845, -0.6830067, -0.85936636, -0.23243742, -0.62743187, -3.8830237, -1.538016, -0.8141814, 0.44513452, -0.87116694, -0.37197384, -2.3605099, 0.2558165, 0.5617394, 0.65262145, -3.0721078, 1.5036999, 0.89514023, -0.6111206, -0.1236156, -2.5821855, -1.2749885, -0.6743632, -0.34197256, -0.5417706, -1.947847, -2.4235606, 0.49667296, 2.77022, -0.7809802, -3.5493026, 7.6657677, -2.8067691, 2.0449772, -0.07301591, 0.40934515, -0.6854125, 2.2320337, 0.906074, -0.19884415, -0.73304594, 0.27874064, -0.124806084, 0.23998655, 0.0652286, 1.2002579, -2.082692, -8.160212, 2.6436346, 0.19896746, -4.1524525, -2.8092031, 0.4841425, 0.07382116, -2.1400378, 2.0484614, 0.0013505275, -0.15945426, -0.7012513, -0.79074603, -1.4896274, -0.15441784, 3.140723, -0.32657546, 0.5473379, 0.10397708, 0.714476, 0.57310975, -0.9041085, -0.7145378, 0.06687936, -0.52966845, -0.8710014, 0.2472952, -0.88947535, -0.65533847, -0.42781323, 0.07301653, 0.45096958, -1.0681303, 0.9202909, -0.06734925, -0.20444089, 0.98216045, 0.022655236, 0.18280405, 3.1475573, -1.3339627, 0.054062735, 0.40119776, 0.3574923, -0.1881744, 0.414843, 0.12657085, -0.63247395, 2.1035106, 0.04705094, -0.016565466, -0.7081446, 1.4531054, -5.5185933, 2.3333876, 2.2513113, 0.059389103, -1.9048845, -1.297821, 3.0312073, 2.738473, -0.41651845, -0.12065684, 0.91373897, -1.3432919, 0.3377311, -0.0020442565, 0.018185468, -0.46005327, -1.0049593, -3.1838539, 0.37227035, -1.8461922, 1.9365811, 0.85714847, 0.37723368, -0.03415678, 0.24234793, 1.4965072, -0.51168925, -2.1686423, -1.7999612, -4.7497888, -0.0616836, 0.77022886, 0.3704652, -0.35044736, -0.2942566, -0.123503536, -0.19966686, 0.37638488, 1.5409728, 0.7210266, 2.7701972, -0.9815397, -0.020213947, -0.34355497, 0.45784128, 0.59243447, -1.5155487, 0.57075477, 1.1678963, 0.265533, 0.021923266, 0.675859, -2.2756255, -1.5143508, 0.20373079, 0.99288374, -5.82729, 0.11809484, -0.29795185, -1.765096, 0.5684759, -0.7849838, 2.7068872, 0.058380064, -2.0466273, -0.32128617, 1.3928236, -0.76033777, 0.80406857, -0.46057558, -0.34769624, 1.4336431, -1.1812326, -0.90460056, 0.5951339, -0.18274368, 0.63388276, -1.3459969, -1.1458384, 0.3248432, 2.2177136, -0.98302436, -2.3621254, 0.015739428, -1.8942758, -2.1670094, 3.7349322, 0.62103164, 0.9994063, 3.3555958, 1.3953106, 0.12996542, 0.060809292, -0.65751874, -0.9712784, -2.261343, -0.8286503, -2.279457, 0.8096707, 0.41648886, 0.7878688, 0.08139746, 2.6974366, -0.33035207, 1.2109609, -2.3126917, -1.823332, 1.5908388, 0.5421589, -0.69190794, -1.4135875, -1.8834182, -0.8771824, -0.50266635, -0.22684914, -4.4129634, -0.74232197, -0.8985596, -3.9696584, 2.2786963, 0.9689108, 2.131423, 0.27299932, 3.574581, -0.31013012, -2.5509167, -0.822792, -5.2344227, -2.0644183, 0.38763732, 0.83650714, -3.6008306, -0.35788, -3.5131078, -0.41001934, 1.2824508, -0.18717103, 0.65455544, 0.39288238, 2.1588209, -0.96361333, 0.15832688, -0.8341869, -5.025233, -0.6476263, -3.002815, -0.15912817, 0.8192223, 0.10666347, 0.1804628, -3.7351272, -3.9536598, -0.49002212, 1.3506193, 1.4849737, 0.43965343, -2.4726288, -0.10299915, -3.6325135, -1.6862965, 0.43867612, -0.016446482, -0.8084512, -0.49615043, -1.7309941, -0.24648032, 0.92172974, -1.3349015, -0.07578586, -0.40038818, -0.16236924, 3.168529, 0.22580874, -0.406178, -0.43255147, -0.06252547, -0.38629898, -0.1229273, 3.3851027, 0.29063734, 0.701191, -0.30694017, -0.064346455, 0.08702688, 0.062399674, 0.07452997, 0.17865996, 0.10076262, -0.01608135, 0.91103595, -1.251448, 0.09440913, -1.1238219, -0.032804254, -0.46290672, -1.7009926, 0.114871025, -0.104640976, 0.52119994, -0.23302126, 0.5346324, -1.1902865, 0.18419693, -0.09022677, 1.310882, 0.2613841, -0.7406865, -1.9594362, -0.2544151, 0.013644577, -0.39844456, -0.008809235, -0.19412737, -2.211083, -0.30909443, -0.84209925, -0.6148102, 2.764324, 1.4145705, 3.4448636, -0.22298777, -1.5291762, 2.044611, -0.87677515, -1.2571084, -1.8368958, 0.6592654, 3.2360885, 0.5048411, 1.6759379, -0.021055222, -0.25964254, 0.21057706, 4.1232085, -0.021592466, -0.22712006, 0.2917197, -0.7610414, -0.71794176, 0.26505655, -0.85996646, 0.28426108, -0.5919594, 0.97494423, -0.8095611, -0.40871555, -0.8211467, -2.1284819, -1.7888708, 1.204965, -3.6584394, -0.52950233, 2.4646127, 2.364471, 0.62828577, 0.8708043, 1.6292311, -2.07718, 0.33985737, 0.51497924, -0.71235484, -1.6886315, 3.0111463, -0.1155133, -3.5818868, -1.0284207, -2.633671, 1.4824228, -0.22549638, -1.9935561, 0.39920643, -1.7926629, 1.6447254, -1.1187074, -4.161088, -2.9441357, 2.1463895, 0.59905714, 0.2092748, -0.79285884, 0.46017256, -1.1578927, 0.19055617, -1.0271112, -1.140817, 1.59253, -2.266033, -1.0187252, 0.111308485, -1.9532857, 0.5276842, 0.9942548, 0.011714431, 1.4298217, 0.23789057, -1.2072468, 0.3817407, 0.24339962, 0.25590876, -2.0519528, -1.3879263, -0.44985393, -1.6528468, 1.2548813, -1.8852589, 1.5559338, 1.0866222, -0.18240954, 0.87925774, -1.1898392, -2.3783393, -0.45784828, 2.664005, 0.020325415, 0.27472174, -3.560878, -2.7635922, -1.4884411, -0.11284516, -0.48235914, -3.0492435, -1.9315587, 0.560503, -0.1524416, -2.9260037, -0.26888198, -1.4994917, 0.6666115, -1.1515567, -0.2480001, -0.45123634, -0.17701088, -0.6637087, 0.93142307, -3.2442882, -0.5144483, -0.7435557, 5.610314, 0.1940269, 1.4053051, -1.4590144, -0.015712623, 0.17676476, 2.1754444, 0.6201023, -2.6332657, 2.9697008, -0.5811388, 0.020389505, 2.6691742, -3.9212399, -2.2613275, 2.482968, 3.3517404, -0.60792804, 0.56460536, -0.48844892, -0.47585326, 0.51140857, -2.9014473, -0.06084499, 0.078323446, 2.0788438, 0.43130863, 1.7249036, 0.14876005, 1.0295216, 1.3022069, 0.042470317, -0.27193475, -0.030476104, -0.7368245, 1.6561959, -0.25916106, 2.177506, 0.1939758, -0.82476276, 0.25610757, -4.399831, -0.24984623, -0.84834254, -0.21850923, 0.14966589, -0.7433546, 0.033103306, -0.016584188, 1.6616988, 1.2690378, -0.064800195, 1.4853542, 3.3313339, 0.4419613, -0.33618495, 0.033478178, -0.46099842, 3.2907813, 0.7638266, -0.17941082, -0.60727584, -0.92601645, -4.2574596, 1.8539984, -0.63116777, -0.10835976, -0.4719421, -0.15538529, 4.206863, 0.24639207, -0.5832306, 0.013426969, -0.98776, -0.4386074, -0.7228495, -0.3278361, -5.6666727, 0.45365635, -0.2495641, -1.3881068, 0.9071288, 1.5553678, 0.09675751, 4.9555106, -0.7448208, 0.8779076, -3.1235192, 0.30161017, -0.36249292, -4.672071, -1.022137, -1.4358355, 1.8141341, 0.13430302, -1.0819094, 0.059887145, 0.8816497, -0.9602977, 0.2828026, -0.3455104, -0.2031292, 0.21509989, -0.57383835, 0.19403191, -0.7561948, -0.88205194, 0.663083, 0.102387086, -0.76437384, -0.3405612, 0.9638272, -0.7970041, 0.1589345, 0.40080783, 0.30360922, -0.3080972, -0.70794, -0.16609477, 1.493272, 0.98963755, -0.6846118, -2.9414916, -0.43170345, 0.3283797, 0.13880894, -3.4096541, 2.6983829, -0.77486247, 0.25901538, 3.8803058, -0.44029304, 1.778293, 0.6626756, -0.04182636, 2.6112928, -1.2115188, 1.8996433, -0.025929473, -1.235427, -1.2332497, -1.0568259, 0.09733738, 0.25169903, -1.4542521, -1.2521718, -0.9593336, -0.74576056, -0.32664722, 0.7658379, -0.21138892, -1.6343592, 2.1615272, -1.1796714, -2.6121671, -0.8484321, 2.4572484, -0.3350195, -0.9134604, -0.54209095, 1.6384513, 0.6837821, -0.37814638, -0.6503816, 0.951271, -0.96357065, 0.036103185, 2.3630056, 0.47299623, 2.2055266, 0.2406566, -1.0256951, -0.29803354, 0.6498989, -0.43426877, 0.74443585, -0.28759754, -0.45583013, -0.64530176, 3.3686917, -1.2392259, 0.14943403, 1.5033995, 1.5420392, 0.08612507, 1.3960834, -0.51312786, -2.05977, -2.3088355, -1.6326419, 2.1393056, 1.3494054, 0.35281712, 0.8013468, -0.0071505276, -1.1613914, 0.11359927, 2.084703, 0.37518346, 1.4385985, 0.07101054, -0.6221385, 0.84052265, -0.08611419, -0.6991985, 0.044811487, -0.2825794, 0.56507796, -3.4695647, -0.8000262, -1.9480109, 1.4497044, 2.6891758, 0.9021194, -0.21804832, 0.39347726, -0.884497, 0.5999043, 0.2772096, 0.05921937, -1.4253576, 0.43287462, -0.5644063, 0.11510842, 0.101855904, 0.88714224, 0.12197079, -0.6740076, 0.3845666, 0.69319546, 0.13386092, 0.61784804, 0.11368733, -0.09648364, 0.30417353, -0.7131258, 0.8869548, 1.1968566, -0.14297464, -0.49501935, -0.28428558, 1.2222277, -0.5171291, 0.25484446, 0.48765555, -0.33852527, -0.027450005, 0.015253772, 0.02032649, -1.1118854, 0.33804193, -0.12977809, 0.49168858, -0.29088363, 1.0060985, -1.2786111, 0.008254625, -1.6598803, 2.762638, -0.045711305, 0.30270013, 0.66903204, -0.22176963, -2.6433532, 0.47066525, 0.17827737, -0.0844722, 2.0525086, -1.7271155, 2.3269444, 1.7141261, -0.1761895, -0.10119825, 0.1333459, -1.0588013, 0.037011582, 0.5455801, 0.16189083, -1.5947648, 0.08199192, 1.198956, 0.7380776, 1.3389714, 0.14370678, -0.29472655, 1.7905364, -0.6283773, 0.9947728, -0.6042714, -0.9568834, -6.192044, -0.43629885, -1.6827662, -0.35851935, -0.013437813, 0.11519946, -2.369174, 0.3591714, -0.8980383, 0.16040508, -0.16762102, -0.6482618, 0.40099367, -0.62796277, -0.39637423, 0.54693633, -0.119311035, 0.44102412, 0.09985631, -0.6677999, -0.04557226, 1.1559082, -1.3571931, 0.46412265, -0.31747594, 1.8226941, -1.0803342, 0.34169444, 0.32329324, -3.534288, 1.9713042, -0.10491249, -1.0126302, 0.87755203, -0.604711, -2.8267765, -0.075247556, 1.071667, 0.32757932, 2.304235, -1.3559662, 1.0937696, 0.22180435, 0.90017515, 0.9511824, 1.0859894, -0.32816353, 0.626639, -2.3719087, 0.11833799, -0.6923815, 0.34890333, -1.5955049, 0.52053213, -0.6720962, -0.9359082, -1.0173231, 1.7378308, -1.9446219, -0.64403987, 1.6560284, 0.24602737, 1.0634013, 0.28847602, -0.43353334, 0.033694275, 0.43016613, -0.18532495, 0.3415403, -0.040752914, -0.104620025, 0.57923543, -0.36703655, 0.063812464, 0.3806996, 0.57257074, -0.11038943, 0.85985017, 1.7791475, -0.46566787, 0.84994614, -0.50438124, 0.818916, 0.07704168, -2.9819183, -0.9190798, 0.07976167, -0.43889412, -2.8743927, -1.6982346, -0.6785422, 0.28571713, -0.4951002, 0.19087282, 0.20385957, -1.1686187, 0.7864739, 0.5337573, -3.665513, 0.7264024, -0.54591346, -0.8486746, 1.0177829, 0.9230339, 0.5688729, -0.44404337, -2.2451782, 0.32414833, 0.38429835, 0.04127073, -0.43624446, 0.2619681, 1.5904951, -0.043553907, -0.5039201, -0.92794704, -1.3602762, 0.61456406, 0.84614694, -0.718094, -2.3629284, -0.0026554372, -1.1713848, -1.5859193, 1.0014411, -0.10885878, -0.19752732, 2.1126592, -2.4870117, -1.2083492, 0.7136708, 0.78259444, 0.416499, 0.8921298, -0.11822025, 2.7856357, -0.103682205, 1.090166, 0.075259715, -2.1579063, -1.4187357, 0.7653864, 0.70216846, -0.04217335, 0.11151847, 0.20193613, -0.22452162, -0.82593435, -0.5163864, 0.22814213, -0.30385816, 0.9710435, 1.2756087, -0.6955774, 0.4640279, -0.11672324, -0.20003445, 0.029797964, 0.064988434, -1.5425485, 0.57189274, 0.14923023, 0.30450082, -0.25092742, 0.17198764, -0.2041792, -0.10585965, -0.2854328, -0.8719569, 0.05253254, -0.24898122, 0.3395976, -0.42400032, -5.0072975, 0.14779024, -0.27822915, -0.021238703, 0.22580434, -0.05611176, -1.0294535, -0.5048739, 1.2469579, 0.0962929, -1.1869091, -0.06633728, 0.9050809, 0.18774761, 0.17377011, 0.22938028, -1.9075474, 2.4323173, -1.3733282, -0.6544399, 1.0810149, -1.2247694, -0.5635236, -0.36656687, 0.17718002, -0.3607663, 0.36712632, -1.0797708, 0.6613879, -0.18639949, 0.020864598, -0.13206579, -0.6967109, -0.00045294772, 0.46497953, 0.034423783, 0.46614107, 0.8352198, 1.2297035, 0.55658764, -0.081035666, -2.3729255, 0.40283242, 0.014516073, -0.023139656, -0.1529341, -0.22820605, -1.7970929, 0.3586737, 0.94048685, 0.7334, -0.69430083, 2.3276315, 1.8277227, 0.20701739, 0.573603, -0.7535634, -1.0228246, 0.11397907, 0.71237296, -0.33641627, 1.8218596, -2.4944403, -0.74678344, -0.31575805, 0.67261505, -0.6647275, 0.21417044, 0.37942803, -1.005826, -6.049492, 0.17345524, -4.959934, -0.036623307, -0.20631403, -3.3206425, 2.8135211, -1.2493478, 0.94545937, -1.0175385, -0.9041992, 2.9872408, 0.14358704, 1.3085227, 3.0201552, -1.657595, 1.0300155, 4.5455227, -0.17596354, 1.2814643, 0.099858314, 0.900355, 2.5407546, -7.388067, 2.050632, 2.3797786, 0.5208286, 0.47055608, 0.26830107, 0.36034656, 0.32058257, 0.12917072, 0.6530069, -0.14323646, -0.06405669, 0.13802102, -0.42734712, 1.4872519, -4.6081934, 0.6256712, -1.4230676, 0.46706772, 0.7885489, -0.6234991, 0.63901836, -0.014821133, -0.30390656, -0.63241667, -1.4843242, -1.8641317, -0.48509604, 1.0112036, 0.14616625, 0.5419618, 1.7340219, -3.029309, -1.3962215, 0.47358233, -2.296724, 0.7058992, -1.6828431, 1.2074434, 0.090734184, -0.033593215, 5.5422173, 0.7588949, 0.09738692, -0.5445575, 1.8273646, -1.3514905, 0.6124869, 1.6888608, 3.7799175, -2.3892326, -0.48787123, -0.57099676, -3.5981762, -1.9632112, -0.90326905, -1.6849895, -3.4945462, -1.2249119, -0.9279286, 0.8896881, 0.42743683, 0.16843206, 0.86763597, -0.34093055, 1.1377461, 0.6508295, -0.29433352, 0.006171237, -1.5902221, -0.12199806, -0.23052242, 0.059137866, -1.83037, -1.11784, 0.045462828, -0.66710776, 0.37386554, 3.103582, 2.5537937, -0.242557, -1.2752614, -1.1613494, 2.2393813, -0.3410561, -1.2902893, 0.33845568, 0.55804133, 0.9789317, 0.4527428, -0.34076908, 0.053587243, -0.120967954, -0.9172193, -0.81971145, 0.07389961, -0.9521746, -4.1427193, 0.4329611, 1.1771047, -0.0457197, 1.0125104, 0.5186375, -0.68941367, 0.3703361, -0.8687449, 1.453901, 6.7668347, 0.64464426, -1.1722476, 0.0046351124, -0.78222895, 0.8443221, -2.7670329, -0.033951472, 1.3030212, -0.0038168915, 1.6808435, 0.02840721, -0.036816113, -1.4966029, -0.1476481, 0.93867344, 1.5036738, -0.52068657, -0.031099027, 0.043948025, 0.56721276, -5.9000826, 0.37568113, 0.47268295, -0.2711039, 0.4580997, 1.0570192, -1.8765309, 2.0837092, 0.9438543, -4.628783, 0.3181958, 3.2098022, 0.89550376, 2.5148828, 0.10708537, -0.16706368, 0.28780618, -0.091149114, -0.2514775, 4.8921504, -3.6462183, -0.21866304, 0.57423836, 0.51729095, 0.11624884, 0.639186, -0.16725725, -1.1035023, -2.8863523, 3.564463, -0.81869084, -2.013814, -4.7297306, 1.2086648, 0.7135365, 3.9399707, -0.9555074, 0.1598118, 0.20530124, 0.11547407, -0.7609125, 4.287814, -0.4868924, 1.8844044, 0.8263474, 2.1681993, 1.8790559, -0.46347538, 0.36617982, 2.8032336, 1.2817222, 1.2347062, 0.5389554, 1.3802053, 0.018122096, 0.87659127, 2.794143, 1.1161801, 1.1913886, 0.039874475, 1.1636634, -1.3072635, -1.2399654, 1.1547678, 2.0305982, -1.6396053, 1.7765449, 0.9804957, 2.0463307, -0.6341097, -1.0014964, 0.33946055, 0.5335294, 0.2917487, 0.3096904, -0.5966657, 2.1943605, -0.34729603, -1.0711291, -0.3870388, 1.590774, -0.018659996, 0.16027297, 0.101545036, 0.8754308, 0.107887916, 0.059707206, -0.008058157, 1.1579678, -0.21269147, -0.7417209, -0.022983573, -0.22517912, -0.5632511, 1.6281108, -0.6802082, -1.321966, 0.26932, 0.79586977, -2.5689268, 0.5596766, 0.15645388, 0.52993834, -0.11896274, -1.196479, -2.336131, -2.2847922, -1.1496125, 0.15215965, 1.8814458, 0.34830663, -0.55050707, -0.084426105, -0.30093578, 0.56137305, -1.0905293, 0.81684774, 0.2006731, 1.1798893, -1.3967023, -2.8465118, 0.40469635, -1.5276893, -1.213355, -0.2260638, -0.595657, -1.1147773, 0.6436446, 0.9281263, 0.139562, -0.40398192, -0.054765776, -2.3280423, 1.4626765, -0.95918584, -2.1492946, -0.21164875, 0.48965645, 0.019231686, -0.57537204, -0.066058986, -0.68023497, -0.880969, 0.13665591, -1.2743757, -1.2271838, -0.8817822, -0.25790873, 1.0711049, 0.44605777, 0.5002077, 0.5411926, -0.21533914, -0.20526399, -0.86672634, 0.741875, -0.2658034, -2.0937192, 1.0462221, -1.1765056, 1.2380867, 1.1844001, -0.71077764, 0.12780966, 0.1514834, -0.084045626, -0.35361156, 0.09228866, -0.42580745, 0.31610847, -1.2678851, -0.85153866, 0.057890706, 1.9455142, -0.7347054, -0.2037221, -0.8389836, -0.4686612, -0.32268336, 0.052447155, -0.4847128, -0.88516265, 0.07036778, 1.0713843, -0.04557412, -0.5295387, 0.77787524, 1.9891082, -0.04395906, -0.85614854, -2.132846, -0.29293647, -0.098169304, 2.1727452, -0.8256935, -0.33914432, 2.303228, -0.1118971, 2.0385284, 1.1596314, -1.7461871, 3.4109251, -0.33527577, -0.8998583, -0.055574093, 0.2182857, 1.9567736, -0.43288305, 0.08283458, 0.47635782, 0.08426195, 0.3975842, -3.8715403, -0.2869494, -0.5659153, 0.7433846, -1.0862652, 1.4646403, -0.040030167, -0.9588146, 0.38958374, 1.6171197, 0.036875125, 0.40114316, 0.16829605, -0.75490063, -0.29949543, -1.11463, 0.13415648, -1.9381366, 0.46700695, 0.53751886, -0.23829116, 0.46822104, 0.42452416, -1.0964444, -1.4153112, -0.08189528, 0.33564535, -0.14009821, -1.3211217, -2.1703026, -0.60795695, 0.41528085, -1.0931423, -0.53450704, -2.8314064, -0.82546914, -0.11140992, 0.7545505, -0.3660614, 1.0795419, 0.851416, 3.019477, 1.6948513, -3.7411983, 0.19043143, 0.24277724, 0.5304617, -0.21989778, 0.5914233, -2.4800358, 0.5486501, 3.8021092, -2.683337, 0.18357545, -1.7676216, 0.3479886, 1.9964268, 1.3692963, -1.2340055, -3.470224, 0.4460022, 4.653125, 1.0666095, -0.07710907, -0.18590477, -0.1091531, 2.947882, 0.6791944, 0.429196, -1.9765488, 1.5871117, -1.3002526, 0.9676907, -0.68224865, -0.18308479, -0.9037323, -0.77942306, -2.2451568, -0.34056193, 1.1299657, -0.4266533, -0.50779057, -2.803624, 0.28657544, -0.37085068, -0.47248814, -2.8503926, 1.2216601, -0.054002874, 0.4455779, 0.91570365, 2.2903593, -0.81848186, 1.8379084, -1.229966, 3.791376, -1.0649114, -2.070876, 0.5208974, 1.4579712, -0.26933843, 3.63621, 0.77863073, 0.46086994, -0.16040134, 0.57139, -1.4294555, 0.36586344, 0.2232833, -0.9578947, -0.4034807, -0.24842694, 0.27692944, 0.16629103, -0.72369856, -0.8196208, -3.0103343, 1.2922372, 0.20711765, -6.7791147, -2.5012002, -1.3191134, -0.5960991, -0.97280145, -2.0252855, 0.3429886, 0.86469334, -0.48169214, -0.029204858, -1.0130457, 0.019410003, 0.20134549, -0.4639432, -0.98593307, -1.3371891, -1.5899957, 1.4295099, 0.4580611, -0.70288706, 0.49316245, 0.5561357, -0.29540664, -0.46504417, 0.80362564, 0.12334369, 4.7266197, 0.7477834, 2.7608387, 1.5202137, 0.41681716, 0.008980022, -0.012863746, -0.10128825, -3.8367832, -2.1779222, 0.1557849, -2.1660209, 2.6902332, 0.042880632, 0.15704022, -0.03326757, 0.60559744, -0.22021212, -0.7744358, 0.37793058, 0.61432743, 0.48450702, 2.6083553, -0.9458221, -1.8023882, 0.077741995, -0.972459, -0.8322153, -1.302541, 0.23727766, -0.1638605, 0.12963286, 0.8463643, -0.0068436316, -0.11079308, 0.86065507, -0.12260374, -0.45776242, -0.18682367, -0.81225634, -0.84358406, -0.704229, 0.12257487, -2.4535024, 2.36819, 0.6307742, 1.2684093, 0.2661446, -0.10911844, 0.84952784, -3.5017807, 2.2050416, -0.9484574, 0.39326236, -1.1022062, 0.15458213, 1.5928463, -1.351014, -0.9117697, -0.0057391934, -0.11407737, 0.115418546, -3.0325544, 0.8785733, 0.34422702, 0.888555, -1.0468302, 0.3646839, 0.6939994, -0.25527254, -1.44212, 0.52865297, -0.21671012, -0.032702904, 0.28551817, -0.6713409, -1.253522, -1.8177035, 0.38592866, -0.106109604, -1.0163258, 0.5467785, -0.5699572, -0.90195346, -1.1597482, 0.4949987, 0.4801641, -0.41086116, -1.1650168, -2.3977418, -0.38705942, -0.27439278, -3.538074, -0.34611842, 1.1814685, -2.3208692, 0.93535167, 0.747684, 0.27966467, 2.5429995, 0.52767724, -6.988391, -1.5976516, -1.6507125, 0.16909511, 0.46357316, -0.2521469, -2.5061169, 3.4434824, 1.7177054, 1.1396744, -2.114891, 0.10654871, 0.15868324, 0.9386401, -4.1807237, 0.76799816, 2.5756667, -3.6702342, -2.1285613, 3.146297, 5.7690845, 0.43577042, 0.7470559, -1.3941618, 1.6956956, 0.9735932, -2.3780117, 0.9238033, 0.18565358, -0.2064355, -1.6525525, -0.32928553, -2.6398876, -2.3001034, 0.49194288, 0.15550756, -3.300844, 0.05214371, -1.2135273, -2.1382732, -4.0910096, -0.21250446, 0.09170196, -0.2648244, 0.76531553, -8.689391, -2.2316508, -0.6021183, 2.5431595, 2.605234, -3.746669, 0.005986058, -0.95923424, -2.8338463, 0.22287826, -3.8785055, -0.025683178, -1.6886823, 0.31832728, -0.11467728, -5.0962224, 0.8652148, 0.15464462, -0.015340374, -1.0365587, 0.62463456, 0.5715942, -0.8755727, -2.6321797, 0.776886, -5.0791044, -0.9993984, -0.063831, 1.1150998, -2.2915542, -1.0736492, -1.2848914, -0.9630783, 0.8118842, -2.5542254, -3.05897, -1.4007004, -0.0026642988, 3.3506207, -0.17508733, -2.4838898, 0.20116888, 1.4185448, -0.24846496, 0.6582069, -0.74120617, 0.14601773, -2.184354, 1.4893026, -0.27604958, 1.9128941, -1.4652047, -0.53554255, -0.6130333, 