#pragma once

#include <stdint.h>

// Weight 0, shape: (6, 200)
const double weight_0_sonar[] = {
0.15930505, 0.29766145, -0.21404119, 0.02583222, 0.20593482, 0.0401182, 0.5494159, -0.06843223, -0.2027224, 0.1833492, 0.18005665, 0.011740641, 0.283596, 0.4289855, 0.043670923, 0.0973101, 0.49700087, 0.061776735, 0.43392962, -0.79540676, 0.011818585, 0.07476732, 0.0020560045, 0.012927199, 0.22282703, 0.00094914145, -0.026144529, 0.23118389, -0.005076817, -0.01758555, 0.22904314, 0.9204092, 0.19405554, 0.025746536, -0.11828838, -0.050096326, 0.059999846, 0.12618288, -0.010251392, -0.010925903, 0.5481359, 0.31449753, -0.114506274, 0.12795655, -0.18312602, 0.12125556, -0.5812105, 0.20832303, 0.028663222, -0.49117658, -0.031060543, -0.11027084, 0.06272791, 0.070718855, 0.010066321, 0.068367, -0.36591908, -0.15069242, 0.1561327, 0.00021669682, -0.14080295, -0.00014495436, 0.07540592, -0.12731297, -0.01685152, -0.5655203, 0.058999576, -0.10346962, -0.0983307, 0.37760508, 0.009800279, -0.011660059, 0.0042297826, -0.15186265, 0.12863187, 0.050346255, 1.20655, -0.07943215, 0.0043318872, 0.008350565, 0.075555995, -0.036716737, 0.18868756, 0.10385339, -0.098547176, -0.03376037, 0.104087755, 0.07101038, 0.051578104, 0.22699973, 0.00083517784, 0.05606578, 0.056966096, -0.10228278, 0.7209142, -0.07901546, -0.31554243, 0.17581442, 0.09627822, 0.85930306, 0.7105246, 0.048497543, 0.062449537, -0.056266356, 0.32703677, 0.057217088, 0.3190614, -0.56261384, 0.08249566, -0.15370679, 0.02930243, 0.07853472, 0.07822891, 0.025770068, 0.119196124, -0.29970637, 0.053747132, -0.11653402, -0.13990095, -0.16634853, -0.15203181, 0.16784048, 0.07943803, 0.1562448, 0.06234302, -0.08153705, 0.2172952, -0.34521142, 0.028288689, -0.0365311, 0.17076077, -0.031675424, -0.22708814, -0.10809868, -0.11466013, 1.2749932, 0.15637006, 0.15271693, 0.121300936, -0.07670162, 0.14582837, 0.042276215, -0.045963768, 0.21623436, -0.43797794, -0.16347767, -0.056962665, 0.03827545, 0.036955453, 0.1673195, 0.08488018, 0.17726317, 0.07252439, -0.08025784, -0.048041943, 0.07513834, -0.014267751, -0.04100857, -0.07807635, 0.114101395, 0.2857323, 0.18713896, 0.015730351, 0.40947586, -0.16055161, -0.984193, 0.12159255, 0.15800117, 0.09228398, -0.08128324, 0.21282335, 0.16159396, -0.012593156, 0.12506709, 0.07023316, -0.02532173, -0.21632707, 0.049874224, -0.485316, -0.018635757, 0.011080092, -0.09112522, -0.038932987, -0.051139027, 0.4832836, 0.1202847, 0.14749646, 0.10309302, 0.20986357, 0.15568443, 0.5508557, -0.12891693, 0.15306728, -0.030856568, 0.16688538, 0.13186887, -0.15708393, 0.07513185, -0.011215639, -0.009915043, 0.1035519, -0.06634131, 0.03874305, 0.04020425, 0.1353198, 0.05818061, -0.59095734, 0.008753634, -0.0013208118, 0.10369039, 0.040479917, -0.037298877, -0.28469747, -0.14153989, 0.056305364, 0.08992253, -0.17219543, 0.12408839, 0.14184709, -0.15904774, 0.089442074, -0.07575125, -0.05923419, -0.04697338, 0.18090653, 0.011225394, 0.01535452, 0.14447941, -0.14430428, 0.15985201, 0.09371927, -0.22938769, 0.20475891, 0.023561822, 0.07701995, 0.006663716, -0.028332746, 0.026238041, 0.24534495, 0.024583142, 0.1645611, 0.07535799, -0.00736567, 0.10019589, 0.15345222, 0.07018982, 0.48273164, 0.14304616, 0.12343696, 0.47810668, -0.2762415, -0.16030797, 0.1975852, 0.122138016, -0.06122445, 0.052097183, -0.0021592835, -0.08317659, 0.10286385, 0.16694498, -0.113864444, -0.13944165, -0.040683318, 0.0037225848, -0.12302475, 0.14469722, 0.059490547, 0.5149133, -0.009408882, -0.21996397, -0.25119647, -0.12883729, -0.012684561, 0.02088547, 0.1209638, 0.062495884, -0.1407529, -0.016111858, -0.16628596, 0.7996434, 0.02687866, 0.015608043, 0.18798582, -0.07501434, -0.062331703, -0.048445147, 0.09071262, 0.15349948, -0.19907628, 0.09962235, -0.16393264, 0.07596517, 0.10450988, 0.3084265, -0.21268448, -0.33863285, 0.2445298, 0.05886563, 0.08829912, -0.23869383, -0.07130379, 0.05475467, 0.060411174, -0.14821626, -0.07935347, 0.11177162, -0.079054214, -0.27032995, -0.0032990056, -0.12091721, -0.003904771, -0.32947704, 0.2003119, 0.023156611, -0.110173136, -0.11013375, 0.040389996, -0.02295383, -0.1517671, -0.12273801, -0.087168336, -0.08848365, 0.13723221, 0.13809158, -0.14995036, -0.048850298, -0.14121996, 0.48947772, 0.41368935, -0.14515203, -0.078719884, 0.2502029, 0.07334767, -0.12316917, -0.16960713, -0.12093396, 0.15472877, 0.23222694, 0.05362971, -0.15234776, 0.17060849, 0.051726714, -0.048887383, 0.051742185, -0.043039937, -0.11327473, -0.11378132, 0.14460605, 0.13858056, 0.105645984, 0.08761332, 0.09547706, 0.11489273, 0.150102, 0.024473554, 0.064724766, -0.07423792, -0.0050757094, 0.18860509, 0.13952376, -0.07598233, 0.68160266, 0.105937265, 0.132619, -0.15050405, 0.2258432, 0.16500099, 0.15159406, 0.11783657, 0.055651154, 0.08172371, 0.11177104, 2.840109e-05, -0.10136215, 0.07605922, 0.0732584, 0.21813165, -0.030861923, 1.2166716, -0.012085705, 0.30476654, 0.025824381, -0.03191176, -0.030221485, 0.16784607, 0.09233976, 0.08776309, -0.4605409, -0.11098981, 0.13120686, -0.16723262, 0.48946247, 0.1409111, 0.101176396, -0.00027678456, 0.07740359, 0.16712768, 0.11576375, 0.03029116, 0.019400556, 0.129184, 0.17604607, 0.11684823, -0.10241904, 0.1904712, -0.0862487, -0.6370466, 0.15884082, 0.00280423, 0.2857346, 0.38893238, -0.00031381525, -0.38685012, 0.32247236, 0.16326556, 0.09850555, 0.1532303, 0.2212789, -0.39768195, 1.0324198, -0.045665145, 0.05285221, -0.054669254, -0.055082295, 0.64922136, 0.16193743, -0.0006262503, 0.1277127, -0.1549886, 0.13161896, 0.23588398, -0.97276455, 0.07543455, -0.024653057, 0.09536118, 0.025890633, -0.17592677, -0.039601684, 0.23986672, -0.10287398, -0.5008049, 0.2829663, -0.037430573, 0.10011234, 0.15213096, 0.37458184, 0.46066308, 0.09812337, -0.38737866, 1.6146642, -0.07342799, -0.0013594894, 0.2549857, 0.14991498, 0.06924865, -0.18729194, -0.1808311, -0.038619004, 0.1604501, -0.0775865, -0.011717822, -0.060091592, -0.07201101, 0.040354174, 0.12313318, 0.61875373, 0.28011224, 0.666592, -0.42409265, 0.2341671, -0.29349616, 0.01521521, -0.086990274, 0.10666059, 0.06701472, 0.28164032, -0.018780056, -0.017552301, -0.0164193, 0.22002885, -0.17027852, 0.043209814, 0.14518835, 0.037171427, -0.27697197, -0.0032231414, 0.14798895, 0.1689798, -0.1917084, 0.19920066, -0.081607714, 0.113896325, 0.13286968, -0.043320347, 0.15234403, -0.027948258, -0.020724207, 0.18533234, 0.023579484, -0.37040547, 0.12855291, 0.0506784, 0.13536882, -0.07397773, 0.11826127, 0.2065316, 0.07036465, 0.6652725, 0.2897294, -0.08587022, 0.0008283183, -0.18147604, 0.18863277, 0.1845143, -0.10728073, 0.2543389, 0.051055737, -0.28838813, -0.14024396, -0.051814698, -0.10747527, 0.17267403, 0.12171534, 0.14109212, -0.15715231, -0.18408112, 0.32191813, 0.4883266, 0.17172068, -0.05386726, 0.12298493, 0.1110465, -0.03928711, 0.007484302, -0.09960042, 0.107385345, 0.15169457, -0.04516501, 0.08769074, -0.13532922, 0.09723821, 0.14293525, -0.0913279, 0.15515472, -0.15508583, -0.022196108, -0.11179193, 0.10304731, 0.07898865, 0.17004924, 0.15504299, -0.10925809, 0.124016084, 0.24164426, 0.03189604, 0.2460764, -0.081471756, -0.019146003, -0.110074066, 0.09650101, -0.07116122, 0.69053, 0.06844691, -0.37371612, -0.10629048, 1.0652561, 0.1902633, 0.19760168, 0.076901495, 0.060130805, 0.2717194, 0.15613288, 0.028398165, -0.12331978, 0.299345, -0.039285216, 0.47540352, -0.064949185, 1.2433559, -0.047784507, 0.3644865, 0.26412827, -0.030825442, -0.025928013, -0.44430447, 0.15743771, 0.15973143, -0.29257238, -0.06266018, 0.038406104, 0.22904392, 0.37944767, 0.15066949, -0.036279224, -0.08650043, 0.32742944, -0.034252588, 0.21053444, -0.06397437, 0.021087347, 0.012240565, 0.1706453, -0.08537646, 0.027860686, -0.021568252, -0.00731085, 0.39524665, 0.0841771, 0.027201029, 0.19600883, 0.42793626, 0.0098956255, 0.40720686, 0.24994881, 0.028408825, 0.030883068, 0.18814023, 0.21210322, 0.5774042, -0.53996944, 0.017248772, 0.0787441, -0.057937853, 0.07400891, 0.09688836, -0.09272921, 0.11476785, -0.025193159, 0.041482594, 0.10230063, 0.009510505, 0.7277511, 0.02418254, 0.07649888, 0.008581148, 0.03961022, 0.08343537, 0.21144788, -0.028143557, -0.0014134021, 0.7409523, -0.15553653, 0.011942802, 0.030049771, -0.046683017, 0.44970718, 0.1741448, -0.00012933755, 0.28806257, -0.32186645, -0.17664516, -0.23404284, 0.15254974, 0.04094041, 0.13051607, 0.016281135, 0.08149896, 0.07254907, 0.16425207, -0.036237594, 0.008557775, 0.008814567, 0.2553559, 0.036563944, -0.1540176, -0.4107333, 0.20027734, 0.057507996, -0.2975054, 0.3038922, 0.034564946, 0.011040085, -0.01596892, -0.07663665, 0.19299506, 0.17031547, 0.2536916, -0.10443413, -0.0013882685, 0.13179784, 0.02567513, -0.08728901, -0.05043815, 0.42106533, -0.028887015, -0.01746565, 0.03024694, 0.021042436, -0.039590117, -0.037626736, -0.16611966, 0.28703114, 0.20127492, 0.071565546, 0.26953688, -0.22253835, -0.40243497, 0.0064869323, 0.12914586, -0.69400054, 0.18324369, 0.042259086, 0.07092175, -0.008487428, 0.18021318, 0.06135454, 0.19448204, -1.024576, 0.2213931, -0.064156726, -0.0019449304, -0.20917588, -0.048537202, 0.2025321, -0.116815776, -0.40238926, 0.019656515, -0.09859488, 0.047528487, -0.014955571, -0.16398259, 0.16641289, 0.011869401, -0.026969094, -0.1357739, -0.15574844, 1.222018, 0.1765861, 0.109226875, -0.1567844, 0.17720988, 0.05899762, -0.253593, -0.09136704, 0.033795185, 0.15668336, -0.04858122, -0.051726803, 0.15582612, -0.16967724, 0.030687034, 0.08356438, -0.25721505, 0.0133015355, -0.34437108, -0.03497137, 0.008654311, 0.16268972, 0.06632985, -0.0021275533, 0.09034242, 0.36579666, 0.12158918, 0.01866226, 0.10349734, 0.23054913, -0.06370498, 0.012209476, -0.060619615, 0.02258121, 0.25609612, -0.3881252, 0.04888299, 0.5517282, -0.07648118, -0.79408634, -0.0035100891, -0.00049682497, 0.06815211, -0.06725738, 0.3938839, 0.16682929, 0.114207104, 0.14661759, 0.20172848, -0.04661041, -0.26071823, 0.063946016, -0.37726203, -0.033704806, 0.3253145, -0.1142455, 0.09169782, 0.039735332, 0.6743246, 0.12329836, 0.023138495, -0.47898564, 0.1362665, 0.11381635, 0.38289535, 0.25170848, 0.0023617728, 0.01302309, 0.061966524, 0.2849722, -0.13824882, 0.2017846, 0.003973331, 0.032534543, -0.011227739, -0.14289773, -0.100840025, 0.10057008, -0.008261237, 0.18750533, 0.20940569, -0.033236966, -0.01683999, -0.08364987, -0.05101546, -0.049480177, 0.06884074, -0.17187865, -0.054012433, 0.07219334, -0.4004618, -0.01959502, -0.18983339, -0.030665306, 0.13970433, -0.10450907, 0.018991513, -0.008056997, -0.45449084, -0.09846125, 0.081120506, 0.055813733, 0.032326758, -0.029763311, -0.0050884834, 0.026769483, -0.007015604, 0.06266542, -0.03475262, -0.013900684, 0.16613828, 0.017028833, 0.06743664, 0.20293444, 0.3769548, -0.22524047, 0.053066324, 0.08410213, -0.03715377, 0.1337263, 0.32924008, 0.090940095, 0.41266045, 0.16720887, 0.077243365, 0.114564665, -0.15751736, 0.08715985, -0.17839499, 0.28126377, 0.10143548, -0.046948697, 0.042103514, 0.29151365, -0.094886795, -0.06465278, 0.19618012, -0.0044695246, -0.13781774, 0.03870916, 0.15034033, 0.60325927, 0.19231136, 0.084884614, 0.123029396, -0.18164006, 0.0691386, -0.015906433, -0.09198892, 0.06529338, -0.07648426, -0.006755313, -0.15697603, 1.0406165, 0.2737219, -0.046018057, -0.04075506, -1.1139032, -0.047158804, -0.08071606, 0.053276625, 0.14371666, 0.05640884, -0.107910804, -0.086540684, -0.096797414, 0.014961833, 0.20821045, 0.15089038, -0.20340094, 0.062295422, -0.06772515, 0.11285092, 0.49290144, 0.17115085, -0.008240386, -0.09150433, -0.02413633, 0.03621557, 0.12597008, 0.27131137, -0.28347486, -0.122871175, -0.018876344, 0.005705719, -0.112475395, 0.14628951, -0.08335009, 0.10790816, -0.0744093, -0.023266945, -0.04289351, -0.054354712, 0.10566442, -0.09830985, 0.12879165, -0.013581127, -0.051507957, 0.4117343, -0.0037683167, 0.5793174, -0.048320122, -0.38081396, 0.13721384, -0.18450955, -0.01286689, 0.06052361, 0.17033014, 0.1495017, -1.1707119, -0.10842713, 0.039299816, 0.072601944, 0.14945501, -0.13368659, -0.096808836, -0.033385303, 0.1305794, 0.108990304, 0.020073183, 0.046333253, 0.036306247, 0.046110842, -0.07755326, -0.059192356, 0.008945046, -0.08768064, 0.030537423, -0.0058643, -0.038041703, 0.011453022, 0.008864825, -0.069353156, -0.07893789, -0.01918348, 0.004540933, 0.04075384, -0.44995818, -0.031958446, 0.004134878, 0.02454924, -0.04623592, 0.04748169, -0.016906057, -0.005777815, -0.048358116, -0.0236025, 0.0017264737, -0.025085142, 0.064604945, -0.14803745, 0.018724993, 0.11156262, 0.028480528, -0.0015383586, -0.094766065, 0.019489149, -0.010561579, -0.049296495, -0.013882826, 0.1471067, -0.042158816, -0.031717677, -0.08137536, 0.12074501, 0.71749204, 0.018107228, 0.15240857, 0.007090172, 0.07846165, 0.06561011, -0.0011698463, 0.14451803, -0.0060364935, 0.11729173, -0.040308673, 0.10894811, -0.00016328602, 0.15205938, 0.015879942, 0.14533895, 0.05071754, 0.2399254, 0.08857797, 0.061752863, 0.0061227456, 0.12135021, -0.067591265, -0.01975274, -0.12248765, -0.16007319, -0.05775028, 0.073870935, 0.41221517, -0.008906286, -0.13256325, -0.010642063, 0.10245535, -0.39299792, -0.079657614, 0.19341543, 0.08513717, -0.0032061727, 0.05235266, -0.11156767, 0.07790576, 0.015182392, 0.5927476, 0.100637466, 0.08350462, -0.0054937205, 0.06174006, -6.8846995e-05, -0.023943001, 0.14811982, -0.2046395, 0.13844508, 0.021086317, 0.022013415, 0.08714667, -0.37229756, -0.13025364, -0.50468755, -0.29112652, 0.031782236, 0.23586628, 0.011968966, 0.11346994, 0.22030917, -0.0009083719, 0.78846455, 0.24521829, 0.14306661, 0.0033836323, 0.31215352, 0.02442467, 0.4516429, 0.15660681, -0.1586826, 0.57605743, -0.055704996, 0.015510241, 0.07263526, 0.30140427, 0.09498082, 0.033918157, -0.0600475, 0.14251086, 0.06582853, -0.019780774, -1.3074186, 0.076645605, -0.014507835, -0.17639856, -0.019002715, -0.0573046, -0.015425213, -0.33069783, -0.029955726, -0.0006708681, -0.081144966, -0.13464767, -0.0706487, -0.14282276, 0.06356798, 0.07951953, -0.09639282, 0.15986131, -0.3814084, -0.018431826, -0.21700853, 0.028628342, -0.050551463, -2.377182, -0.22056629, -0.091086976, 0.09106345, 0.14916432, 0.08627212, -0.1410396, 0.08315768, 0.1314881, -0.14373262, -0.026173383, -0.028212467, 0.047430005, -0.083022445, -0.16258869, -0.118687466, -0.0027461548, 0.058904193, -0.18520698, 0.027353108, 0.12675765, 0.034912705, 0.1685104, -0.117955506, -0.077665225, 0.0058847144, 0.13922957, 0.89220524, -0.26162025, -0.10326292, 0.081855945, 0.13586304, -0.124875754, -0.052840285, -0.1239683, -0.09549692, -1.2986215, 0.14138384, -0.014826402, -0.13088161, 0.006043896, -0.017424285, -0.05545964, 0.11419542, -0.05315999, 0.3458679, 0.07821731, 0.078622654, 0.034298673, -0.055271458, 0.07494048, -0.13358557, 0.31232154, -0.015362039, 0.0627146, 0.13252406, 0.020714588, -0.041783668, 0.059551924, -0.0068079587, -0.1519323, -0.027473077, 0.2457232, 0.14061554, -0.38525492, -0.1561982, 0.43011972, 0.087655716, 0.034275655, -0.08335583, 0.02821366, 0.07835554, -0.14094964, 0.0724207, 0.074889086, 0.13636604, -5.922842e-05, -0.07577978, 0.016358016, 0.09006256, 0.0022637285, -0.1217831, -0.018766792, 0.19708358, 0.15084858, -0.051284242, 0.084811896, -0.008674245, -0.041104227, -0.0008075745, 0.053818986, 0.04820033, -0.0462822, -0.15500364, 0.039043773, -0.07011512, 0.04522243, -0.041324586, 0.0989534, 0.004213703, 0.03626238
};

// Weight 1, shape: (50, 200)
const double weight_1_sonar[] = {
-0.027711008, 0.039561898, -0.18312134, -0.30831057, 0.12040487, 0.2755598, -4.144329, 0.8310793, 0.5770679, -0.22614981, -0.036901213, 0.46273133, 3.2115602, 0.055538855, -0.01807996, 0.12825936, 0.52299356, -0.018020203, 0.5931438, 2.7139556, 0.3798585, 0.32878658, -0.4407644, -0.39274564, -1.2582804, -0.18404059, -1.6862451, 0.11548133, 1.4065328, -0.70783687, 0.17425723, 1.0101775, 0.15010826, 1.5319364, -2.184767, -0.56678295, 0.18084553, 0.1378895, 2.2488735, -0.04990282, 0.17060833, -1.3896146, -0.22750835, 0.25055617, 2.185175, 0.36207217, -1.2778826, 0.2667692, 2.326976, 4.55799, -0.43553784, 1.3776122, 0.08752954, -0.020733394, -0.7455818, 1.3649796, 0.6342844, 0.12883292, -0.09309754, -0.4416233, 0.22620347, 0.6950724, -0.75293076, 0.7705029, -0.085848235, -0.7705309, 0.18837065, -1.5207726, 3.2780325, 0.32520452, 1.5120623, 1.986928, 1.3651433, 0.91630834, 0.08429531, -0.0005365304, 1.1776204, 0.7755162, -0.26190394, -0.37395987, -0.74156374, -0.4622283, 0.051105723, -0.9933122, -0.24933937, -0.068193465, 0.01914905, 0.031566247, 3.837854, 0.2601704, -0.43086833, 0.12538256, 0.12848455, -2.4551182, -0.16105394, 1.4347805, 1.1938609, 0.2442545, 0.3097945, -0.06148542, -0.17455442, 0.12898856, 0.17957987, -0.017149549, 0.05636255, 0.10769793, 0.019351609, -0.6500985, 0.022193933, 0.0040183268, 0.81986105, 0.08915078, -0.03511384, 0.09071515, -0.028111275, -0.71636456, 0.026887348, -0.19868284, -0.025141733, 0.035964057, 0.08070677, 0.12347952, -0.078243606, -0.026046613, -0.415692, 0.063311115, 0.1757736, 1.1679314, 0.30947053, 0.0068901773, -0.013511194, -0.19464989, -0.030151613, -0.039097324, -0.2908805, -0.27509817, 0.013712175, 0.029936172, 0.05614913, -0.09970645, -0.093184255, 0.7918282, -0.1035591, 0.010564036, -0.055501428, 0.03946352, -0.22823061, -0.03630206, 0.11817616, 0.18281804, 0.13068378, -0.027387267, 0.33760208, 0.25437027, 0.15591349, 0.2566352, -0.6034872, -0.616009, -0.60017776, 0.14396383, -2.065697, -0.8116141, -0.43472454, 0.4993722, 0.06586865, -0.52361655, 0.16245571, 0.07471084, 0.041247614, -1.4424453, 0.12430279, 0.018997582, 0.2811732, 1.0212882, 0.25950557, -1.4669333, 1.8699334, 0.6446083, -0.70730394, -1.4283873, -9.243998, 1.3875543, 1.0685749, -0.25888056, -0.15215138, 0.11984087, 0.09077543, -0.14270295, 0.5412274, 0.004017059, -0.0014813574, 1.1352458, 0.112093054, -0.16235761, -2.1802871, 0.41655904, 0.7419492, 0.1101623, 0.24934974, -0.40029222, -0.027402453, 0.095357984, -0.82660437, -0.5375342, 0.16005117, 0.07255042, -3.20007, 0.3720591, 0.7205418, -0.04574324, 0.06828095, -0.19098717, 6.0350475, -0.25096852, -0.015886627, 0.17428169, 0.41384825, 0.08431415, 3.7298462, 3.090101, 0.15400867, 1.6440412, 0.10285722, 0.3007821, -1.2422924, -0.058091886, 0.36450136, -0.017933339, 2.020356, -0.58216983, 0.14993677, 0.20946911, 0.24082965, -0.13691917, -1.8008673, -0.772642, 0.15535572, 0.050152946, 1.3492597, 0.2509769, 2.7335622, -1.3088516, -0.051912874, 0.037063614, 1.9054569, 0.18255699, -2.5144799, -0.11118132, 2.676963, 4.3847036, 2.1562853, 2.009435, 0.119120106, 0.0757805, -0.4332266, 1.1632001, 0.39077374, 0.31720075, -0.060030755, 0.921718, 1.2607019, 0.22744784, -0.12516607, 1.7393295, 0.12683871, -0.5973166, 0.19342752, -1.2368121, 3.4135604, 0.25291938, 3.400902, 0.532309, 1.7754885, 0.16884682, -0.021932028, 0.03572172, 0.6015327, 1.2434856, 2.2205637, -0.22373088, 0.44765487, 2.6631896, 0.13937296, -1.172275, 0.10176751, 1.8438398, 0.032895368, 0.0186283, 0.8484794, 0.1445858, 1.7123938, 0.14441447, 0.15594447, 1.0491005, -0.025267113, 3.1803963, 0.9282242, 0.13857813, 0.30636093, 1.7785221, -0.12901089, 0.096591175, -0.09212312, -0.030327601, -0.104285285, 0.13012187, -0.014449656, -2.7892551, -0.1064645, -0.16468889, -0.75951356, 0.077371046, 0.0023300245, -0.03224496, 0.074941814, -1.7466162, 0.087607905, -0.042544357, -0.032100253, -0.048226293, 0.078679375, -0.05003199, 0.0654892, 0.08199154, -1.6647023, 0.01216908, -0.34808934, 1.9742609, 0.18168245, -0.048464924, 0.080356576, 0.49241698, 0.029816326, -0.03209786, -0.17372738, -0.26317602, 0.102660105, 0.029569572, -0.08333433, 0.05051171, 0.056407206, -0.28704676, -0.22088808, 0.05868452, -0.13929403, -0.07519589, -0.06839715, 0.13593532, -0.00452447, 0.086292215, 0.10691262, 2.1240568, 0.29804248, -0.4289643, 0.52007467, 0.18799712, -0.3200716, 0.22497152, -0.26003253, 0.11667939, -1.3952512, -0.7381449, -1.4524984, 2.7922373, -0.082171045, 1.8543297, 0.22230338, 0.23916471, 0.13854223, -0.10175137, 0.06988939, -0.1592641, -1.670871, 2.0478373, 0.08957545, 1.6717831, 1.3322308, -0.006774733, -0.00509795, -0.3492127, -2.7625325, 0.5320011, 0.68354, 1.492378, 1.3592892, 0.12093438, 0.0872693, -0.09767629, -1.1242992, -0.18599331, -0.09727687, 1.3269341, 0.2633878, -0.91662925, 0.29105687, 0.4132137, 1.3314015, 0.32852203, 0.043434754, 0.10781758, -0.15216249, -0.07825412, -3.4359636, 2.0265727, -0.020002393, 1.2992847, -4.56695, -4.0951824, 1.7942306, 0.1280332, -0.052325595, -0.2529447, 0.64702356, 0.20890455, 0.17602728, -0.1930204, 0.09711053, -0.043683764, 2.5103264, -3.6407645, 0.8259734, 0.4323364, 0.033653323, -0.07635815, -3.205488, 0.5141131, -1.4218066, -0.16149884, -0.84479815, 2.1199317, 0.025918182, -1.6047419, -0.18683253, 3.0827656, 0.91164833, -1.4537057, 0.24903387, -0.089915246, 0.62604123, 1.3559225, 2.215597, 0.07330365, -0.25787988, -0.0990361, -0.07042391, -0.06129821, 1.4337476, -0.055125307, 3.3380277, 0.8961816, 1.2134701, -2.1053915, 0.38919735, 0.065342724, -4.114447, 1.939888, -1.3909916, -1.6413292, -0.08879859, 2.51362, -1.8758907, -0.85990494, -1.9996232, -1.9354087, 0.018281307, 0.110683165, -0.19842531, -1.4679908, 2.9374118, -0.124149255, -0.016237296, -1.3157947, 0.6808039, -1.671987, 0.0671583, -0.15123601, 0.003596351, 1.1358758, 0.6240459, -0.19184256, 1.6266803, 1.3400964, -0.06371653, -0.82112986, 1.4556711, 0.2565508, 0.037628513, -0.03777798, 0.973067, -0.13216351, -2.846592, -0.11669242, -0.1637227, 0.53078246, 0.04131098, -0.00674387, -1.2576443, -0.12748079, -0.17806485, -3.36006, 0.35041934, 0.06237404, -1.6795217, 0.10879084, 0.04709756, 0.011091824, 0.04041183, -3.0640574, -0.09270765, 0.09575881, 0.4382151, -0.0992582, -0.04627623, -0.087361485, -0.010157835, -1.0798129, -0.023315072, 0.2285879, 0.087924436, -0.08439781, 0.07893875, -0.15537246, -0.014580069, -0.16601303, 0.14446938, 0.028973177, 0.68186146, -0.08038479, -0.6724669, 0.008977423, 0.06423529, 0.3719657, -0.0046718563, 0.027500669, 0.022749439, 0.13421932, -0.10596591, -0.020421458, 0.0025431146, 0.13123958, -0.107073806, 0.33719477, 0.06293644, -0.19372064, 0.31921935, -0.050614122, 0.061824907, -0.085358456, -0.12800714, -0.009873507, -0.0973917, 1.3285302, -0.07138879, -0.91720843, -1.6689932, -0.14000836, -2.0551026, -0.32398432, 2.1587322, 0.08567228, 4.2287455, 5.0589156, -0.8147585, 1.8678646, -0.027720341, 2.6577883, -0.008353763, -0.2710452, -0.17465146, -0.7175234, -0.051419113, 0.026968561, -0.91625106, 0.7020818, -0.11169191, 1.0582352, 3.080645, 0.068660006, 5.95237, 0.8015366, -1.0751208, 1.4793915, -0.88659465, -0.7111143, -2.4649143, -0.17490886, -0.28518188, 0.15312916, -1.0642383, 0.010361321, 0.14464328, -0.90886104, -0.15518431, 0.15571815, 1.1387155, -0.3032864, 1.9382734, -0.082515135, 0.2415145, -0.49696982, 0.049950425, -0.13151062, -0.746787, 5.0964966, -0.07174478, 6.0279546, -1.7117543, 2.551689, -0.4578346, -0.011714625, -0.046177212, -0.32416713, -0.9007593, 0.07079728, -0.0010527372, -0.1010958, -0.46340802, -0.09096917, 2.2160287, -2.9163086, 2.5454743, 0.05263097, 0.33507067, -0.28026843, 2.8199866, 0.10716732, -0.20870811, -0.12897576, 4.4087186, -1.1451975, -0.061410557, -3.511464, -0.026875807, 8.602273, 1.7975426, 0.20678642, -1.0109321, 0.025719399, 0.5494151, 0.63648325, -3.4514031, -0.9602838, 0.2152901, 0.046325922, 0.33408654, -0.09740366, 1.1026113, -0.052418076, -1.4389477, 2.3136978, 4.582994, 0.15429707, -0.4399616, -0.073563896, -1.0333433, 7.598289, -0.62568766, 1.5242027, 0.02485264, -0.18161927, -2.6172605, -1.215907, 5.248945, 0.47983095, 0.040898915, -0.47764757, -0.17885241, -5.528442, -2.666928, -0.25740674, 1.6656175, -2.633189, 1.0452238, -0.10667008, -0.030330995, -0.15953228, 0.02524024, -2.7138252, -1.9119473, -1.111769, 3.7710044, 3.481833, -0.03537236, 0.62311286, -0.05706911, -1.4590507, -0.052640148, 0.03819458, 0.49417907, -0.058507703, -2.0954547, -0.21320707, -0.121151924, 5.48085, 0.09855695, -6.2468886, -1.2069263, -0.17980365, -0.0682605, -1.0510424, 0.100587055, -0.1688958, -0.7715482, 0.07199839, 0.0040794974, 0.0034125624, -0.072248206, 0.41302752, 0.11890761, 0.12124978, 0.084489964, -0.12335739, -0.13629436, -0.0732782, 0.02129824, 0.50058895, -0.109202504, 0.087033756, 0.015000759, -0.106888875, -0.05878453, -0.16804075, 0.12892056, 0.014257699, -0.32677728, 0.07238035, 0.47547972, 0.37738833, -0.52689767, 0.1392357, 0.036797002, 1.2116287, 0.026094828, 0.07424281, 0.044471495, 0.78813416, -0.054440092, 0.01921647, 0.08342216, -0.044076186, -0.028880693, 0.5181508, 0.08168492, 0.030111637, 0.14279214, 0.025206557, -0.03690813, 0.06725558, -0.224267, 0.05130134, -0.05352256, 0.2222814, -0.14102711, -4.418719, -0.33658755, -0.18590108, -0.13953152, -0.19070207, -0.6411329, -0.118933566, 3.3368397, 3.9621398, 2.0766008, -0.13382772, 0.062006157, -0.14869352, 0.0532286, -0.36872026, -0.07513298, 2.5865655, -0.08842116, -0.09811046, -3.15644, 1.1180192, -0.11092452, -0.9571953, 2.8352509, 0.45507917, 2.913735, -0.031104026, -0.73999923, -0.87470555, 0.29654446, -0.01603768, -2.5865064, -0.018614404, -0.12775412, -0.9489892, 1.6717525, 0.008675329, 0.18368337, -5.88831, -0.06620244, 2.3063085, 4.8256383, -0.18524703, 1.0583837, -0.119879656, 1.6315401, 0.52066094, 0.1503474, 0.11046155, 0.89337105, -1.043788, -0.059229024, 1.6482496, -2.657399, 3.484537, 0.20566724, 0.14543217, -0.110326014, 0.15111902, 2.0863624, 0.06445572, 0.005404584, 0.106033474, 0.41906235, 0.05973254, 1.0194281, 1.5387098, 0.21986467, 1.8355752, 0.58001715, -1.1843808, 0.22529507, 1.0456179, -1.4764662, -0.047485653, -0.93287253, 2.3815362, 0.16597714, -1.462503, -0.0673023, 2.330629, 0.30529243, -2.3298025, 0.13547307, 0.23022602, -0.50373465, 0.5302166, 1.3316685, 1.3490623, 4.4444804, 0.09749241, 0.561587, 0.5644272, 1.0794269, -0.0014259, 2.3133597, 4.2120447, 3.1130075, 1.8134528, -0.052482683, 0.16274242, -1.1045609, 1.8210732, 0.583929, 0.35384044, 0.00039492745, -0.2679594, 1.8843044, 1.4527634, 5.1248302, -2.1607573, -0.14398573, 1.7550011, 0.03993357, 4.034579, 4.105756, 0.48822564, 0.11908554, 1.4175535, 1.1364226, -0.16824727, 0.059361868, 0.14918596, 1.434447, 0.444195, -0.9629301, -0.75754946, 3.370692, -0.7124467, 0.05711102, 0.97675675, 0.87892425, 0.85169876, -0.06527954, 0.072117865, 0.37785405, 0.14000055, 4.9498, 0.047512233, 0.024632992, -1.2572652, -0.22763203, 1.8636603, 3.6920726, 0.13551885, 0.05010978, -0.9835336, 0.053882744, 0.13362876, -0.6247323, -0.09527903, 0.10982688, 0.10182066, 0.15496853, -0.5952095, 0.04635301, -0.051717162, -0.58299494, 0.15595438, 0.11696561, 0.12578607, 0.13848875, -1.6668246, 0.15809868, -0.06853883, -0.13703823, -0.16761836, 0.047242425, -0.0796133, -0.06653343, -0.0383013, -0.40881205, -0.04719558, 0.8385067, -3.4434555, 1.0223801, -0.09567723, 0.07606464, 0.1788316, -0.052743223, -0.025023136, -0.1534073, 0.800897, 0.057316247, 0.07541281, 0.038594045, -0.07300741, 0.041764084, 0.46681997, -0.04355021, 0.07796716, 0.091178164, -0.03744497, -0.15354465, -0.04354945, 0.1640002, -0.12234072, 0.08046821, 2.4512427, -0.03873541, 1.568307, -0.0074073295, 0.093468696, -1.1698362, -0.022640605, -0.96157414, 0.14345807, 2.5761788, 4.7646785, 0.55452377, 2.4542346, 0.14334701, 1.6759982, -0.039465982, 0.092618756, 0.02120711, -0.6796718, 0.2946128, -0.08637862, -0.6336072, -1.3553547, 0.011848485, -0.7005376, 2.1201017, -0.47713867, -2.6141264, -0.08916103, 2.5054884, 1.3212746, 1.412483, 1.7850367, 1.632349, 0.06542777, 0.21842617, -0.16697267, 1.4166796, 0.08772215, 0.35073778, 1.8974319, 0.22504134, -0.8350163, 0.4479976, 0.64591235, -1.6074247, -0.001663537, -0.19837001, 1.6331661, 0.22100528, -0.025472455, 0.5455041, 0.1893059, 0.10013889, 0.85167295, -1.8863438, -0.032070912, -0.009252489, -0.09292102, -0.040131446, -0.63082576, 2.298541, -0.2374048, -0.010669675, 0.06131497, 0.42320827, 0.05815906, -1.2771916, 2.909805, -0.40261015, -0.039657716, -0.4130482, -0.12232097, -1.0906835, -0.02935362, -1.3893496, 0.11090334, -0.68402624, -0.37665883, 0.1348624, -0.4602165, 0.15962155, -2.8635013, -1.0532299, -0.18371703, 1.0746926, 0.1980975, 0.37463912, -0.5602295, -1.9146085, -1.2295026, -1.9360018, 0.1019801, 1.1480802, 0.014753423, -0.61821777, 0.019950753, 1.9501779, 3.9684846, 2.7771711, 1.2527266, 0.15777566, 0.15627553, 0.9658825, -2.6488116, 0.05674706, 1.6264684, -0.044174172, -0.83877414, 1.7854178, 1.0408801, 0.07514083, 0.42400584, 0.013462779, -0.37599796, 0.045490474, 0.22233629, 0.3556485, 0.23029482, 0.5163373, 0.5237678, 0.5716642, 1.5253531, -0.010030473, 0.10756033, 0.11649455, -0.10579426, 0.04010085, 0.017213909, -1.4346828, -0.7824888, 0.1646708, -0.26408616, -0.24658106, 0.7289968, 0.119316, -0.028978223, -0.45205298, -0.010749325, -1.1131922, 0.014397674, 0.13117719, 0.50903636, -0.11700953, 3.1213238, -0.08205505, 0.1241345, 0.1688464, 1.4471947, 0.0007298985, -0.011594494, 1.0735432, 0.01775427, -0.09770305, -0.026716657, -0.048040796, 1.8710955, 0.12038881, 0.00052869227, -0.036740754, 0.11605584, 0.040954903, 0.18528149, 0.01440752, 0.9687236, 0.031610724, -0.05006893, -0.037833888, -0.037992716, 0.08293114, -0.1065826, -0.023912337, -0.0739033, -0.6929546, -0.08893949, -0.4097267, 1.9370439, 0.2951186, -0.06783051, -0.01996446, 0.37769207, -0.01937523, 0.07210389, -0.11874083, -0.041461587, 0.15985952, 0.06622031, -0.031901475, -0.0008623749, 0.087154225, 0.10930528, 0.01911682, 0.034783695, -0.0448979, 0.003704575, -0.14764726, -0.0035017964, 0.015107345, -0.023732403, 0.023211617, -1.6284406, 0.044480897, -1.4015445, -0.45691457, 0.1533, -1.3600336, 0.25086766, -0.07019744, -0.02418432, -1.9340243, -0.34456524, -0.21512523, -2.118394, -0.10512578, 2.7016308, -0.020420732, 0.20933898, 0.07411791, 0.52220446, 0.22031239, -0.0525285, 1.2093663, -0.72537917, 0.2551887, -0.5812426, 1.9963642, -0.38502678, 0.10343122, -0.18772902, -1.7455642, 0.6537554, -0.30187672, -0.07570028, 1.1155233, 0.12276139, 0.060437016, -0.13761248, -1.2273751, 0.003492771, -0.30914292, 1.3073815, -0.024229359, -0.021571606, -2.776566, 0.08798414, 0.34467837, 0.11993409, -0.013939918, -0.08607982, 0.094080895, 0.052702364, 3.7140195, 0.8194701, 0.14332505, 3.1404293, -8.4008875, -0.84868884, 1.3758166, 0.1496726, 0.14680737, 0.10082188, 7.270371, 0.37971064, -0.13616173, 0.07068297, 0.09044731, 0.03801771, 2.4153636, 1.9565837, 0.515503, -0.40729913, 0.26090908, 2.479527, -0.062399466, 1.7209928, 4.2295876, 0.04068326, 2.4439948, 2.7299142, 0.23931511, 1.024178, 0.10064609, 5.64311, 2.9530606, 1.3096406, -2.1477873, -0.039857138, -1.0316752, 1.6637028, -0.52381355, 0.40746295, 9.841951, 0.04334642, 2.9376512, 0.27046213, 0.7469867, -0.059481874, 4.4926577, 3.7276165, 11.176972, 3.6943579, 0.07903446, 0.11178149, 3.3521764, -2.1622245, -3.7435331, -0.094381504, 0.10599077, 5.5043516, -8.490371, -0.14597207, 0.16244577, -2.4055269, 0.080624245, -2.1873863, 0.28293237, 1.6214215, 13.909742, 0.6629416, 2.7832477, 1.2144192, -0.34035227, 3.1001513, 0.099381514, 0.032075506, 0.57446426, -2.4437222, -0.65296614, -2.0374484, 3.9617145, 1.4252131, 0.10341366, -0.7173929, -2.8524122, -0.20469461, -0.0016582878, 0.11267503, -1.5472769, 0.10589092, 5.0524316, 0.11919732, -0.08816879, -1.7720611, -0.03621686, 6.5412755, 2.4277742, 0.28860494, 0.02184184, 4.585597, -0.35023785, 0.10117301, -0.24395303, -0.05603685, -0.06422313, 0.034621753, 0.07070665, -4.7671113, -0.057026364, -0.004471637, -0.01578589, -0.1060961, 0.08132138, 0.13207869, -0.00015574138, 0.64291936, 0.056233335, -0.16134037, -0.07000374, -0.0059555336, -0.04918971, 0.062855154, -0.0101427445, -0.03650449, -0.08647398, 0.049863093, 0.06142452, 0.4104226, 0.15359594, -0.015591352, 0.08679447, 0.29440266, -0.07302944, -0.0666894, -0.07524429, 0.34186807, 0.005483053, -0.069751754, -0.04292799, 0.06559642, -0.0034152376, 2.181507, -0.054985967, 0.23403022, -0.19914523, 0.075701505, -0.22819227, 0.009368024, 0.181208, 0.0075893486, 0.048242643, -3.149772, 0.3865101, 3.3482397, -0.07056147, 0.178895, -1.2421818, 0.13445301, 1.3973172, 0.27815908, 1.1910695, -1.5243549, 2.0008945, -0.20318584, 0.07006373, -0.5429653, 0.20686783, 0.31217307, 0.3130067, 3.858258, 0.38866162, 0.032516036, 0.4099799, -0.78243005, -0.0016899623, -4.533613, 2.553874, 2.6402385, -2.6736696, 0.4457886, -2.142842, -0.57730436, 5.3619533, -1.1708457, -5.6040587, 0.3020178, 0.12689085, -0.29299903, 2.101552, 0.058517586, 0.54123056, 1.6964025, 0.30789894, -0.37920547, 8.778482, 0.63897496, -0.27762726, 0.20824125, 0.73042905, 0.28754172, -0.06142014, -0.20768647, -2.1327496, 0.727571, 0.03189067, -2.6604683, 1.0537474, -1.4018617, 0.66060054, -0.3129914, -0.19549692, -0.15401295, -3.480092, 0.013040362, 0.024150133, -0.11414819, -0.53865165, 0.00434217, -2.3077908, -3.256513, 0.3186991, 0.753022, -0.49083143, 1.3601997, 1.1192906, -0.15029933, -1.2197357, -0.07131275, 0.89719844, -8.754248, -0.18199745, 1.5874668, -0.11500755, -3.571742, 1.5045288, 0.7708057, -4.5501637, -0.044472948, 3.2197528, -0.12651616, -1.8637033, 0.105105974, -0.7175198, -0.0963376, -5.1699877, 0.39368558, -2.3684306, -0.100234956, 4.6615367, -2.128311, -4.5587196, -12.1859865, -0.16887604, 0.071134746, 5.085522, -2.7540562, -2.2426887, 1.9688617, 0.053837776, -0.41101715, 0.851815, 0.49119836, -3.2968786, 4.921453, 0.018517701, -5.8469124, -0.16541672, -0.5760219, -8.43635, -0.29410142, 0.22092201, -2.5398974, 0.13879587, 7.779905, 0.020498568, 0.014589841, -1.1853323, -2.8146589, -1.1514508, 0.27458745, -0.5707781, 3.0959375, -0.008321783, -5.4107647, -2.5241566, -1.6434952, 0.09175241, 0.044863474, -3.0714672, 0.035946622, -7.5628996, -0.047844782, -0.09658638, 2.5376046, -0.3641586, -4.713859, -1.3419591, -0.11863334, -0.10998664, -5.30555, 0.17923528, -0.20533459, -1.7648609, 0.0036508122, 0.017045598, -0.048942655, -0.11002624, 0.70524496, -0.010007407, 0.078040496, 0.2864543, 0.002989736, -0.009980142, -0.16900319, 0.057402745, 2.0548584, -0.17585963, 0.109420866, -0.012822771, 0.040349897, 0.031394772, -0.015096804, -0.022770528, 0.07078227, 0.95356494, -0.06342264, -1.5573642, -0.69351166, -0.11321343, 0.16320947, -0.102662586, 0.20796432, 0.033720642, -0.082406916, 0.144392, -0.41783243, 0.12546276, -0.09014528, -0.028002363, -0.08657117, 0.09686298, -0.026547968, 0.15192792, 0.08728172, 0.30467847, -0.012832111, 0.069070734, 0.0017307382, 0.008907594, 0.059958987, -0.017191395, -3.930157, 0.108836584, 2.4891658, -1.8486837, -0.18710063, -1.7916151, -0.8065007, -2.1101027, 0.08747485, -5.9437532, -0.3532754, -3.6861753, -2.7387805, -0.098595895, -1.0690682, 0.012215284, -0.27706233, -0.0016960984, 0.16117549, 0.00645452, 0.019821398, 2.694667, -2.0094335, 0.068868555, 1.1822101, -3.3752608, -0.28242674, 0.8247607, 0.32001203, -5.475619, -0.9816988, -3.0682292, 1.4307119, 0.96768665, -0.15579262, -0.14924453, 0.5221438, 1.9011942, -0.06447318, -0.22679533, -2.2099621, -0.49859205, 1.3380667, -5.363413, 0.016525058, -0.2710792, -0.28631002, -0.26923, 0.0030567152, -0.06231607, -0.121376835, 1.6665725, -1.4980887, -0.037611444, -0.4571759, 5.451165, 1.9481473, -8.572515, 0.015724644, 0.047430884, -0.44671103, 2.9491377, 0.023597194, 0.0010125376, 0.0046641473, 0.3731121, -0.10888498, 1.3988497, -1.7424775, 0.21692346, 1.4334035, 0.70204383, 2.6379519, 0.49323002, 6.422839, -0.82134014, -0.002175081, 0.17654426, 1.6627867, -0.006575488, 1.6720897, 0.012703549, 3.7676308, -3.9896715, -0.43133968, -1.3637801, 0.09279816, -6.5217547, -0.55787915, 0.016944675, 7.7447734, -2.1857288, -0.06737957, 0.37825504, -0.046105806, 0.44869933, 0.029121937, -0.055468094, 0.14177851, 4.9945116, 5.9971848, 0.04473682, 0.10810389, -0.040278696, -1.5158616, 2.1825023, 0.7517838, 0.0044196155, -4.0743675, 0.31424007, -0.96233004, 0.8590345, -1.1484681, 0.010474309, 2.1173682, -0.04287816, 0.124896035, 3.851191, 0.08809186, -2.6978443, -1.4938587, 0.91028285, 1.5856256, 0.028597651, 0.015923128, -0.038521137, 0.53006077, -0.17356512, 0.76579404, 1.7961525, 0.30342153, -0.020028241, 2.7917078, 2.0797641, -0.013159596, -0.09246023, 0.0017649326, -1.7134455, 0.03110381, 2.8120608, -0.12742537, -0.032708976, -0.7451378, 0.086375915, 1.9667118, 1.7986, 0.026321217, -0.09844145, -5.0936384, 0.03324115, -0.1432061, 0.279923, -0.035389706, 0.033510543, -0.10025826, 0.014928269, -0.28288808, 0.1715254, -0.020568687, -1.0175796, -0.007893501, 0.07906469, 0.0017465809, 0.05361628, -1.5189173, 0.04070135, -0.08021537, 0.058989182, -0.044249672, -0.018587254, -0.05530687, 0.081215225, 0.05213681, -0.49120295, 0.13372144, -0.019382654, -0.07652488, -0.02009969, -0.01181924, 0.08425615, 0.09641409, 0.13931559, -0.14157459, 0.12406222, -0.24895255, -0.008672332, -0.032443073, 0.031416167, -0.09915124, 0.033439465, 0.81930375, -0.21044922, -0.040176805, 0.032247208, 0.11029406, 0.0035292613, 0.01598939, -0.1044227, -0.049397398, -0.059969023, 1.1392992, 0.14788374, -3.3522115, -1.6013615, -0.04001993, 3.5271215, 0.017567977, -0.29663327, 0.06666673, 1.8295143, -0.9046212, -0.15675056, 2.513416, -0.060561974, -1.5931392, -0.084388435, -0.057719022, 0.011839611, -1.3511548, -0.0413392, 0.048255086, 1.3628368, -1.3526077, -0.09034721, -0.30781528, -0.56045854, -1.5100479, -3.4597569, 0.0011773013, 0.14091466, 1.1950905, 0.7688166, 0.3046906, 4.1784635, 0.03531149, 0.022158623, 0.11827139, 6.120762, 0.08408433, 0.05531323, -0.072167054, -0.012669745, -0.12558132, 0.8239057, -0.010172422, 0.11450357, 0.058101, -0.12923135, 0.3708711, -0.14423114, -0.07436334, 0.31396136, 0.24827693, -0.051536992, 0.10913119, 3.8281348, 0.2740506, -0.31153554, -0.02583548, -0.062332354, 0.13135855, -3.8342016, 0.2397561, 0.010897132, -0.13847464, -0.33309653, -0.098289125, -0.75243485, -1.70972, -0.28242666, 0.7761228, 0.25622365, 0.6409549, 0.45815027, -0.8902059, 0.54904693, -0.10189682, 0.36614522, 0.32267863, -0.0539239, -0.3642148, -0.15552177, 0.28402907, 2.1808548, 0.4160612, -0.08560105, -0.14713292, -2.517425, 0.4818458, 0.055567924, 0.93382126, 0.1457902, 0.025870984, -1.4773316, -0.1764419, 1.4789428, -0.061609626, -2.988553, -4.503635, -2.2219572, -2.5083358, -0.04430454, -0.03731346, -0.76127595, -0.18019363, 0.6251851, 0.32218558, 0.09531353, 1.8513726, -1.0526085, -0.9537916, 1.1471947, -0.96539474, -0.14324671, 0.44639006, -0.20691155, 0.76158714, -0.8139997, -0.14003302, -1.9899313, -1.1061852, -0.42449218, -1.3890703, -0.02946132, -0.03753212, -0.3162865, -1.1450688, -2.7611012, -0.10070527, 0.21689995, 0.13553962, -0.05097902, 1.2520745, 0.9227177, 0.1121688, 0.0190839, 0.054686446, -2.3773322, -0.20173612, 0.27229065, -0.07153414, -0.011347272, 1.898578, 0.078816876, -1.5912205, 0.38315716, -0.12750438, -0.23085013, 0.8821865, 0.19545726, -0.09141934, 0.17858179, 0.13326715, 0.03826406, -0.17238136, -0.21491957, -0.61655915, -0.041879512, 0.054128747, 0.09375803, -0.04972862, 0.011413884, -0.12885518, 0.07060894, -0.22624944, -0.0787389, 0.16179062, 0.1751265, 0.11170141, 0.028917994, -0.018225001, -0.035426375, 0.05739727, 0.27378058, -0.02018882, 0.3504554, -0.9128263, -0.4188901, -0.073322445, -0.16327831, -0.22497739, 0.055108715, 0.067459926, 0.08961069, 0.14968477, 0.018342603, -0.109836675, 0.120536916, 0.058725215, 0.03869588, 0.10812258, 0.112051286, -0.2665323, 0.13613996, -0.14216061, 0.0696658, 0.008349704, -0.12884913, 0.0016195396, -0.118096374, 0.3521627, -0.08805871, 0.2702184, -0.069548845, -0.14144671, 0.43887737, 0.727369, 0.5013198, 0.054785814, 3.3406374, 0.38020253, 1.6132106, 0.03135807, -0.00876398, 0.8957564, 0.002069868, -0.12749545, 0.04993828, 1.8903618, -0.03152716, -0.032771103, -0.23404688, -0.1674477, -0.13914435, 0.15914464, -2.0549064, 0.08922983, -0.36496997, 1.7094647, 5.551773, -0.6706042, 0.21848713, -0.21968271, -0.20896786, -0.13877884, -0.09159392, 0.10155334, -0.42277548, 0.084480494, 0.23670483, -1.2755511, -0.020546155, -0.17418098, 2.59674, -0.21441558, 0.021505851, -0.046592776, -0.074105226, 0.2797013, -0.13615431, -0.15855275, -0.4786612, 0.2786604, -0.06841091, -0.56616545, -3.8612115, -2.02769, 0.6403445, -0.08671041, -0.010646385, -0.09312398, 0.9267631, -0.19439517, 0.0085205715, -0.06782967, -0.63750845, 0.058903836, -1.4654808, -2.8368933, -0.15379907, 1.7858875, -0.34396398, -0.15309474, -1.7546262, -0.06788499, -0.17158012, 0.076974, -0.46950924, 0.34771347, -0.20857796, 0.8555172, -0.11148471, -4.200465, 0.088146426, -0.40366897, -0.097142346, 0.06443075, 0.023151504, -0.48598936, -0.6024618, -1.5263927, -0.8425516, 0.010960649, 0.012911181, -0.2710114, -4.695349, 0.060629025, 2.109002, 4.7331195, 2.5356917, -0.14233565, -0.11227184, -0.0031921528, -0.5945414, 0.6898829, -1.3203901, 3.31351, -0.08590908, -2.1278875, 0.860914, -0.23070894, -3.1628003, 1.72911, -0.12886845, -0.07854824, -0.1733955, -0.5418516, -6.1005416, -0.43346176, 0.70363796, -0.66207075, 0.4049516, 1.1497616, 0.012230229, 0.15446995, 0.68157107, 0.81056947, -0.9471389, -0.19605659, -0.39398363, 1.1756388, -0.037574563, -3.3405788, -1.4793159, 0.07693063, -0.009223216, -0.107192606, 0.6059256, -0.08401659, -3.2286527, 0.0052131126, 0.043700907, -4.0083165, -0.40072945, 0.12925819, -4.235259, -0.109166615, 0.023913756, -2.6151645, -0.71889204, -0.023129374, -0.49575648, -0.16813569, -0.32643914, -0.113356695, -0.24031316, 7.0932407, -0.038925834, 0.11743693, -0.22707818, 0.082478575, -0.1739586, -0.09411458, -0.046874125, 1.4517537, -0.08902641, 0.09210887, 0.07108613, -0.050958656, -0.07940079, 0.08048427, -0.01045887, 0.003654155, -0.47774678, -0.14969027, -1.3280884, 1.2940073, -0.17805007, 0.027109897, -0.18067749, -0.22483486, 0.114906825, -0.008437597, 0.16027297, 1.0079645, -0.024317414, 0.13495667, 0.00766431, 0.0627581, 0.047968805, -0.6516483, 0.04106305, -0.017157575, -0.20871334, 0.024076946, 0.22342378, 0.049078442, -0.11190696, -0.011102935, -0.04725578, -3.0189664, -0.030736094, 2.5761478, -0.1931071, -0.12618819, -0.1060353, -0.37954012, -2.2771776, -0.05615531, 0.37563106, 0.6313497, -0.097077265, -1.9171107, 0.021254037, -1.0404891, -0.006096469, -0.14380507, -0.0973944, -0.48274857, 0.13826963, -0.055501074, 1.5501715, -0.9981083, 0.18887258, 0.5402952, 2.9917939, -0.730025, 1.6580418, -0.100317374, -3.6656482, -3.0800238, -1.2835697, 0.6182491, 4.407623, -0.115989126, -0.13488784, -0.22677542, 1.1627893, -0.08672171, -0.38493142, 1.1312339, -0.047788095, 0.55905634, -1.8005329, 0.050931346, -0.67486304, -0.07222656, -0.21655011, 0.21485107, -0.039125398, -0.096732885, -2.4576528, 0.6643974, 0.04417878, -0.9504332, 4.39159, 3.7028918, 1.7167997, -0.11007862, -0.14434567, -0.87461793, -2.2357686, 0.0006709818, -0.027517121, -0.40990227, -0.0024370374, 0.20981303, -5.6193795, -2.0595484, -2.747317, -4.5013986, -1.3691826, 1.0707653, -6.3845468, 6.196998, -0.33257294, 0.0008404941, 1.0781583, 8.177245, -0.12730269, -0.6519721, -0.043660607, -1.1029016, -0.7153372, 1.3742874, 0.97408736, -0.026134737, -1.7867793, -0.9130774, -6.0608006, -5.151575, 7.844966, -0.008339875, -16.100931, -0.09742438, 1.8056562, -0.19007394, -1.1297548, -4.2676883, 8.346847, 0.7366973, -0.099016584, 0.0671147, 2.4315135, 2.154431, 2.7426794, -1.9276805, -0.011694208, -3.3984387, 2.5092447, 6.1946077, -0.6746578, 1.5505112, -0.0019581958, 0.5342074, 0.016340313, 13.495901, -6.935123, 0.08607164, 2.2552671, 0.67572874, -0.09716938, -2.892418, -0.11701047, -0.008549399, 0.0055865664, -4.39922, -0.41811696, -2.3763475, -0.23720485, -1.5435432, 0.00057316455, 1.4527074, -2.7734575, -1.4638718, -0.062720865, -0.09493212, 0.22946902, -0.017021978, 5.3935018, 0.22735317, 0.09924928, -12.081122, -0.1936267, 6.9836855, 3.0597754, -0.104082994, -0.012330872, -0.44003877, -0.10821944, -0.018553862, -0.78746974, -0.021839237, -0.07653768, 0.045492034, -0.033373736, 2.2335908, 0.032256495, 0.13420299, 0.70955, 0.046708338, -0.03485533, -0.06617559, -0.07341745, 3.422004, 0.028669165, -0.06765681, -0.053257737, 0.025968952, -0.0034281975, -0.05416263, 0.038137957, -0.03139139, -2.086681, 0.07513726, -1.1766171, 2.9392369, -0.5647074, -0.015721906, -0.08139574, -3.1845593, 0.1518669, 0.051985696, 0.021293843, 1.7810037, -0.019509237, -0.019010572, 0.12754245, 0.018542018, -0.18754955, -2.6694, 0.12331664, -0.08051469, 0.034002095, 0.08507486, -0.02935452, 0.08421764, -0.02221513, 0.07420179, 0.01439888, -5.8968596, -0.109758206, 10.432459, 1.6323467, -0.05080788, 2.3924959, -0.42618206, 1.9090773, 0.0007288915, -9.84908, -1.1389896, -2.592408, -6.6542425, 0.08095737, 0.8075027, -0.16442734, 0.050984245, -0.006117871, 1.2734898, 0.10991542, -0.06523024, 4.3550453, -7.319044, -0.33383444, 2.414577, -5.7564545, -0.35221985, -6.5440574, 6.6763906, 6.73779, 0.44423112, -0.037440438, 0.65384, -5.588222, 0.024939548, 0.05847406, 0.21534705, -3.6223977, 0.045936424, -0.18602706, -1.2023574, -0.034315806, -1.8750802, -0.2823843, -0.10984443, 0.80409986, 0.13368253, -0.5310644, -0.19438009, -0.020553973, -0.1046886, -0.7773905, -0.05727733, 0.212511, -0.0693075, -3.114412, -0.29646298, 0.21704657, -0.25024348, 0.10086725, 0.30802822, 3.2426555, 0.041980054, -0.008786811, 0.06949307, 0.31777036, 0.13059637, 1.2907449, 1.4488341, -0.3682206, 1.3124864, 0.054136455, -0.6053269, -0.014614292, -1.3094472, 1.1985651, 0.008425319, 0.18297654, -0.8555958, 0.036679965, -0.79963475, 0.019563057, -2.7681015, -0.77956253, -0.38697943, 0.84124887, 0.10450628, 0.94014096, -0.6147883, 1.6152552, -1.163564, 1.0094727, 0.08083186, 0.94485897, 0.19182156, -0.73969644, 0.3075522, -0.6645288, 4.244111, 2.2771223, 2.6375165, 0.17171262, 0.035386603, -0.08084433, 0.7472748, -1.0411481, 0.9425686, -0.017305348, 1.4459312, 0.64072806, -0.09982568, -2.0747507, 0.25658926, -0.09056042, -0.40344203, 0.27906242, -1.0618545, 3.8139446, 0.21901233, 1.4909825, -0.475211, 0.611055, -0.4399734, 0.1200778, 0.15590686, 0.74576104, 0.77936304, 1.6418281, 0.19756046, 0.75862324, 0.4017507, 0.2658514, 1.068721, 0.115215294, 1.2374134, 0.04310727, 0.122059405, 2.9585397, 0.5362873, 0.680259, 0.09361891, -0.071516596, 2.23568, -0.20774977, 3.5696254, 1.0447434, 0.48463023, 0.18055198, 0.96933484, -0.22084734, 0.040361695, -0.17065087, -0.11256312, -0.02297078, -0.073713824, 0.020105295, -1.1215708, 0.0019333329, -0.0067328457, 0.07289918, 0.17248301, 0.08516912, 0.17408457, -0.03667896, -0.7255952, 0.026580527, -0.0044944156, -0.04683822, -0.03282681, -0.12358673, 0.05146778, 0.17517014, 0.054711975, -0.3840018, -0.008755935, -0.48512816, 2.5535426, 0.4351563, -0.08212452, 0.052913386, 0.15739945, -0.06435858, -0.07876713, -0.17115088, -0.44730794, -0.043142524, -0.019192973, -0.004192017, 0.010290732, -0.08209024, 0.25940716, -0.16743279, 0.20808905, -0.014765178, -0.074348524, -0.065296225, 0.042902134, 0.12173593, 0.10174795, 0.19935876, 1.0623766, 0.030813005, -0.49815133, 0.47498193, 0.18853386, -0.19268225, 0.2701741, -0.44192815, 0.17356564, -2.1963909, 0.14354052, -0.98327273, 1.3271513, 0.04445485, 0.26223338, 0.11369943, 0.18549405, 0.13272898, 0.74863034, 0.17859232, -0.0111743575, 0.08750188, 0.6105457, 0.26058817, -0.40554732, 1.8315616, 0.6416287, 0.26718116, -0.0076899715, -0.08354939, 0.15296711, 0.12316196, 0.13852155, -0.8733263, 0.031253748, 0.090797044, -0.10569154, -0.7494871, -0.0095026065, -0.17058483, 0.27259856, 0.063698314, -0.77003396, 0.84307045, 0.18538462, 0.87276924, 0.18366088, 0.01111408, 0.18998766, -0.018940955, 0.06716858, -0.86224073, 0.14032318, 0.0035029089, 0.20356168, -1.6191628, 2.0552816, 0.8871813, 0.08011171, -0.0044465093, 0.127791, 6.0954366, -0.15293598, 0.06976446, 0.06298373, 0.32520044, 0.13603623, 3.7716494, 2.2303674, -0.8159533, 1.8980387, -0.1603707, 2.0453928, -1.26483, -0.6847512, 1.6990851, 0.04653416, 0.9166726, 0.4238439, 0.10172905, 0.056905936, 0.037782345, -1.3167441, -0.45640934, -0.0068695843, -0.8332363, 0.120401405, 1.2804623, -0.0373823, 2.0288165, -0.6607424, -2.82419, -0.06564569, 4.062819, 0.21863043, -1.3767956, 0.080702916, -1.381644, 4.316538, 3.1110528, 1.5727222, 0.15710261, -0.02255337, -0.30695277, 1.0299563, -0.39140722, 1.4183139, 0.016052809, -0.3520593, 2.1583993, 0.21672727, 0.27549237, 5.365005, 0.01595863, -0.66190153, 0.07025153, -0.84948975, 4.466206, 0.23494309, 3.4283292, 0.73849475, 1.1796145, 1.4041213, 0.056275763, 0.12368358, 0.48140517, 1.9980577, 1.6910766, -0.018792754, -0.60776967, 1.5124977, 0.009305534, 0.20500532, -0.82984924, 2.3325675, -0.012145082, -0.09073665, -0.84162885, 0.15210055, 1.275704, 0.16474546, 0.19699666, 0.17063993, -0.07023867, 3.063893, 1.1065243, 0.04233201, 0.14220396, 1.1976713, -0.17836814, -0.049520705, -0.20772214, 0.14510265, -0.13686731, -0.1400747, -0.038876094, -1.508881, 0.045345366, -0.035632316, -1.0077003, -0.021326268, 0.025306927, -0.13529389, -0.053515136, -1.652315, -0.11644554, 0.036298905, -0.18660428, 0.035082065, -0.052392803, -0.03818751, 0.07329315, -0.09444695, -1.4910505, -0.07586595, -0.38139945, 2.0040812, 0.32679808, -0.052990608, -0.02697606, 0.13886213, 0.0684867, 0.13501981, -0.094761655, 0.0278098, 0.0065025683, 0.039328247, -0.118391566, -0.0028334502, -0.02139323, 0.4576164, -0.06110874, 0.056212444, -0.09041886, 0.047270674, -0.1377317, 0.091113545, 0.091337495, 0.14729005, 0.18418533, 3.2815325, 0.19196168, -0.98418504, 1.9168712, -0.01076062, -0.39797303, 1.2081395, -0.021659324, 0.09006189, -6.2745314, 0.12414101, -0.93799555, 2.272949, 0.1103984, -0.25232613, 0.048882723, 0.1506657, -0.024654731, -0.26840526, 0.14874974, 0.07160397, 1.7919945, 0.07774672, 0.12807931, 2.6242912, 1.8085941, -0.3488136, 0.781289, -1.909534, -0.4584813, 0.8719317, 2.3433998, 1.4034315, 0.5537691, 0.162405, 0.09828209, 0.05141997, -1.3866901, 0.09253737, -0.1707059, 1.141044, 0.16744864, -0.7192521, 0.8890859, 0.24432506, 1.1086736, 0.04331866, -0.12411177, 0.3181152, 0.08382836, 0.015589254, 0.044288684, -0.04382908, -0.058396205, -0.05179361, -0.006210785, -0.059070293, 0.02889979, 0.020586343, 0.0061739655, -0.05890311, 0.016215377, -0.15575022, 0.04509914, -0.1523927, 0.00955548, 0.03244802, -0.04976314, 0.057035685, 0.03264548, -0.069771186, -0.043079197, -0.02735475, -0.009671266, 0.017320119, -0.004463142, 0.08386642, 0.03799604, 0.0352057, 0.067603886, -0.058193147, -0.17284764, -0.014026114, -0.12111947, -0.0071660285, -0.03908884, 0.037390403, 0.07439844, -0.007816719, 0.018686647, 0.010818948, -0.019029861, 0.065770805, 0.033860303, 0.0438777, -0.09346678, 0.075579636, 0.0141485315, 0.026803665, -0.005053508, 0.03074953, -0.0017811962, -0.02303641, 0.04947175, 0.06392761, 0.04106133, 0.088595375, 0.19005743, -0.05729415, 0.05439532, 0.0043569566, -0.1448414, 0.02150256, 0.060105935, -0.0057655983, 0.13424474, 0.12129453, 0.022117443, 0.007906174, 0.06896453, 0.06124734, -0.024126433, -0.062092837, 0.008836578, -0.029204747, 0.003549106, -0.075300224, 0.10400481, -0.12306503, 0.05183067, -0.026550042, 0.07121329, 0.072469845, -0.16912441, -0.07759599, -0.030578453, 0.0021836702, -0.06762774, -0.06372997, 0.016439697, 0.042349506, 0.05965337, 0.10756141, 0.04788715, -0.033092905, 0.07460792, -0.039231006, -0.07740392, 0.10129001, -0.14950934, 0.04362587, 0.16503684, 0.09060556, -0.13157965, -0.015490998, -0.014055967, 0.10910467, -0.013445721, -0.027746245, 0.030300487, -0.030783067, 0.010924833, 0.02439518, 0.090626985, -0.073798634, -0.07333182, -0.1384717, 0.03853945, -0.044088695, -0.1127434, 0.062073022, 0.008156502, 0.20881638, -0.061689716, -0.03725723, -0.0039201686, -0.09056601, -0.07138522, -0.110007554, -0.07293338, 0.114041924, -0.025004975, 0.018399686, -0.09847793, 0.046438195, -0.020829877, 0.017140968, -0.062472343, -0.049359925, -0.058322784, -0.016362619, -0.07909836, -0.029658455, -0.19330199, 0.05921521, -0.0789198, 0.030686572, -0.041655324, -0.010782899, 0.043604076, -0.113134995, -0.07455208, 0.11764516, 0.07198939, -0.018552752, -0.017744338, 0.054282296, -0.013379849, -0.04709151, -0.1148706, -0.016488697, -0.09977271, -0.012019173, 0.055846076, -0.092844404, 0.0009286817, 0.0033400243, 0.10353336, 0.093274884, -0.0745599, 0.06790961, -0.16498381, 0.06408326, 0.03649165, -0.10637498, -0.008937992, -0.02281932, -0.0140791265, 0.033753257, -0.03973258, 0.01694991, -0.023383578, 0.012021004, -0.020002017, -0.024982946, 0.06305484, -0.020194214, 0.08695336, -0.050477743, -0.072276324, -0.017537132, -0.012379837, -0.097890094, 0.12790862, -0.054179963, 0.05751149, 0.071244024, -0.0060096527, 0.08396914, 0.008973774, -0.22886819, -0.9849023, -0.11650059, 0.02443, -0.56348413, 3.108997, -5.015703, -2.0592864, -0.41711766, 0.13864799, -0.38768294, 1.7363988, -0.32611287, -0.04257275, -0.036553606, -0.70167124, -0.1067968, -0.58942896, -5.1274495, 0.21671039, 0.6606534, -1.1144428, -1.558573, -0.1399181, 6.9605255, 0.017965518, -0.1903307, -1.8738009, 2.3506393, -0.105727434, 2.1952636, 0.0039060193, 4.101143, 3.3575683, 2.0456731, 1.2505287, 0.056841083, -2.3118954, 0.42197922, -1.0665375, -0.1660115, -2.6543813, -0.17436956, 10.660998, -0.15744305, 10.519594, -0.1449608, 2.298753, 0.25818986, -0.12771957, -2.6783254, -0.00831817, 0.0012650888, -2.8055615, -1.2681307, -11.027918, 0.43830425, 0.13942875, -1.5272206, 0.12890092, 0.5354683, -4.1098027, 1.9258773, -0.010769679, 1.928633, -0.08820936, 4.4141417, 4.7575564, -0.73990655, -2.0885537, 0.23256586, 2.8360996, -2.7768767, 0.089180976, -0.028898232, -1.1352907, -3.1639926, 0.9191398, -0.35870808, -2.3799279, -5.6205134, -0.45123783, 8.18818, 0.26666284, -2.560024, -0.0026823084, -0.021695852, -1.0424975, 0.008610085, -9.589877, -0.041759644, -0.108846836, -3.8550122, 0.42727733, -5.58321, -0.3286549, 0.06392817, -0.19031695, -7.475179, -0.018843396, -0.18200964, 2.231336, 0.028194513, 0.028020589, -0.032771844, -0.1184049, 8.39503, 0.05478264, 0.09261913, 0.8037186, -0.058396533, -0.18342409, -0.09151247, -0.021032657, -1.184357, -0.15821376, 0.12563346, 0.09727844, 0.10828493, 0.09570524, 0.02436696, -0.02021709, -0.09730957, -0.05107677, -0.0032935352, -1.46005, 3.760776, 0.036613494, 0.19730246, -0.13290368, -0.13453017, 0.016454596, 0.0598351, 0.11545663, 0.6996416, 0.056123264, 0.035442, 0.15179425, 0.015931543, -0.0386602, 0.26651603, 0.19909109, -0.21616425, -0.17338507, 0.06334273, 0.16109917, 0.053547535, -0.16528353, -0.09825492, -0.060726844, -3.0187552, -0.12538438, 0.5020475, 0.14458154, -0.20773955, 2.3004293, -2.0919561, -0.5346101, -0.3580381, -12.018206, -0.705857, -1.5037634, -1.5770328, -0.019103646, -2.993155, -0.26496914, -0.30168942, -0.36496353, 2.5126305, -0.18009056, -0.12892064, 2.300992, -6.4347787, -0.17556012, 0.18223856, 0.30248636, -0.9293394, 1.8003185, 0.53193873, -8.998868, -0.035856593, -0.24244407, 0.8767136, 4.5948915, -0.108112864, -0.08137141, -0.22272532, -0.24798733, -0.03237838, -0.3161037, -0.117233306, -0.304561, 0.63197345, -6.1665277, -0.33327314, 0.654276, -0.12553826, 0.058509868, 0.44531843, 0.0685432, 0.035974313, -0.82567227, 0.25995293, -0.01809942, 0.772758, -2.9715586, 0.15891382, 0.35908183, -0.025727632, -0.0613629, 0.24287313, 2.3820071, -0.1375535, -0.11803487, 0.12561238, 0.19083543, 0.11170573, 0.45041114, 1.3331861, 0.2520825, 0.4345356, -0.29538912, -0.040445454, -0.2811009, 0.35452318, -1.08586, -0.039604884, -0.05303496, -0.058133002, 0.0945928, 0.44980568, 0.104604244, 0.32531625, -3.090812, -0.22001143, 0.06258501, 0.115726165, 2.1372676, -0.43245053, -0.3308612, -1.6003137, -1.0397481, 0.014256513, 1.4280416, 0.17113155, -0.6329595, -0.044626974, 2.500156, 4.405111, 0.6010068, 1.1300335, -0.016383111, -0.0031439317, 0.48662445, 0.4515428, -0.21064027, -0.7236713, -0.041146938, -0.16714424, 0.5028513, 0.5472963, -1.0932754, 1.1283364, -0.007111939, -0.5507957, 0.19477136, -1.385953, 1.8501333, 0.24927267, 2.8635979, 1.3653561, 1.2926061, 1.2015423, -0.031445786, 0.08710341, 0.14099675, 0.59798676, 0.41392228, 0.1263072, -0.7540527, -0.8917997, 0.050177824, -0.43679968, -0.8880368, -0.4020061, 0.0067847227, -0.06887031, 2.9417524, 0.16524321, -0.7348526, 0.16774839, 0.029527493, -1.4161398, -0.0118235275, 1.0731678, -0.3470936, 0.125447, 0.15187612, -0.877388, 0.0045171552, 0.030797983, 0.329753, 0.035662334, -0.1218625, 0.12749189, 0.015714962, 0.52469486, 0.052678887, 0.1367948, -0.2309261, 0.13066466, 0.10724949, 0.025095437, -0.028799733, 0.15246253, -0.009553398, -0.20603307, -0.046545204, -0.058702484, 0.07559307, 0.07330976, -0.056908492, 0.031840395, -0.12861095, 0.09850644, -0.38844836, 0.91896605, 0.45188496, 0.050811924, -0.013779405, 0.38413426, 0.069878586, 0.009311452, -0.2445627, 0.035730615, -0.11175186, 0.04362223, -0.115465045, -0.032388788, -0.060179252, 0.6441971, -0.10469401, 0.041197937, 0.03637327, 0.067161836, -0.072834425, -0.12052759, 0.10383444, 0.018955693, 0.11886912, -0.825574, 0.1116845, -0.5548334, 0.0727762, 0.14662334, -1.0015205, -1.0769554, -0.091980234, 0.029607488, -2.6909187, -0.057892915, -1.1295805, -0.21910958, -0.07586277, -1.0643153, 0.08772992, 0.15090083, 0.034770563, -1.5991545, 0.046887543, 0.08412996, 0.29712, -0.051199332, 0.042714275, -0.8327213, 1.6796985, -0.6420005, 0.1898634, -1.536626, -7.110061, 0.9247026, 0.8732213, 0.30850258, -0.28636155, 0.08359055, 0.04277548, -0.110404775, 0.5880261, 0.013893314, -0.21496601, 1.3481493, 0.21531898, 0.31944254, -2.7328434, 0.044015113, -0.37462956, 0.10992385, 0.030685501, -0.63525087, -0.02517261, 0.050501235, 1.7029285, -0.34755573, -0.48308706, -0.5522565, 3.2555246, 0.058966193, -0.34483165, 0.16937003, -0.013141082, 0.482185, -2.2755325, 0.20434715, -0.07108442, -0.41238135, -0.28876618, -0.026718687, -0.2965137, -0.38940376, 0.107924394, 0.107236825, 0.46558908, 0.4586628, 0.62357587, -0.32607162, 0.91258883, -0.116407335, 0.8079361, -0.08786796, -0.36287138, -0.34084848, -0.077344805, -0.2052016, 3.622063, 0.2728294, -0.085928254, -0.14803928, -2.8130107, -0.28690287, 0.29447556, 1.420387, 1.2894716, -0.030092575, -1.6130929, 0.13833386, 1.0291221, -0.09492937, -2.6762, -4.469417, -1.7363609, -1.4287347, -0.051293552, 0.039460536, -0.16326733, -1.7631564, 0.23930241, -0.36621565, -0.0054106014, 0.027253544, -1.5300517, 0.077978045, 0.9916547, -1.3361402, 0.120154954, 0.39633158, -0.35690203, 1.0940989, -1.3599006, -0.16984208, -4.1945915, -1.0489829, -0.9655134, -2.24996, 0.034038644, -0.033119198, -1.0145828, -0.4457969, -0.9174955, -0.04706593, 0.74140036, 1.158234, -0.45454866, -0.3296125, 0.8103931, -0.17808865, -0.02343049, -0.110002935, -3.2333093, -1.093136, -0.0703231, -0.07937946, -0.24760287, 0.74940854, 0.10311966, -2.2422917, 0.7492879, -1.0756997, -0.1966174, 0.5437865, 0.171034, -0.033477504, 0.42931154, 0.06702863, -0.06405534, -0.03942175, 0.28991228, -0.69876224, -0.21044125, 0.013415456, 0.22418556, 0.1994826, -0.49390686, 0.012629581, -0.102960765, -0.18368392, -0.0012340704, 0.10394686, 0.42386097, 0.12212027, 0.0584688, -0.021661468, -0.04160845, -0.040122554, 0.03249769, -0.02167635, 0.2862425, -0.9449975, -0.09328221, -0.03061652, 0.12872964, -0.77437156, -0.15409379, -0.11683237, 0.10955598, 0.3306488, -0.18294707, 0.03930068, -0.10424861, -0.055651404, -0.04568314, 0.34213114, 0.12277195, -0.019292064, -0.07890153, -0.009678561, -0.06048312, 0.032334957, -0.14605239, -0.20113969, -0.044978995, 0.91966975, -0.25547817, -0.5362183, 0.006558311, -0.5138574, 1.9301671, 0.97048086, 0.33300024, -0.19826034, 2.700522, 0.65690947, 1.4701698, 0.3394437, -0.10384892, 0.92127633, -0.5064449, -0.20931165, -0.33476204, 1.898493, -0.048274774, 0.0027022723, -0.81064314, -0.5637632, 0.07952137, 0.8061109, -2.01587, 0.17219783, -0.19935323, 0.4741753, 7.1777782, -1.4780529, -0.7653554, -0.20120654, 0.05352378, 0.0069819526, -0.5625845, -0.046198945, -0.5720836, 0.06967655, 0.13773523, -1.468404, -0.22669056, -1.1250962, 2.4608674, 0.13422163, 0.5214681, -0.2800866, -1.0457278, 0.29084572, -0.17840941, 0.0139372945, 0.9612975, 0.33362216, -0.04268171, -0.35347372, 0.94958127, 0.5243497, -0.31109565, 0.056004655, -0.01754106, -0.43243387, -5.1610227, 0.0844265, -0.0074398816, 0.0029007623, -0.41018897, -0.111794375, -1.8783714, -2.554559, 0.22117752, -2.028425, 1.1106058, -0.7358759, 0.46854424, -0.48174345, 0.027598692, 0.09140123, -1.6547816, -1.2762005, -0.2585311, -0.25624135, -0.052887253, 0.8454285, 0.84692824, -0.8793705, -0.26473224, 0.013682536, -1.4196322, -0.01596014, -1.5793322, 1.7853492, 1.7269312, 0.1274635, 0.4281363, 0.0412782, 2.0246472, -0.09285984, 1.0504949, -4.579851, -2.7306736, -2.0186481, -0.017861536, 0.012020512, 2.1107647, -0.9161164, -0.76213914, -1.0283769, 0.027241405, -1.0589074, -0.108776666, -1.4080075, 0.075632505, -1.3565125, 0.04190704, 0.10555564, -0.15790501, 0.51111966, -1.2968994, -0.30195466, -2.8677003, 0.2823324, -0.26541993, 0.64429575, 0.039107602, 0.024497649, 0.020373257, 0.075888656, -2.3110259, -0.17219312, -0.71854424, -2.009978, 0.031466436, 0.87974656, 0.3170554, -0.39662653, -0.04148301, 0.06374128, 0.7774972, -0.1397967, -1.7033376, -0.085544914, -0.21905284, 0.361118, 0.06847448, -2.2029397, -1.2754942, -0.18353745, -0.15220389, -0.3853794, 0.1040186, -0.08806312, -0.06811174, -0.06097958, 0.05843045, 0.06743799, -0.031056432, 1.2251849, 0.08297752, -0.016068693, 0.7313364, -0.025654461, -0.16705936, -0.08832205, 0.016933162, 1.2417188, -0.050872657, 0.21504451, 0.03515807, -0.040657014, -0.086398125, -0.11450522, 0.10216475, 0.024936887, 0.5620425, 0.007646298, 0.3843775, -2.0223932, -0.19301358, 0.05519693, -0.06190871, 0.8871264, 0.028392721, -0.009735883, 0.18235943, 0.16614671, -0.20715539, -0.039108735, 0.08668556, -0.07070529, -0.0061377166, -1.3434166, 0.19000083, -0.20110904, 0.11632004, 0.07875575, 0.049173508, -0.07726433, -0.2553146, 0.003812531, -0.039218355, -1.4789859, -0.11696028, 0.2146309, -0.004050286, -0.082553, 0.9427667, -1.170083, -0.99237144, -0.161347, 0.91930056, 0.85512006, 2.2373648, -1.2931534, 0.024853518, 0.058675077, -0.059148736, -0.3321484, 0.07085791, 0.08825371, -0.20705904, 0.029015115, -0.3300475, -0.10349033, -0.07697172, -1.6931387, -1.5342895, -0.38864732, 0.87730926, -0.7117843, -0.02076929, -1.3406973, 0.29225048, -1.7117596, -1.5452564, -0.23351964, -0.13424611, 0.12236685, 0.98535997, -0.067318834, 0.10746192, -1.2738717, -0.03896112, 1.0349209, 0.2136003, -0.3330033, -0.62524354, -0.22020513, 0.46736035, 0.19858742, -0.12298808, -0.2001699, -4.3279552, -0.97252405, -0.034142572, -1.1455805, -4.0766106, -1.020644, -1.6925105, -0.46997768, -0.14149961, -0.6178469, -3.2933187, -0.10234116, 0.036547653, -0.10134474, -0.4518355, -0.21251532, -1.1530886, -2.0874844, -0.36028907, -8.96797, 2.73436, -1.0562242, 1.7781657, 5.265879, -3.1347988, -0.018594142, -1.9616451, 0.03475096, -0.111057036, 5.405995, -0.24177657, 3.9138913, -1.2947805, 1.3035123, -0.6031868, -0.04237658, 10.028571, 1.5615962, -3.068162, 6.334832, -0.721447, -0.06853429, -1.1274508, -0.54118544, 0.4578535, -0.07602677, -5.1409883, 0.07381405, -8.553396, -7.1050043, 0.07450522, 0.04207379, -0.06247831, -10.53831, -7.331572, 0.39654142, 0.11345428, -3.834922, -7.094194, 5.370353, -5.18913, 3.6754646, 0.032810513, -1.693581, -0.19103102, 2.0071166, -8.452745, -0.24755919, -0.17247778, 3.8717182, 4.540666, -9.060662, -0.073913455, -0.16678335, 0.21389563, -0.12445001, -7.87131, -0.25893477, 16.043083, -1.7531295, -0.13015345, 5.298183, -1.5139278, -1.8571053, 0.06927026, -0.0073280865, -3.995913, -0.07131271, -2.9559968, -0.2048799, -0.14468938, 0.7504263, -0.15111615, -5.755841, -0.1803557, -0.016451336, -0.023968237, 10.88407, -0.27962703, -0.10421794, -1.273887, -0.106767334, -0.010226147, -0.09246851, -0.05490556, 3.1015747, 0.094863564, 0.039713945, 0.025634227, 0.12542632, -0.0059347446, -0.08427497, 0.021887744, 1.6487116, 0.022806786, 0.20731011, 0.027545668, -0.0001377905, -0.062356055, -0.05959098, -0.020830642, -0.003725958, 0.32341605, 0.10949896, -1.3282839, 3.0360363, -0.13431536, 0.05296732, -0.14296518, 0.82095104, 0.22220361, -0.021055758, 0.034391165, -2.7185233, 0.020783063, -0.057225112, 0.008706551, 0.101886146, 0.026478192, -3.4520442, 0.027304377, -0.11242951, 0.14222768, 0.009525207, 0.19767396, 0.024971418, -0.28311065, 0.013678931, -0.006837575, -2.2334301, -0.06873459, 0.2663775, -2.4085605, -0.10763754, -4.3267565, -1.1064135, -2.6162133, -0.08528484, -11.757244, -8.001601, -4.8562284, -2.560386, 0.004361067, -3.579521, 0.044116136, -0.17283498, -0.09929123, 4.181588, -0.2647514, 0.116254956, 3.771882, 0.061099995, -0.24634598, 4.338756, -5.7292924, -1.1167547, -2.9733472, -1.0036509, 3.3676, 0.108124726, -3.546265, 0.017892707, 0.27828008, -0.1375226, -0.29008666, -0.37496132, -0.72357523, 0.083646774, -0.43522644, 0.51323736, -0.1699351, -0.44011122, -4.078014, -0.19324146, -2.5472248, -0.1966044, 1.8791823, 0.0686281, -0.13638607, 0.10496541, 0.42295426, 1.1740106, 0.04383876, -2.4450705, 3.968142, 0.47102696, -0.2610178, -0.08893556, 0.04351311, 0.73288536, -3.6501431, 0.13365214, -0.021808472, -0.10019195, -0.38375252, -0.1524638, 0.93198794, -5.322838, -0.16723853, -0.03571943, -0.041962177, -0.106688574, 1.7344012, 0.37978995, 0.42659432, 0.017511962, 0.7725416, 1.923725, 0.020448608, 1.6645724, -0.20074779, 2.1797824, 0.46324262, -0.017658615, -0.43365222, -0.14390768, -1.9174141, -0.6141765, 1.5577543, 0.63362396, 1.7342367, -0.11193666, -2.1043248, -0.13791516, -1.0524243, 0.0040978887, -3.6702285, -4.6319323, -1.1856084, -1.014, -0.010886261, -0.07957722, 0.2517518, 3.1587148, -0.59036, -3.8311005, -0.025125854, -1.6073059, -1.5383993, -2.502327, 1.6987079, -0.25941664, -0.0016695609, 0.8720876, -0.15359657, -1.5452737, 0.05136588, -0.35467374, 5.419888, 0.6344013, 0.7425077, -1.5867869, -0.0045055873, -0.22975542, -0.08012685, -2.098472, 1.143706, -0.15002607, 0.121627666, -0.8924353, 0.021485675, 0.49864244, 0.602602, -0.4640225, 0.024706844, 0.074517146, 0.7173593, -0.099469766, -1.4278967, -0.032988034, -0.059423473, 2.3416388, 0.07485157, -4.3047414, 0.086472474, -0.12619372, -0.1378245, -4.639524, 0.148923, -0.0082138805, -0.36911845, 0.05268367, 0.051934194, -0.060265712, -0.036700804, -1.3518533, -0.18632506, 0.03601925, 0.06671793, 0.0240832, 0.010236758, -0.13296187, 0.0040164385, -0.91475123, -0.019083098, 0.10348566, 0.0954817, -0.04129659, 0.17764722, -0.053425685, 0.052984208, 0.08261833, 0.37021187, 0.013153445, 0.5415276, -1.9303536, -0.17255189, 0.0057265023, 0.051826008, 0.3644445, 0.026695631, -0.014766016, 0.24566193, 0.21925399, -0.09535771, -0.088267356, 0.09912727, -0.012660628, 0.0822537, 0.5424815, -0.00434276, -0.10303984, 0.13978879, 0.045465957, 0.08551249, 0.0105325505, -0.04933765, -0.0038177618, -0.12529673, 2.742871, -0.09216815, 1.1839513, -0.53758305, 0.030966168, 0.9013885, -0.071779445, 0.32589105, -0.109332174, 0.6160946, 0.61782986, 0.7405958, 1.5750208, -0.032935698, -4.25422, -0.045751352, -0.07952146, -0.030382494, -0.28910488, -0.13235965, -0.12887937, -0.19983971, 1.7588274, -0.1480725, -0.050736465, -2.5491955, 0.5588482, -0.091977745, -0.12934554, 1.1577959, -3.316885, -0.58021647, -0.15413974, -1.0122147, -0.20357819, 0.025292145, -0.05667424, 0.36675763, -0.069892325, 0.08882482, -2.740061, -0.18731491, -0.6574466, 2.3293896, -0.25320616, -0.5523236, -0.16031115, -1.0172204, -0.014379989, 0.06831633, -0.04827623, 0.49160635, 0.4875191, 0.13312253, 0.74534446, -3.8991115, -1.5451554, -0.3238481, 0.6496448, 0.13502742, 0.10906668, 1.6828065, 0.040764757, 0.06678656, 0.107185535, 0.07635653, -0.012154355, 1.9967852, 0.03424829, 0.8294325, -1.0647249, -1.2883095, 1.3883156, 1.5755807, 2.2164247, 0.4888481, 0.02764546, -0.10465943, 1.3085552, -0.010316535, -1.980265, -0.09314516, 1.9072338, -0.94154704, -0.23990707, -1.2514769, 0.035318047, 1.5251981, 0.30056527, 1.5002366, -0.74764335, 1.7883643, -0.07190877, 0.87951666, 0.2839809, -3.434324, 0.087431684, 2.2814968, 4.223458, -0.7619563, 1.4980315, -0.023871487, -0.03905293, 0.094611295, 0.7754227, 0.024640135, -0.98700243, -0.019975789, -2.9686704, -1.7840072, -1.8409724, -0.10656584, -1.2626272, -0.061761647, -0.4479777, 0.30352953, -3.0671623, 0.3640465, 0.9266761, 2.4091806, -2.4850986, -0.2879565, -0.6776192, -0.11576697, 0.16074681, 0.7157431, -1.5604181, -0.76916337, -0.16298813, 2.5827196, -0.7565689, -0.013178647, -1.4458866, 0.33723643, -0.004313356, 0.009066985, -0.107943736, 0.7601533, 0.26147586, -2.792254, 0.1353326, 0.007486127, 0.62948966, 0.01523596, 1.1646873, 1.353675, 0.044864744, 2.7753036, -0.76137394, 0.21970794, 0.056929607, 0.5179847, -0.08876386, 0.04289395, 0.02143531, 0.12038899, -0.1931151, -0.016526695, 0.06718293, -0.041995317, -0.8944188, 0.106062874, -0.06365389, 0.06515328, -1.2248484, 0.12701397, -0.07216413, 0.041886304, 0.04540916, -0.09614616, -0.091898136, 0.07471262, -0.108968556, -0.3931971, 0.08322846, -0.1857222, 0.25188363, 0.31650987, -0.045183882, 0.17869869, 0.05808568, -0.15946923, 0.06664087, -0.081069805, 0.03715774, 0.18219614, -0.09234269, -0.101625174, -0.0067046657, -0.025329106, 0.6946273, 0.078363165, 0.023781773, -0.3266941, -0.051679917, -0.021044714, -0.089875594, -0.07517891, 0.3654124, 0.122934476, 1.0602819, 0.12939738, -0.7813425, 0.4472772, -0.008624386, -0.93848723, -0.38118106, -0.019387318, 0.084351525, -1.2229414, 4.442705, -0.09607933, 1.8795604, -0.030843874, -1.6749622, 0.7760445, 0.17041166, 0.12935309, -1.2929147, 0.3203622, -0.0789838, -1.0885446, -3.1528153, 0.18970342, -1.2055902, 2.5955305, -0.97922826, 1.4039835, -0.5715444, -5.42112, 2.1815224, -1.0882142, 0.3676106, -0.44230023, 0.09231935, 0.17949332, -0.08808113, -0.25478357, 0.02954757, 0.42583025, 1.5779415, -0.012031339, -0.25813374, -0.26424602, 0.55580103, 1.0244933, 0.08909446, -0.23326907, -0.040739108, -0.018548695, -0.1363645, -1.5663296, 1.2494538, -0.14599845, -0.52894485, -2.3534412, 0.76225334, 1.8256168, -0.25546232, -0.06644307, -0.33158222, 10.450172, -0.37603614, 0.099894315, 0.04835229, 0.12105167, 0.0047352063, 1.5697088, 2.9150543, -1.8788098, 5.8989472, -1.6171026, -1.6454142, -1.6266474, -0.04860252, 1.5686111, 0.069944985, -5.0501432, 0.86445737, 0.063649744, 9.666357, 0.021046171, -0.49273103, -4.0601206, 2.1948822, 2.8292453, 0.18083252, -0.2929951, 0.1639245, -5.0833707, -5.344773, -3.0085757, -0.10676091, 0.0986283, -0.22385445, 2.0028663, -0.0586753, 1.0146533, 3.543461, 8.929389, -3.6858401, 0.0858684, -0.095033586, -0.34028363, 0.3437894, 1.7219064, 2.1778393, -0.061010584, -0.8250812, 3.1408865, 2.4837914, -2.4767694, 2.6267262, -0.041853555, -0.60141104, 0.03281991, 8.011522, -4.694681, -1.0533578, -0.36513555, 4.3701835, -4.771041, 2.7518332, -0.107224226, 0.063872874, -0.835474, -2.687977, -6.0244765, -0.11998381, -0.8973313, 0.7482386, -0.109542, 0.0041713435, -2.1225572, -5.3084717, -0.0025164366, -0.008031644, -1.0064877, -0.06721355, -0.73120344, 0.15611687, 0.17737396, -3.624055, -0.113958314, 3.3214705, -3.3659272, 0.07057873, 0.12804748, -0.85248464, -0.5749416, 0.13393357, -0.66036206, 0.05923048, -0.32618675, -0.065977804, -0.1785326, 4.504215, -0.007284461, 0.12606494, -0.23544808, 0.124374755, -0.065738246, 0.07683709, -0.0244507, 5.187361, -0.050828148, 0.13271749, -0.03793728, 0.0029790848, -0.038678028, 0.003649302, -0.004715979, -0.08655842, -1.5158885, 0.0092320815, -0.6214801, 3.317266, 0.5973784, 0.0023566782, -0.26422182, -0.601328, 0.1671471, 0.16536045, -0.05317492, -1.8463928, -0.054693136, -0.03377722, -0.0571814, -0.10723781, 0.08939251, -1.2980009, -0.050934054, 0.08329458, -0.0006501486, 0.07551935, -0.12413706, 0.0028601913, 0.005508821, 0.018287044, 0.09721357, -3.510895, -0.013469308, 10.041275, 2.0891843, 0.63525194, -1.70449, 0.30561703, -3.930933, 0.059705213, -1.5260468, -12.303102, -2.047272, -6.394182, 0.02630492, -0.39151046, -0.08623739, 0.033040486, 0.17419949, 0.985135, -0.31923014, 0.08654106, 4.3515167, -3.6414254, 0.10267738, 3.386746, 4.4800453, -0.87234324, -5.8349066, -0.17526838, 2.336673, 0.16661364, 1.2583789, -0.16123365, 0.6108194, 0.050708793, 0.09061706, 0.1254403, -0.106870115, -0.06711212, -0.14005028, 6.139324, -0.12470155, -2.1860101, -1.7980627, -0.4154215, 0.5152332, 0.43134326, 0.0066533834, -0.6359498, 0.083213456, 0.3143999, -0.3796313, 1.7613461, 0.19762082, -0.13084416, 0.20821622, 0.34945536, -0.60779625, 1.1465243, 0.22537763, 0.4097255, 10.411444, 0.32948154, -0.09926945, 0.114431046, 0.60135454, 0.15333141, 3.409862, 5.856912, -0.101666175, -2.624968, 1.0677146, -4.1935806, -0.47148544, 0.61499894, 0.5042749, 0.013798669, -0.123785496, 0.6758853, 0.09671881, 0.75704414, 0.21720175, -3.7644377, 0.7466481, -1.5627913, -0.98785424, 0.06978695, -0.5357147, 0.14705308, 6.1127253, -0.70788836, -1.2591588, 0.07678052, 0.82845944, 0.24921152, -2.410378, 0.05153611, -0.85288066, 4.462848, 3.1877825, 4.038115, 0.1597993, 0.04030663, -0.66150457, -0.6981375, 0.058499668, 0.18494007, 0.106441945, 0.84056574, -1.0023037, 0.38292515, -2.4488878, -3.717775, 0.124972485, 1.2879516, 0.11203237, -1.7284851, 5.3699646, 0.39719817, 0.37264174, -1.1064824, -0.33142352, -1.2091581, -0.014295212, 0.05330327, 1.3206773, 0.25912586, 0.021370944, -1.5304128, 0.56410515, 1.7819176, 0.15374212, 2.4421682, 0.3238529, -1.8445786, 0.1096593, 0.10950472, 1.1968064, 0.17089061, 6.396253, 0.09532663, 0.079374686, -3.2528734, 0.023825556, 4.294437, 1.6364434, 0.03409308, 0.20516562, -2.0913427, -0.1351932, 0.15273137, -0.036933735, -0.0003510701, 0.13181268, 0.08627305, 0.030882845, -4.792864, -0.07430286, -0.019918606, 0.5489973, -0.40458173, 0.0018038177, 0.15586156, 0.120178916, -2.6910868, 0.17401338, -0.0009758936, 0.04816946, 0.06898959, -0.061783787, -0.0029892442, -0.054193735, 0.09280463, -1.3846569, -0.015145382, 0.03794449, -1.7883608, -0.1907012, -0.013264241, -0.028247204, -0.07818204, -0.14518975, 0.08304827, -0.09359161, 0.5809548, -0.031705353, 0.018642027, -0.034211352, 0.06280027, 0.005395042, -1.0049173, -0.21421976, 0.03590446, -0.07448899, 0.07705605, -0.10853865, 0.0754932, 0.16801248, 0.04503396, 0.10396399, 7.6094947, 0.23959042, -0.8054367, 3.9760303, 0.17851143, 3.67364, -0.05923498, -0.46467912, 0.23480384, 3.1051779, -0.4600427, 3.2834346, 5.957721, 0.071342826, 0.82402176, 0.10200435, 0.3127463, 0.28774816, 1.9490573, 0.3905773, 0.042155653, -1.3090357, 3.2780397, 0.23896994, -0.14705734, 4.604768, -0.35110742, 0.37112102, -0.46215323, 7.881535, 1.5255738, -0.31496102, 0.84445703, -3.2471128, 0.17730346, 0.12384478, -0.64282477, 0.6891187, -0.14323032, 0.5130441, 0.3406801, 0.27275208, -0.95569605, 1.7059175, 0.51013505, -2.0363426, 0.13843314, -0.5346805, 0.050866082, -0.101169154, -0.110446595, 0.16830134, 0.50280696, 0.07663185, -0.50781274, -0.059307713, -3.1952705, -0.5016509, -0.15276018, -0.008916772, 0.08711284, -0.53085476, -0.13476978, 0.02802739, -0.06515091, -0.35609794, -0.103469394, 1.3842573, 1.0665722, 0.032903016, -0.33138695, -0.1416787, 0.39072505, 0.88206524, 1.7331331, 0.77602357, 0.033951618, -1.9316909, -0.03342997, 0.019819478, 0.49309704, -0.07490508, -0.48983562, 2.9631152, 0.007633751, -0.58158946, -0.06506719, 2.1681905, -0.03850372, -0.5877616, 0.23366505, 0.97306293, -0.0058892737, 1.6339079, 0.005468028, -2.6151268, -0.08213059, -1.8195282, -2.540365, -2.1194701, -3.162042, 0.3660097, 0.12458354, -1.0772512, -0.29888523, -1.2225826, 1.904651, 0.10200155, -0.76517713, -1.5781451, 0.86187667, 0.22204773, 1.3273906, 0.017320817, -0.09573787, -0.15773326, 3.0362198, -1.9397662, -0.43060312, -0.73118937, -0.041712373, -0.44625553, -0.105536535, -0.04492034, 0.0900416, -0.38215682, 0.77025676, -0.54336834, -0.32340762, 0.52824736, 0.34404793, -0.08832913, -0.23512048, 0.2726077, -0.96988964, -0.07056532, -0.03023088, 0.6346211, -0.03184263, -0.2989727, 0.03079426, -0.07522212, -1.0664289, -0.36107132, -0.5650854, -1.5656044, -0.044061437, -0.14073141, -1.2194631, 0.15554559, -0.029204959, -0.20482785, -0.012401752, -0.058168877, -0.06505764, -0.20822226, -2.105838, 0.0157046, -0.009502339, -0.27709717, -0.2550398, -0.0641194, -0.042001642, 0.100084744, -0.071483515, 0.002294415, 0.15138169, 0.100451455, -0.010142279, 0.030140456, 0.023626868, 0.13659802, -0.01636451, -2.2559052, -0.122584485, -1.4705695, -0.14680016, -1.2050194, 0.035433084, -0.07968104, 0.2942753, 0.027973639, -0.051765814, 0.06311783, 0.036352437, -0.107909165, 0.0114092715, 0.042580232, -0.038486563, 0.053049285, -0.302288, 0.11750142, -0.21668245, 0.1611775, 0.01083057, 0.10870707, 0.01203835, 0.0077305455, 0.06741983, -0.040342614, 1.2558869, 0.33563825, 1.8935658, 0.34099168, -0.14473595, -0.05519074, 0.3783632, -0.04037449, -0.012864408, 0.3185783, 1.3554518, 1.1439774, 0.0058704442, 0.040364727, 1.6011691, 0.009167935, -0.19869266, -0.11616891, -0.20424253, -0.065199666, -0.05567825, 0.0880845, -0.078306094, 0.15554619, -0.23530273, -0.99182576, -0.27312595, 0.16887964, -0.31489614, -0.97387856, -1.1341844, 0.82146376, 0.6035001, 0.9484652, 0.037220024, -0.117274486, 0.06735714, -0.11781097, -0.0021147316, -0.4929975, -1.3173293, -0.17831045, 0.13199909, -1.4477953, -0.12632696, -0.23150496, -0.024621336, -0.2794448, -0.23785935, -0.00026166264, 0.068946235, -0.21409291, 0.9037549, -0.16399707, -2.5999796, -2.0188513, -0.9890033, -0.21310952, 0.031412005, 0.09527334, -0.052221414, 0.8136172, 0.18134229, 0.053373143, 0.014832653, -0.554187, -0.20426585, 3.442974, -1.2066956, 0.69162524, -2.9141188, -0.18240076, -1.0359166, -5.7457943, 6.5017576, 2.4928472, 0.06132047, 0.12076745, 0.6364117, 0.01018386, -7.7462654, -0.04786014, -0.75556767, 0.975083, -0.48004737, -2.6690917, -0.06797141, 6.5519466, 0.6978039, 6.96373, 7.2054744, -1.2519256, -0.0947422, -2.4268417, -0.021112824, -2.5337315, 0.09987973, -8.666752, -0.58595806, 2.8130991, 8.50094, -0.45687094, 0.021654237, -1.5010579, -9.195513, -0.9334944, 10.375637, 0.08433111, 0.55664, -1.0700525, -0.62899494, -2.984824, -2.7775483, 0.086212404, -0.012700485, -0.075329825, -2.8460772, 3.9154062, -0.080107145, -1.4580835, 0.96030164, 0.2676526, -0.2783582, -0.101469904, -0.08688385, 0.46639177, -1.3340491, 1.0893359, -1.2332405, 1.5893108, -0.104816146, -0.07911268, 0.27797556, -2.0164356, 4.7821493, 0.002425516, 0.06115771, -1.71829, -0.16258326, 1.2398032, -0.021522723, -0.01335932, -3.4031436, 0.2853086, 0.6047792, -3.1950917, -0.24227995, -0.28984284, 2.6377866, 0.05543527, -0.0891903, 0.118684135, -0.067484766, 0.23034741, -0.09104814, 0.13512367, -4.8920245, -0.068396434, 0.06060486, 0.0036003822, 0.052793473, 0.10728224, -0.08754967, 0.05363365, -4.9161973, -0.12773375, 0.019510375, -0.035743617, -0.030884258, -0.018444, -0.024557333, 0.018998615, -0.009423854, -0.5982082, -0.05415899, 0.39217463, -0.89472866, -0.50759894, 0.060818218, 0.31652376, 0.43468744, -0.19162011, 0.0731685, -0.013732354, 2.7877617, -0.16452555, 0.0017413636, 0.021014027, -0.041535895, -0.11134159, 0.22229391, 0.033975147, 0.003909456, 0.07249297, 0.034614403, 0.10051504, -0.07790146, -0.07222702, -0.027734715, -0.15980126, 2.3866134, -0.6871749, 4.0230527, -0.21782085, -0.07711658, 3.5944638, -0.18080091, 2.583696, 0.1088586, 3.4856653, 5.4299498, 0.2785673, 7.3278165, -0.09967256, 9.004879, 0.05565664, -0.029427327, 0.06978742, 0.5653942, 0.39163974, -0.13988037, -1.635807, 0.5964405, -0.27801675, -0.56711507, 1.8117149, -0.5226184, -1.3116894, 1.1588948, 0.64582723, 0.046543952, 0.6782696, 0.0014383174, -2.0508597, -0.073040456, -0.026533382, -0.88164514, 3.1619675, -0.12940131, 0.26781043, -5.301126, 0.018687058, -0.13210805, 1.6923087, 0.30319226, 1.7794641, 0.01752145, -0.1916617, 0.33144018, 0.22002548, 0.24207921, 0.30870786, 0.7628986, -0.09011974, -0.17043926, -4.6427646, 0.62360376, 0.21171719, 0.08479265, -0.05600554, 0.23706363, -1.4064258, 0.079066224, 0.0023628213, 0.05308776, 0.3470954, 0.08079616, -3.0404882, 3.2584474, -0.5671386, 0.80315274, 0.95578015, -0.30108187, -2.2850971, 0.26333693, -3.3467765, 0.06803367, -0.8876773, 1.6007032, 0.0042869686, -0.21598043, 0.289994, -1.5314555, -0.75888044, -1.5952067, 0.3461104, 0.04093698, -2.2968292, -0.9949462, -0.37846625, 0.64864045, 2.119341, -0.0072210445, -4.1900835, -0.006508648, 0.9874048, 0.038867854, 3.1928926, 3.4137623, 4.485715, 1.1159035, 0.16602995, 0.025475211, -1.3709147, 0.17562363, 1.0905595, -3.699175, -0.17450882, 0.87175554, 0.8104368, -0.99764705, -0.37119028, -2.3111, 0.11900494, 0.8249456, -0.042497873, -0.48967487, 4.1428084, 0.22078651, 1.3101308, 0.47907746, -0.7332698, -0.89575386, 0.06857175, 0.008621962, 0.8022272, 0.454961, 1.2524673, 0.39762756, -0.38192984, 0.75169075, -0.08791782, -0.7444199, -1.1501448, 1.6975172, 0.06668303, 0.0122735435, 2.1009097, 0.08097597, 3.6485267, 0.16653934, 0.15961774, -1.6392764, -0.13431787, 3.60425, 3.4195504, 0.020466832, -0.056258213, 1.7599307, -0.028105441, 0.016185526, -0.07744025, -0.06155204, 0.14079939, 0.020297727, 0.10944058, -1.1858393, 0.030133288, 0.091145456, 0.21634953, 0.01754189, -0.092123166, 0.24432169, 0.031872578, 0.4901531, 0.15487896, -0.07403984, -0.035391465, -0.06363147, 0.01143119, 0.054948546, -0.030303799, 0.040004056, -0.58574295, -0.033753768, -0.31412622, -2.1993687, 0.031846017, -0.05483928, -0.05015029, -0.063183725, -0.0033497468, 0.020142276, -0.0022181217, 0.2509697, 0.06707038, -0.014430785, 0.113803804, -0.12593815, -0.0771114, 0.7926722, -0.0011974525, 0.08591956, -0.19501963, 0.09918406, -0.16202034, -0.12117782, 0.19484514, 0.07783923, 0.06077966, -0.02226703, 0.18876174, 1.8424766, -1.7512004, 0.12093099, 0.6005407, -0.4892002, -0.46748963, 0.07089717, 0.07839586, -1.8359241, -0.34568498, -0.937236, -0.079725645, 0.16298974, 0.09288051, 0.12089302, 0.04797838, -0.69531524, 0.00860927, 0.025289062, -2.063491, 2.1134923, 0.08229249, 0.1427523, -1.3188096, -0.14469515, -0.9701569, 0.09710855, 4.0607033, 0.70768154, -1.9024515, -0.80022, -3.930098, -0.040909458, 0.11811282, -0.2705714, 0.7317824, -0.00743811, 0.14086372, 0.28198126, 0.1827014, -1.1330917, 0.89991206, 0.43049687, -0.5173091, 0.13544339, -0.6537664, 0.91943765, 0.07963786, 0.027559424, 3.5295556, -1.7246106, 0.019757686, -1.2396584, 1.4353156, -5.133776, -0.56891865, -0.09337755, 0.0051934845, 0.5593689, 6.0249157, -0.21684714, 0.009619981, 0.10561112, 0.36275125, 0.1767272, -0.39498916, 4.66565, -0.9965518, -2.8637714, 1.2728703, -0.5942077, -0.6148439, -0.6000424, 2.2635295, 0.14303713, 3.0019548, 0.55789036, 0.1547171, 1.1204876, 0.1333096, 2.3580024, 2.099458, -0.12673767, 0.256044, -0.01872655, -1.390771, 1.2068716, 1.7483034, -7.5698223, 1.6461687, 0.062084366, -4.374229, 0.18975507, -2.4180868, 0.07175315, 2.741126, -3.584183, 6.58834, 0.43089023, 0.17522205, 0.041357104, 2.3164618, 0.62554765, -1.011021, -1.7290508, 0.0005208142, 0.37830898, 0.012533862, -0.43241632, 8.148627, -3.1355958, 0.028969595, -2.7798877, 0.15898243, -0.8773899, 5.192025, -0.16567177, 0.76729476, -0.06463069, -1.1586219, 1.9434139, -0.0045644124, 0.21784867, 1.6354616, 0.5261693, -0.883142, 2.0815084, -0.9815895, -0.27239144, 0.30575, -2.5777116, 2.4525852, 1.447911, 0.04553878, 0.05535618, 1.7318864, 0.13595168, 8.796532, -0.0042431853, 0.04520892, 0.22003743, 0.025162525, 12.863844, 0.45393685, 0.14516804, 0.071401864, 5.136966, -0.5928415, 0.0120929135, -0.5037955, -0.08414828, 0.07854256, 0.033507288, 0.114468805, -2.9952302, 0.041993022, -0.03735433, 0.2786087, -0.040351376, -0.0571416, -0.112201855, 0.1431458, 0.18664303, 0.06402232, -0.17567776, -0.15035018, -0.008028508, 0.14244412, -0.012106603, 0.058356985, -0.06535853, 1.2909231, 0.08409091, -0.4965722, 1.3010744, 0.97220427, -0.019905556, -0.018266862, -0.18904799, -0.17145894, -0.0038987845, -0.23098134, 1.2752361, 0.0842275, 0.08839821, -0.13702369, -0.08165398, 0.0217961, -0.014563265, -0.16740303, 0.17426923, -0.23211718, -0.08398348, -0.122456916, 0.03918132, 0.079443604, 0.09942679, 0.08318987, 0.2380559, 0.08459354, -0.46781054, 0.6053783, 0.059627328, 2.6749163, 0.6817514, 2.2036874, 0.22704522, 5.023326, -3.3475235, 1.7415457, 1.6706519, 0.0842962, 0.92530745, 0.12597373, 0.13052285, 0.06961318, -0.68567675, -0.03711991, -0.007506347, -0.12328052, -1.1590171, 0.13057996, 0.34932038, 0.6441331, 1.7941059, 0.06694389, 1.9044669, 4.73854, 0.53841025, 3.1417694, -0.862295, -1.8839922, 0.17821766, 0.18762742, 0.4240942, -3.034566, -0.0018263096, -0.06342579, 4.8856688, 0.18626125, -1.276204, 7.557345, 0.38659996, 1.4814625, 0.06330206, -0.12302795, -0.6764495, -0.009593817, 0.092693694, -4.003985, 0.41370395, 0.034387186, 10.272658, -4.110364, 3.8949916, 1.053861, 0.07162304, 0.092451006, -1.4822925, 8.312017, 0.08096027, 0.004022534, 0.027850078, 0.46008343, 0.23286857, 3.095135, 2.7992811, 6.8081236, 7.0995703, 0.011006185, 1.6840662, 3.1631424, -6.8035603, 0.53720963, 0.0034944431, -4.4966545, -13.884841, 0.069995634, -1.6037176, 0.1454487, 5.0946593, 5.155894, -1.9427141, 9.597993, 0.09569328, 3.580631, 0.92537636, 0.64316165, -3.0250337, 2.0077927, 0.009694554, 8.034417, 0.2116202, 1.6138246, 0.11573597, -1.7047011, -2.407839, -4.6918135, -2.7974262, 0.1475619, 0.1126109, -1.6255261, 13.441602, -3.333516, -2.8060844, 0.060774017, -0.9364352, -1.4455316, 0.9328268, 4.1312246, -2.835209, 0.0043120994, 2.2894351, 0.12567662, -8.6726885, 1.5308911, -0.22901793, 8.751847, 0.6495898, 0.1050859, -3.431119, -0.08731926, -0.021114219, 0.6794579, -1.0417483, -5.8599634, 0.3719427, 11.985349, -0.7411795, 0.24320981, 8.233156, -3.655646, -0.28642198, 0.096862026, 0.08909742, -1.2072921, 0.09579518, -3.0481503, 0.07150924, 0.08892101, 5.408967, 0.21156767, -13.669521, -1.1875277, 0.15001747, 0.10707409, 0.17572159, 0.021588633, 0.15816702, 0.07969502, 0.006633078, 0.029859936, -0.021216298, 0.12777872, -2.420476, 0.13427144, -0.095305786, -0.04853704, -0.07993201, -0.12865415, 0.015832203, -0.029922746, -3.0378423, 0.023187965, -0.10958772, -0.02302864, -0.024175845, 0.011097507, -0.014541145, -0.02443745, -0.07084259, 1.1346256, -0.048967768, 0.5939846, -1.8840669, 0.1896826, -0.029798228, 0.0061956095, -0.11049742, 0.017203847, -0.054856285, -0.072792254, -0.28384164, 0.053118363, 0.06344968, 0.12462813, -0.06696636, -0.2164081, -0.4497404, -0.020351924, 0.0364937, -0.06849078, -0.1525904, -0.12602341, 0.04081631, 0.07338324, -0.011873152, 0.048126508, 2.6794932, 0.08468473, -15.204402, -2.7211072, 0.20046945, 0.13172384, -0.09139251, 1.1555411, 0.15565588, 10.347216, 16.013332, 2.1131208, 3.4965155, 0.095709026, 0.89677256, 0.09245383, 0.43861517, 0.0039204042, 0.9775459, -0.011362484, -0.1612407, -14.910345, 3.1452665, 0.1445703, -2.3565564, -2.0461645, 2.0928662, 7.8931785, -3.3678298, -20.057861, -2.373359, 1.4150375, -0.33905104, -2.8759122, 0.08975228, -0.08740565, -0.2125242, 3.317215, -0.044359673, 0.41403872, -0.39270544, 0.25601065, 2.7168722, -2.560701, 0.27563253, 4.2538548, -0.019872097, 1.2426859, -0.4540819, 0.052169427, -0.03933431, 4.106371, -1.6438394, -0.024458699, -1.6533146, -3.845849, 5.0885024, -0.33962607, 0.17651884, -0.027076105, 0.9256547, 2.0770586, 0.22425085, 0.15330727, -0.14088143, -0.19110912, -0.35474926, 4.695133, -8.1368885, 1.0475893, 2.1430976, -2.5639517, 5.721924, 2.5792813, -1.0615344, 2.325277, -0.1708974, 1.8527806, 26.493767, -0.031262882, -5.7614994, -0.015950587, -0.14801942, -3.7378573, -0.47127658, -4.266062, -0.023480352, -8.566104, -2.2399342, 1.663837, 1.9705514, -1.719244, -0.018475058, 1.7981842, 0.026937816, 2.8577805, -0.0138866585, -6.503747, -0.167459, -7.8912506, -6.7929397, -0.16033584, 0.011235254, 3.7622542, -4.8483286, 5.2236013, 0.86881846, 0.026633762, 3.3277016, -1.8989257, 0.6188357, -9.371466, -9.20528, 0.027470209, -0.6633464, -0.110476084, -2.6539521, 3.41756, 0.78527516, -2.9702532, -6.9432178, -1.6240387, -7.359631, 0.062362432, -0.008652264, 1.2061812, -3.8264272, 0.3260713, -1.4086766, -2.6560657, 1.0515093, 0.09148333, 3.543999, 0.59865725, -0.24439834, 0.06465059, -0.12055385, 0.5455381, -0.12681893, 0.4614762, -0.4885863, -0.43919507, -5.3886666, 0.06581499, -2.429055, 0.5744581, -0.30283415, -0.00411408, -2.4731114, -0.18537977, -0.14591086, -1.447263, -0.03734049, 0.004409897, -0.23374625, 0.15507959, 0.058386803, 0.029948007, 0.023609513, 1.3388518, -0.3855704, 0.06450563, -0.090815045, -0.013451872, -2.5024636, -0.06501854, 0.064774245, 0.13663183, -0.028052595, 0.052058194, 0.012145188, 0.031151008, -0.05737326, 0.3415022, 0.026912695, -0.053630617, -0.11415259, -0.07078212, -0.12629357, 0.046542756, -0.63108903, -0.17568214, -0.0062291166, -0.09785957, 0.8968961, -0.10316013, -0.0013516701, -0.020725524, -0.013231562, -0.071401246, 3.168185, -0.0065970197, -0.014765265, 0.02110767, -0.105144545, -0.025677202, -0.008979656, 0.104153395, -0.079640195, -0.16279206, 2.5956059, 0.19160154, -1.2958591, -1.7237562, -0.73509645, 1.1836088, 0.5851553, 1.0596722, 0.03561265, 13.634284, 3.6143312, 1.4508449, 3.3324287, -0.032525986, -4.4965982, -0.09118579, -0.03602176, 0.12261735, -3.1919334, 0.056221895, -0.010413899, -7.586195, -2.9586258, -0.1296481, -5.0616174, 4.36396, 2.4004045, 0.40299505, 0.72590905, 3.1593153, -1.0136908, 0.82886785, -1.1817994, -1.6284084, -0.14908893, -0.12859033, -0.53957623, -3.3163376, -0.0061579687, 0.19473127, -2.3223524, 0.014352204, 2.268964, 9.921127, 0.057170536, 2.5038116, -0.4497864, -0.8611361, 0.08415168, -0.01805613, -0.059392203, -0.7338612, -0.24099539, 0.018884728, 0.10248513, -0.73694664, -1.0101373, 0.36343342, -0.24242339, -0.18467432, -0.078604564, 0.39599323, -0.26605123, 0.17469452, 0.24358092, 0.29225805, 0.16006824, -2.7088516, 0.8594975, 0.13977554, 0.029475477, -0.3595821, -0.2788788, -1.944502, 0.49779645, 0.8777404, -0.010007372, -0.9796911, -4.4133296, 0.24817647, 0.40450162, 0.02854703, -1.3937501, -0.14912322, -0.41159433, 1.5291559, 0.05011782, -1.2337112, 0.32114914, 0.29418766, -1.4591436, -0.83085126, 0.06563359, -1.3069397, 0.22432159, 0.08848991, 0.028685862, 4.0718927, 3.753092, 3.4266214, -0.7923481, 0.14368874, 0.13479222, -0.030571552, 2.7403672, -0.12086565, -0.22241096, -0.052883517, 2.1311543, 0.97532225, 1.4693689, -1.9856391, 0.10778883, 0.037135668, -0.6843574, 0.1594644, -1.3584869, 3.3398647, 0.32144043, 3.1843257, 0.26393023, 0.40456432, 1.4976519, -0.0858792, 0.08121028, 1.2127757, 2.0176952, 0.79247606, 0.6527992, -1.044934, -0.013940317, 0.033755306, -1.0351882, 0.22029087, 0.63807684, -0.02320836, -0.031664792, 3.115523, 0.09274157, 1.0884013, 0.113847524, 0.20841965, 0.71512145, -0.031580497, 4.483913, 0.3110788, 0.060706753, 0.19171318, 0.34694743, -0.21701077, 0.018248912, -0.94567007, -0.0013452646, -0.17087744, -0.035856385, -0.10991685, 0.6036626, -0.059395026, -0.009296637, 0.09177801, -0.01074352, -0.06717032, -0.0020045785, -0.10105981, 0.36025712, 0.0034708763, -0.1388377, -0.03272103, 0.100048505, -0.044860248, 0.049951177, -0.04730744, -0.0304867, -0.019407645, 0.07370965, -0.2982196, 0.42740953, 0.57750404, 0.035682015, -0.12516476, 0.1320088, 0.18483095, -0.07016331, 0.10965289, 0.0018476662, 0.08061554, 0.045968466, 0.022215717, -0.07084026, 0.031097073, 0.06489422, -0.13120544, -0.02936919, -0.113013536, 0.027802784, -0.11354657, 0.011371538, 0.122988, 0.22009438, 0.16150214, -0.2721446, 0.041478097, 1.2778616, -0.31067082, 0.053952463, -0.84124243, -0.3612631, -0.8530671, 0.16560462, -3.4365935, -0.6625486, -0.21477805, 0.54884017, -0.025803832, -0.8390886, 0.15832116, 0.25492114, 0.0525236, -0.82366353, 0.057488568, -0.028929727, 0.982214, 1.5998422, 0.060955063, 0.45667484, 1.8198125, 0.76858944, 0.21368876, 0.031983495, 1.738649, 1.5728985, 0.6819403, 0.84274095, -0.8129082, 0.113546655, 0.21630248, 0.13441052, 0.19379744, -0.0027784314, 0.12887663, 1.8727665, 0.2814468, -0.24103375, 0.31882736, -0.16966005, 0.15213051, 0.15179262, 0.8917089, -0.30964193, -0.05058021, -0.11688866, -0.32386792, -1.0904624, -0.10289297, -0.15221174, -7.050566, -1.0711651, -0.24249849, 0.022572322, -0.06273212, -0.35033345, 0.46383905, 0.08174152, 0.05500802, -0.082770206, 0.17828424, -0.2557865, 0.048375856, -0.80846786, 0.75013626, 1.4334768, -0.33618015, -1.6941469, 4.049129, -3.1437573, -0.583966, -0.16282389, 0.1603391, -2.2230759, -0.026716368, -3.7210999, -0.14764196, 1.6303474, -1.7812378, 0.78621113, -0.40623274, -0.06547536, 1.0248946, 1.1779783, -4.0203595, -1.368243, -4.269255, 0.021964008, 0.58484405, 0.36966178, 0.69269115, -0.12300113, 0.78264606, 2.0103629, -7.5047097, -6.245928, 0.2618596, -0.08367467, -2.324192, 2.0645738, 0.960259, 0.97580445, -0.044276036, -0.8533157, 3.0440536, -2.2236278, -1.8300323, 4.437333, -0.032855555, -0.93435097, -0.17123604, 2.0683184, -5.1772723, -0.2191179, 1.2559496, -0.22965299, 0.9734829, 0.24392584, -0.14135112, -0.10395875, 1.5003935, -0.010982751, 0.47618344, 0.5405458, 0.50475526, -2.3616428, -0.054420553, 0.50903505, -0.3253181, 1.3435867, 0.036561053, -0.011272874, -4.0258517, -0.038941916, -4.941668, -0.07952615, -0.24195343, 5.3775864, -0.46439072, -6.6698112, 0.15722057, -0.15545507, -0.15297832, -2.8447027, -0.6466157, 0.056644693, -0.65381914, -0.06150197, 0.063925885, -0.024896733, -0.026055323, 1.389329, -0.07807108, -0.019103529, -0.9381661, -0.042624306, -0.08986065, -0.047422048, -0.022255788, 3.390804, -0.106110565, 0.03927168, 0.10957133, 0.03123884, 0.1434251, -0.046928402, 0.028024592, -0.007798088, 0.4068427, -0.03810302, -2.3143384, 2.8255665, 1.0150504, 0.06840902, 0.02346715, -0.9921299, -0.0064808824, -0.0964223, 0.14381687, -0.7836226, -0.016074311, 0.06772891, 0.002225658, 0.0040015895, -0.11031093, -0.15770157, 0.040899355, -0.12856667, -0.3611518, -0.17188714, 0.12847696, -0.03224481, -0.1262075, -0.02975441, -0.26163176, -2.1815767, -0.06674437, -2.3359337, 0.088162854, 0.042616747, -0.9688116, 0.79101694, -1.6142442, -0.09911039, -8.015094, 2.1774657, -2.0097516, -3.2139373, -0.02069493, -2.661896, -0.08275259, -0.27601, -0.026065597, 0.54585737, 0.12668604, -0.07088352, 2.9398577, 1.3105268, -0.050955363, 0.70557106, 10.651123, -1.0641934, 3.0755072, -0.43479648, -4.238144, 0.41111758, -0.5731543, 0.9576723, -1.170492, -0.025603358, -0.04760291, -0.00080038514, 2.5790036, 0.14093949, 0.29359153, -0.63819355, -0.3358371, 0.52964956, -2.5783546, 0.17837167, -0.2232874, 0.002482612, 0.07313106, -0.6629921, -0.048745487, -0.15184353, 0.054158658, -0.004809932, 0.02251397, 0.05396811, 3.33151, -1.9499079, -0.17386948, -0.23314178, -0.16005862, -0.008446748, 0.018312061, -0.07468935, 0.024273809, -0.070741214, -0.5006241, -0.14373747, 3.926533, -2.2274802, -0.23959517, 0.13306469, -1.1987859, -0.65058523, -0.04250267, 2.1421704, -1.9655457, -0.048456654, 0.05132202, -1.204767, -0.033633634, 0.19800322, -0.11718999, -1.7015898, 1.6726288, 0.47805822, 0.4293915, 0.029822152, 0.34843934, 0.90629554, -0.45873827, 0.46732086, -0.40709904, -0.018224945, 1.6177669, 0.19967152, -3.271806, -0.10976067, -0.8277877, -3.8800378, -0.4793975, -1.8313543, -0.16313905, 0.0069359695, 0.012358568, -0.5801163, -0.29241356, 1.352252, -0.059995167, 1.106905, -0.70626587, 0.19402471, -0.80649185, 1.4881905, 0.00794966, -0.002201791, -0.063828714, 1.8431078, -5.759751, -0.3431126, -3.058748, -0.7264441, 0.27724138, -0.05292455, -0.06606216, -0.03597054, -0.09551852, -0.942652, -1.2643518, -1.3561554, -0.6808052, 1.7526577, -0.045160078, -0.9009548, -0.3531219, 0.4653357, -0.042668547, -0.07137744, -0.55852777, -0.12971392, -1.6433024, -0.10224781, -0.10899391, 2.2064302, -0.48896497, -0.8243901, -0.8665769, -0.24384159, -0.11788896, -1.3606895, 0.14532511, -0.10600314, -0.93159556, 0.06936211, -0.14056543, -0.11861717, 0.18937744, -0.47358, 0.07013893, 0.018724857, -0.3277813, 0.11549892, 0.038300972, -0.18775183, 0.037116487, 0.19661734, 0.04218243, 0.16979823, -0.0012872397, 0.06339759, -0.020548075, -0.08220684, 0.014661493, 0.055094384, 0.05244144, -0.056728162, -2.8363128, 1.4242624, -0.17775147, 0.005284236, -0.09220673, -0.01053512, -0.025594821, -0.082743965, 0.03596606, 0.07928115, -0.06337901, 0.04809303, -0.09755108, 0.15363342, 0.073165946, 0.09885299, 0.11851781, -0.028423382, -0.086594746, -0.019173473, 0.039971553, -0.023905564, -0.11236361, -0.13087499, -0.11002612, 0.49429822, 0.03190271, 0.15939918, -2.0538383, -0.071584195, -1.0508891, 0.8259739, -0.42845395, -0.06606722, -0.063841715, 1.0460008, -0.9880251, -0.28962186, 0.0011546452, 0.21568492, -0.02785375, -0.20641671, 0.0214418, 0.34042946, 0.111456476, 0.048834365, 1.337609, -1.4038584, -0.013576594, 0.93800265, -1.8668795, 0.037261445, -0.13458103, -0.5751736, -1.6407839, -1.9786564, -0.560943, -1.3733561, 4.2564316, -0.12911329, -0.14168884, 0.32752267, -1.3933959, 0.007465973, -0.36303952, -0.14596447, -0.2103991, 0.4610785, -1.8548344, 0.073279195, 0.9238633, -0.20544925, 0.12104978, -0.028826876, 0.030298777, -0.29706636, -1.1410755, 1.2744378, 0.0064862105, -0.87308604, -1.7157054, -0.5732207, 0.2651539, -0.12755033, -0.03555199, 0.20998007, -4.539795, -0.141123, 0.052215092, -0.16909003, -0.35773104, -0.116470404, -1.2697791, -8.984639, -0.034051795, 0.9637862, 0.23926422, 1.9207523, 1.2450259, -1.2089174, 0.25796312, -0.01430965, 0.37065816, -4.4580655, -0.032292724, 0.047552172, -0.019983534, 7.8004827, -1.3515962, -0.17486706, 0.039784677, -0.025065823, -1.2974137, -0.3353595, -3.9307723, 0.34602022, -1.421261, -0.063446596, 0.15510204, 0.3377723, -9.210802, 0.006601688, 2.5076036, -1.1208068, -2.1345246, -0.61515826, -0.08279454, 0.024893185, -0.9540237, 1.2111691, -2.3818643, -0.45329303, -0.038022667, 0.28404438, 3.5279734, -1.024216, -1.2544385, 2.1230164, -0.08681028, -0.041516215, -0.16728024, -0.5197755, -3.6643627, -0.25826833, 0.1663794, -0.7609962, -1.0522472, -1.0010561, -0.0075351144, 0.03157723, 0.30088246, 0.9189979, 0.3053924, 2.8935108, -0.63233125, -1.152502, 0.014627112, -3.347767, 3.822632, 0.50994194, -0.021263551, -0.002237752, 1.0418422, -0.020010503, -3.350524, -0.031138424, -0.12466703, -1.1695957, -0.5338173, -2.2753425, -3.3970432, -0.22729668, -0.022070017, 1.8141637, -0.05547115, -0.0879488, -0.62109554, 0.026514335, 0.106567346, -0.0837539, 0.10246181, 0.092799835, -0.0022542393, 0.05759315, 0.01780931, -0.07404976, -0.07093567, -0.11512563, 0.11171169, 0.92221534, -0.03664374, 0.054020558, 0.10515436, 0.044072147, -0.0096365865, 0.053673234, -0.032950383, 0.028089775, 1.0001472, -0.0149604445, -2.010541, 3.9010377, -0.41039312, 0.076363996, 0.0026802134, 0.07556288, 0.079901904, 0.09790873, 0.057666004, -0.26656085, -0.024685772, -0.07032798, -0.043979127, -0.119044214, 0.028019572, -0.20199269, 0.020687744, -0.0058010174, 0.04115504, -0.089042656, 0.068863, -0.14345708, 0.052955948, -0.0126802, -0.16151054, -2.134704, -0.02360094, 1.156873, 0.67178863, -0.12790191, -0.7686963, -0.5391798, -0.65285635, 0.009949471, -1.5036134, -1.9878772, 0.25109643, -1.8895593, -0.06628174, 0.91300434, -0.0504537, -0.022075297, -0.14178888, -2.0702374, 0.11297006, 0.028617337, 0.27147964, -2.655185, -0.028595638, -0.18645422, 1.4358007, 0.07718541, 0.49412003, 0.12053347, 6.158812, -1.9871925, -2.4888356, -0.7761603, 0.40601724, -0.15502313, -0.20208877, 0.45069066, 0.32191202, -0.007958449, -0.25369802, -1.6241932, -0.21785016, 0.8969895, -3.0008225, 0.047654092, 0.36174372, -0.099045314, -0.25601003, 0.1903621, -0.12483376, -0.039262883, -1.1192594, -0.93991554, -0.042848673, -1.7654145, -3.715011, 3.3510365, -0.08801522, 0.20441692, 0.12333045, 0.19068903, -1.8525153, 0.12813681, -0.012739293, -0.12743774, -0.46848354, -0.22804587, 1.2907877, -8.094593, -0.07609417, 0.2571758, -1.694463, -1.7312256, 4.5961547, 1.1012979, -2.6876192, -0.08696958, -1.3012737, 4.517441, -0.094355725, 0.78316677, -0.13981445, -4.19887, 1.0627843, 0.91584015, -0.7733621, 0.019416621, -2.8786316, 1.2362696, -0.22243555, 2.0654447, 0.3641181, -0.08224623, 3.1055112, 0.06393871, 7.6857986, -0.12391098, -3.6353254, -3.1401417, -6.4206095, -3.000222, -0.019139228, -0.08266354, 3.4422774, -5.642146, 0.80768365, -2.8814697, 0.0049186135, -1.522391, 5.8332286, -0.89384407, -5.251174, -1.9031165, -0.08302927, -3.4700842, -0.17303567, 4.0533156, -14.690572, 0.49439895, -4.6903577, -4.6829977, 7.705138, 0.5349966, -0.011710233, -0.20022543, 1.2188994, -1.1838824, -4.769762, -1.6590967, -1.4110234, 1.3571415, -0.24961165, 4.553124, 0.78243566, 0.06544514, 0.019188257, 0.11039502, -2.0100386, 0.14513266, -7.669371, -0.19131789, -0.1731307, -0.13108192, -0.31359085, -8.945966, 0.36205873, 0.0017669853, -0.11441606, -1.5756707, -0.16352397, -0.24917144, -1.8122518, 0.15877655, 