#pragma once

#include <stdint.h>

// Weight 0, shape: (6, 200)
const double weight_0_sonar[] = {
0.26152232, 0.28650486, 0.09877305, -0.1379235, 0.26827905, 0.1469705, 0.16792548, 0.22861724, 0.028541049, 0.14511007, 0.3089659, 0.08878711, -0.03833242, 0.2753504, 0.0931769, -0.10676786, 0.16604808, -0.0888932, -0.025649523, 0.09543509, 0.06637903, 0.15033536, -0.16818602, 0.09369343, 0.21208525, 0.2735205, 0.2129712, 0.10356, 0.11019194, -0.40944415, 0.36868268, -0.24219431, 0.08843166, 0.09503879, -0.009530436, -0.31720653, 0.28275713, 0.043337874, 0.2761433, 0.21920776, 0.010725388, 0.19476804, 0.40956655, 0.03492767, 0.09554419, 0.14165315, -0.049197197, 0.20143528, 0.020016884, -0.36779764, -0.507448, -0.11533347, -0.10884508, -0.00093537814, 0.17150268, 0.07000187, 0.03145202, 0.08237604, -0.7772732, 0.085536435, 0.091585495, 0.05166469, 0.097322136, -0.043239404, 0.09797626, -0.42134377, -0.18848531, 0.047520183, -0.120472714, 0.10998599, -0.11659166, 0.16423658, 0.26292908, 0.11369121, 0.059171088, 0.051577933, 0.058375098, 0.106857754, 0.30990314, 0.10445356, 0.24460742, 0.1112507, 0.19173196, 0.14964285, -0.18761311, 0.06499237, 0.24935456, -0.008186507, -0.20804983, 0.186816, 0.2650152, 0.061185334, 0.4783537, 0.13516338, 0.13556106, 0.2569884, 0.032675344, 0.07656943, -0.013990898, 0.043272134, -0.22336866, 0.049011573, 0.10350102, -0.01369308, 0.26000407, 0.18811834, 0.1645269, -0.17242067, 0.06949136, 0.046541084, -0.25810763, -0.20269561, -0.0762795, 0.16574511, 0.37618753, 0.20556569, 0.17220983, -0.268036, 0.057389207, -0.08408827, -0.09611345, 0.041774157, -0.034822326, 0.10350918, -0.038989156, 0.17552912, 0.14629339, -0.07461539, 0.18581876, 0.16969006, -0.12641586, 0.024553994, -0.10984184, 0.009340303, -0.046205178, -0.020517543, 0.32057232, -0.10883219, 0.13873096, 0.16319242, 0.0050494066, 0.2107497, 0.012446613, 0.004768103, -0.067304, 0.2373036, 0.33696324, 0.117522515, -0.18122523, 0.13995965, -0.0959251, 0.21022938, 0.26784986, 0.10906611, -0.054625053, 0.13072324, 0.013005439, 0.18852755, -0.21542497, 0.28270632, 0.088860236, -0.029305723, 0.27136484, 0.37503663, -0.09519303, 0.23231706, 0.26093668, 0.28216296, 0.33046967, 0.119530864, 0.10235056, 0.24778642, 0.056501124, 0.25215298, 0.17676097, 0.23096482, 0.103477225, -0.028714906, 0.16030362, 0.13704808, 0.07081108, 0.08412419, 0.21886872, -0.117742, 0.1335548, 0.26422492, -0.020641776, 0.2721865, 0.19553664, 0.17130826, 0.09922355, 0.1680017, 0.16247098, 0.10739282, 0.30371732, 0.20773394, 0.074992575, -0.025592752, 0.3709632, 0.3253408, 0.27340126, 0.21416785, 0.24678408, 0.42885005, 0.25377402, 0.082518615, 0.22312856, 0.21837142, 0.03489848, 0.22321162, 0.19805737, 0.23909448, 0.024619926, 0.21671857, 0.24732332, -0.0065256096, 0.21938615, 0.0016458061, 0.00606476, 0.24730474, -0.02528864, 0.23575673, 0.02243377, 0.24754335, 0.22540833, 0.20952833, 0.21653914, 0.23276581, 0.24119322, 0.79685104, -0.33870783, 1.204772, 0.2411562, -0.043922268, 0.007411687, -0.0131964795, 0.20264558, -0.11472781, 0.21156155, 0.21387316, 0.011414793, 0.21981691, 0.20273197, -0.02781566, 0.24060893, 0.22397093, -0.040529292, 0.21865067, 0.0061518773, 0.33286074, 0.4060231, -0.1435689, -0.16828611, 0.054395255, 0.14306988, -0.285067, -0.05572305, 0.11970172, -0.16293843, 0.15792266, 0.1414161, -0.08722247, 0.17670473, 0.032950036, 0.13692065, 0.080599, 0.42737415, 0.13704388, 0.0024841465, 0.14062646, -0.16747813, 0.06275197, 0.15268409, 0.1133629, 0.07350652, -0.80914456, 0.08817668, 0.063882105, 0.097127855, 0.23201163, -0.21753387, 0.26595497, -0.061653893, -0.10016573, 0.14583628, 0.22281136, 0.225951, 0.016940612, 0.017890653, 0.17220049, -0.04285258, 0.11538183, 0.114052854, -0.08692443, 0.07538979, 0.045363933, -0.23072562, 0.13530444, -0.058581818, 0.16523549, -0.181606, 0.16323686, 0.14824538, 0.019277547, 0.08236411, 0.07138859, 0.09976039, -0.09900912, 0.14311175, 0.1186574, -0.09775278, -0.1326496, -0.1152938, 0.11315172, 0.08546746, 0.16920574, 0.21079402, -0.08002501, 0.21782754, -0.103259824, -0.10157749, 0.12360176, -0.17245682, 0.11889904, -0.12203956, 0.13350858, 0.104501806, -0.11342426, 0.11109759, -0.3107073, -0.12510157, -0.03654835, -0.24475992, -0.03921439, -0.12830324, -0.13745701, 0.067748696, -0.21099378, 0.24257338, 0.11248623, -0.013881484, 0.10345167, 0.004276596, -0.017468212, -0.13362773, 0.09556395, -0.81265116, 0.14469726, -0.10794165, 0.11500579, 0.03671187, 0.22922514, 0.20870072, -0.10358286, 0.03704363, -0.50247335, 0.10631687, 0.22637016, 0.30472928, 0.21756485, 0.24862678, 0.20236285, 0.2188946, 0.19361913, -0.020076504, 0.21499822, 0.2688151, 0.20749027, 0.19196412, 0.24433838, 0.24728893, 0.2248527, 0.25143284, 0.22378395, 0.21925287, 0.22476996, 0.27083376, -0.012850943, 0.22568648, -0.051268492, -0.0470039, -0.0052472022, 0.2129183, 0.37351498, 0.22790578, 0.20535156, 0.0525473, 0.1481424, 0.21801895, 0.22780676, -0.03366475, 0.22313403, 0.22138499, -0.087628044, 0.20393409, 0.2294669, 0.24135308, -0.0038831814, 0.19593309, 0.18419158, -0.02707675, 0.10432586, 0.06969419, 0.4900373, -0.00888061, 0.10692337, 0.105792746, 0.1524599, -0.116992995, 0.13417388, 0.18562463, 0.12962319, -0.034459084, 0.14116848, 0.20870385, -0.006652981, 0.12280529, 0.03165379, 0.0049321325, 0.086620234, -0.16370896, 0.02945237, 0.014621413, 0.11115177, 0.11316582, 0.14011936, 0.115793124, 0.0860538, 0.2080993, 0.9354535, 0.0030697845, 1.0468867, 0.23179032, 0.09446349, 0.00021572165, 0.086392336, 0.18363382, -0.30707616, 0.077077106, 0.13668764, 0.0233092, 0.0865986, 0.13332887, 0.060981303, 0.07567894, 0.09599159, 0.16907756, 0.093811795, -0.30898747, 0.11072352, -0.076630116, -0.06658903, -0.055584963, 0.1950514, 0.018003974, -0.069862574, -0.049304433, 0.19463831, -0.09409177, 0.2235707, 0.11967508, 0.0014004451, 0.08943708, -0.20427944, 0.16918737, 0.030157281, 0.09885521, 0.20616819, -0.09470722, -0.043282796, -0.068470605, 0.10691328, 0.12558651, 0.1467705, 0.087731965, -0.636149, 0.12308938, 0.023557717, 0.09102551, 0.1438673, -0.077257305, 0.043564975, 0.15379886, -0.048665427, 0.053019073, 0.06789308, 0.14745559, 0.006513654, 0.123269185, 0.16149788, -0.05666998, 0.13420704, 0.025848668, -0.03753018, 0.2246532, 0.05605291, 0.021771971, 0.14201759, 1.428334, 0.13703002, -0.18779488, 0.10225434, 0.13717252, -0.0006964602, 0.19666624, 0.15079896, 0.100663826, -0.09569995, 0.046485975, 0.030941002, -0.11516432, -0.04032206, -0.042925045, 0.050103694, 0.14567724, 0.16201428, 0.07693161, -0.11607488, -0.016925042, -0.073263675, -0.054170057, 0.0059150374, -0.081181474, 0.037985086, -0.03264884, -0.01674163, 0.1330929, -0.11884525, 0.12334884, -0.2977802, -0.16766547, -0.0017238221, 0.27357665, 0.11492848, -0.12744366, -0.055628337, 0.21993043, -0.24893995, 0.18985236, 0.004220271, -0.004030773, 0.13369305, -0.0013591992, -0.06639913, -0.116430685, 0.09002283, -0.7463158, 0.018636528, -0.031799477, 0.15850571, -0.04345531, 0.19093628, 0.17476822, -0.079008184, -0.031969246, -0.12868747, -0.04625455, 0.08310217, 0.47000694, 0.092796, 0.03722541, -0.025174413, 0.17173709, 0.19085976, 0.02662369, 0.14757748, -0.01398122, 0.16798924, 0.116789244, 0.009771125, 0.15125331, 0.184142, 0.17544682, 0.08868661, 0.2029334, 0.15583205, 0.009772852, -0.028191084, 0.23474716, 0.47418025, -0.098355025, 0.20901902, 0.1526202, 0.73269904, 0.1671539, 0.115497015, -0.039328955, 0.07627915, 0.13214195, 0.20572318, -0.04181567, 0.11381162, 0.16013552, -0.08139748, 0.14390586, 0.063280344, 0.35665962, 0.00413656, 0.17573544, 0.21227598, 0.12710437, 0.08835201, 0.12914947, -0.10191068, 0.14556657, 0.14096822, 0.080551356, 0.063794866, 0.09756303, 0.06339556, 0.062371884, 0.11026338, 0.032279067, 0.067028195, 0.05694064, 0.07435272, 0.0676309, 0.095935956, 0.050906297, 0.20570938, 0.061110556, 0.08360595, 0.040828113, 0.17294526, 0.11034478, 0.06526912, 0.06977656, 0.076037966, 0.07275966, -0.15538558, 0.50343996, -0.21812314, 0.08200366, 0.07579772, 0.16150676, 0.00013674796, 0.06544077, 0.17087714, 0.08547305, 0.06404515, 0.0639583, 0.074907675, 0.20007432, 0.01716106, 0.15438844, 0.06898884, 0.019294137, 0.07821817, 0.029462632, -0.6575291, -0.23423442, -0.14376922, -0.11642098, -0.034494054, 0.17311706, -0.26905683, 0.16869004, 0.10530335, -0.018690662, 0.017051833, 0.029129006, 0.2684602, 0.040377073, 0.04415542, 0.024150241, -0.057105854, -0.03689769, 0.032471307, -0.05824575, 0.07349839, -0.10249042, 0.080779396, 0.038530245, 0.021762483, 0.027320465, 0.045181975, 0.019684749, 0.15919496, 0.13443981, 0.08027418, 0.44196883, 0.049896277, 0.06947553, 0.24160689, -0.111152396, 0.0822698, 0.013463929, -0.00876081, -0.16670893, 0.07896556, 0.015023944, 0.029921489, -0.13459639, 0.119475424, 0.12340098, 0.01492146, 0.07856559, 0.022789335, 0.39001545, 0.02221689, -0.017753256, 0.06416717, 0.031413212, -0.016998485, 0.024858218, -0.17243682, 0.03670587, -0.041364677, 0.07514544, 0.11488583, -0.030287607, -0.11517312, -0.21882974, 0.074953265, 0.038192347, 0.024472142, 0.036167204, -0.036216713, 0.049770687, -0.031098597, -0.057616305, 0.087403744, -0.08119651, 0.11212633, -0.1947969, 0.052513022, 0.023787834, -0.064466886, 0.11825012, 0.16667174, -0.16720198, 0.02009764, -0.03496764, -0.0166308, -0.15043284, -0.047922947, 0.041992284, -0.039017532, 0.015446669, 0.09157698, 0.021238444, 0.05161528, -0.00731888, 0.003075787, -0.04189931, 0.047399912, 0.13890861, 0.041588433, -0.059874147, 0.008377801, 0.009544826, 0.072625086, 0.08656409, 0.29853842, 0.012983609, 0.08163095, 0.0015423349, 0.09090776, -0.008672539, 0.08457472, 0.084288396, -0.008488183, 0.06275405, 0.059656695, 0.0137515245, 0.07332113, 0.101930566, 0.075075835, 0.07666739, 0.08851877, 0.068514735, 0.074116446, 0.09630952, 0.13179843, 0.05863613, 0.07808417, 0.19089176, 0.07495149, 0.06464094, 0.2806764, -0.028834833, 0.034102477, 0.0657278, 0.087046675, 0.07371026, 0.07612865, 0.019406239, 0.08877723, 0.07776882, 0.0618428, 0.044070035, 0.06934015, 0.07494951, 0.069872454, 0.08652858, 0.14508802, 0.14141598, 0.09785458, 0.06406023, -0.3502158, 0.11424253, -0.11663447, -0.10088488, 0.06400601, 0.1324731, 0.13221332, 0.079063706, -0.018076183, 0.17632146, -0.25543687, -0.13506554, -0.06902493, 0.103728205, 0.09498469, -0.13359797, 0.0165672, -0.25594178, -0.012072167, 0.021986153, -0.033760022, 0.13496597, 0.09226419, -0.03231575, 0.024403816, -0.07331224, 0.055225875, -0.16475536, -0.07164481, -0.034587253, 0.1621976, 0.10375239, 0.20955834, 0.02216548, -0.24129704, -0.005546851, -0.10853836, -0.10857576, 0.14848956, 0.020394964, -0.20562187, 0.008457948, 0.069126725, 0.1361252, 0.013492464, 0.050859455, -0.08750685, -0.28053746, -0.062312957, 0.40543738, 0.043493204, 0.19174232, 0.11240161, -0.011884636, -0.017265841, -0.015239371, -0.105012916, 0.003976263, -0.23350336, 0.25966004, -0.16958174, 0.07100993, -0.019642757, -0.12621975, 0.64117813, -0.16375576, 0.11168323, 0.5885539, -0.19444893, -0.07182082, 0.11208755, 0.4035027, -0.11652637, -0.08681994, -0.15747406, -0.15015127, 0.043231018, -0.124076046, -0.0892055, -0.12089321, -0.041558407, 0.18023506, -0.05310027, -0.022016402, 0.03183431, -0.08948624, -0.13174582, -0.13419041, 0.037493218, 0.006047318, 0.01161547, -0.31919506, -0.066593796, 0.03657035, -0.17158325, 0.038694415, 0.085491136, -0.3212907, -0.16790189, -0.18075515, -0.10813957, -0.112144716, 0.12661225, 0.051055063, 0.02862546, -0.04114855, -0.07091918, 0.13409196, -0.07116881, -0.04472755, 0.10726129, 0.16656359, -0.12374418, 0.20202006, -0.08035703, -0.17683221, -0.07408939, 0.07170783, 0.06267362, -0.16614948, 0.12749447, 0.18096852, -0.022450706, 0.03314677, -0.14950404, 0.126802, 0.023031583, -0.21783215, -0.10550413, -0.18963015, 0.12606013, -0.059388507, -0.05191382, -0.11987859, -0.157461, 0.0015267493, 0.063141346, 0.00023393398, 0.100266695, 0.015366959, 0.07462852, -0.00087511574, 0.01976623, 0.003910173, 0.057209026, 0.012963964, 0.042794913, 0.12634385, 0.020226223, 0.18047427, -0.013593856, 0.07946425, -0.09054059, -0.12083097, -0.1915619, 0.06387397, -0.34068775, 0.17539674, -0.03302424, 0.008586768, 0.05880265, -0.055636186, 0.27647808, 0.11581872, -0.25473338, -0.07500178, -0.15797874, -0.07446241, -0.10896382, -0.016092882, -0.027984725, -0.0833718, 0.14578171, 0.11472791, -0.17388111, 0.003693489, 0.0724686, -0.030280838, -0.0055785053, -0.24934413, 0.38336045, 0.055799898, -0.11650499, -0.10762734, 0.084815815, -0.10320493, 0.07854793, 0.04098401, -0.034050677, -0.14630093, -0.045703556, 0.05582237, -0.041167706, -0.03466989, -0.029351154, 0.057582792, 0.069679245, -0.062472876, -0.044150185, -0.10975474, 0.08790127, 0.11617554, 0.09838753, 0.08435804, -0.00064025645, -0.055814575, 0.15846997, -0.07721746, -0.14357105, 0.088184334, -0.083399005, 0.08725152, 0.006603179, 0.15361352, 0.12384737, 0.05784361, 0.1388133, -0.031949814, 0.099190496, 0.044058263, 0.13899305, 0.016639808, 0.005532915, 0.1202523, 0.017053362, 0.18493511, -0.09001477, -0.028506294, 0.08246451, 0.1600679, 0.1501948, -0.16098316, -0.28509995, 0.21333201, 0.08112286, 0.16643192, 0.41041872, -0.09316383, 0.19201858, 0.09503101, -0.12250951, 0.04755092, -0.08775288, 0.07479579, -0.036700312, 0.06064919, 0.05939677, 0.06877365, -0.021680176, 0.15538028, 0.006881796, 0.19470304, 0.17127222, 0.18086258, -0.123137854, -0.015378941, -0.502433, 0.3098229, -0.102640785, 0.61853456, 0.06624556, 0.12995082, 0.02117669, 0.1292744, 0.38437602, 0.101604015, 0.3419902, 0.12365787, 0.20656393, 0.3431289, 0.048616163, 0.17467389, 0.11861058, -0.0753012, 0.052728716, 0.09480754, 0.13764252, -0.11979871, 0.03495071, 0.03261882, -0.016071727, 0.03574746, 0.36873996, 0.1011573, -0.0938151, 0.10527422, 0.103648864, 0.026945831, 0.3050796, 0.28620964, 0.07971143, 0.14010127, 0.087682955, 0.045008887, -0.26582673, -0.24069174, 0.06266428, 0.0909158, -0.08696551, 0.11444265, -0.029705558, 0.13422078, 0.1033459, -0.05487235, -0.010063778, -0.065317586, -0.22393143, -0.06657557, -0.0772344, 0.07069547, 0.05590757, 0.06217874, 0.10483615, -0.066692926, -0.109613135, -0.06900834, 0.09743759, 0.12725736, 0.019974804, -0.0062118913, -0.021428782, -0.10293703, 0.1277817, -0.032299135, -0.07286754, -0.06283398, 0.06836259, 0.026565446, 0.085707545, 0.15870778, -0.06951233, 0.15788677, 0.005368946, 0.1518231, 0.052158006, 0.11312742, -0.005923894, -0.18205586, -0.050000843, 0.018187094, 0.118545584, 0.031958643, -0.04221053, -0.010473947, 0.0019885076, 0.008056749, -0.10341843, -0.07985598, 0.057660412, 0.08724444, 0.14676541, 0.10778485, -0.13921483, -0.09403507, 0.067160934, 0.11146291, 0.06702811, 0.009895014, -0.025534287, 0.08931551, -0.10842369, -0.0147375, -0.011528318, -0.14327674, 0.13285738, 0.13945676, 0.04889368, -0.021783222, 0.0033536444, 0.044535648, -0.11875734, 0.17997068, -0.090284266, 0.02187948, -0.0014118189, -0.057477426, 0.024811313, 0.07990082, 0.12561865, 0.06255715, 0.18127121, -0.10120659, -0.0032610232, 0.12066065, 0.32527617, 0.10409986, 0.040560514, 0.09122344, 0.019412346, 0.030046398, 0.049385812, 0.009347818, 0.11070855, 0.16844541, 0.020180404, -0.097934686, 0.12897785, -0.047466565, 0.12315882, -0.104410514, -0.10313335
};

// Weight 1, shape: (50, 200)
const double weight_1_sonar[] = {
-0.14640369, -0.029933985, -0.3803074, -0.07114589, 0.103426196, 0.08982754, -0.05326606, -0.06482522, 1.2657738, -0.06974928, -0.080653585, 0.061522137, 0.71381056, -0.053651676, -0.046104923, 0.32031488, -0.12037596, 1.533069, 0.87848896, -0.03964263, -0.5488977, -0.2448054, 0.5189128, -0.20468034, -0.010539178, -0.19610713, -0.006926438, -0.11225998, -0.15050723, -0.35842356, 0.18842266, 0.40137276, -0.15150315, -0.6458001, 1.1201434, 0.12486063, 0.042666186, -2.4563723, 0.06724315, -0.2530543, 1.0828907, -0.0060735545, -0.11353263, -0.6238441, -0.28374305, 0.008500955, -0.20992972, -0.113271765, 1.219138, 0.010249433, -0.8122097, -1.6732395, -1.534102, 0.4933604, -0.13093783, 0.4543966, -0.04506876, -0.17660639, -1.1728759, -0.6503659, -0.4903789, -0.058543265, -0.2631567, 1.8468575, -0.65335864, 0.54548484, 0.096273154, -0.7550586, -0.5920147, -0.4784699, -1.2499299, -0.25559044, -0.071965724, -0.20203851, -0.77905065, -0.84238267, -0.15838267, -0.7844921, -0.15475383, 0.029294781, 0.16051903, -0.27127007, -0.40259463, 0.2156136, 0.16993739, 0.023765784, -0.28498143, -0.26288012, -1.1230361, -0.123173915, -0.001956299, -0.4340225, 0.2974891, -0.13607082, -0.404572, -0.97338825, -1.2715619, -0.46746835, -0.22427875, -0.1507885, 0.14707337, -0.114073336, -0.06523643, -0.4903658, -0.053043924, 0.07121993, -0.09640831, -0.08263505, -0.007607652, -0.0068341885, 0.1546914, 0.12551564, 0.07330346, 0.03450809, -0.03996727, 0.05714504, -0.07698436, 0.031555645, -0.21653259, 0.22455281, 0.26571354, 0.0010652848, -0.04786103, -0.16092603, -0.11577021, -0.25063282, -0.06895429, 0.064130485, -0.015482068, 0.19498347, 0.03810549, -0.4617674, 2.6980994, 0.38551378, -0.029846568, -0.007896833, -0.23847938, -0.023526935, -0.2554157, 0.029205905, 0.19327812, -0.043885298, 0.014575277, 0.06969052, -0.070590384, -0.112514384, 0.21982957, 0.003939432, 0.07997972, -0.014223795, -0.75404364, -0.29481587, -0.4448966, 0.06446104, -0.8171434, -0.85072327, -1.3000376, -0.5756262, 5.1499853, -0.1164095, -0.22747576, -1.2831899, -0.31860924, -0.2667744, -0.42112112, -0.188376, -0.0067622825, -0.116101734, -0.2637268, -0.102103174, -0.5010267, -0.21353583, -0.025812682, 0.009456357, -0.22050951, -0.096498385, 0.005320584, 0.43786824, -0.3738004, -0.33007768, 0.22339326, -0.33919635, -0.28832987, -0.7298164, -0.11898795, -0.19399744, -5.754663, -0.3944944, -0.41105732, -0.24547099, -0.68788326, -0.17798434, -0.17584908, -1.6944911, -0.1806344, -0.11383005, -0.22141069, -1.8220638, -0.1690098, -0.084938325, 0.038143888, 0.12027651, 0.063511215, 0.17455171, 0.07243911, 0.044989143, 0.21654554, 0.024967397, 0.7318396, -0.0012387516, 0.08070969, 0.013388441, 0.2647521, 0.14671238, -0.05028894, 0.6943948, 0.21762915, 0.24606673, -0.60360163, 0.032629695, -0.22509325, 0.07632595, 0.2328199, 0.024720663, 0.046965, 0.08081104, 0.17636873, 0.061716773, 0.0192494, -0.7311509, -0.24084868, -0.30730653, -0.06292839, -0.59795624, -0.8542149, 0.6791401, 0.002488889, -0.12070452, 0.067836605, 0.0036904446, -0.11454525, 0.2849872, 0.19779979, -0.14259511, 0.004115801, 0.040445056, -0.8784524, 0.05236633, 0.43675435, 0.05416781, 1.9538584, 2.4736288, 2.0879831, 0.27566984, -0.002899654, -0.068158686, -0.107886605, 0.20027612, 1.624817, 0.08843601, 0.0075806514, 0.031151677, 0.15317903, 1.4997655, 0.06661101, 0.56774664, 0.7373578, 0.17692058, 0.5429183, 0.25666106, 1.4864327, 0.3075546, 0.22945563, 0.12187492, 0.055211015, 0.80311996, 0.028868698, 0.28551945, 0.07425322, -0.022609489, -0.24795862, 0.25621486, 0.13820963, -0.2554449, 0.54787284, -0.055269353, 0.09463112, -0.19280754, 2.4818158, 0.09324825, 0.2089363, 0.17309156, 0.8793995, 0.033408727, 0.21520059, 0.0724506, 0.76184154, 0.025391102, -0.063352734, 0.14462246, 0.030023675, 0.03267774, 0.09394904, 1.0401126, 0.08262393, 0.07444923, -0.106366865, -0.2277729, 0.019844094, 0.011641618, -0.055879332, -0.096796505, -0.12323545, -0.018237418, 0.032880705, -0.14275241, 0.058913905, -0.09355879, 0.30121145, -0.09092029, -0.20323661, -0.008242604, 0.0337239, 0.054448526, 0.16091718, 0.03790044, -0.0046297093, 0.08363055, 0.048175648, -1.1282325, -0.0034906706, -1.1326109, -0.618076, -0.61379474, 0.0060465047, 0.0418809, 0.15034403, -0.0038750619, 0.055183195, 0.0053936807, -0.22649147, 0.09110278, -0.015380986, 0.30014393, 0.0039049918, 0.12238552, -1.5908977, -0.03191865, 0.017250635, -0.025707891, 1.2050356, 0.0797027, 0.15811343, -0.061108682, -0.060048208, -0.06697046, -0.5923557, 0.07851531, 0.5095513, 0.12888807, 0.06665577, 0.8280052, 0.078892075, 0.068356805, 0.8939689, 0.1577101, 0.09962678, 0.13347116, 0.1745388, 0.09651941, 0.12276166, 0.09170361, 0.11042826, 0.2211289, 0.1203985, 0.0075355354, 0.047756113, 0.26666224, 0.18913612, 0.26055852, -0.08729328, -0.37668812, 0.17439185, 1.1679823, 0.3028792, 0.04420038, -0.030112373, 0.053075176, 0.11000367, -0.06411201, 0.13764597, 0.12994109, 0.15046647, 0.16388789, 0.0073588053, 0.15228006, 0.2678073, -0.3615296, 0.07851702, 0.058655556, 0.03921153, 0.51756316, 0.12806264, 0.07406447, 0.36956707, -0.089469664, 0.74955857, 0.034902394, 0.5714378, -0.02070801, 0.08742795, -0.10071023, -0.00018790338, -0.03851723, 0.17418662, 0.5759334, 0.47114173, 0.31695688, -1.3425395, -0.02525411, -0.3372739, 0.30537924, 0.22329123, 0.11987205, 0.019715035, 0.2231319, 0.089775436, 0.057875045, 0.01280079, -0.96162117, -0.14863223, -0.32823864, 0.04518934, -0.7263355, -1.1315432, 0.5971518, 0.599652, -0.4347644, 0.11206734, 0.09492181, -0.13162035, 1.322383, -0.09893814, 0.19646512, 0.23608805, 0.14086452, -1.1692231, 0.79979616, 0.66311526, -0.037936337, 0.87832713, 2.3827162, 2.458456, 0.20692797, 0.6995019, -0.07947067, -0.14562507, 0.15293455, 1.9150333, 1.1918513, 1.2845364, -0.12674293, 1.3862289, 1.3498585, 0.8614949, 0.68827176, 3.2449906, 0.09866666, 0.41613403, 1.0700496, 1.5023541, 0.7432088, 0.6402999, 0.33726522, 1.1072162, 0.95991963, 1.0273514, 0.8250382, 0.7775988, 0.0658811, -0.3283205, 1.2158804, 1.0455407, -0.14032438, 0.5787476, 0.06457517, 1.5624468, 0.25828084, 2.502434, 0.04747642, 0.4527091, 0.29567814, 1.6509221, 0.43772832, 0.3404712, 2.039978, 0.026578529, 1.2805935, -0.021845296, 0.228754, -0.18909214, 0.038866542, 0.1370382, 1.1657281, 0.15465729, 0.033661004, -0.037093963, -0.1847318, 0.013771532, -0.021127133, -0.26323697, -0.23129849, 0.02705351, 0.045263685, 0.355336, -0.041667063, -0.010364573, 0.0044572502, 0.06901398, -0.35288048, -0.0033063057, -0.106170356, -0.018657476, -0.05179651, 0.05775941, 0.31476718, -0.13061109, 0.043629743, -0.09476612, -1.5188125, -0.06767393, -1.4356217, 0.081441596, -0.71624494, 0.081516236, -0.08524011, 0.2308189, -0.10370173, 0.31575826, 0.15570912, -0.66881037, 0.30487353, -0.014521727, 0.996391, -0.028195923, 0.17379825, -1.9470999, -0.028733052, -0.2926798, 0.0852358, 0.7975954, 0.17717579, 0.1634049, 0.53691417, -0.42887488, -0.66602695, -0.6078176, 0.3980489, 0.5958641, 0.1779484, -0.060923938, 0.7996148, 0.5640263, 0.34223917, 0.67826, 0.87334824, 0.6377933, 0.6507888, 0.689741, 0.3962657, 0.28712574, 0.8417609, 0.03413631, 0.6052522, 0.1701121, 0.06592318, 0.115660705, 0.27864215, 0.51395804, 0.235984, 0.2349219, 0.24342276, 0.4684823, 1.3032156, 0.17666546, 0.23180248, -0.010685882, 1.128634, 0.8032862, 0.1783336, 0.6661762, 0.09378755, 1.5347364, 0.58848083, 0.38181904, 0.27319315, 0.14515434, -0.9805732, 0.2850515, 0.118351914, -0.0036603292, -0.3737214, -0.12050343, 3.2421763, -0.20792408, 0.06385666, -0.4628115, -0.06507783, -0.9308415, -0.15483062, -0.073058896, 0.10231886, -0.48221692, 0.035585478, -0.10651952, 0.07988635, 0.063033424, 2.6499083, 1.6976087, -0.410431, -0.9774002, -0.16318798, 1.5190701, 0.04868307, -0.09381859, -0.31408328, 0.075970754, -0.18309686, 0.016001308, -1.3620732, 0.13922001, -1.2889378, 0.15031916, -0.4928395, 1.7547351, 0.6112267, -0.645944, 1.3811941, -0.044516087, -0.17773017, 0.4305746, -0.38547185, 0.0726317, 0.9686978, -0.2717606, -0.0145997, 3.1422832, -0.7153311, -0.28500313, 0.0018650014, 1.4057603, 1.2144119, 1.0713912, 1.0927427, -0.31717017, -0.15544102, 0.3875166, -0.20858088, 0.72426623, -1.6956211, -1.7719338, 0.5762617, -1.922688, -2.385612, -0.9324026, -0.7691829, 0.65229875, 0.3704204, -2.0592453, -0.47504988, 0.42595375, -0.2718227, -0.40192625, -0.45563656, -0.09237766, 1.7398196, -0.17379355, -0.54280543, -0.36609143, 0.09426963, 0.32193634, -0.813432, -0.37626177, -0.48563492, 0.8630237, 0.06729748, -1.4460377, 0.79448366, 1.3160286, -0.01175326, 0.40333542, 0.07458311, 1.0864816, 0.52398306, -0.067801625, -0.66426855, 3.071749, -1.8884428, 0.2079278, 0.07053892, 0.24665529, 0.17828248, -0.13561866, -1.0812365, -0.03464738, -0.16021903, 0.032201756, 0.03919009, 0.0006306133, 0.036269117, -0.05733744, 0.057462458, 0.2434889, -0.02857711, -0.04712293, 0.0767252, 0.008182874, 0.0763011, 0.017659185, -0.043415356, 0.11337632, -0.00464071, -0.09074241, -0.16942212, -0.18202603, -0.34095946, 0.026584532, -0.07411256, -0.00027875017, -0.63937384, 0.030790437, -0.24890822, 0.5986115, -0.0070574675, -0.097930685, 0.30515233, -0.2553558, -0.014391158, -0.072717756, -0.12033374, -0.7951171, -0.033933543, -0.10004951, -0.10557354, 0.06345048, -0.102239445, -1.0206472, -0.07672337, 0.100454345, 0.11697073, -0.5496933, -0.22066489, -0.035631165, -0.9772892, -0.86227727, -0.081262864, -0.46988082, -0.26583502, 0.29440466, -0.18769859, -0.11583745, -1.2197871, -0.26400563, -0.1028224, 0.29272714, -0.43617636, -0.06374798, -0.14145057, -0.105929196, -0.3332333, 0.11291909, -0.114822365, 0.04844897, -0.02817636, -0.35663655, -0.2698121, -0.0963367, -0.20826636, -0.5950262, -0.14468636, -1.9213666, 1.6390364, -0.12535119, 1.72696, -0.2996563, -0.067944236, -1.6860291, -0.33969176, -0.06587582, -0.020600522, -3.6053588, -0.022154488, 0.83463734, -0.2766182, -0.06654133, -0.33045253, -0.21402022, -0.46319413, -0.1872606, 0.3402506, 0.046249628, -0.0742744, 0.07083333, -0.32104176, 0.051082436, 0.010882384, -0.07242743, 0.12354067, -1.7986233, 0.060693428, 0.15108804, 0.10773092, -0.9045334, 0.006872419, -0.06972575, -0.3559737, 0.3092827, -1.1022738, 0.10354623, 0.1960363, 0.02694764, 0.081169374, -1.6055158, 0.05165307, -0.09028581, 0.042819772, 0.25697806, -0.12346455, 0.121538125, -0.22286119, -0.19396038, -0.27988872, 0.18498498, 1.364945, -1.750776, -0.8852953, -0.04327162, 0.4828026, -0.019702848, 0.15619141, 0.059174225, -0.08305967, -0.006396182, 0.49382314, 0.05718045, 0.16250153, -0.45071757, -0.035985235, -0.06993975, 0.042478908, 0.8167978, 0.47579217, 0.52081424, -0.010669228, 0.10098703, -0.1918243, -0.06115861, 0.21939157, 0.58746994, -0.113040395, 0.1458733, 0.02555431, 0.08279503, -1.3196192, 0.07726783, 0.5091151, 2.1657395, 0.0023090928, 0.25516722, 0.003574313, 0.39757952, 0.13262571, 0.15953636, 0.17720267, 0.15490174, 0.36185625, 0.14558983, 0.23936307, -0.07823216, 0.03818772, -0.36011896, 0.21727243, 0.14257053, -0.36997753, -0.09995719, 0.16809879, -0.096533254, 0.2059552, 0.3364387, -0.00904208, 0.08879674, 0.059700347, -0.026949482, -0.11867043, 0.156134, 0.19970113, 0.63308305, -0.18228236, -0.24203949, 0.17845432, -0.14692749, 0.05242551, 0.032258157, 0.16450065, -0.00011618537, 0.038525403, 0.09038723, -0.024047555, -0.003825873, 0.07156065, -0.028708886, -0.021284603, -0.19359472, 0.0065632877, 0.029075364, -0.13370651, 0.21013841, -0.0030743014, 0.1044268, 0.0033593122, -0.050057307, 0.053517863, 0.059789874, 0.049137052, -0.08757605, -0.035404187, 0.13169362, -0.0139317345, -0.013409315, 0.116754636, -0.095400944, -0.20445067, -1.1010967, 0.027557522, 0.0065711844, -0.04115861, 0.1593886, -0.017333185, -0.086883254, 0.019036397, 0.012983054, -0.04397966, -0.12372123, 0.06079687, 0.05304164, 0.03353804, -0.16624543, 0.12532808, -0.03470031, -0.09135492, -0.2722133, 0.023137292, 0.23471138, -0.057429332, 0.8909819, -0.008158314, -0.19405255, 0.18422443, 5.2625694, 0.11078164, 0.1725095, -1.2588054, 0.04520835, -0.09220848, 0.25419196, 0.18093827, 0.17834213, -0.027025929, 0.21640311, 0.1614669, 0.17750613, -0.056169726, 0.058998965, -0.009794717, 0.006118682, 0.11435523, 0.0049886014, 1.9970787, 0.014300187, 0.38292873, -0.93178755, -0.7351772, -0.06916743, 0.5862292, 0.22388206, 0.035713598, 4.9438505, 0.03659418, -0.1428762, -0.046045814, -0.011317341, -0.024925353, 0.073207326, -0.3706146, 0.042649828, 0.032033935, 0.1804449, 1.7622375, 0.0058833202, 0.18822445, 0.08262042, -0.23964122, -0.14206213, 1.6183891, 0.030691145, -0.06960085, 0.06931427, 0.14123912, -0.41425344, 0.06037107, -0.002017258, 0.05239975, -0.94627804, -0.08829644, 0.03322052, 0.3223835, -0.042138383, -0.9127015, -0.96975446, 0.09549374, 1.7729615, 0.07478443, 1.08399, 0.004395305, 0.07821347, -0.020295119, -0.0864813, 0.17009115, 0.016395926, 2.1515598, 0.03851152, -0.10836973, 0.17345053, 1.4236847, 1.3216902, 2.9684122, 0.11061099, -0.8541611, 0.05955777, 0.10241357, -0.32793102, 0.15999234, -0.037306145, 1.3503835, -0.042699106, 0.14291324, -1.1846273, 0.030220266, -2.5218081, 0.08898534, 1.2538273, -0.94350517, -0.59080184, -0.034303803, 0.11052574, 0.04962293, -0.06723143, -0.005698701, 0.32611385, 0.016210524, -0.023664737, 0.218267, -0.034273017, -2.479566, -0.12369177, 2.8712122, 0.11187183, -0.12209363, 0.6481409, 0.0127637815, 1.2842728, 0.038137376, 0.0072248843, 0.10043717, 0.008232629, -1.0013447, -0.08712961, 0.060908813, -0.05992767, -0.011614583, -0.08808218, 0.09069812, 0.018938355, 0.4289122, 1.0124255, -0.0061913426, -0.024168056, 0.11625185, -0.8678067, 0.06794269, 0.21643595, 0.05332254, 1.2627325, -0.27197868, 0.074031495, -0.100579776, -0.67840785, 0.09923631, 0.69691294, 0.1552312, 0.024652854, 0.38417414, -0.066046834, 0.44821915, 0.06982856, -0.15695821, -0.056591887, -0.047850963, 0.055259317, 0.06245144, -0.01068127, 0.1490041, 0.043274205, 0.013769819, 0.0033237492, 0.0019598827, 0.032132555, -0.019600341, 0.02898904, 0.12659642, 0.05406249, -0.036929186, 0.15953608, -0.01278321, 0.0175092, 0.07787808, -0.014067179, -0.019266257, -0.08156504, 0.8343535, -0.010961207, 1.6934292, 0.35084787, 3.767237, -0.038139388, -0.10138802, 0.011957884, 0.013537338, 0.01213352, -0.106202126, 0.03599776, 0.03578767, -0.070558876, -0.40702474, 0.07382776, 0.009223878, -0.7679219, -0.060964976, 0.059932493, -0.03956793, -0.5615389, 0.06620186, 0.018930707, -0.3313339, -0.5858563, 0.014662338, -1.8991567, 0.042512976, -1.4390101, -0.020135622, 0.03560526, 0.07835418, -0.008308784, -0.03545074, 0.31694523, 0.083117425, 0.013051429, -0.058204126, 0.030932501, -0.08718339, -0.019597776, -0.080340005, -0.076953456, -0.04783174, 0.120802775, 0.085201174, -0.012065908, -0.093189, 0.14326632, 0.16446508, -1.2106293, -0.39349237, -0.009162291, -0.110149436, 0.14016321, 0.01257343, 0.34125322, 0.103738055, -0.037436627, 0.05967992, 0.1358869, 0.031059813, 0.032260414, 1.5181361, 0.04372384, -0.07398975, 0.020680154, -0.75320715, 0.085911006, -0.028071702, 0.037534297, 0.051922284, 0.11103603, 0.18038452, -0.08346259, -0.0621315, 0.020352079, 0.0016442531, -1.7224892, 0.23108013, -0.013564202, 0.05668835, -0.4011657, 0.056927674, 0.050853796, -0.39272815, 0.1717678, -1.6094426, 1.7446414, 0.22429805, 0.54173917, 0.20852274, -1.4139569, 0.111029945, 0.030720884, 0.2925842, 0.19398241, 0.28667718, 0.13356595, -0.40584496, -0.37344384, -0.3896413, 0.149677, -1.6646866, -0.6621801, -0.26268825, 0.034174293, -0.54429656, -0.008636427, 0.18711989, 0.015111192, 0.08043181, 0.09489355, 0.61161685, 0.1806508, 0.1612302, 1.6879132, 0.06948494, 0.17513539, -0.01687689, -0.51881117, 0.6666335, 2.7528477, 0.4857352, 0.1723772, -2.211021, -0.011015509, 0.23772715, 0.14704183, 0.15955193, 0.09713805, -0.010438297, 0.15172718, -0.6218488, 0.24123381, 0.53177214, 2.6905155, 0.18376572, -0.21946777, 0.03785545, 1.6126996, 0.296032, 0.22733587, 0.22880596, 0.16899681, 0.39229962, 0.08497108, 0.4069893, 0.1921554, 0.14281327, -0.20285606, 0.2688808, 0.17650442, -0.19802855, -0.47023454, 0.056454334, -0.046636242, -0.07348873, 0.41447634, -0.009981932, 0.21424928, 0.2084872, -1.1073077, 0.36193922, 0.388402, -0.03262591, 2.832168, 0.13031888, -0.39564037, 0.15427803, -0.058633626, 0.23522659, 0.14008316, 0.03836056, 0.1569592, 0.16658069, -0.0902238, -0.07741568, 0.07647919, 0.041451305, -0.14090134, 0.033536196, -0.121876195, -0.08760648, -0.028833712, 0.010021604, 0.25671634, -0.12656206, 0.035658944, -0.07129645, -0.34872195, 0.03327089, -0.104447655, 0.111437455, -0.067522824, 0.19037063, 0.06225512, 0.07684957, -0.0011171441, 0.5170122, 0.1854173, -0.10052657, -1.1307087, -0.21923192, -0.0068449364, -0.025661645, 0.070463836, -0.15817973, 0.063088864, -0.014072464, 0.47040746, 0.15239029, -0.16391051, -0.18441027, -0.1158077, 0.033331364, -2.0436478, -0.04679169, -0.052763145, -0.07137906, 0.9729367, 0.32125416, 0.32383177, 0.04355366, 0.5883919, -0.7081548, 0.87849754, 0.18032251, 0.46509954, 0.06434791, 0.17837973, 4.717525, 0.20256814, 0.24209854, -0.25920036, 0.15180331, 0.022412848, 0.019573128, 0.17139235, 0.2662505, 0.21485731, 0.22007585, 0.13721369, 0.1835339, -0.036449946, 0.073640816, 0.08096988, 0.29673994, 0.19234936, 0.4129097, -0.94596004, -0.35586715, 0.37620583, 1.3225243, 0.23868416, 0.2317135, -0.6618153, 0.24564482, 0.22496605, 0.15267497, -0.1797036, 0.015377424, 0.1553124, -0.2455181, 0.2183989, 0.24961871, 0.49912244, 0.34591168, 0.3125096, 0.019539475, -0.09486761, -0.1252611, -0.057937592, -0.46857545, -0.08478507, 0.09959727, -0.15738529, -0.057992853, 0.11273304, -0.0620464, -0.17587854, -0.14946674, 0.09918019, 0.08305319, -0.09661147, 0.42824596, -0.2417983, 0.3636564, 0.52114576, -0.19755635, 0.5747203, -0.024548836, 0.074223734, 0.048916474, -0.02934512, -0.1303365, -0.091287814, 0.0028635147, -0.002013179, -0.041067354, 0.32636642, 0.026638083, -0.10836728, 0.77513146, 0.2774936, -0.09749072, -0.01674731, 0.5268329, -0.08626892, -0.12659384, 0.586095, -0.050171256, -0.08028775, 0.42186052, -0.110829785, -0.12434605, 0.455897, -0.0056521054, 0.20298107, 0.053431015, -0.78725797, -1.2053175, -1.1627494, -0.23429522, -0.09269984, -0.047319587, 0.08313864, -0.21316527, -0.85041183, -0.12835403, -0.028548174, -0.07655573, -0.105723366, -0.57383, -0.093725696, -0.343731, -0.28823203, -0.27476317, -0.3702878, -0.08288955, -0.9040846, -0.49207044, -0.2243593, -0.1829825, -0.13443539, -0.6044193, 0.035288107, -0.38303542, -0.13986966, -0.12664752, 0.098698445, -0.1215572, -0.0038351943, 0.18462881, -0.17343278, 0.013101251, -0.13410816, -0.07855075, -1.2720011, 0.0573069, -0.07100225, -0.09356912, -0.12417813, -0.19142447, -0.21464247, -0.17582658, -0.12552468, -0.13895972, -0.03752726, -0.13995521, -0.0005430227, -0.22769265, -0.20726596, 0.32660347, -0.0300217, -0.08404744, -0.09166612, 0.056112323, -0.012781608, -0.11246555, 0.1340004, -0.01850531, -0.0013655936, 0.03469358, -0.03127685, -0.041371785, -0.071456194, 0.08338045, -0.09199232, 0.033350877, 0.34850577, -0.08838445, -0.04136092, -0.064516805, -0.08819409, 0.027953615, -0.08072504, -0.09528747, 0.016342843, -0.19218081, -0.1381568, -0.22438686, 0.33084413, -0.30048195, -0.098895304, 0.008548237, -0.13891815, 0.26476803, -0.0348135, 0.04955977, 0.08787053, -0.072637565, -0.07761851, -0.023882814, -0.0504496, -0.13448362, 2.0821817, -0.122985646, 0.10727017, -0.06887777, -0.066274524, -0.0031952767, -0.15022454, -0.17693567, 0.20974068, 0.026056947, 0.631214, -0.09361885, 0.20539725, -0.06043138, -0.12361169, 0.05875782, -0.00858939, -0.2410533, -0.06657031, -0.2769795, -0.024894653, -0.12614736, -0.15263703, -0.15078972, -0.31633717, -0.05411006, -0.053038236, -0.16545969, -0.22494602, -0.15875313, -0.17514575, -0.09381037, -0.10230351, -0.44069475, 0.095914714, 0.33363828, -0.16905697, -1.1262442, -0.17483559, -0.12543783, 0.11713873, -0.13936824, -0.17550772, -0.15796487, -0.0059903786, 0.05224774, -0.1569062, 0.2271409, -0.24711238, -0.153165, -0.15425408, -0.015795734, -0.36918885, -0.103576384, -0.033999696, 0.03410611, 0.2825895, -0.46351665, 0.0010769217, 0.13271941, -0.055569924, 0.033809546, 0.319417, -0.025136558, -0.06356451, 0.07225901, -0.4955844, 0.01888627, 0.05291634, 0.74872607, 0.17902243, 1.2558349, 0.07445281, 0.0551627, 8.005153e-05, 0.092891924, 0.10252605, -0.041681513, -0.09991846, 0.11560838, 0.08091181, 0.0063546323, -0.1693159, -0.20990913, -0.23091279, -0.6156296, -0.078557715, -1.0875868, -0.9237889, 1.1324165, 0.006405649, 1.2370226, 0.09678579, -0.0013517619, 0.32143357, -0.12261655, 0.11309138, 0.5391793, 0.09817945, -0.06034643, -1.1693845, 0.0294155, 1.5095376, 0.065572545, 2.2810564, 2.4538078, 1.7061294, -0.09579129, 0.09525347, -0.05647161, -0.06392206, 0.09865192, 1.4685593, -0.034510992, 0.103444174, -0.16118492, 0.26748502, 1.2665865, 0.037843756, 0.8507144, 0.31395274, 0.17053883, 0.4119458, 0.19038709, 2.2418187, 0.14560843, 0.10293989, 0.0931683, 0.0010516437, 0.31666842, -0.094581716, 0.11765003, 0.10626333, 0.07387605, -0.48667875, 0.0043285103, 0.02674891, 0.04474969, -0.40564817, 0.0557121, -0.036808323, 0.22129235, 2.8306475, -0.0014176504, 0.23623674, 0.042344287, -0.008003211, 0.32291147, 0.15754879, -0.057869848, 0.28354967, 0.073295414, -0.24305315, 0.21172526, 0.08299832, 0.0017792752, 0.11793707, 0.2727689, 0.038826063, 0.12729645, 0.14623627, -0.060435105, -0.00042193054, 0.016409745, -0.05669112, 0.039656635, -0.0492243, -0.08913941, -0.052189883, 0.022255369, 0.10543318, -0.04218138, 0.09720239, 0.04859491, 0.07518352, -0.040091902, 0.05102763, -0.042825427, 0.110204026, 0.029430367, -0.13421644, 0.016560711, -0.027458597, -2.0904558, 0.07798435, -1.1196425, -1.2017456, -1.0869305, -0.16113499, -0.0073767034, 0.1435105, -0.030878237, 0.12987223, -0.04219816, 0.021641798, 0.038296122, 0.012685124, -0.11941039, -0.052371364, -0.04131491, -0.5474934, 0.008536088, 0.0042710155, 0.08632452, 0.23390189, 0.112486765, 0.00015744829, 0.37972146, -0.32363233, -0.22664519, 0.9584449, 0.100546874, 1.1699961, 0.05289271, -0.075100616, -0.15697542, 0.073750935, 0.019409522, 0.9461309, 0.0949702, 0.103825234, 0.019785352, 0.11303918, 0.21050952, 0.13951294, -0.018121818, 0.14408275, 0.05369803, 0.022715362, 0.01178514, 0.055112947, 0.08726799, 0.0046763164, 0.40052718, -0.9340874, -0.6613831, 0.145095, 0.31535608, 0.13045907, 0.10876043, -0.22915801, 0.03410563, 0.11716788, 0.0031701226, 0.25724196, -0.024279734, 0.1288839, 1.4495811, -0.056568835, -0.025895493, 0.07039217, -1.1162382, -0.07129869, 0.11546389, 0.07868543, -0.063568264, 0.04894771, 0.347118, 0.068072416, 0.12111068, 0.05124549, 0.07242115, -0.16411416, 0.061217643, 0.03530693, -0.042481504, -0.089298144, 0.15571114, 0.15771213, -0.46042973, 0.24365272, -0.29667634, -0.4144194, 0.04549854, -0.53164834, 0.052383553, -0.025705658, 0.0006848752, 0.009498676, 0.14609656, 0.14127393, -0.004533123, 0.11685243, 0.08610231, -0.3080479, -0.06296903, 0.022203488, -0.8403164, -0.26895076, 0.3368461, 0.1031838, -0.4034086, 0.17780998, 0.03532725, -0.40077835, 0.10516418, 0.05400252, -0.4295383, 0.0052924817, 0.1424153, -0.40955135, -0.009342298, 0.034001585, -0.023937412, 0.922793, 1.1871321, 1.3265039, 0.12621975, 0.062176075, 0.045291502, -0.0010616223, 0.21711066, 0.89422816, 0.11456224, 0.093296096, 0.041959055, 0.21949737, 0.6067302, 0.08656563, 0.17146453, 0.3816145, 0.0009306857, 0.5085496, 0.17281583, 0.7589584, 0.38817212, 0.1507298, 0.20645629, 0.118934065, 0.62917656, 0.21034859, 0.2049373, 0.14320196, 0.035196807, -0.12016062, 0.19992112, -0.039106496, -0.2562767, 0.20698823, 0.15164234, 0.15332404, -0.002758938, 1.178682, -0.016109128, 0.10070731, -0.013320416, 0.11156228, 0.14019023, 0.21181704, 0.18515809, 0.28885815, 0.1541729, -0.0074088783, 0.16086541, -0.038579486, 0.15932477, 0.20097245, -0.097025484, 0.1177973, 0.03051098, -0.035079982, -0.06271207, 0.05482276, -0.06389719, -0.116159305, -0.12301673, -0.2024741, 0.017345417, 0.001737573, 0.043786455, 0.16042331, -0.17301063, 0.171027, -0.12367002, -0.32938954, 0.04021724, -0.016490672, 0.14205301, -0.003721805, 0.022214051, 0.2808679, 0.022044301, -0.08200539, 0.054696828, -0.039885122, 0.2859313, -0.4013535, 0.2648894, -0.061881606, 0.11836251, 0.18698177, -0.03833767, -0.104663745, -0.035322767, -0.2363965, 0.06609791, 0.11359611, -0.35724473, 0.021711418, 0.06783201, -1.8908316, 0.037122633, 0.0010434001, -0.10532019, -0.049231406, 0.17704833, 0.19472493, 0.20867771, -0.22953258, -0.3186569, -0.56991065, 0.19151318, 0.035116605, 0.14979547, 0.007897928, -0.043656327, 0.19512948, 0.087408565, -0.1265697, 0.18904397, -0.07465599, 0.22222397, 0.14665219, 0.05112077, 0.31414044, 0.08757778, 0.16263606, 0.09191562, 0.19532232, 0.11005063, 0.14256194, 0.10398214, 0.042055726, 0.385419, -0.02902688, -0.31302068, 0.38492373, 1.0740685, 0.12442965, 0.0979507, -0.08143282, 0.19625275, 0.258961, 0.076657124, -0.040423766, 0.0623095, 0.12209929, -0.28131622, 0.05632249, 0.032630898, 0.24123208, 0.17380005, 0.27430224, 0.11600287, -0.11187001, 0.038390268, -0.07673991, -0.31172684, -0.08265095, -0.018885639, -0.042302687, -0.062281027, 0.07804805, -0.08572592, -0.047193438, -0.17752567, 0.30021662, -0.086165905, -0.18735115, 0.5321458, -0.2746672, 0.34616238, 0.45594108, -0.0725402, 0.38949615, -0.30595306, 0.09643946, 0.05403864, -0.051640157, -0.40134707, -0.115813926, -0.11053559, -0.10948078, -0.02664631, 0.16730575, 0.11220104, -0.083794326, 0.6060481, 0.35653353, -0.27444476, -0.110339254, 0.34347028, -0.0557978, -0.11566569, 0.45108813, 0.07193359, -0.05927613, 0.02879869, -0.37543494, -0.10246255, 0.46251693, 0.049748816, 0.25595924, -0.048163626, -0.9531069, -1.1463063, -1.2564408, -0.20690514, -0.20947906, -0.10074471, -0.021931719, -0.1531328, -0.75606304, -0.3819601, -0.08292113, 0.065070316, -0.220435, -0.68004906, -0.48179904, -0.25091627, -0.30479556, -0.045520507, -0.53881586, -0.45825, -0.8020559, -0.41738153, -0.15734395, 0.028419819, -0.14860533, -0.63834625, -0.21246256, -0.4800782, -0.0639111, 0.070930526, -0.016950442, -0.15738787, -0.25525928, 0.20029965, -0.280833, -0.02063205, -0.2770002, -0.026746208, -1.0029436, -0.17489707, -0.19219032, -0.22311664, -0.17090414, -0.0038456598, -0.44186002, -0.11465802, -0.18714754, -0.3180525, -0.010731897, -0.18992709, 0.05060108, -0.1785577, -0.19998614, 0.28063685, -0.03540701, -0.06382613, 0.1282743, 0.13789518, -0.06670447, 0.058761835, -0.028468706, 0.028453138, 0.050318882, 0.07282422, -0.091939986, -0.051422287, -0.1587016, 0.028303254, -0.19106957, -0.014747007, 0.26102716, -0.009209881, 0.008536384, -0.016408125, 0.057889346, -0.1181004, -0.09442438, 0.117746465, -0.0050580953, -0.27330986, -0.112126395, -0.23659904, 0.2821185, -0.30149308, 0.017348902, -0.018064598, -0.13563986, 0.070186704, 0.02445949, 0.028446827, 0.22990273, -0.1147117, -0.07255082, 0.20589112, 0.0011716541, -0.030126145, 1.8834156, 0.009987359, 0.0976451, 0.042556114, -0.019806726, -0.35001343, -0.16190492, -0.043688986, 0.28680903, 0.076711364, 0.6036178, -0.31589982, 0.06460859, -0.14023319, -0.07195786, -0.06845318, -0.16412276, -0.24051976, 0.055103853, -0.09705488, -0.26292363, -0.10587754, -0.32596257, -0.32218692, -0.29637486, -0.0960945, -0.010461219, -0.13346976, -0.08559364, -0.0565432, -0.025573174, -0.07523238, -0.008734404, -0.34666026, 0.115289055, 0.5463929, -0.3726659, -1.2654374, -0.29194838, -0.26798666, 0.06807887, -0.24437398, -0.15969828, -0.16125342, -0.045748062, -0.24023771, -0.075420566, -0.039510436, -0.25980178, -0.06266643, -0.16115168, 0.039058413, -0.12909222, -0.094113454, 0.07199845, -0.06441439, -0.075580105, -0.121638194, 0.008419471, -0.049950782, -0.028695714, 0.031529576, 1.0256934, -0.17234987, 0.01427246, -0.20188546, 0.4575099, -0.07118441, -0.1637371, 0.23844954, -0.1387785, 2.0706465, 0.25439245, -0.11640219, -0.020017598, -0.09361295, 1.6449298, 0.024165018, 0.026211075, -0.033380687, -0.1878603, -0.18992229, 0.118675396, 0.18956193, 0.25698933, -0.0037415738, -0.114666276, 1.6040611, 0.8640548, 1.2587142, -0.031273503, 1.1636363, -0.046335243, -0.17028855, 0.53658974, -0.109069355, -0.08122363, 1.0696404, 0.017168254, -0.19107963, -1.3732564, -0.14935172, -1.1013504, 0.06409028, -0.15355109, -1.5288352, -1.8838973, -0.12042045, -0.02887405, 0.5886879, -0.0034627905, -0.28798726, -0.13375808, -0.0769779, -0.14512572, -0.07325768, -0.13735625, -1.09788, -0.09745422, 0.7071314, -0.40756136, -0.1224579, -0.03632862, -0.11982112, -1.5329558, -0.104166105, -0.18911783, -0.13525957, -0.2647904, -0.46328947, -0.073695585, -0.08973518, -0.14036629, 0.013367987, 0.14360671, -0.3949763, -0.12875147, 0.31667683, 0.46950075, -0.034762602, -0.17600937, -0.1769256, -1.7212026, -0.0869992, -0.16856638, -0.055291966, 0.15754132, -0.0744043, -0.17154364, -0.16476502, -0.89866346, -0.08570583, 0.41954085, -0.33326823, -0.045152295, -0.11266636, -0.14838275, -0.009216313, -0.09655693, 0.2278256, -0.07036135, 0.08845052, -0.13390136, -0.054149624, 0.033499017, 0.024003582, 0.22063899, 0.032955874, -0.041587956, -0.011662822, -0.18328075, 0.007395163, -0.16157128, -0.04285194, -0.07269513, 0.018888658, 0.12800044, -0.13525955, -0.0015958272, -0.04053053, -0.1866237, -0.1166169, -0.0027632883, -0.046787884, 0.015026575, 0.2665445, -0.69547945, -0.047581725, 0.009600054, 0.025137302, -0.100950316, 0.068001024, -0.122729294, 0.016778376, -0.46193844, 0.042756747, -0.04048379, 0.49887836, -0.054942034, 0.02941065, 1.6541805, -0.04214609, 0.03947374, 0.0034053405, -0.36891684, 0.050025765, -0.22705042, -0.12776333, -0.8223912, -0.4798631, -0.6339728, -0.15715863, -0.1836576, -0.07850802, -0.21770541, -0.03393586, -0.05223173, -0.089695185, 0.41885448, -0.2348032, -0.23722626, -0.17758295, -0.17354153, -0.099000685, -0.15706795, -0.07228211, -0.06988643, -0.011513009, -0.089931235, -0.08651345, -0.03600092, -0.83813155, -0.15265946, -0.4838192, -0.83284163, 0.38809335, -0.20961183, -1.7689284, -0.22011198, -0.07700255, -1.6934066, -0.25191966, -0.19730909, -0.2216151, -0.022515206, -0.046906296, -0.16491154, 1.0479623, -0.13303879, -0.010317741, -0.6096596, -1.0064877, -0.10468027, -0.0045037125, -0.073467806, -0.01470873, -0.13419925, 0.280974, -0.0019237469, 0.013229128, -0.062951386, -0.052134663, 1.8183701, -0.03999701, 0.08772373, -0.05812254, 2.0195796, -0.044956457, -0.03238507, 1.2421144, -0.15633056, 1.7182235, 1.9980309, -0.22455555, 0.10801697, 0.005969254, 2.371535, -0.16532733, 0.067450166, -0.09512553, -0.31902847, 0.06305951, -0.114790924, 0.14228114, 0.31457338, 0.5903736, 0.07183232, 0.9338035, 2.6675053, 2.1891253, 0.0070349798, -0.2648335, 0.06066846, -0.029684257, 1.4891977, -0.027743155, -0.04984217, -0.3234337, -0.0426891, 0.006181615, -0.70021766, -0.11635687, 0.10366902, -0.0347475, -0.6191588, 0.08681849, 0.026541324, 0.014325619, -0.016745357, -0.04142362, 0.16328521, 0.115627155, -0.036306143, -0.21481602, -0.08380328, 0.013580922, -0.27793002, 1.5369364, -0.056800086, 0.33565503, -1.8577645, -0.14243113, -0.04848247, -0.09513262, -0.11592688, -0.137389, -0.10899756, -0.08502842, -0.11344529, -0.4085797, -0.009245769, -0.07917371, -0.14810427, -0.0010849083, 0.056481022, -0.25783306, 0.10787137, -0.2010635, -0.060074754, -0.015040674, -0.104084015, -0.21776311, -0.1171393, -0.104550235, -0.10471418, -0.25927052, -0.20469728, -0.21015361, -0.18383077, -0.05185611, -0.03235552, -0.048558533, -0.00018344227, -0.24446788, 0.002320004, 0.00961102, -0.0807133, -0.23080875, 0.01005102, -0.08938429, 0.07332296, 0.04713987, -0.00086186075, 0.044286884, 0.1796265, 0.058546595, 0.081901684, 0.011567395, -0.081554905, -0.1599308, -0.22104678, 0.026855981, -0.19115984, -0.012973823, 0.030082012, 0.018233744, -0.011596697, 0.09971959, 0.04238122, 0.05047057, 0.054352634, 0.06343725, 0.08456333, -0.88888204, -0.044547062, -0.087096035, 1.839197, 0.52450675, 0.018299017, -0.042667396, -0.048697893, -0.09414283, -0.027751205, -0.088914834, -0.22185351, 0.011607817, 0.4278522, 0.607421, -0.18012476, -0.10189824, -0.031024372, -0.017131574, -0.070107594, -0.04712464, 0.004744288, -0.04186824, -0.060315024, -0.4970795, 0.38664767, 0.54847544, -0.48463923, -0.1087859, 0.41777027, -0.11071337, -0.1164264, 0.65611595, -0.06468245, -0.015405741, 0.7924847, -0.15697877, -0.17428139, -0.074762695, -0.15328684, 0.018849695, -0.13370648, -0.08868077, -0.07065157, -0.16936152, -0.092774376, -0.22266798, -0.054262754, 0.9531146, -0.023460492, -0.5044717, -0.3718638, 0.7727947, -0.11321274, -0.9839739, -0.27949378, 0.033742066, 0.7691351, -0.085727215, -0.030250067, -0.079482764, -0.1792321, -0.03405364, -0.040655766, -0.30109528, -0.102255106, -0.13674292, -0.34359342, -0.13491558, -0.10832214, -0.20072779, 0.013784673, 0.041921616, -0.069160596, 0.16159444, 0.029616276, -0.13784383, 0.16811508, 0.07039066, 0.44240367, 0.025833817, 0.15103121, 0.10438494, 0.34741965, 0.09833211, 0.14810364, 0.17581238, 0.18541865, -0.41433468, -0.67322034, 0.09051811, 0.089033626, 0.117984354, 0.1371026, 0.049569555, 0.001454795, 0.032818303, 0.07651913, 0.067607984, 0.15635218, -0.15257706, -0.24155661, 0.028070828, -0.01873982, -0.64160854, -0.14816165, 0.44886845, 0.10230727, -0.11164367, 0.0032860911, 0.16195862, -0.36526883, 0.081160896, 0.15457003, -0.3355149, 0.09914505, 0.26052478, -0.59953356, 0.1286779, 0.03617206, -0.04482727, 1.5188712, 1.4412521, 1.253525, 0.009018946, 0.1364911, -0.1629846, -0.053256642, 0.21526165, 0.87084264, 0.046800196, 0.13366577, 0.11644922, 0.2035779, 1.2496084, 0.025900954, 0.4084908, 0.5349513, 0.18362804, 0.600981, 0.100787714, 0.9586944, 0.2395527, 0.10971011, 0.09534619, 0.008380968, 0.655958, 0.10433433, 0.16523774, 0.15003555, 0.04306724, -0.2146742, 0.21312524, 0.017837904, -0.23753555, 0.34679428, 0.2026487, 0.12646474, 0.19191872, 1.6096174, 0.020763969, -0.09021346, 0.08331613, 0.10018623, 0.013355081, 0.27978915, 0.11813352, -0.20529331, 0.15882298, -0.011679195, 0.021569299, -0.13352959, -0.030936493, 0.23943686, -0.00588685, 0.026189402, 0.036518835, 0.067100964, -8.521513e-05, 0.11140439, 0.19062892, -0.16121186, 0.021291114, -0.10734565, -0.14440383, 0.08271456, -0.089525044, 0.23301443, -0.19926415, 0.20239608, -0.13838874, -0.18554616, -0.10943889, -0.007396844, 0.057555784, -0.0010767342, -0.008191841, 0.13260162, 0.06605427, 0.013408753, 0.08182359, 0.12198129, -0.11999296, -0.5248279, 0.09284708, -0.099359706, -0.093355626, 0.09806154, -0.026069477, 0.05411493, 0.012582909, -0.035112046, -0.070161335, -0.003906716, 0.5815344, -0.21566078, 0.024481758, -1.5278978, -0.035750575, 0.09395626, 0.08752162, 0.6016423, -0.124674276, 0.2124318, 0.0012190014, 0.49645266, -0.09636196, -0.112889506, 0.12731558, -0.07070201, 0.090141006, 0.24731268, 0.33989924, -0.009623265, 0.050188806, 0.87172335, 0.11679677, 0.12319974, 0.082411245, 0.37320933, -0.019077627, 0.08592468, 0.10878517, 0.12910603, 0.016786376, 0.1050326, 0.061266314, 0.110074714, 0.7126874, 0.1722408, 0.27441508, 0.57212573, -0.41684788, -0.0036228471, 1.1313721, 0.20153096, 0.1504235, 0.026079556, 0.16958538, 0.105691485, 0.17551027, 0.14256746, 0.041463442, 0.061263297, -0.72413737, -0.062176105, 0.016656099, 0.14085013, 0.4332724, 0.07546319, 0.05291141, 0.047488276, 0.099679254, 0.20788626, -0.24301553, 0.006269398, -0.052013166, -0.023274614, -0.03289532, -0.4466018, -0.1387145, -0.05950132, 0.13120967, -2.8501415, 0.07967943, 0.17317122, -0.10479124, 0.07899851, 0.5327494, -0.6505587, 0.099806614, 0.36871904, 0.077210836, 0.38017562, 0.13123542, 0.071298786, 0.22855599, 0.3089313, -0.040888444, -0.00024171546, -0.6908867, -0.3414144, -0.79829943, 0.2144883, 0.47045124, -2.0826898, 0.47845197, 0.09866698, 0.09625651, -0.0049226405, 0.139619, 0.28919384, 0.06701532, -0.0026608675, -0.03206024, 0.047097325, 0.24141018, -1.2008543, 0.17406733, -0.8062511, 0.11745481, 0.23699415, -0.015808498, 0.20705074, -0.28086156, 0.02554987, -0.19885534, -0.08188919, 0.07634756, 0.58907855, 0.18335913, 0.25859383, -0.12573543, 0.3009934, -1.0252247, 0.048862133, -0.19646597, 0.546923, 0.142741, -0.13188373, 0.078076586, 0.54670846, 0.4030975, 0.08811987, 0.2853817, 0.03054422, 0.87452704, 0.20954278, 0.72225577, 0.112777926, 0.016421467, -0.70192724, 0.17006919, -0.059625335, -0.7024768, -0.57167625, 0.067268856, 0.19957478, -0.27331692, -0.3703833, 0.06337217, 0.3449369, 0.0059583583, 0.13547084, 0.21341302, 0.3307926, 0.09226283, -0.5708621, 0.20063359, -0.6153498, 0.10702981, -0.14573365, 0.2172533, 0.06614763, -0.22840734, 0.111945264, 0.06974311, -0.03557904, -0.012167089, 0.22663154, -0.034321424, -0.027987696, -0.023541326, -0.1451047, -0.038017794, 0.053799152, 0.010499387, 0.09348493, 0.040002894, 0.15964247, -0.09075176, -0.2177804, 0.04947195, -0.0027844978, 0.07548249, -0.079766735, 0.08551177, -0.021519434, -0.12988752, 0.15405445, -0.20668168, 0.021445723, 0.5784889, -1.0556294, 0.51769614, 0.07684415, -0.03003667, 0.054013997, 0.022984633, 0.022924, -0.048393168, 0.62062067, 0.10161202, -0.38467854, -0.11655993, -0.094968595, 0.009593426, -0.44878393, -0.0356271, 0.0668564, -0.089630164, 0.43322805, 0.16909313, 0.34578818, 0.033536166, 0.7561297, -1.5027925, 1.515725, 0.23763552, 3.7411807, 0.01908873, 0.08941504, -1.2978154, -0.057941217, 0.16571163, 0.7960852, 0.26134777, 0.20506026, 0.20410325, 0.23198666, 0.112642415, 0.35861075, -0.08655582, 0.01237564, 0.17215294, 0.10961296, 0.074036755, 0.16987626, 11.337072, 0.21337889, 0.42451245, -0.008549387, -0.72874063, 0.28035292, 0.101668775, 0.30989665, 0.24518175, 0.71337503, 0.14040586, 0.24912989, 0.10456486, 0.473062, 0.09871582, 0.19017713, -0.18740116, 0.14872976, 0.011865584, 0.18904749, 6.43082, 0.31462094, 0.26625022, 0.031215757, 0.13302569, 0.3307894, -0.8993913, 0.33473122, 0.027994178, 0.22068761, 0.122176126, 1.8739566, 0.423066, 0.35054752, 0.15300062, -2.1523888, 0.139815, -0.048801094, 0.6687886, 0.24294713, 0.44791135, -1.522275, 0.12934333, 0.39284346, 0.2949091, -0.5901932, 0.30832896, -0.013639173, 0.23706083, 0.07985047, 0.26577035, 0.17169042, -0.18292801, -0.38346088, -0.21759993, 0.10841484, 2.2156823, -2.6739857, 0.3797101, 0.18683825, -0.66124564, 0.034139622, 0.11164715, 0.39220485, 0.4863107, 0.10265936, -0.02376737, 0.15936635, 0.12511763, -0.6548877, 0.45637944, 1.0419022, -0.028111802, 0.6490293, -0.43508, 0.13685785, -0.92587316, 0.37455243, -1.8300074, -0.065399125, 0.2990107, 0.43384403, 0.43450493, 0.5995043, -0.3446489, 0.32479456, -0.9252922, 0.46286583, 0.15731965, 2.657156, 0.62423307, -0.38821194, 0.40894297, 0.3244885, 0.19876833, 0.25497013, 0.33486122, 1.4316216, 0.8484646, 1.5740097, 0.7166813, 0.22709581, 0.061539285, -0.16118611, 0.31393203, 0.4353987, -0.2369907, -1.3874332, -0.043698613, 0.863805, 1.4809618, -0.61385214, 0.0955473, -0.35067788, 0.52986526, -1.7978708, 0.45705777, 0.51787084, 0.964854, 1.7077922, 0.48175815, 0.70100206, 0.28632268, -0.131901, 0.32964107, 0.09569689, -0.34880844, 0.12422057, -0.18530405, 0.12934968, -0.116254345, -0.051303316, -0.023050664, -0.19269557, -0.091141716, -0.07956761, 0.05328194, 0.1171026, -0.027574332, 0.067661814, -0.022432905, 0.20683189, 0.028684827, -0.36833075, 0.10447675, -0.0060687726, 0.16703999, -0.037150957, 0.45368513, 0.07081166, -0.12298327, 0.014933251, 0.12748152, 0.04616944, 1.063807, -2.3044338, -0.65769607, 0.14085917, -0.041835554, 0.18471715, -0.1488951, 0.09928827, 0.021332791, 1.4695802, 0.04227927, -0.1688359, 0.4907507, 0.011208397, -0.0059899064, -0.5241461, -0.06602625, -0.05824753, -0.063775785, -0.4600515, 0.43881902, 0.47383916, -0.048546355, 0.22112018, -1.4956865, 0.20090899, 0.51770955, 5.0457044, 0.19380833, 0.27995807, -2.2078154, 0.4157112, 0.1945479, 0.9290489, 0.3220717, 0.07133571, 0.31534624, 0.2799919, 0.039743315, 0.40583074, 0.27663058, 0.13957258, 0.045419727, 0.40859398, 0.10793872, 0.2163277, 3.879139, 0.26200557, 0.24368855, 4.124719, -0.56391746, 0.31499466, 0.5005672, 0.16398804, 0.20905116, 1.5835856, 0.5033266, 0.3088103, 0.3448398, -1.0454724, 0.3314005, 0.46196985, 0.60961485, 0.3455105, 0.1664571, 0.3161647, 6.9568877, 0.23910639, -0.10217421, 0.0496984, 0.23189831, 0.26004297, 0.5688279, 0.19811776, -0.0407748, 0.44033405, 0.10326406, -0.2013013, 0.5662839, 0.34959063, 0.047480073, -0.099651866, 0.16071606, 0.08622956, -0.6091656, 0.24197699, -0.1123874, -0.8251432, 0.044152018, -0.32384723, 0.40245497, -0.0660394, 0.16865157, 0.06181723, 0.3936982, 0.4750334, 0.31005302, 0.081031956, -0.05473743, -0.32816595, -0.03049133, 0.43618178, -0.76994324, -0.21496125, -0.0066089104, 0.31705683, -0.65262777, 0.0855357, 0.26478708, -0.7726553, 0.7229369, -0.061653342, -0.0739757, 0.27904677, 0.17615469, -0.41443354, 0.21246515, -0.23829718, -0.037314206, 0.39143863, 1.1759458, 1.6279676, 0.076474264, 0.4796497, -0.24448344, 0.07044879, 0.32430664, 0.8061091, 0.93106407, 1.048045, 0.33445165, 1.093968, 0.8364896, 0.71806717, 0.40177086, 0.6076404, 0.7613768, 0.00078876235, 0.69479287, 0.97816235, 0.55309695, 0.3069328, 0.61099637, 1.5242258, 1.0625712, 1.4595226, 0.8400453, 0.4342927, -0.03519323, -0.10880045, 1.9179062, 0.9202784, 0.006525452, 0.28477964, 0.055553444, 0.914895, 0.022084076, 1.155175, 0.09900853, 0.1596755, 0.7382547, 0.7366722, 0.46683696, 0.36021423, 1.1494899, 0.22455634, 1.2270463, 0.9856485, 0.15424691, -0.28966966, 0.2686922, 0.12902972, 0.03622546, 0.055495292, 0.11976256, 0.0015944486, -0.053681053, 0.018028393, -0.10387305, -0.15115654, -0.13862365, -0.13324542, -0.117955916, -0.032119114, 0.05402789, -0.0010133743, -0.028420294, 0.020392705, -0.05479232, -0.15176322, -0.08865666, -0.09825954, 0.05871213, -0.15944594, 0.35137942, 0.13163997, 0.06656066, -0.027571753, 0.21416353, -0.037080657, 0.22664635, -0.008437299, 0.5472388, 0.12137306, -0.1225536, 0.28620413, -0.27579814, 0.191054, 0.15520324, -0.51412153, 0.097480625, 0.06374801, 0.4532142, 0.051101398, 0.07163673, -2.0038145, -0.020675214, -0.23191985, -0.019054156, 0.2461174, 0.6682218, 0.6022455, 0.24919291, -0.2534422, -0.81097907, -0.4444838, 0.48831305, 0.19817133, 0.24746348, 0.7114345, 0.30034813, 0.35588065, 0.34787723, -0.06471822, 0.44865656, 0.19337253, 0.6817729, 0.45569557, 0.22827126, 0.3646928, 0.3674337, 0.08816735, 0.18748778, 0.65294397, 0.25248978, 0.28567305, 0.07134803, 0.43526298, 0.40683728, 0.1289655, 0.27486217, 0.3143898, 1.6528352, 0.10012965, 0.16347802, -0.05021299, 0.64508194, 0.47889134, 0.27425817, 0.41329104, 0.38945296, 0.94307786, -0.437088, 0.09055796, 0.2116675, 0.27905896, 0.23642011, 0.2944621, 0.011067473, 0.055003952, -0.13763304, -0.13000257, 0.2707527, -0.0384901, -0.030896056, -0.07459251, -0.116231985, 0.85093427, -0.17154537, -0.0134456605, -0.21564408, 1.4434897, -0.0045685936, -0.029609116, 1.7461646, -0.09188535, 0.74408513, 1.7629737, -0.06717911, 0.34703466, -0.076524585, 0.62228644, -0.038832035, -0.273425, -0.16683033, -0.063997395, -0.055801637, -0.06936175, 0.49610543, 0.17586686, 0.45687363, 0.055518664, 0.9161844, 2.868937, 0.80130744, -0.17376351, 0.5762657, -0.0050195884, -0.18756166, 0.77009684, 0.0078063644, -0.060179297, 0.47021195, -0.2213911, -0.15943888, 1.2005589, -0.088125825, 0.5523895, -0.06608838, -0.24529515, -0.007125145, -0.20615621, 0.29530457, -0.16853353, -0.39951703, 0.17621736, -0.18722874, -0.6710658, -0.27640653, -0.041830435, -0.07691805, -0.08610831, 1.060187, -0.4447431, 0.3800487, -0.82772464, -0.01444952, 0.3775896, -0.11532762, 0.13793285, -0.37582663, -0.1407146, -0.13739091, -0.09782595, -0.31814054, -0.021431958, -0.09539891, -0.16619763, -0.11693917, 0.32534093, -0.19250984, -0.02151111, 0.55964524, 1.2464726, -0.04470464, -0.16733909, 0.77633756, 0.1872496, -0.11731964, 0.0024837153, -0.13355294, -0.14348282, -0.0074042324, -0.21065594, -0.11233439, 1.0144548, -0.098552994, 0.67530984, -0.07906754, -0.0072322288, -0.06533668, -0.11820476, 0.11085246, 0.034044635, -0.1791923, 0.10029007, -0.014063591, -0.027091911, -0.13645169, 0.055466123, 0.053975843, 0.21299464, 4.6157627e-05, 0.10710589, 0.031768296, -0.07220396, -0.042815015, -0.16245924, 0.214742, 0.3123348, 0.005944792, 0.015028204, -0.2023361, 0.1452923, -0.030527305, -0.112884976, 0.098123245, -0.08717014, 0.06920026, -0.036491532, -0.15578698, 0.84330827, 0.67766136, 0.014651733, 0.06761983, -0.20591284, 0.13166352, -0.049295325, 0.08240334, 0.33572015, -0.058830444, 0.14349169, 0.051155, -0.035870213, -0.08607891, 0.30862248, 0.080613665, -0.02471338, 0.14976469, 0.7422867, -0.12508145, -0.16457951, 0.036249876, 0.9205295, 0.45499063, 0.52523726, -0.17806727, -1.8522836, -0.119117685, -0.119427495, 0.85786647, -0.34575135, -0.3042631, 1.2758852, -0.20673539, -0.075527765, -0.042069037, -0.15431224, -0.112624146, -0.08667175, -0.0673568, 0.040964372, -0.102229245, -0.104652956, 0.0058464664, -0.14408356, 3.0978124, -0.105822854, -0.31980208, -1.7842542, 0.7088939, -0.20221066, -0.17703001, -0.15534286, -0.13387647, 0.2779898, -0.12800981, -0.214031, 0.012636098, 0.40155035, -0.19361056, -0.11061074, -0.19108756, -0.18748179, 0.019172046, 0.03006894, -2.8281755, -0.24291214, -0.06620764, -0.045117743, 0.2700471, 0.4383305, -1.9645369, 0.31092823, -0.14035183, 0.49911523, 0.009135366, -1.3381869, 0.46055913, 0.5552641, 0.07677832, -2.7214956, -0.08761882, 0.1576076, -2.3461854, 0.26715088, -1.8267704, -0.29310432, 0.08680238, 0.8836818, 0.3287673, -1.5567918, 0.11196655, -0.010416087, 0.4380597, 0.33411497, 0.2435495, 0.10039869, -0.3838821, -0.12944764, -0.81825316, 0.28629798, 2.133488, -6.0858316, 1.399321, 0.29632363, -0.51187897, 0.17444357, 0.1559242, -1.0826106, 0.6974934, -0.022886943, -1.4217818, 0.3246958, 0.10246499, -1.6869779, 0.53170633, 0.12292765, -0.035812743, 2.8531444, 7.690483, 8.315293, -1.0475482, 0.5917855, -2.8386326, 0.08509697, 0.3670598, 4.4741735, 1.009913, 1.0263844, 0.096273735, 0.9617336, 0.96299136, 0.63643646, 2.99435, 2.6269352, 0.74121845, -0.33562896, 0.553271, 5.7460732, 0.18922833, 0.40854424, 0.6122448, 1.6430552, 3.7267182, 1.6441556, 0.9806253, 0.26735714, -0.0022714646, -0.07348874, 1.8411201, 0.6397782, 0.80938977, 0.19197516, 0.06521221, 0.93979144, 0.36236367, 6.863355, 0.07206595, -1.5505571, 0.68656015, 0.8724007, -0.12806992, 0.35641828, 1.1965275, -0.42588392, 0.91572773, 0.67557484, 0.036793493, -0.25099316, 0.2601656, 0.04486012, -0.5320891, 0.049351078, -0.2009789, -0.0031051862, -0.03705733, 0.19007054, -0.04744907, -0.12654515, -0.18802452, -0.06404006, -0.112012394, 0.013437738, 0.11990479, 0.09829612, -0.036786757, 0.019200897, -0.19377019, -0.15370956, 0.080518425, -0.018274335, 0.15827975, -0.092480026, 0.45730782, 0.23520795, 0.06606531, -0.024874773, -0.98477244, 0.13715746, -0.7936778, -0.99238884, 0.17216727, -0.022111656, -0.022335112, 0.09779922, -0.20832764, 0.26424932, 0.12154244, 1.1720256, 0.14293101, -0.29027265, -0.18614165, 0.003090556, 0.06728032, -0.66240937, 0.15992078, -0.1414435, -0.053488165, 0.8507688, 0.60170966, 0.39380744, -0.15619619, 1.7649114, -0.82369775, -0.3611829, 0.38931128, 1.9687471, 0.20395441, 0.5119679, 2.6127768, 0.47692245, 0.13807626, -0.47013304, 0.39022964, 0.1318407, 0.582846, 0.25935242, 0.2555798, 0.50464076, 0.4461128, 0.01566139, -0.022332313, 0.70824397, 0.2688141, 0.15242071, 2.3652444, 0.4078579, 0.22891511, -0.0077763884, -1.2688048, 0.23449856, 0.57114774, 0.2574188, 0.14894186, 0.28460687, 0.47007635, 0.39068094, 0.271123, -1.2061803, 0.26552793, 0.67714983, -0.20072214, 0.3116601, 0.25792104, 0.22479273, 1.7767096, 0.42099625, -0.08588385, 0.046958804, -0.11144116, -0.27201992, -0.27516118, 0.056262314, 0.014209626, -0.18440408, -0.104124025, 0.2980268, 0.017455073, -0.049812917, -0.26679578, -0.0032783588, 0.01982411, -0.23982152, 0.5475355, -0.09668296, 0.24703978, 0.5436012, -0.22471645, 0.47575063, 0.14824115, -0.06017887, -0.15174364, 0.023787163, -0.054314703, -0.18404096, 0.026282126, -0.19951315, 0.012764029, 0.38313273, 0.08368395, -0.34836867, 0.75192046, 0.101117976, -0.26387438, -0.014379382, 0.61388767, -0.071880996, -0.17329855, 0.58168983, -0.060417127, -0.10929803, 0.4558578, -0.15128183, -0.11093221, 0.2557976, -0.0067751217, 0.053297963, 0.1226925, -0.9024928, -1.401854, -1.4678928, -0.042311613, -0.17710699, 0.12204386, -0.060738787, -0.261864, -0.7966737, -0.14418256, 0.04360342, 0.018560752, -0.41016048, -0.69680405, -0.17485107, -0.36233747, -0.4150256, -0.106041364, -0.41353115, -0.10540307, -0.89779335, -0.3248586, -0.33742324, -0.1524267, -0.13617404, -0.77523655, -0.097160175, -0.5796523, -0.15834, 0.0101505, 0.06704994, -0.11926206, -0.011612333, 0.02896851, -0.3097533, -0.0043374575, -0.1308865, -0.021256974, -1.0761906, -0.039003644, -0.16407686, -0.084146746, -0.16257913, -0.08490825, -0.2758477, -0.18607886, -0.23688807, -0.22059143, 0.015123446, -0.098679714, 0.051179554, -0.11704845, -0.066829965, -0.16848342, -0.24735573, -0.023598429, -0.01033947, 0.14358184, -0.08204483, -0.11686256, 0.20794617, 0.04361428, 0.19421175, -0.025441187, 0.04214112, -0.09039849, 0.026302211, 0.09645668, -0.044914313, -0.044385284, 0.1504042, 0.12015032, 0.15442769, 0.012070573, 0.21418087, 0.025496438, -0.1812504, 0.028249843, 0.026668692, -0.15625817, 0.08592895, -0.30163008, 0.40408006, -0.29240742, -0.104561344, 0.07139009, -0.15527543, 0.11465558, -0.1324965, -0.007774523, 0.17112406, -0.11375391, -0.034258526, 0.18065102, -0.016192563, -0.18280822, 1.9788455, 0.17678738, 0.04130611, -0.051032178, 0.09914387, -0.14555253, -0.37265292, -0.0100282505, 0.16783257, 0.537485, 0.67222905, -0.12518613, 0.12561105, -0.05188771, -0.09777996, -0.040367298, -0.037609767, -0.058876235, -0.025660936, -0.11551212, -0.16499674, -0.16980901, -0.30095375, -0.04082749, -0.30644688, -0.07678646, -0.17204984, -0.18553764, -0.20494035, 0.009549077, -0.12733583, 0.013534912, -0.11209129, -0.43268037, -0.018646277, 0.37028405, -0.15126675, -1.0913415, -0.22728622, -0.191262, 0.23024358, -0.13449931, -0.14427301, -0.055673093, -0.04600978, -0.20661768, -0.003048248, 0.08897943, -0.123647444, -0.10335539, -0.14496952, -0.0041089603, -0.21023853, -0.06598236, -0.11980508, -0.10819331, -0.57780015, 2.3979027, -0.03695098, -0.014832554, 0.08013794, -0.0054387157, -3.771107, -0.006915367, -0.08386209, -0.04497775, 1.4037682, 0.041596603, 0.080813736, 0.16986895, -0.03709865, -1.4502392, 0.52431184, 0.005396053, 1.5052106, -0.049978007, 0.9882821, -0.02412061, -0.15421647, -0.20411307, 0.05468843, 0.049390845, -0.09429874, 0.6892995, 0.16065724, 0.68905514, -0.24074465, 0.46620613, -0.24278405, -1.5028868, 0.04032923, -0.33818594, 0.04078054, -0.10587206, 0.3308901, -0.10240749, 0.060669236, -1.581378, -0.21711971, -0.065647826, -1.3304965, -0.060649652, 0.9212879, -0.09362399, -0.25947195, -2.5109005, -4.1176014, 0.016148187, -0.12660323, 1.0720814, 0.40672466, -0.18245208, -1.9066824, -1.1088101, -0.7016931, 0.40276575, -0.17734317, 0.80471414, -0.9091098, 1.9110739, -2.182956, -0.61537147, 1.5594894, -0.27728447, -0.49168956, -0.099510126, -0.06499242, -0.45471138, -0.64426476, -1.4057828, -0.2114276, -0.44922262, -0.15958363, 0.015634846, 0.091107994, -0.6579685, -0.009222847, 0.4454657, 1.7453192, -0.06086712, -0.35987082, -0.75344884, -2.0928195, -0.057972837, -0.81596184, -0.5293335, 0.17636757, -0.72435236, -0.28246006, -0.8648891, -3.3959587, -0.11027004, -0.1382016, -0.0671725, 0.098094024, -0.19039989, -0.2046163, -0.24467027, 0.06234601, 0.11974072, -0.051159266, -0.035344478, 0.0065113613, 0.079949506, -0.029681554, -0.093174934, -0.013231787, 0.088387616, 0.0819465, 0.032666195, -0.06427518, -0.117357515, 0.06914179, -0.11816763, 0.00992481, 0.084101975, -0.026274763, 0.019732011, 0.014318995, -0.30512622, -0.04256667, -0.09724905, 0.14298867, 1.29695, -0.05812851, 0.530416, 3.1553276, 0.71425533, 0.086991444, 0.17286846, -0.12315705, 0.071713485, -0.24977143, 0.014111508, -0.07776522, 0.071989655, -0.061123125, 0.38071594, -0.08185516, 0.040727958, 1.9673322, 0.08343939, 0.030968001, -0.1303005, -1.5032793, -0.028601617, -0.08492138, 0.0074958466, -0.11021094, 0.31689888, 0.53341997, -0.2292572, 0.20187779, 0.035567306, -0.19535588, 1.5119681, -0.39736348, 0.003976603, -0.23887253, -0.43568847, -0.31093484, -0.07888661, 0.043439664, -0.07539397, -0.059442263, -0.22756192, -0.107278466, -0.2803109, -0.105842665, -0.0942457, -0.07988017, -0.7716396, -0.06966488, 0.1697725, -1.4742923, -1.4529433, 0.027292255, -1.2315943, -0.25401276, -0.026363565, -0.8070818, -0.1933208, 0.03159208, -0.43974808, -1.540776, -0.02568507, -0.23551464, 0.17973381, -0.04601509, -0.22884499, 0.59064734, 0.13091667, 0.050233237, -0.27765945, 0.05691833, 0.04399919, -0.016615253, 0.21590008, 0.00048325688, -0.09929849, 0.113054164, 0.108744025, -0.31482142, 0.16809045, 0.22673433, 0.14300716, -0.20682912, 0.102290146, 0.027044544, -0.3761949, 0.13807891, -0.3383643, -0.45483604, 0.023080956, -0.5686639, -0.017711964, 0.08281513, -0.0017435683, -0.10445048, 0.033020362, 0.068293974, 0.1428853, 0.15627499, 0.12967189, -0.2558158, -0.046891324, 0.018410863, -0.8396647, -0.22325289, 0.19399914, 0.083114915, -0.33440673, 0.066271044, 0.030191839, -0.5262581, -0.032482762, 0.12459368, -0.47084016, 0.03000702, 0.107168585, -0.4699475, 0.085360475, -0.1700816, -0.070907354, 1.0130514, 1.4929876, 1.1192533, 0.19172813, 0.14826399, 0.027990798, 0.015285507, 0.07029167, 0.76853305, 0.19360799, 0.061207805, 0.05015709, 0.20866044, 0.5975578, 0.28173196, 0.26824245, 0.3060329, 0.032210574, 0.46869913, 0.016369103, 0.81976706, 0.2367173, 0.31885105, 0.049663194, 0.22864385, 0.6654549, 0.17657878, 0.14733136, 0.07769226, 0.10499941, -0.20842612, 0.14467566, 0.10237708, -0.070777975, 0.26115578, 0.100362115, 0.0894844, -0.023164036, 1.0622725, 0.033455167, 0.21617535, 0.10905407, 0.24252059, 0.069628626, 0.17026183, 0.012463848, 0.23848058, 0.22140542, -0.086829595, 0.21277976, -0.04365258, 0.17152849, 0.21755242, -0.29108733, 0.09121312, -0.0617588, 0.0058684857, -0.04693306, 0.21774654, -0.04477504, -0.20629087, -0.08296577, -0.18975824, -0.024965541, 0.08941252, -0.01266198, 0.04887416, -0.0511076, 0.112616, -0.10572212, -0.2319806, 0.08935637, -0.07589438, 0.11456641, -0.026908437, 0.018077377, 0.077204734, 0.06352163, 0.10260853, 0.045397412, 0.17758429, 0.35021234, -0.22844721, 0.19591129, 0.085103385, -0.15133156, 0.11990991, 0.057931807, 0.052492682, 0.1116517, -0.19169138, 0.12731948, 0.10908809, -0.12185131, -0.03436062, 0.107743666, -1.6462132, -0.06014028, -0.13058244, 0.04176137, 0.076210745, 0.1195392, 0.08424912, 0.087249056, -0.039011464, -0.07025177, -0.6171799, 0.1862194, -0.11061551, 0.052082628, 0.07306563, 0.11237903, 0.19807853, 0.121805765, 0.047179513, 0.2432778, 0.20916186, 0.19065936, 0.15390627, 0.124838315, 0.067902416, 0.23182869, 0.10311874, 0.25387344, 0.21451963, 0.03691833, 0.046221044, 0.12976411, 0.15672986, 0.32253706, -0.22246395, -0.4155387, 0.000933668, 1.2890288, 0.25877887, 0.084718965, -0.119304195, 0.17207667, 0.05198984, 0.1383195, 0.02222376, 0.0905057, 0.2301591, -0.3005916, 0.13619538, 0.035394147, 0.24100333, 0.1875175, 0.15394193, 0.13930546, -0.14279382, 0.074880764, -0.3564663, 0.056877322, 0.05945931, 0.13668962, -0.15601015, -0.005346523, 1.4622319, -0.27011216, -0.16107032, -0.1423076, 2.95404, 0.026748715, 0.007907407, 0.34264335, -0.15228638, 1.6448333, 1.4067616, -0.20402075, 0.21544094, -0.08467421, 2.238758, -0.1816008, -0.1449005, -0.34534383, -0.022175627, -0.23147018, -0.105506346, 0.50082755, 0.30687827, 0.540611, -0.27722085, -0.012727867, 3.1152017, 2.332189, -0.081045054, 0.97275335, -0.15297705, -0.22254139, 0.8150916, 0.02500531, -0.16139613, 0.22161748, -0.2544983, -0.19373003, 0.3033869, -0.1379809, 1.2118243, -0.1821652, -0.04402671, -0.22071545, -0.9343982, 0.1739675, -0.114928365, 0.25841165, -0.03501972, -0.31659415, -0.6443055, -0.4129289, -0.23055407, -0.06966315, -0.25740105, 2.8968112, -0.3259195, -0.45693582, -0.06614897, -0.34056023, -0.20258161, -0.5733695, -0.117534064, -0.42541537, -0.24659586, -0.19218358, -0.45684943, -0.27101293, -0.1757695, -0.64141744, -0.19993275, -0.007415509, 0.40409166, -0.8134175, -0.16225483, 0.6339794, 0.9599902, -0.05595319, -0.27145982, -0.009659029, 0.13640708, 0.03707271, -0.028669886, -0.49901873, -0.32093534, -0.1329062, -0.37407663, -0.521143, 0.5723972, -0.6911961, 0.53455937, -0.03639896, 0.27531725, -0.2973029, -0.09222708, 0.08521685, -0.13120969, -0.010611314, 0.08005304, 0.05967523, -0.14745533, 0.087808214, 0.041362006, 0.021341749, 0.08214733, 0.04824292, -0.028019628, -0.0010872339, 0.05176406, -0.026564496, -0.009914323, 0.08868935, 0.22411826, -0.0074887658, -0.011242259, -0.22195178, 0.167293, -0.12479374, -0.053574376, 0.21377951, 0.042045526, -0.1203223, -0.06721787, -0.045334514, 0.28115806, -0.59260577, 0.104437016, 0.17984739, -0.112996705, 0.088835776, -0.19567904, -0.071417645, 0.37075037, -0.014940487, 0.21605895, -0.094768405, -0.010037985, -0.20654309, 0.44063118, -0.14407422, -0.039292082, 0.024593055, 0.66034317, -0.20442256, -0.711449, 0.032511357, 1.3407608, 0.60523564, -0.3900247, -0.37991452, -2.608166, -0.16601023, 0.061553318, 0.67670786, -0.22519864, -0.34155595, 0.9957606, -0.1581108, -0.12834123, -0.19140747, -0.066646345, -0.22834972, -0.33157137, -0.13294373, -0.05593356, 0.02071505, -0.3000681, 0.020256357, -0.18129085, 1.2548163, -0.06552057, -0.3128196, 1.9027265, 0.5775287, -0.28234518, -0.26670125, -0.1451928, -0.08598311, 1.5816514, -0.38180217, -0.1041067, -0.33513966, 0.30700728, -0.21101306, -0.12612975, -0.11274279, -0.09167566, 0.056474257, -0.4661684, -5.090604, -0.35837397, 0.012560919, 0.038782667, 0.041472845, 0.15835206, 0.1510074, 0.06650477, 0.015023951, 0.1487155, 0.053534064, -0.16583602, 0.09752507, -0.03663964, 0.035770684, 0.025140343, -0.04546219, 0.106582575, -0.39854765, 0.2101137, -0.3037573, -0.48462462, -0.055675283, -0.44075584, 0.09385126, 0.06594895, 0.029420651, 0.18767616, 0.14642015, 0.15923436, 0.10062017, 0.07378908, 0.0027586084, -0.2428798, -0.21063077, 0.062653445, -0.66954803, -0.2329064, 0.07190827, 0.08338329, -0.39596707, 0.06394751, -0.0012958618, -0.5347247, -0.0029963928, 0.09924532, -0.29377794, 0.20174786, 0.13202982, -0.3043827, 0.16103569, -0.06990667, -0.24387978, 0.8656511, 1.2964921, 1.2602783, 0.2629643, 0.19002531, 0.124271266, -0.07673619, 0.25159368, 0.8469135, 0.21690229, 0.15489875, -0.03317122, 0.15182903, 0.63955677, 0.058113303, 0.3226984, 0.34521073, 0.26891834, 0.37693807, 0.1426282, 0.8470991, 0.0827362, 0.29660898, 0.15513721, 0.13603805, 0.67238754, 0.22459152, 0.28290424, 0.26306254, -0.045456614, -0.23471503, 0.11155044, 0.07157075, -0.031948674, 0.18476827, 0.054145098, 0.22828114, -0.088019274, 1.1665848, 0.068939686, 0.19168055, 0.013754197, 0.24676804, 0.24670479, 0.23728846, 0.18232393, 0.21477778, 0.09958794, -0.10763053, 0.2534634, 0.030818855, -0.021076987, 0.036976088, -0.31187236, 0.18921255, 0.25816408, 0.03152751, -0.033559185, 0.12650329, 0.04707882, -0.18632887, -0.04944579, -0.075233586, 0.071461625, -0.06307755, 0.058114007, 0.11950442, -0.04574007, 0.17694443, -0.03352121, -0.025391698, 0.029806433, -0.07365097, 0.096285135, 0.02649189, 0.002298153, 0.11718075, 0.00051094306, -0.025483044, 0.17902422, -0.124743685, 0.2784168, -0.3492703, 0.3455505, -0.0049493522, -0.000597683, 0.23133834, -0.07725318, -0.05201522, 0.027987244, -0.12661119, -0.04480441, 0.13543746, -0.15768255, -0.106170125, 0.09863819, -1.5767006, 0.0655949, 0.0066065365, 0.106861584, 0.13946828, 0.0326999, 0.10457295, 0.0779151, -0.32399058, -0.0047473647, -0.7088063, 0.2851322, -0.113158, 0.024924548, 0.11118891, 0.10662258, -0.0043202173, 0.02759454, -0.08038354, 0.12215655, 0.18899342, 0.060605757, 0.19508454, 0.065233774, 0.0865664, 0.07018181, 0.17219637, 0.38828984, 0.05418098, 0.19748496, 0.123528615, -0.1698015, 0.09312226, 0.43591326, 0.009245296, -0.27939776, -0.03202016, 1.2847465, 0.24006067, 0.012667543, -0.12416478, 0.2520707, -0.02396071, 0.10499191, -0.0754747, -0.058242343, 0.15217394, -0.16838405, -0.08151075, 0.005323122, 0.25717193, -0.1569786, 0.004559432, -0.049969573, 0.034526967, -0.011441578, -0.087816164, -0.21726428, 0.09114307, 0.090705365, -0.19226058, -0.049417585, 0.23800312, -0.017457852, 0.05504095, 0.015101134, 0.101006076, -0.13463427, -0.13930123, 0.46375364, -0.26545063, 0.2710446, 0.40319127, -0.16895464, 0.51209086, -0.07107722, 0.07570443, -0.14530039, 0.050021183, -0.24785535, -0.18524319, -0.12353122, 0.0007024838, -0.15949093, 0.27655733, 0.03140166, -0.104482554, 0.7068342, 0.32184255, -0.37106657, -0.025298592, 0.5418078, -0.08065505, -0.16066751, 0.36909044, -0.095188126, -0.1905002, 0.2889375, -0.19479974, -0.15769166, 0.4020147, -0.05532738, -0.008706501, 0.026258437, -0.8874621, -1.2579331, -1.4127654, -0.15035452, -0.09308798, 0.012014541, 0.19817972, -0.3387059, -0.68193775, -0.09235332, -0.16493072, -0.078378454, -0.18296571, -0.5236176, -0.06958069, -0.27067733, -0.36768305, -0.045734234, -0.4325823, -0.05210295, -0.90309006, -0.3674828, -0.116816804, -0.29379943, -0.13833328, -0.6881297, -0.08898642, -0.33109662, -0.07298987, 0.011744788, 0.04035891, -0.20883228, -0.10793457, 0.13695964, -0.22289659, -0.075978585, -0.039237242, -0.04716223, -1.1642264, 0.0043203235, 0.009317684, -0.3369438, -0.1980492, 0.016351998, -0.41108736, -0.11367212, -0.26827648, -0.12492254, 0.0613879, -0.028157955, -0.06829339, -0.21711057, -0.0739023, 0.12034045, -0.21696247, -0.106905736, -0.12194967, 0.033950765, -0.15346883, 0.0037764797, 0.1541543, 0.1955817, 0.3135664, 0.03577582, -0.04463037, -0.065753676, -0.08240344, -0.054246437, -0.14203288, 0.11825353, 0.32802463, -0.031248227, -0.0101889, -0.029032964, -0.118178636, -0.12563147, -0.21972151, 0.093175665, -0.08567054, -0.12901837, -0.04624489, -0.1749805, 0.32642803, -0.17908108, -0.034624577, 0.09583629, -0.25011492, 0.18112749, -0.12764308, -0.0422458, 0.15753578, 0.026874721, -0.085348874, 0.30474252, 0.06990443, -0.070204705, 1.9539798, 0.099152684, 0.0055392613, -0.13109204, -0.04158726, -0.2780588, -0.1656627, -0.16505861, 0.15181823, 0.11318437, 0.64238656, -0.17354323, 0.14646074, -0.1691669, 0.051158965, -0.069091454, -0.16869155, -0.21606912, -0.15888374, -0.17897052, -0.23354939, -0.08264354, -0.27051, -0.11695219, -0.12685597, -0.09079829, -0.032750156, -0.19446848, -0.16167842, -0.06920441, -0.07824936, -0.008574479, -0.16705115, -0.38642383, 0.16238563, 0.49390507, -0.29864678, -1.2646029, -0.20967768, -0.2216348, 0.12688899, -0.15763892, -0.13616867, -0.11115991, 0.041187942, 0.007915498, -0.104737714, 0.30427563, -0.11928955, -0.10914404, -0.16199456, -0.093014956, -0.3781293, -0.09312069, 0.04560258, -0.015581246, 0.0834918, -0.2700405, 0.039430548, 0.04862424, 0.19444276, -0.038314212, -0.08376944, 0.00077697466, 0.04859554, 0.18234874, -0.35157555, 0.18457407, 0.14676397, -0.69941014, 0.16938187, -0.10041792, -0.80464405, 0.202253, -0.46192816, 0.0464052, 0.0552149, 0.13023642, 0.02457971, 0.07130866, 0.07729672, 0.03164951, 0.14344166, -0.08329828, -0.23351836, -0.39054912, 0.0884311, -0.7594303, -0.50007063, 0.30172595, 0.115796626, -0.2535225, 0.079103194, 0.17033942, -0.31303304, 0.045453686, 0.15963791, -0.42205462, 0.061376825, 0.21699624, -0.49435973, 0.11663657, 0.005534763, 0.02981291, 1.1644785, 1.7065289, 1.6939763, 0.12120443, 0.15255137, -0.033424385, -0.03158805, 0.24317697, 1.1562732, -0.078797854, 0.13847682, -0.12051805, 0.07803628, 0.66365004, 0.047984514, 0.20791854, 0.5291029, 0.19833076, 0.5069615, 0.19580503, 0.97571826, 0.31573793, 0.068235435, 0.22509728, 0.19824591, 1.0747426, 0.117808744, 0.1891835, 0.21822841, 0.05702761, -0.05016514, 0.21137013, -0.013764805, -0.34655482, 0.26342988, 0.035854243, 0.021086449, -0.14022702, 1.6262943, 0.1529847, -0.18065438, 0.14900619, 0.00857864, 0.14064533, 0.31953555, 0.032654814, 0.49267808, 0.03917545, 0.029099757, 0.24798141, -0.037348323, 0.06350761, -0.027951261, -0.31282467, 0.20591094, 0.014003627, 0.016680745, 0.010310822, -0.04207187, 0.036817856, -0.07041958, 0.0024103876, -0.26992223, -0.082488604, 0.07842294, -0.029800478, 0.053759195, -0.17356344, 0.102688104, -0.13703172, -0.25575668, -0.14694002, -0.014379195, 0.189748, -0.13686687, 0.00019845646, 0.0677862, 0.009885653, 0.0017409264, 0.09553268, 0.09450917, 0.13534494, -0.47449744, 0.12138736, -0.036300227, 0.09098685, 0.06985478, -0.15715103, 0.14434348, 0.012899122, -0.20513442, -0.00492448, 0.03272061, 0.4782112, 0.05947751, 0.169765, -1.515, 0.032601446, 0.015160873, 0.0692092, 0.4129894, 0.06708181, 0.1520699, -0.022206245, 0.120097175, -0.13439733, -0.7919405, 0.04460726, -0.09614619, -0.031327315, 0.11152336, 0.29944816, -0.014243256, 0.1958845, 0.12351047, 0.2230387, 0.15778391, 0.10772091, 0.16147551, 0.12799829, 0.08228955, 0.20309749, 0.10889774, 0.08704171, 0.17732698, 0.109049134, 0.13714471, 0.5819918, 0.17484687, 0.30787614, 0.0161282, -0.2513997, 0.11510948, 1.1197854, 0.28781965, 0.13984326, 0.21725091, 0.13152343, 0.07219818, 0.13926826, 0.0737555, 0.06977268, 0.146331, -0.19775926, 0.10240815, 0.028622739, 0.18597357, 0.17011937, 0.20950156, 0.23576927, 0.056601822, -0.055188484, 0.17448655, 0.41271862, 0.093674906, 0.025046343, -0.02417106, 0.21732783, -0.4060009, 0.013437106, -0.04432678, 0.0037162306, -0.036282256, 0.067081034, -0.04595041, -0.42320532, 0.12231177, -0.15571442, -0.47447425, 0.07121274, -0.40802056, 0.3880768, 0.030198257, 0.11424139, 0.10183831, 0.13305806, 0.17990866, -0.14585306, 0.19294196, 0.0012026408, -0.29759443, 0.10660794, 0.048674937, -0.84174263, -0.22358188, 0.13968539, 0.13101318, -0.52876866, 0.0007264694, -0.08758877, -0.5100182, 0.10097478, 0.1497093, 0.046159577, 0.2143421, 0.08521573, -0.4347978, 0.2169054, -0.09656836, -0.07618618, 0.98644716, 1.2584276, 1.2650756, 0.28135738, 0.06560609, -0.045649096, -0.063314475, 0.1678266, 0.8362765, 0.46055576, 0.29809672, 0.04725971, 0.26090378, 0.5529616, 0.6058068, 0.35454887, 0.32315063, 0.10042342, 0.47653237, 0.5529946, 0.9065848, 0.24020869, 0.30359435, 0.16896383, 0.14275214, 0.5649825, 0.08286584, 0.48464945, 0.16113934, -0.09205076, -0.2202146, 0.19256796, 0.22833014, 0.19620201, 0.42765594, 0.042092852, 0.617086, -0.01792124, 1.0314614, 0.08645623, 0.17407385, 0.15989071, 0.15704118, 0.11705448, 0.34857515, 1.0470178, 0.22432445, 0.55752444, -0.21559218, 0.095455095, 0.09996039, -0.009365418, 0.15666918, -0.15876956, 0.017794413, 0.02570504, 0.07177821, -0.040175095, 0.08423313, -0.083710946, -0.04900727, -0.011775974, -0.17685428, 0.020801354, 0.1508651, 0.07857223, 0.25317344, -0.11991099, 0.055311006, 0.049981605, -0.2697786, 0.09627706, -0.089078546, 0.09768099, 0.09506951, 0.20915605, -0.100107454, -0.064468086, 0.12390256, 0.26602492, -0.072711736, 0.26660454, -0.24613331, 0.1497128, -0.015544572, -0.018726258, 0.16165213, -0.12561539, 0.27449727, -0.020856492, -0.19164361, 0.043943513, 0.09331705, -0.3328994, 0.015144678, 0.11640842, -2.0479028, 0.029755516, -0.17235371, 0.088812165, -0.09952786, 0.16680376, 0.21101075, 0.11333947, -0.35963267, 0.022929495, -0.8116429, 0.2954129, -0.075283945, 0.049311228, -0.023114195, 0.12016177, 0.32260394, 0.026916016, -0.09181322, 0.0696628, 0.13476251, 0.13464218, 0.2539503, -0.02577476, 0.25935918, 0.127731, 0.08413544, 0.12153591, -0.015020547, 0.053590667, 0.19779633, -0.105977975, 0.13318759, 0.34293818, -0.15805437, -0.52896035, -0.0013578361, 1.1878283, 0.25330475, 0.21882157, -0.026907258, 0.23539153, 0.20664644, 0.18233104, 0.12920131, 0.089718446, 0.11450211, -0.055164956, 0.29629803, 0.05032639, 0.23901677, 0.038355384, 0.048501786, 0.14405227, -0.0902463, -0.20598094, -0.04562408, 0.07486422, -0.12857902, 0.01881689, -0.18276063, -0.06680305, 0.31170377, -0.037461925, 0.047393996, -0.15298499, 1.1473913, 0.009480925, -0.07038903, 0.9761856, -0.16382204, -0.27046007, 0.9232724, -0.073470645, -0.4343125, 0.035873536, 0.3962858, -0.076830395, -0.042006478, 0.0032948174, -0.12952676, -0.048352215, -0.0868087, 0.48131162, 0.3991187, 0.52906454, -0.048247207, 0.9900999, 1.6329819, -0.3250279, -0.032458417, -1.1906887, -0.07523468, -0.022431694, 0.74700147, -0.12860891, -0.18056245, 0.17476232, -0.05151074, -0.34359464, 0.74972594, 0.018364172, -0.47853807, 0.05596077, -0.25301117, 0.23825519, 0.607012, 0.15271994, -0.16599974, -0.15337327, 0.10591796, -0.17809902, -0.8125533, -0.09469714, -0.07463926, 0.16793114, -0.13511117, 0.46731052, 0.11680894, 0.15516058, -0.46069235, -0.099607676, 0.8087512, -0.10981235, 0.15444416, -0.32764244, -0.19582489, -0.11045571, -0.08135072, 0.096300535, -0.045668736, -0.25612357, -0.074437164, -0.034445696, 0.4518599, -0.21868339, -0.113261275, 0.36984104, 0.4688065, -0.069069214, -0.013000843, -0.30708688, -0.20116194, -0.1566963, -0.5131535, -0.087486945, -0.27717158, -0.19095437, -0.097523466, -0.08894014, 0.5443797, 0.023192033, 0.007435244, -0.15997119, 0.20006044, -0.060044974, -0.06851534, -0.21265185, 0.021080457, -0.10548788, 0.028610952, 0.061372872, -0.03834694, -0.06719823, 0.091103025, 0.010658209, 0.09630821, 0.06944104, -0.19654338, -0.15165116, -0.1587259, 0.015506628, 0.0052950443, -0.0148683535, 0.20390452, -0.01955478, 0.045536052, -0.08939286, 0.051415388, -0.15006453, -0.25913173, 0.12139509, -0.098746635, -0.34558988, -0.14247333, -0.11522729, 0.9142031, 0.17377058, -0.07064149, -0.04772055, -0.14273742, 0.09393705, -0.03942314, -0.06985588, -0.81096095, -0.15168017, 0.24688196, 0.21905531, 0.090467, -0.13745035, 0.7342039, 0.05401166, 0.1006425, 0.08115949, 0.7635186, -0.036356933, -0.06576219, -0.10563394, -0.40630034, 0.5307215, -1.8934224, -0.16411953, 0.48816922, -0.022656793, -0.18323703, -0.7841696, -0.11541746, -0.16111343, -0.71613157, -0.020979732, -0.17956558, -0.023917291, -0.26961604, -0.3537036, -0.14911683, -0.1013883, -0.14462991, -0.20970142, -0.11557395, -0.096725866, -0.20343739, -1.5434229, -0.16702986, -0.35775092, -0.7993424, 0.29446328, -0.30960628, -0.08463773, -0.05291872, -0.10028885, -0.35338488, -0.20923845, -0.03895727, 0.046870865, 0.07197025, -0.07926435, -0.17521332, 0.0899401, -0.144802, -0.14090286, -0.14633447, -0.4756249, -0.19956923, -0.03411888, 0.278923, 0.11228905, 0.19059491, 0.3101478, 0.08000825, -0.01219097, 0.18474826, 0.08076523, -0.17273901, 0.34045744, 0.12539893, 0.24141414, -0.18297778, 0.0802597, 0.05111414, -0.4596628, 0.13666135, -0.14974561, -0.47986892, 0.0688511, -0.51590306, 0.085838415, -0.056208476, 0.10831117, 0.0004201002, 0.37147376, 0.32746702, 0.14673586, 0.026807029, 0.038928546, -0.30393413, -0.11735962, 0.1414546, -0.88394713, -0.32440764, 0.21266976, -0.014424503, -0.5700635, -0.09454131, 0.14644009, -0.39887792, 0.3220144, -0.008810732, -0.20575327, 0.07752719, 0.11701787, -0.4064646, 0.006097733, -0.18042956, -0.12911852, 1.0021638, 1.352998, 1.3415366, 0.019813323, 0.22527687, -0.10571158, 0.02931995, 0.29946068, 0.6797144, 0.07768932, 0.1456708, -0.08106609, 0.22615637, 0.5239272, 0.5121913, 0.30777317, 0.30193728, 0.23300792, 0.39529917, 0.16513336, 0.84768885, 0.33978477, 0.1858141, 0.24190214, 0.11265162, 0.732042, 0.18839273, 0.781263, 0.14681028, 0.04909497, -0.24175291, 0.097409524, 0.032457568, -0.1422468, 0.12843467, -0.060222145, 0.086220734, 0.09434032, 1.1528214, 0.028418686, 0.12917784, 0.39947078, 0.24872987, 0.196597, 0.33310106, 0.002196077, 0.16190116, 0.13881427, 0.5572191, 0.12724783, -0.04861245, 0.08366906, 0.14044297, -0.104120925, 0.0646848, 0.12809668, -0.09579207, -0.007607669, 0.14954177, -0.009277796, -0.06278165, 0.022744974, -0.12953483, 0.018522864, 0.08177546, -0.016436525, 0.26095924, 0.022862863, 0.027278079, 0.033578847, -0.29045108, -0.102890044, -0.07472654, 0.08098659, -0.10553294, 0.3006788, 0.15804496, 0.012336969, 0.055928502, 0.17380065, 0.015159994, 0.3272279, -0.40418836, 0.23556879, 0.095324755, -0.00047144794, 0.1250283, -0.08113917, 0.118950106, 0.1055391, -0.017987171, 0.09487358, -0.027262071, -0.3560335, 0.0672899, -0.04091083, -1.9027919, 0.10641643, -0.08666017, -0.01290437, 0.11721324, 0.3664997, 0.36201257, 0.026101297, -0.11533884, -0.2939712, -0.720111, 0.49122933, -0.009092733, -0.0025740298, 0.082412615, 0.07473785, 0.21875255, 0.22675174, 0.0056226477, 0.048866414, 0.10760317, 0.18910566, 0.24794567, 0.18876192, 0.3079537, 0.25254467, 0.010339657, 0.077639885, 0.4326143, 0.16571648, 0.060373373, 0.037610777, 0.13408236, 0.3411578, -0.15596785, -0.43609747, 0.20423938, 1.2353088, 0.28655165, 0.2844437, -0.31149608, 0.44541737, 0.16334294, 0.20594724, 0.011613041, 0.06596857, 0.039887294, -0.12402002, 0.098125905, -0.054420326, 0.28134888, -0.041357238, 0.2891633, 0.22866638, 0.051847257, -0.058774702, -0.23640168, -2.6013567, -0.17716667, 0.061660845, 0.7007391, 0.08133356, -0.41060364, -0.060951337, 0.15623523, -0.05598082, -0.54861087, -0.073024, -0.1134928, 2.3059754, -0.14829116, -0.96393466, 0.7676917, 0.2981906, 3.1306186, 0.17568153, -1.8389015, -0.07677742, -0.012896558, -0.4760871, 0.45835316, -0.26864526, 0.04158646, -0.84512, 0.19736038, 1.8373375, -0.28569406, 2.666137, -0.39014947, -0.068020016, 0.732156, -0.7409544, 0.12965335, -0.22586328, 0.1265552, 0.06754204, 0.08768115, 1.3994555, -0.24028009, -0.2970783, -3.7467766, 0.71932966, 3.4103458, -0.036066785, -1.632034, -0.67318267, -0.9831839, -0.46332225, -0.44391713, -1.3108953, -0.10894094, -0.11400136, 0.053443544, 0.73214614, 0.82547164, -0.10034547, 0.83913505, 2.6869771, 0.7851903, 3.7150512, 0.16174844, 0.066537015, -0.36918876, -0.63211876, 1.4055302, -0.43896613, -0.035964213, 0.91495806, -1.3178302, -1.8750008, -0.65444005, -0.8157038, -0.36402524, 0.104690105, 0.5064851, -0.4243797, -0.14364687, 1.4141487, -0.5180122, -0.10924721, 0.81464857, 0.21330594, -0.21694392, 0.038022883, 0.82408684, 0.14703813, -2.4052033, -0.3378386, 0.08187846, -0.25353065, -4.00716, 0.95680916, -0.38619152, -0.13788359, -0.23485117, -0.123243704, -0.03175038, 0.53641224, 0.11858803, -0.38467553, 0.0564929, 0.06300737, -0.1299867, 0.09399955, -0.17555557, 0.04824546, 0.029862948, 0.0921015, -0.010036773, -0.0026217245, 0.12039106, 0.02058566, 0.09075307, 0.0009989196, 0.06288608, -0.01475533, 0.049834207, -0.10124631, 0.08289011, -0.31410554, 0.27974012, 0.13108982, 0.033775844, -0.4283302, -0.061745714, 1.3323975, -0.28514954, 1.4213316, 0.09166407, 0.4787529, -0.042314164, -0.24781826, 0.08796074, -0.036169697, 0.29741427, 0.05444881, 0.029164588, -1.2371491, 0.06278165, 0.009475876, 0.0048947767, -0.053596716, 0.18343824, -0.013511799, -1.548659, 0.5694924, 0.0015889895, 1.9804378, -0.39144847, 1.0517011, 0.5490688, 0.06684892, 0.25537488, 0.058149826, 0.7657189, 2.5732276, 0.3997206, 0.3149637, 0.9018528, 0.46534678, 0.51930165, 0.59164125, 0.16527817, 0.042934734, -0.061365522, 0.5878095, -0.051248714, 0.15664302, 0.5895896, 0.0862653, -0.0040996275, 0.25549445, 0.7248135, -0.35094732, -0.7786396, 0.4509723, 0.27737367, -1.5779763, 0.37042755, -0.028211432, 1.4477075, -0.23750603, 0.58794767, 0.12810533, 0.9886275, -0.032623194, -0.76219016, -5.061771, 0.17878155, -0.015381106, 0.3261891, 1.7609155, 0.27075362, 0.050278086, -0.09273124, -0.111596406, -0.007128032, -0.537784, 0.0018817363, -0.016415432, 0.010040845, -0.115457885, 1.2201637, -0.15456982, 0.11039271, -0.048907064, 2.8340337, 0.09863234, -0.092533395, -0.32151595, -0.12720543, 0.36372712, 1.3086315, 0.15218975, 0.46138754, -0.0518625, 0.525714, 0.106206425, -0.0042877737, -0.056742154, -0.10216251, 0.045804013, -0.012806761, -0.0637524, -0.07057825, -0.41945687, 0.000361186, 0.1590765, -1.4097614, 2.1211205, -0.10045351, 4.2259455, -0.07563567, 0.16531242, 0.29634178, 0.077562176, 0.28963414, 0.17311534, 0.09474928, -0.05151241, -0.13522501, 0.0038532102, -0.19273798, 0.121956475, -1.357391, -1.720099, -2.0659897, -0.31622422, -0.104893036, 0.3896759, -0.037327047, -0.100428626, -2.9986062, -0.092740774, -0.15097399, -0.32062748, -0.0620798, -0.5915341, -0.0073574088, 3.0963914, -0.45182443, 0.11556202, 1.2627709, -0.18459545, -2.3774831, -0.1423447, -0.07516845, -0.035115503, -0.35835242, 0.46560583, -0.08708852, 0.055801336, -0.05636796, -0.038080476, -0.15587267, -0.0586906, -0.112624064, -1.3081467, 0.8575258, -0.073067695, 0.036719102, 0.2379263, -1.3195747, -0.07434926, 0.2151676, -0.4813551, 2.7423136, -0.16115342, -0.7201067, -0.2540426, -2.343021, -0.06686658, 0.0039549144, -0.018418854, -0.03200611, -0.19478706, -0.038576473, -0.09502926, 0.0039183614, -0.008478737, 0.047645386, -0.049102083, -0.14347574, 0.05602267, 0.10173425, 0.058792584, 0.10557945, -0.015122589, -0.07486664, 0.0028111637, 0.01822817, 0.037766065, -0.023838028, -0.009348666, 0.076201774, 0.02107165, 0.053766657, 0.0023472018, 0.12049186, -0.21080914, -0.035257753, -0.09553631, -0.21219468, -0.5879806, -0.07152161, -0.9515026, 0.3687066, -0.028578786, 0.010974314, -0.04299026, -0.1280657, 0.03152742, -0.12986843, 0.05992435, 1.2348447, 0.039404962, -0.062491424, -0.35277256, 0.045789033, 0.06515834, 1.5108979, -0.027227145, 0.16537309, -0.040515818, -0.61242706, -0.09109452, 0.08540071, -1.1049396, -0.035019975, -0.16747494, 2.173111, 0.08078052, 0.045571886, -0.046588898, -0.026282858, 0.6952108, 0.052264243, -0.17457001, 1.0083375, -0.1785312, 0.05531515, -0.0056624385, -0.06790981, -0.24007359, -0.22960179, 0.04235683, -0.08880913, -0.057430603, -0.023965612, -0.10873778, -0.051069703, 0.28836018, -0.07992208, -1.319467, -0.35732687, 0.9368028, -0.14625297, -1.212625, 0.07817827, 0.018211387, 0.9639973, -0.22481804, 0.113389865, -0.11864899, -2.2329788, -0.0128425285, -0.36372596, 1.1516861, -0.17241651, 0.03952665, 0.1954642, -0.2380947, 0.025140794, 0.025854193, -0.15883113, 0.056374405, -0.22993511, -1.5135742, -0.038196005, -0.11148092, -0.061100107, -0.019794444, 1.3591503, -0.02192855, -0.06820554, -0.077019185, -0.027002629, -0.1377869, -0.03812499, 0.8631727, -0.172316, 0.7314425, 0.2354357, 0.07153508, 1.0164566, -0.08899277, 1.0318152, 0.024581362, -0.08153855, -0.20170327, -0.10450735, -0.1905292, 0.0040395595, -0.3280005, 0.22969878, 1.2007521, -0.14058037, 1.4602253, 0.17114453, 1.0940717, -0.12570491, -0.16076384, -0.060882, 0.07808368, -0.27239966, -0.06360994, -0.17364313, -0.085869886, -0.07881942, -0.027329981, -1.4836149, -0.037490554, -0.16996199, 0.1960338, 0.7291236, -0.8407674, -0.9573831, 0.47364435, -0.109410815, 0.21513397, -0.32126895, -0.25137493, -1.4854392, -0.10643962, -0.016356561, -0.52082515, -0.19167617, 2.7532437, 0.08141455, 1.7912437, -1.3538179, -0.19074343, 0.50471157, -0.12735046, -0.9232937, -0.43123728, -0.025323773, -0.106646456, -0.13983057, -1.7250886, -0.11991297, -0.75548446, 0.030448982, 0.11123883, 0.5270155, -0.5872899, -0.02061544, 0.36502725, 2.3798086e-05, -0.015476376, -0.030823043, 0.7906356, -0.9280283, -0.06313528, 0.6958887, -0.19299123, -1.614097, 0.57561207, -0.2892001, -0.15995239, -2.467404, -0.07646974, 0.50087494, -0.112468146, -0.025133343, -0.054213643, -0.18489186, 0.10921183, -0.06712632, 0.19255988, 0.05326666, 0.0897653, -0.04971705, -0.08563157, 0.094225086, 0.06763033, 0.13966936, -0.051029485, -0.0714441, -0.08168275, -0.094822936, 0.113022305, -0.025620602, 0.1199277, 0.32748932, 0.042786337, -0.021488007, -0.1480777, -0.021523379, 0.061102793, -0.024834765, 0.059407752, 0.06433814, 0.2032644, -0.15036818, -1.2457305, -0.512289, -0.13082004, -0.038762372, 0.017542591, -0.19842769, 0.03942532, -0.16746798, -0.021260988, -0.1322907, 0.11709317, 0.03303096, 0.35134572, 0.026751878, -0.14512224, -0.30475703, 0.011904262, 0.052378148, -0.01518238, -0.715502, -0.095553555, -0.2647951, 0.70473254, 0.37774566, 0.04025794, 0.14451565, -0.4388185, 0.17569973, -0.12673831, -0.1903452, 1.8036278, -0.22619738, -0.30850148, 0.29193977, -0.14640287, -0.1000198, -0.10083574, -0.2649349, -0.1254638, -0.30300927, -0.35563785, -0.030961443, -0.040872514, -0.05841298, -0.14621754, -0.20050569, 0.08591394, -0.038847726, -0.53340495, 0.27939728, 0.014785197, -0.29414397, -1.9613714, -0.28412992, -0.08141143, 0.23083337, -0.10991289, -0.18700357, -0.02720392, 0.83209217, -0.029739149, -0.14403349, -1.2563682, -0.22587028, -0.072554514, -0.9782784, 1.2700614, -0.38420552, 0.0578071, 0.064535186, -0.157031, -0.22700246, -0.16080862, -0.047940467, 0.11640505, -0.06859349, -0.01863142, 0.82379794, -0.20343931, -0.122249015, -0.11387645, 0.54858226, 0.020437274, -0.020586807, 0.16525027, -0.011140526, 0.8743615, -0.088355675, -0.031937968, 0.5853159, 0.06861094, 0.48875204, -0.015112203, -0.08209863, -0.10387906, -0.059215587, -0.13391358, -0.06958673, 0.031272724, 0.22407484, -0.15604414, 0.0020701566, 0.8616962, 0.13801323, 0.24783929, 0.0012640373, 1.0547518, -0.03274251, 0.03243315, 0.07852895, 0.019108472, -0.0052801664, 0.14937066, -0.14780454, -0.17093718, -0.8121096, 0.048161358, 0.7533907, 0.0202344, -0.32420018, -1.1770651, -1.320248, -1.063357, 0.00958821, 0.7804971, 0.0021695578, -0.1666448, -0.62686807, 0.10418655, -0.027802901, 0.0889978, -0.010771388, 1.1405241, 0.003979153, 0.22144741, -0.84382474, -0.07050989, -0.36445677, -0.010083842, -0.92833257, -0.21459427, -0.23529308, -0.04485279, 0.14224808, -0.29724592, -0.12897739, -0.1812936, 0.12669343, -0.008344252, 0.10978852, -0.23135227, -0.2619272, 0.24079646, 0.018174432, -0.17866816, 0.05673413, 0.10838458, -0.9220051, -0.113086775, -0.03610746, -0.09304565, 0.3633176, -0.06729005, -0.27712482, -0.1944126, -1.7012273, -0.00949738, 0.22056824, -0.035629325, 0.061797597, -0.17598975, -0.07321277, 0.047723774, -0.02470402, -0.10725938, -0.0714501, -0.10091829, 0.009980793, -0.12525024, 0.04796549, 0.06915362, 0.081487805, 0.010210077, 0.00066486315, 0.025282586, -0.2098998, 0.12623748, -0.16974293, -0.03182336, 0.06879902, -0.057115685, -0.004756863, -0.031897303, 0.041278712, 0.02661663, -0.06482473, 0.045809075, -0.022615632, 0.27891406, -0.046208527, -0.2434946, 1.5202891, -0.13170935, -0.0064730765, -0.04501657, -0.10483627, 0.049532045, 0.12868139, -0.16725108, -0.1935139, -0.12717637, 0.06302821, 0.09645421, -0.13560992, -0.057493076, 1.3991326, 0.07108296, 0.0010335573, -0.04305205, -0.02797282, -0.027196063, -0.17041409, -0.25119346, -0.060997836, -0.5754766, -0.44496757, -0.13907856, -0.36707538, 0.0015857194, -0.03242194, 1.4998927, 0.018474938, -0.09083061, -0.10437565, -0.2687299, -0.25100434, 0.035598148, -0.3436355, 0.016037758, -0.14001547, -0.027448425, -0.042722747, -0.075831644, 0.03301318, -0.024863493, -0.124129325, 0.036350407, 0.023762014, -0.3833722, 0.17887516, 0.44175327, -0.03452899, -1.1773424, -0.24698842, -0.04298124, 0.2918924, -0.2560056, 0.01363521, 0.051734235, -0.079693444, -0.020002248, 0.00067819323, 0.18206947, 0.056273844, -0.07888749, -0.50405216, -0.12934846, -0.037411686, -0.098911546, -0.082155526, 0.03625243, -0.17554305, 0.9786329, -0.09654643, -0.013924843, -0.07767421, -0.11234104, 2.012937, -0.33580184, -0.053327236, -0.12889194, 0.48642138, -0.05535618, -0.013144208, -0.37728065, -0.09422321, 1.28646, 1.2629585, -0.051090386, -2.5520265, -0.2047586, 1.2353073, -0.09106184, -0.0035728996, -0.19822939, -0.1336516, -0.09402803, -0.22646427, 0.5496635, 0.23150647, 0.6922561, -0.0899187, -1.2798157, -0.09150623, 1.1721529, 0.01969899, -1.5221453, -0.082313985, -0.26697382, -0.25593433, -0.20426887, -0.19746408, -1.5928285, -0.15380427, -0.08741691, -2.306995, -0.043165773, 1.749921, -0.12606741, 0.91063035, -0.48963392, -0.7925239, -1.4399751, -0.13249421, 0.1300141, 0.238783, -0.18568441, 0.27043432, -0.16102831, -0.062216107, 0.06766649, -0.3630422, 3.9459531, -0.4165704, 1.8618547, 0.074158646, -0.7679923, 2.067144, -0.15345535, -0.4710015, -0.3357991, -0.014974485, -0.15628847, -0.13448477, -0.42268488, -0.114106685, -0.45900473, -0.1672264, -0.11068093, 0.24353944, -0.08081008, -0.045400858, -2.2650383, 0.12645885, 0.020886362, -0.16924667, -0.8267207, 0.18946001, 0.09518628, -0.40494406, -0.551318, -0.23666997, 0.11670032, -0.10431448, -0.052191205, -2.3572047, -0.28697804, 0.22746909, -0.22418316, -0.095863536, -0.35276458, -0.18767816, 0.22788538, -0.095085986, 0.0746491, -0.06420449, -0.0678559, -0.05898048, 0.021412913, -0.015201322, -0.009447039, 0.18121828, 0.047024053, 0.025419544, 0.039967608, -0.100869834, -0.09505933, -0.18507971, 0.06866423, 0.22245686, -0.020928651, 0.18147968, -0.27193514, 0.11238027, -0.2817092, 0.030027298, -0.04262955, -0.036985643, 0.32956144, -0.022751413, 0.3810818, 0.00026054893, -1.7623277, -0.05723408, 0.039390408, -0.19065395, 0.08335366, -0.016722165, -0.110584214, 0.18090086, -0.07434857, -0.26444197, 0.5089956, -0.07954926, -0.030158922, -1.0853609, -0.041067235, -0.008456983, 0.003416714, 0.3796343, -0.17678393, -0.25605887, -0.5731871, -0.14939913, -0.34158295, -2.234349, -0.5947275, -1.47985, -0.12703124, -0.11431047, -0.9723781, -0.17652851, -0.36425844, 0.5164362, -0.12643464, -0.17794572, -0.23645014, -0.36628234, -0.09240374, -0.347208, 0.015102573, -0.13157971, -0.04002593, -0.23778345, -0.05686461, -0.07605156, 0.2720141, -0.0759832, -0.12120394, 1.8946731, -1.8927503, -0.25269422, -2.1156182, 