#pragma once

#include <stdint.h>

// Weight 0, shape: (6, 200)
const double weight_0_sonar[] = {
-0.15800497, 1.5138638, 1.3945501, 1.7549386, 0.13843936, 0.20044206, 0.100570105, 0.24397527, 0.057492513, 0.08615696, -0.10380888, 0.11857224, 0.11332791, 0.14335705, 0.4265113, 1.3656672, -0.004468686, 0.015914436, 0.5085877, -0.08797007, 1.227866, 0.33967862, 0.27167407, 0.7690876, 1.1555387, 1.8208216, -0.10668409, 0.18537146, 0.07776693, 0.14016172, 0.01644924, -0.09885764, 0.05796345, 0.1718568, 0.2274029, 0.5083389, -0.04854122, 0.14461157, 0.23298606, -0.03214963, 0.03812606, 0.21992622, 0.086886704, 0.62085354, -0.06650664, 0.12663807, 0.1466373, 0.07328395, 0.013345378, 0.19657066, 0.033719826, 1.0680712, 0.62960714, -0.10875766, -0.037576348, -0.05409852, 0.1290713, -0.7584681, 0.083522774, 0.03931955, 0.14784676, 0.046835132, -0.3602052, -0.1072796, 0.12747912, -0.078417115, 0.003827957, 0.6496338, 0.3269188, 0.58581555, -0.18221717, -0.17848642, -0.048975892, 0.13860635, 0.17147751, 0.08186392, 0.16831282, -0.24018118, -0.042993624, 0.12858717, -0.60627687, 0.21432978, 0.15979487, -0.09535983, 0.21258953, 0.8022687, -0.0404703, -0.32217672, -0.04053958, 0.17879048, -0.09193904, 0.12343367, 0.15658599, 0.2139575, -0.013642526, 0.2539511, -0.28234026, 0.106610306, -0.031038273, -0.18936522, 0.08194302, 0.031716842, -0.08972254, -0.050849766, -0.1329659, -0.01751744, 0.3965678, 0.0067082695, 0.013224408, 0.08482869, -0.16403809, -0.03926497, -0.12997448, -0.054295976, 0.012977854, -0.013737285, 0.045116957, -0.023736004, 0.10444377, -1.0493193, 0.18378663, 0.24166222, 0.0052827518, 0.15134051, -0.09818864, -0.14300138, 0.04906905, 0.6903765, -0.033532344, -0.03859882, 0.1598342, -0.18454245, -0.047928125, -0.03046568, -0.18853399, -0.038580325, 0.7951223, 0.21133624, 0.050246254, 0.788847, -0.17938274, 0.40612802, -0.16416262, -1.0131887, 0.035525862, 0.17968377, -0.11856294, -0.06007755, 0.03627827, -0.024441453, 0.35898507, 0.0022385968, -0.14553785, 1.8222353, 0.17942391, 0.6826483, 0.31857452, 0.10857514, 0.0044168346, 0.41390437, 0.1938055, 0.15332472, 0.67499256, 0.11348057, 0.08818059, 0.12041299, -0.028956618, 0.062459417, 0.044816177, -0.07059128, 0.14340156, -0.07907306, 0.15077916, 0.2132658, 0.09151085, -0.13152868, -0.17208494, -0.11081096, 0.11163322, 0.04465869, 0.13962945, -0.057074282, 0.053302433, 0.49040082, 0.21338914, 0.1554702, 0.18398894, -0.42748225, 0.21126409, 0.09658341, 0.005767375, -0.04016553, 0.46695462, 0.11448386, 0.19039387, 0.09439572, 0.070228994, 0.1908923, 0.17626585, 0.12966481, 0.0063868137, -0.23595634, -0.20026255, 0.054240387, 0.28565308, 0.24425815, -0.1910146, 0.20655504, -0.030212417, 0.14490253, 0.32678205, 0.35147202, -0.02164394, 0.19345509, 0.60560507, -0.1725296, -0.0087179355, 0.30994907, 0.13956667, 0.0047521126, 0.11259264, 0.0036747002, -0.063176535, 0.10380435, -0.17352615, -0.2841891, -0.17223172, 0.2172351, 0.14681786, 0.17220454, 0.1151281, 0.02687793, 0.17843103, 0.20744419, 0.25537968, 0.030327132, 0.029021306, -0.010769398, 0.21284907, -0.038350992, 0.35178328, -0.13585734, 0.11840714, 0.07877256, 0.099162556, 0.04112968, 0.27384615, 0.12672916, 0.020688392, 0.19739181, 0.010141747, 0.05154251, 0.14219162, 0.44566482, -0.24424763, 0.19174322, -0.005511807, 0.8296581, 0.11285744, 0.12590815, 0.0796657, -0.18689106, 0.057915434, 0.16940247, 0.09647044, -0.2376809, 0.1990654, 0.15347515, 0.14513856, -0.01450938, 0.44583574, -0.13050412, 0.10424182, 0.24308312, 0.22378813, 0.11733614, -0.09825732, -0.02260277, 0.08194714, 0.04582425, 0.45879132, -0.2432736, 0.16220239, 0.16634014, 0.18008897, -0.26030546, 0.0016465025, 0.2974336, 0.81633025, 0.27615762, 0.53728914, -0.52917737, 0.19213289, 0.057407245, 0.063191645, -0.05398102, 0.035572883, 0.039477136, 0.054817375, 0.1982718, -0.011764755, -0.03887191, -0.16813125, -0.15681693, -0.067450985, 0.0020101508, -0.38711464, 0.2407288, -0.0038406055, 0.20068151, -0.15890628, 0.21864295, -0.12691364, -0.09158866, -0.22376174, -0.18489052, 0.12899573, -0.12944174, 0.11014473, 0.14879833, 0.19382541, 0.19535616, 0.246151, 0.18555392, -0.0668138, -0.10483811, -0.036200564, -0.11760221, 0.0045024077, -0.055671122, 0.025424222, -0.18803562, -0.029379196, -0.041902818, -0.062401544, -0.08546554, -0.1087608, -0.041585892, 0.10282452, -0.17391853, -0.15037109, -0.42857578, -0.15345193, 0.15615082, 0.16511087, 0.22071806, 0.010798286, -0.05506909, 0.05745763, -0.12348396, -0.039927755, -0.047963727, 0.047629867, -0.25567326, 0.22887586, -0.090264395, 0.007073465, 0.24606834, -0.009281316, 0.036903553, 0.29725572, 0.123065636, -0.05116595, -0.04353981, 0.12112893, 0.26170948, 0.12751746, 0.23274101, 0.25255495, 0.005702836, 0.3033273, 0.04253147, 0.1552392, 0.2877336, 0.14996703, 0.030878002, -0.19248217, 0.030965637, 0.2661038, 0.052069876, 0.069399394, -0.010003692, 0.06420632, 0.2961416, 0.10436775, 0.18855436, 0.14301087, 0.38788763, 0.2620751, 0.15909818, 0.113864295, 0.0044194916, -0.02121218, 0.16763765, 0.23613484, 0.21977289, 0.1651065, 0.16441749, 0.13222283, 0.28143096, -0.0059799887, -0.3139455, -0.3900528, 0.12601228, 0.072593935, 0.2319211, 0.07203726, 0.3459708, -0.027705519, 0.22400725, 0.10255125, 0.13106462, -0.028541807, 0.20078374, -0.1701543, -0.35664386, -0.08375846, 0.016865363, 0.017723579, -0.0062171165, 0.06342736, -0.4113154, -0.085201494, -0.00019930108, -0.23715295, -0.43565947, -0.06109794, 0.16799147, 0.218399, 0.16249216, 0.09449985, -0.023848195, 0.20636435, 0.16690211, 0.09102885, -0.26333073, 0.019038584, -0.034887675, 0.2511494, 0.24081922, -0.118334346, -0.20062473, 0.23870976, 0.1193188, 0.06224778, -0.0059801023, 0.11658762, 0.14926538, 0.2759325, 0.13702549, -0.037726093, 0.05207815, 0.105194055, 0.00905373, -0.36423957, 0.23710468, 0.0008753217, 0.71949, -0.057198763, 0.19031274, 0.22275622, -0.051098723, 0.25460485, 0.2356407, 0.08269097, 0.021589559, -0.0080845505, 0.07232152, 0.08095448, -0.10290912, 0.036720082, -0.17959811, 2.5893202, 0.09594702, 0.1359778, 0.20773776, 0.09111828, -0.0013183019, 0.057434525, 0.265056, 0.8339356, -0.33870688, 0.18790834, 0.13704726, 0.09826763, -0.5303088, -0.018162927, 0.30555537, -1.0637127, 0.12183315, 0.06251713, -0.29674095, 0.19697641, 0.27596465, 0.030305844, -0.12608626, 0.044976447, 0.24829008, -0.5004829, -0.02798098, 0.27190042, -0.038105343, -0.05364936, 0.010479733, -0.19495144, 0.0033116313, -1.1474295, 0.25707212, 0.036606357, 0.11057222, -0.004096493, 0.21929094, 0.02588629, -0.0221929, -0.24695109, -0.14535753, 0.059121467, -0.14962733, 0.10006106, 0.23920292, 0.21328089, -0.3483014, 0.23033872, -0.014184243, -0.08359112, -0.14259242, 0.09406283, -0.1525856, 0.0035797716, -0.08234411, 0.14977284, 0.014580247, -0.1488607, -0.143078, -0.23966967, -0.14010587, -0.20613427, -0.12648185, 0.03396138, -0.16175224, -0.023996614, -0.36952576, -0.15012339, 0.24572183, 0.079332136, 0.01872164, -0.21501963, -0.15019536, 0.11709423, -0.050494194, -0.08810536, -0.053653575, -0.09636698, -0.46858358, 0.20303933, -0.15567607, 0.3799554, 0.097760394, -0.015471632, -0.024476081, 0.20780554, 0.184072, -0.19606668, -0.036006354, 0.23062637, 0.21086235, 0.007980104, 0.17318599, 0.24303688, 0.009638787, 0.07324325, 0.009177732, 0.07932342, 0.16009665, 0.17979765, 0.018721221, -0.10484805, 0.07402363, 0.14401989, -0.16202916, 0.28470632, -0.006174012, -0.07405561, 0.23716375, 0.21625072, 0.087314904, 0.31386167, 0.34968063, 0.21839836, 0.1612394, -0.053749673, 0.0006894567, -0.15057583, 0.13907723, 0.21549939, 0.13809349, 0.22223358, 0.21522853, 0.25850365, 0.07141654, 0.007541212, 1.1738061, 1.340652, 1.1115148, 0.1335751, 0.045114845, 0.12862512, 0.023645967, 0.13826428, 0.12374065, -0.15907857, 0.06743245, 0.12561817, 0.105423324, -0.1335606, 1.14226, 0.005145539, 0.08318865, 0.6609875, 0.009624908, 1.1539557, 0.51292205, -0.1491108, 0.9124382, 0.8658022, 1.4619488, -0.18610762, 0.098946005, 0.15216565, 0.13654804, 0.16284208, 0.06497431, 0.19459945, 0.10607789, 0.11703665, 0.3479694, 0.059812102, 0.107920386, 0.03694951, 0.033937663, 0.0049655936, 0.38630167, 0.12663789, -0.054857858, -0.034533802, 0.026753614, 0.10102267, 0.22717127, 0.13262165, 0.14064941, 0.20893823, -0.057357714, 0.49274254, -0.033500377, -0.09684425, 0.2781776, 0.026950877, -0.7161222, 0.07801843, 0.21837679, 0.043793052, 0.08050063, 0.2582043, -0.24766499, -0.045472175, 0.07491963, -0.016027529, 0.6686527, 0.111920774, 0.22300804, -0.21391441, -0.24642149, 0.02619312, -0.020043662, 0.3918402, 0.15342623, -0.014154795, 0.036887456, -0.032864224, 0.048531953, -0.67749, -0.18534008, -0.026023867, -0.15354085, 0.28737065, -0.03517335, -0.03243198, -0.38898426, -0.13840272, 0.15831397, 1.1316707, -0.12914062, -0.010869251, -0.0382345, 0.0004332125, 0.4191634, -0.06794788, 0.07122372, -0.029399395, 1.4753364, 0.107176825, -0.05197965, -0.11678625, -0.16419645, -0.015381653, 0.007251405, 0.059584964, 0.13039224, 0.014506589, 0.019465495, -0.1260986, -0.017610757, -0.14218004, -0.060043726, -0.20713407, -0.18764524, 0.074980974, -0.06325878, 0.046685815, -0.84687865, -0.01817686, 0.19417535, 0.13069738, 0.07040199, -0.08502122, -0.07693282, -0.15633407, 0.569595, 0.0005041921, -0.17771333, 0.19630782, -0.06934734, -0.13045307, -0.16093253, -0.013406134, -0.038626175, 0.7445944, 0.17468235, 0.17013803, 0.7571, -0.077130556, 0.42274204, -0.024589874, -0.8477515, 0.04073471, 0.04352376, -0.18125656, -0.036583945, 0.07486565, -0.17618206, 0.3726802, 0.018162405, 0.36882356, 1.5558071, 0.06935591, 0.6494666, -0.13769269, 0.13397479, 0.004902173, 0.13121723, 0.030866532, 0.1646947, 0.48599976, 0.16902235, 0.12918505, 0.06002371, -0.09079412, 0.25430068, 0.24873255, 0.0384489, 0.11556183, -0.08809778, 0.19984455, 0.06029593, 0.14399679, -0.09017329, 0.04495531, 0.5038049, 0.12052563, 0.034826126, 0.15880917, -0.0042780265, 0.13306975, -0.0154261, 0.13113809, 0.19251095, 0.055292826, -0.39505166, 0.044826556, 0.16088343, 0.04826605, 0.03656405, 0.41613656, 0.15644835, 0.051703326, 0.129364, 0.14514415, 0.096734054, 0.09482071, 0.13151725, -0.08364871, -0.2190604, 0.29821232, 0.7351488, -0.005105862, 0.020608954, -0.09348532, -0.053194337, -0.1355906, 0.012749148, 0.3137252, -0.20175034, 0.011435723, -0.11518785, 0.3885655, 0.5273574, 0.069884285, 0.45569438, -0.057820704, 0.009392493, 0.11159117, -0.05557072, 0.032035083, 0.078611106, 0.6591582, 0.30245522, -0.090804115, -0.10471476, 0.12414967, -0.1018979, 0.37515405, 0.07286525, -0.1238737, -0.13985315, -0.020251697, 0.3390599, -0.005225075, 0.035933275, 0.09470399, -0.26468578, 0.4756155, 0.1262645, -0.095656045, -0.10219912, 0.1439739, 0.037305158, -0.022822097, -0.022155441, -0.23891613, 0.051330943, 0.04290569, 0.22236256, 0.13449846, 0.3691038, 0.1617315, -0.0002131171, -0.25412598, 0.29928643, 0.088217854, -0.055256426, 0.13603254, -0.36448142, 0.03927502, -0.03871936, 0.3903615, -0.097991765, 0.2705564, -0.048664153, 0.059407715, 0.30716306, 0.6934723, 0.15708712, 0.558468, -0.09743224, -0.023328545, 0.054982744, -0.0669884, 0.028207555, 0.029261345, -0.007181057, 0.43682513, 0.00368974, 0.07636088, -0.061003968, 0.092869975, -0.064592324, 0.010689476, -0.084446065, 0.95909643, 0.1086246, 0.6152415, -0.025025867, -0.102237776, -0.21669658, 0.15504308, 0.07876297, -0.054771107, -0.15856716, 0.9220518, 1.0000687, 0.08002227, -0.034389164, -0.1415259, 0.11124748, 0.0027961696, 0.0060254466, 0.13824002, 0.051072028, -0.059460986, 0.11636284, 0.10283947, -0.06341887, -0.06799082, -0.08812473, 0.11513721, 0.05485245, 0.10123594, -0.15848875, -0.28081754, -0.27965552, -0.11219802, 0.2770992, 0.1145329, 0.107543215, 0.07327101, -0.12563425, -0.056213655, 0.209785, -0.0052607213, -0.17818797, -0.07507852, 0.018109322, 0.112099126, -0.06305789, 0.13067003, -0.106882736, 0.44390407, 0.05402401, -0.12795831, -0.3709317, 0.1312488, -0.124970175, 0.11282956, -0.35175523, 0.17762534, 0.018037008, -0.105597906, -0.095423885, -0.09543172, 0.1291206, 0.028131152, 0.005725498, 0.16547844, 0.42092896, 0.16235028, 0.3244015, -0.28475684, -0.020016298, 0.00295079, 0.85328025, -0.05803092, -0.06360437, -0.7919577, 0.0087782685, -0.06544458, -0.048748735, 0.19325563, -0.051340286, -0.14922827, 0.011910348, 0.12994693, 0.0034030369, -0.00982909, -0.0908903, -0.08747221, -0.004950277, -0.14627056, 0.11198831, 0.113971226, 0.16253807, 0.07829094, -0.015798379, 0.10066271, -0.22893299, 0.080080286, 0.0074962997, -0.03811857, 0.021707943, -0.060764425, 0.05931596, 0.24958901, 0.006863217, 1.0688249, -0.009329061, 0.026233243, 0.034965422, -0.07567682, 0.022552814, -0.015945233, 0.1108605, 0.16644384, -0.9826081, -0.5932697, -0.44322768, -0.047396194, -0.11695019, 0.050596714, -0.08095942, 0.0005247591, 0.14834724, -0.03697891, 0.006057, 0.023100998, 0.06752566, 0.105089486, -0.1421157, -0.020922728, 0.03971067, 0.002723467, 0.11703259, -0.6671573, 0.15558463, -0.06700988, 0.117882304, -0.09400773, -0.71341884, 0.09324627, -0.024503723, 0.0035134156, -0.046367377, -0.02271659, 0.24543402, -0.14671184, -0.06746459, 0.009116153, -0.035940137, 0.116055794, 0.0039599477, 0.031965367, -0.04951797, 0.22119403, 0.22310665, 0.11598672, -0.0015818224, 0.0039984905, 0.07012121, 0.0074289637, -0.16966504, -0.061699312, -0.03678357, 0.463568, -1.2217675, 0.020317594, 0.16075864, 0.1357461, 0.015735917, -0.022624036, 0.19332199, -0.10201488, -0.004640186, 0.07476064, 0.05647637, 0.9029311, -0.048522677, -0.46218348, 0.24039166, -0.015132154, 0.07511935, 0.059780926, -0.28020698, 0.17888507, -0.12827496, -0.45744908, -0.09544712, 0.36697185, 0.35012525, 0.01259248, 0.23032713, 0.0024029638, 0.029215284, -0.47021693, -0.2282038, -0.122142464, 0.11636219, 0.04536043, 0.019965483, 0.0652864, -0.13859631, 0.34726033, -0.06855209, 0.24980798, 0.1701896, 0.021245586, -0.026301991, 0.037561074, 0.12202926, 0.21804112, -0.09546698, -0.04620774, 2.077484, -0.040046334, -0.06149438, -0.08060321, 0.123977005, -0.08235326, 0.035383828, -0.5481241, 0.12915328, -0.040910404, -0.017605238, 0.13516393, 0.09467832, 0.0007263561, 0.06412938, -0.022474237, -0.13615333, 0.16478561, 0.0050911284, 0.04243359, 0.4150964, 0.12796621, -0.2250617, -0.009292277, 0.12924075, 0.05747104, 0.12519702, 0.02930661, -0.13561188, 0.04627696, 0.05934883, 0.086380325, -0.015762346, -0.11828865, -0.08849986, 0.031773604, -0.14672466, 0.24907179, 0.09480566, 0.16453491, -0.28927478, -0.13917384, -0.083620824, 0.13244434, 0.24616414, 0.013871899, -0.121007904, 0.01559568, -0.058848448, 0.07276399, 0.0807589, 0.0433672, -0.00080446806, 0.51709247, -0.7355447, -0.15353525, -0.11469079, 0.012561976, 0.06722992, 0.0073174005, 0.008119158, -0.065737404, 0.12168097, 0.4722647, 0.020740578, -0.12615067, -0.09160869, -0.026405593, 0.031893134, 0.07809138, 0.09526575, 0.10198857, -0.035605207, -0.023870863, 0.0059512514, 0.016096234, 0.06567168, -0.11215995, 0.27242953, 0.066509575, 0.034164026, 0.015246514, 0.027993862, -0.07056047, 0.3025846, -0.09003793, 0.020244429, 0.061823387, -0.19276069, -0.017001266, 0.08679738, 0.023031918, 0.11811759, 0.28144243, 0.002939228, -0.01983761, 0.07075822, -0.13958593, -0.07702628, -0.014030233, -0.096649274
};

// Weight 1, shape: (50, 200)
const double weight_1_sonar[] = {
-1.6330962, 1.5326997, 0.39089528, -1.3543029, 0.11244039, 0.09325312, 0.21284834, 0.11956274, -3.2738926, 0.07035144, 2.75577, -2.4525182, 1.4055715, -0.06588705, 0.97010505, 0.26779473, 0.59557134, -1.0380206, 0.0077764113, -1.9933031, -1.25749, 1.3310814, 0.0019090736, 1.2111378, 4.247674, 1.2365683, -0.06179838, 0.050942644, 0.00910696, 0.029119683, -1.0376003, -2.0785117, -0.035113517, -0.026808944, 0.05484691, -1.0625445, -2.8298912, 0.14511187, 0.07094559, -0.70041823, -1.1078033, -3.7982297, 0.03948505, 0.63133407, 0.45165446, 2.151612, 0.07617202, 0.102698125, -1.4623506, -0.12151623, -3.7185643, 7.033127, 0.15981747, 0.7311327, 3.8096626, 8.04184, 0.39750695, -1.3633938, 1.8233353, 0.112291574, -0.013158968, 1.887434, 0.00960133, 3.9007094, 0.34061852, -0.7935012, 0.5887546, 0.17548586, 0.19299382, -0.8226081, 1.8601569, 0.32939672, 1.2990866, 0.17244884, 0.78487533, 0.7040164, -0.08861916, -6.71572, 1.2573553, 0.088546656, -5.329172, 1.5321839, 0.0038761883, 1.327502, -0.1226201, -0.8907982, -0.9702393, -0.10289637, 1.170495, -2.3212483, -5.9718018, 0.59797746, 0.117426805, 3.6413343, 0.29090804, -4.0982265, -3.0768547, 0.15206203, 2.6549208, -3.5631983, 0.065731995, -0.72321826, -0.1579508, 0.1359613, -0.16745247, -0.5834279, -0.039395694, 0.06063449, 1.1993699, 0.20437728, 0.057039294, -0.28156495, 0.026879355, 0.027904244, -0.15967797, -0.22651103, -0.0026562472, -0.11843366, -0.038430274, -0.14822598, 0.010050225, -0.5789744, 0.04810375, 0.03179284, -0.074742995, 0.025910929, -0.029772958, 2.3076386, -0.39892122, -0.21469705, -0.14157356, 0.014128886, 0.019921964, -0.001557724, -0.005772152, 0.12459944, 0.25726134, -0.5306796, -0.054802906, -0.20597874, -0.0486477, 1.3126099, -0.17064705, -0.9363294, 0.14567557, 0.050184686, 0.01726773, -0.13730542, 0.120922916, 0.028631106, 2.1315334, 0.21453454, 3.240232, 1.9925947, 0.117510885, -0.7019076, -2.6897027, 0.048414513, 0.35137996, 5.4606576, 0.024112256, -0.0012587997, 1.3133062, -3.7385182, 0.19344628, 0.1571179, 2.5042267, 0.11663139, -0.019174313, -2.5101929, 0.036072463, 0.8043873, -2.0206354, -0.028594436, 0.17475489, -1.4350882, -0.049225725, -5.6176, 0.1482902, 0.1529627, 0.063398436, -2.2540963, -1.0157835, 1.0000701, 0.068610325, 0.021204673, 0.1835235, -0.22473212, 0.056594927, 0.27044034, 1.457681, -2.0616863, -0.24597971, 0.05028014, 0.16865267, 0.06050025, 0.010928748, -0.04960367, 0.00024107122, 0.036496177, -2.1936405, -5.719539, 1.3515908, -0.31946266, -0.02530193, -0.05297486, 4.342138, -0.10900904, 4.851335, -0.23878266, 0.65839565, -1.160398, -3.4164107, -0.13390683, -0.74082613, -0.7245132, 0.8881496, 1.1969496, 0.87075305, -1.3103817, -0.078757435, -1.0468807, -0.14528567, 0.21913017, 0.42903766, -1.7075772, 0.0075929863, 0.13794781, 0.063145325, 0.0041688313, 1.1975399, 2.1890233, -0.00073445303, -0.108376615, -0.13524622, -0.29764417, 0.6352387, -1.5778816, -0.13696648, -0.12979014, 2.482585, 0.38914183, -0.091962405, -1.2711991, 0.96403617, 0.39140254, -0.15658294, -0.037602663, 1.9279875, -0.15354846, -1.395773, 0.752172, -0.46690112, 0.88106304, -1.5040791, -5.7825665, -0.5134189, -4.778353, -1.310362, -0.022131355, -0.23862337, -2.5134192, -6.107232, 0.09520203, 0.49765748, 3.5328972, -0.42216554, 0.15533945, 0.25627744, -4.153403, 1.7364349, 0.34927297, 0.8145123, -0.74291617, -1.069388, -0.34588823, -0.036474198, 5.9199305, 0.024713738, -0.06219516, 1.7693849, -1.1156582, -0.668712, 0.9727162, -0.25328994, 0.24102016, -1.3582151, -3.2465625, 0.27583954, 0.70170844, 0.90904987, 0.60309947, -0.096200846, -1.852216, 0.5973232, 2.3833473, -0.37282708, -0.18291825, -0.13563773, 0.9971468, -0.020576222, -2.1277738, -0.018059328, 0.12439219, 0.11141321, -0.3558582, -1.1432047, 0.03107866, 1.4920379, -0.020823818, -0.18846615, -0.32148448, -0.055038612, 0.879201, 0.024708042, 0.036392275, -0.09190035, 0.05139481, -0.059821133, 1.2646064, 0.017097866, -0.13365227, 0.037452918, 0.030578732, 0.13116376, -0.118499994, -0.005161188, -1.3188232, -0.9298689, 0.1368122, -0.09602158, 0.17177455, 0.025706997, 0.011167487, -0.0044100373, -0.011841422, -0.32354435, 0.12758632, 0.06469428, -1.3840505, 0.10446704, -0.4890249, -0.043858595, 1.2370425, -0.13241118, -0.06989232, -0.06987171, 0.0001180101, -0.23161049, 0.12123463, 0.5905877, -0.035176877, 1.7160536, -2.7417245, -0.05612, 0.8732849, -0.10684555, -0.31372193, 0.12291167, -0.36263072, 0.03861942, 0.09967213, -4.1871843, -1.2991209, -0.11113854, -0.10091017, -1.3581916, -0.07518602, -0.17539915, -1.3434887, -0.1546743, -0.46002156, 1.5000019, -0.31005794, -0.22360012, 1.4783188, 0.014160705, -1.009097, -0.124757305, 0.93410045, 0.0060538654, -1.7795746, 1.5685244, 0.81330866, -0.14413068, -0.042333826, -0.09602841, 4.172805, -0.17414232, -0.0496897, 0.85450494, 1.6774749, 0.34754163, -0.33010453, -0.15751225, -0.12116822, -0.12603128, -0.20278415, -0.1582966, -0.134366, 0.24137801, 0.51759565, 0.6464289, 0.20047115, -0.09203139, -0.02900154, 0.9773146, -0.10634973, 1.6309092, -0.06512028, -0.32609254, 1.6609297, 1.0559361, 0.001498386, -0.6697012, -0.94174314, 0.4259561, 0.09574796, -0.015953047, 0.38217854, 0.48038384, 0.46274334, -0.29916596, -0.47936136, -1.4195726, -0.8267438, -0.052250963, -0.011824646, -0.11998919, -0.13970539, 0.77646154, 0.79290146, -0.2106643, -0.03260555, -0.088943765, 0.83000374, 0.41747513, 0.18015623, -0.1531708, 0.7217302, 0.41051048, 0.97115225, 0.01621428, -1.0960628, 0.024238244, 1.3123878, -0.034411862, -0.20803735, 0.8829302, -0.042010237, -0.08719119, -0.09206871, -0.13498497, 0.51439327, -0.88628954, 0.5244435, 0.66049147, -0.26093417, -0.90835017, -0.1755978, -0.08637368, 1.0558739, -0.9727775, -0.10947527, -0.2640056, -0.47680986, 1.6093338, -0.30442372, -1.0543061, 0.39762825, -3.4127681, 0.22811647, 0.47066945, -0.121532954, -0.08789339, -0.116375946, -0.08899758, 0.04098453, -0.14989716, -0.1585411, -1.3493212, -1.0917286, -0.47904316, -1.5855857, -0.11564188, -0.9199366, 0.3588427, -0.20852606, 0.18470861, 1.2903796, -0.35586783, -1.5110347, 0.0055485433, 1.1422496, -0.83398664, 1.4118863, -1.3976055, 0.009846589, 0.027202593, 2.5360365, -0.18708095, 0.24927959, 0.019566137, 0.0957301, -0.005280308, -0.34832305, -0.103124805, -0.06574478, 0.5858522, -0.21760112, -0.033018854, -0.09626123, 0.024591485, 0.545991, 0.09826201, 0.13336802, 0.071290344, -0.011177678, -0.048525758, 0.17474487, -0.118285045, 0.9735415, 0.01098657, -0.04303824, -0.0042065848, -0.013850175, 0.02926118, -0.15515338, 0.098249756, 0.102248736, -0.0377238, 0.026128756, -0.005562084, 0.13475405, 0.097956136, 0.033738498, 0.41902524, -0.2080704, 0.08556642, -0.16047913, 0.0766013, -0.3740613, 0.059376534, 0.4001743, -0.18300173, -0.07838464, 0.005092945, 0.10648094, -0.2489307, 0.13123718, -0.75579274, 1.2271147, 2.7788777, -0.08076887, -0.050473165, -0.31462705, -1.4259561, -0.08648186, 0.23497872, 1.1535746, 8.5688254e-05, -0.1708237, -0.48670506, -0.11361245, -0.12236693, -0.019944957, -0.482444, -0.056024693, -0.26161262, 0.4322735, 0.016031325, 0.024458703, 0.98948926, -0.057502132, 0.004385804, 0.35819346, -0.048216976, 0.09825657, -0.19179171, 1.037608, -0.13182102, 0.20055413, 0.62703705, 1.0814776, -0.17060532, 0.04715515, -0.15047142, 0.14949113, -0.17273985, -0.09748939, 0.9993716, 0.5004537, 0.3219459, -0.15582222, -0.056283653, -0.10241896, -0.27196258, -0.08785416, -0.17501196, -0.110763855, 0.9449392, 1.7440735, -1.0353521, -0.07622233, -0.1599545, 0.012975903, 0.021020543, 0.05934665, -0.6682971, -0.07870493, 1.0955918, 0.46217746, -0.6366005, -0.02218704, -0.5995898, -0.2894293, -0.24803011, 1.7531807, -0.5200725, 0.65105724, 0.20739745, 0.23072222, -0.24503605, -0.65126085, -1.9411044, 0.040755972, -0.03569956, -0.09626572, -0.11630088, -0.113368504, 0.60305387, 0.48053667, -0.022732822, -0.027147073, -0.1218914, 2.1223764, 0.2001981, -1.1080188, 0.0026871467, 0.73501027, 1.3153311, 1.2749382, 0.051182665, 0.0148788, -0.14339237, 0.5048937, -0.045710556, 0.050729327, 0.48536697, 0.05862239, 0.46702355, -0.19678088, 0.043963306, -0.2732742, -1.1902537, -0.89118046, 0.04546143, -0.03520955, -1.3122716, -0.06543651, -0.07979095, 0.95807374, -1.0566912, -0.8751662, -0.19081816, -0.20491782, 0.3322738, -0.3086805, -0.72006965, -0.33746594, -0.8757676, 0.083577976, 0.6130553, -0.18733342, -0.04275417, 0.27448753, -0.0714981, -0.82726526, -0.14821896, -0.14537613, -0.10833053, -0.9406566, -0.0087658055, -1.4462142, -0.24814647, -3.0127099, -0.29221407, -0.01572485, 0.5991517, 0.87169415, -0.3068623, -1.5458853, -0.12295719, 0.60560125, 0.16529109, 1.1066698, -2.6195927, -0.09861134, -0.16632469, 0.4491528, -0.03751991, 0.117573224, -0.19722998, -0.00038953125, 0.08955949, -0.048002794, -0.021146217, -0.1376688, -0.17143908, -0.0650097, 0.055144273, -0.23109964, -0.025112985, 0.4391007, 0.005676828, 0.16173725, -0.061724257, -0.009744422, -0.0889745, -0.44282103, -0.065274835, 1.0692095, 0.03867625, 0.007041598, 0.078939915, 0.01339147, 0.04830438, 2.2949872, -0.38600317, 0.18551517, -0.002804614, 0.01753672, -0.051967345, 0.15893961, 0.13487777, 0.008946629, -0.068690695, -0.123427816, 0.17875089, -0.72970325, 0.08212738, -0.28993604, 0.26746538, 0.576924, -0.066000834, -0.0333522, 0.027973622, 0.15069914, -0.12859468, 0.09876745, -0.61497885, 0.25443223, -0.835127, -0.37221214, -0.14476088, -1.907029, -1.2783953, -0.12539694, -0.9393424, -1.4080104, -0.06631619, -0.14565621, 2.3619633, 0.0219094, -0.011711867, -0.14328068, -0.16628414, 0.15618259, -0.36647737, 0.20257889, 0.02593137, 0.3123498, 0.9771558, -0.12521599, -0.17771807, -0.65766066, 0.09544925, -0.94988894, -0.20750694, -0.039619688, -0.19304943, 0.6912476, 0.49636924, 0.97558314, -0.043931175, 0.012921017, -0.07126613, -0.3184864, -0.13778934, -0.12907048, 0.9232478, 0.49866635, -0.7690376, -0.11754291, -0.10343986, -0.016028648, -0.23600702, -0.055775076, -0.050226767, 0.024755713, 0.40192905, -1.0448616, -2.3714476, -1.3792628, -0.01915343, -0.10113355, 1.6147958, -0.11569584, 0.29392597, -0.10593423, 1.0336372, 1.381934, 0.2936434, 0.10977077, -1.196798, -2.0662055, -2.5113144, 2.6919236, -1.265427, 0.33302134, -1.265217, 0.7091528, -0.8665556, -1.1417569, -1.975738, 0.0931063, 0.019528162, -0.02972143, -0.024106288, 0.013053631, -0.18039535, 1.4712218, -0.024919394, -0.21355644, -0.16479334, -0.705132, -0.11534093, 1.0616735, 0.11456094, 2.1990685, 3.5542247, 1.3222852, -0.114398256, 0.43500414, -1.9984937, 1.6847154, -0.14876817, -0.20152868, 0.1864963, -0.10320094, -0.16163237, -0.024177307, 0.059767175, -0.15654153, -2.0027068, 0.06292276, 0.3571738, -0.99398655, 0.64903986, -0.09554637, -0.29242146, 0.6696069, -1.9761775, -0.41066325, -1.0573608, -2.374871, 0.4850767, 0.0021939187, -0.22386514, -0.12328641, -1.3726261, 0.23516905, 0.71886194, -0.20972037, 0.13321437, -0.25688434, -0.0037709794, -1.4192247, -0.30483332, -0.05455657, 0.37243283, -0.91485375, -0.15201433, -2.1791573, -0.14934056, -2.7667313, -0.59439856, -0.10721376, 0.073931865, 1.8176659, -1.0346165, -1.64789, -0.1554776, 0.9669082, -0.8339965, 1.392283, -1.6263801, -0.15452406, -1.1018109, -0.90225244, -0.10875852, -0.30674735, -0.12783536, -0.059096277, 0.008754626, 0.36355937, -0.5879005, -0.04506477, 0.41412696, -0.015865736, -0.012227185, -0.9610538, -0.0013416712, 0.5928739, -0.020275585, -0.021771902, -0.044438895, -0.021036131, -0.16418634, -0.07049346, -0.097913735, 0.31480834, 0.022024296, -0.029967872, -0.11213905, -0.079044074, 0.1012722, -1.0571928, 0.386145, 0.14627309, -0.03397211, 0.14675535, 0.021732457, 0.075191736, 0.086943045, 0.013147148, 0.65898806, -0.0681287, -0.0135628395, 0.51202697, -0.0155974915, 0.1970352, 0.057545435, -0.119055405, -0.21731801, 0.015930675, 0.08672909, 0.06839248, -0.049864322, 0.049008172, 0.2756154, 0.06834989, -1.0494499, 0.470151, 0.04028807, 0.11314691, -1.479784, -0.16676053, -1.1366216, -0.08844926, -0.13612622, -0.066292524, 0.2950591, -0.018132612, -0.15213199, -0.120895416, -0.5233126, -0.078439206, 0.077684425, -0.13456716, -0.2801576, -0.10358922, -0.25703952, -0.24970597, 0.011479087, -0.9593797, -0.026340246, -0.43456793, -0.18554989, -2.564028, -0.071561985, 0.28749377, -0.4152531, 2.4722908, -0.06490565, 0.02906057, -0.21785863, -1.5088986, -0.18562429, -0.15542063, 0.50103635, -1.311079, -0.5402335, -0.021235036, -0.18292041, -0.025186267, -0.011198961, -0.046319187, 0.00076977554, -0.16480725, 3.7423923, 0.4324983, 0.5104292, 0.96298337, 0.06226226, 0.10264136, -2.5386555, 0.068879746, -0.9311998, 0.15418984, 3.1013012, 2.032884, 1.1473491, -0.07132601, -1.1359735, -0.36218345, 0.032500207, -1.2021308, 1.2165549, 2.1525688, -0.22686955, 1.7837408, 2.1702378, -0.7900771, 0.1792704, 2.568498, 0.025457863, 0.0878595, -0.07346688, 0.08658189, -2.846746, -0.5508472, 0.17054044, 0.20845413, -0.012877066, 1.0798626, -1.7970778, -3.3627985, 0.23531762, -1.3100753, -2.0653112, 1.0933458, 0.018065171, 1.8585211, 0.47846, -0.54596555, -0.022539832, -0.038018648, -2.4483907, -0.029855734, 1.1487688, 0.931289, 0.4914089, 0.31179225, 1.1052794, 2.6876109, 1.1679283, -1.8931779, -0.9135815, 0.026841944, 0.056194153, -1.2208986, 0.9858634, -1.0136713, -3.806902, -1.054419, 0.35304472, 0.33413488, -0.13095552, 3.6488318, -1.3694848, -0.15793216, -2.140229, 0.08944179, 0.95661825, 0.42663053, 0.02753785, -4.847899, -0.35661268, 0.196073, -2.6965988, 2.803805, 0.12891823, 2.051654, 0.47953117, 2.6718864, 1.4941702, 1.7937971, 1.4293805, -1.4073983, -0.29246616, 3.2003455, 0.25429216, 2.3384492, -0.26265433, -3.1921747, -0.89374024, 0.08372699, -1.8419853, -0.28350002, 0.09859131, -0.1866966, 0.023272624, 0.026009422, -0.13480477, -0.84155905, 1.0199318, -0.029056383, 1.5145879, 0.19708371, 0.08338052, 0.24399604, 0.12374843, -0.833102, -0.031659577, 0.06910276, -0.049127143, 0.03594775, 0.016854806, 0.4388453, 0.10093293, 0.88479334, 0.1457574, -0.01827207, -0.047131967, 0.08243382, -0.015908092, 3.2150803, -0.08176573, -0.1995959, -0.05495813, 0.10566091, 0.015937949, -0.037885174, -0.13610083, -0.114143826, 1.3732271, 0.18937622, -0.03265477, 0.3498055, -0.03257407, 2.7893467, -0.1737342, -1.1870834, 0.007255883, 0.107165836, 0.011995204, 0.08449841, 0.03595788, -0.06461081, -0.25026327, 1.1569455, -0.48587283, 1.2480363, 0.09456025, -2.334805, 0.3398489, 0.101938285, 0.023576932, -1.006375, 0.17903396, -0.030430805, 2.2081625, -0.46141806, 0.11626505, 0.018739723, 0.8359985, 0.16219456, -0.025014274, -0.013665667, 0.03690483, 0.40887073, -2.3801975, 0.09337373, 0.13216455, -0.37054005, -0.011366035, 2.9530451, 0.10478396, 0.5607736, 0.22008377, -0.6194232, 0.09828811, -1.1517316, -0.031066561, -0.0338576, 0.16760546, -0.9658719, 0.13702379, -0.06674419, -1.1600654, -0.86855245, 0.54935557, 0.10162194, 0.18331547, 0.08793827, -0.036183286, 0.042848542, 0.2618, 0.08156416, 1.8031298, 4.2353516, -1.7338743, -2.1551132, -0.014776996, -0.11186496, 3.3491035, -0.09483007, -0.67526376, 0.10408669, -7.491039, -5.04601, 0.7160792, -0.052166104, -1.3645343, -0.11725162, -2.0481985, -5.1233296, -2.0347986, -0.5266813, -2.8431883, -2.2348614, -8.034322, -0.06902616, -0.4407365, 1.2951275, -0.0033961583, 0.0022774264, 0.58865863, -0.105187215, 1.7969115, 0.33347055, 0.036905788, 0.00083433377, -0.13978525, -4.826702, -0.17013106, -1.7545203, 0.005868593, 5.4225845, -9.444238, -0.6081476, 0.010076676, 3.074232, -0.86686766, 0.5103243, -0.12193207, 0.11884502, 5.7798715, 0.20088628, -0.2701628, -1.3806177, -0.64484555, 0.28588924, -3.4922824, -0.2061578, 0.25313672, -1.0090057, 1.292688, 0.36103824, 0.010032315, 0.00067725335, 0.26564354, 1.721491, -3.0064306, 2.6918733, -4.2657604, -0.15603606, -0.40110853, 0.43467128, 1.8508539, 1.7981552, -1.5621501, 0.0609657, -0.9337422, 2.3761163, 0.017373038, 0.47966596, 1.015502, -0.036463823, 3.0362887, 0.6839414, -0.15401642, 0.042837758, -0.31300154, -0.9811237, -0.60994625, 1.2290142, 3.138288, -3.7518685, 0.92610306, 1.5432752, 0.038697846, -1.4751731, -1.8504947, -2.1831865, -0.1774225, -0.0056899497, -3.794843, 2.9739084, -0.123473115, 0.3757466, 0.043645386, 0.09357162, -0.017985187, -0.026650693, -0.84845436, -0.06972258, -1.0043364, -0.0007494533, -0.0616098, 0.9380386, 0.11258695, 1.0511597, 0.08356275, 0.043450054, 0.011444997, 0.03978573, -0.10036405, -1.0849538, -0.086547524, -2.567252, -0.11455988, -0.05000821, -0.021915924, 0.013041303, -0.020163797, 3.12632, 0.08135841, 0.041205276, -0.079141155, 0.058520064, 0.08137846, -0.040206973, 0.02979331, -0.108521365, 0.8133955, 1.0272394, 0.04417097, -2.131442, 0.09291252, 0.18008399, 0.021504449, -0.54055005, -0.07270866, 0.012792518, 0.017545853, 0.040942956, 0.006957827, 0.12601188, -4.184429, -0.3655228, -2.4829664, -0.5593704, 0.15917717, -2.1298728, -0.33642024, -0.18400891, -1.1629596, -4.901316, -0.13115263, -0.9909544, 1.6528804, 1.0049471, 0.10788712, -0.037615348, 2.6236897, 0.21390904, 0.045855865, -0.0026511205, -0.023040097, -1.6114688, 4.517691, 0.017957563, 0.30761853, 0.29154527, 0.14117166, -0.5721538, 0.15524761, -3.6727004, 0.032288946, 0.14324576, -0.03476073, 2.8442924, -0.082003176, 0.010780966, 0.016894186, 0.5073814, -0.02242608, -0.1980614, -2.7770844, 0.026554324, -8.072866, -0.052817836, 0.022825856, 0.23712988, 0.035206843, -0.14400087, 0.051156797, -0.021454876, -0.79535943, 0.8567946, 2.1908662, 1.141496, 0.12679818, 0.1755649, -1.2915497, 0.13136154, -1.8088806, 0.17392041, -0.8962373, -2.1170368, 1.8179615, 0.0007928957, 1.0252968, 2.0106604, -0.28564677, -1.658283, 0.930705, 2.5673125, 1.3045624, -0.5272752, 0.0017133801, 1.1443603, 1.8633047, 0.018880961, 0.047885317, 0.11044533, 0.06699859, 0.25185546, -0.03354042, -1.1816171, -0.07043105, 0.105475046, 0.13024254, 0.216581, 0.4456856, -1.1548936, 0.042098906, -0.6840861, -1.4907888, 0.073259465, -0.021946937, -0.61593914, 1.5255493, -0.68275166, 0.21310486, 0.18263528, -0.52164966, -0.046934944, 0.18284197, -0.11432267, -0.19124901, 0.3141967, 1.4289682, -1.283416, -1.1988175, 0.92709446, -2.1809852, 0.024978697, 0.076996155, -0.8145334, 1.6424404, -0.7602131, 0.77334464, 0.12562113, -0.43267062, 0.0030617013, -0.0154569885, -0.18772501, 0.8118219, 0.09031181, -1.217601, 0.21797551, 0.0041946787, 0.28542796, 0.108544625, 2.97705, 0.1317217, 0.07022488, -0.3122623, 1.8071212, 0.4337321, 0.15560466, 0.021632815, 1.6382544, 1.2073591, 0.34696746, 0.4377954, -1.9019175, 0.493199, 1.7440213, 0.19786637, -0.45486152, 0.25585935, 0.480737, 1.3341702, 0.18826996, 0.11651328, 1.670907, 0.101421066, -0.041535538, -0.06542884, -0.07177197, 0.0019099574, 1.1331807, -0.44047213, 0.036701646, -0.3848729, 0.036686536, -0.041240804, 0.14668664, -0.026327666, -0.7197952, -0.022697574, -0.12291363, -0.065379865, -0.034531895, 0.12167473, -0.06613123, -0.027370162, -0.5110219, -0.020305967, 0.060342893, 0.09624255, -0.018957445, 0.12928046, 0.87937975, 0.41908032, -0.27115324, 0.09047945, -0.026079934, -0.020984344, -0.015877154, -0.17470501, -0.030673796, -0.61632353, 0.41570225, 0.016828308, -0.20175837, -0.05796307, 0.08712074, -0.11250398, 0.064969994, 0.074019685, 0.0886246, -0.018090224, 0.088106185, 0.1149199, -0.06823396, -0.1033873, 0.028038561, 1.2763406, -0.22845387, 0.017461147, 0.5016085, 1.8769273, 0.05867239, -0.80377275, -0.32325214, -0.031686228, 0.1734087, 0.09919491, -0.02611362, 0.1390734, 0.026021365, -0.22317865, -0.011455434, 0.03207762, -0.76580304, 0.29827854, -0.24985749, -0.9442581, 0.37110144, 0.19410835, 0.40083903, 0.046376146, -0.119711354, 0.14952892, 0.9032591, 0.04228412, -0.76787466, 0.09189648, -0.5003539, -0.12730475, 0.014739274, 0.18022382, 0.36437497, 0.25253534, 0.18619606, 0.28010848, 0.78516704, 0.033630196, 0.033362232, -0.07111756, -0.0015294866, 0.15164198, 0.15212013, 0.059224334, 0.23206271, 0.24790442, 1.7443986, -3.4029176, -1.2569897, -0.02885715, -0.12493852, -2.8060503, -0.014619829, -5.4797144, -0.34616232, 5.394703, 7.099055, 2.6528323, 0.08848012, 3.9688156, -0.5148879, 2.611617, 7.316656, 1.0567694, 0.6803527, 0.2089171, 4.3433, 4.9566903, -0.09750329, -1.1724025, 0.31794715, 0.037925594, -0.12032292, 0.0035147788, -0.05957748, -0.9457709, -0.42477798, -0.07170304, -0.15166971, -0.0952237, 8.609501, 1.2200402, -0.35723135, -0.049473394, -6.263046, 6.358767, 0.9161633, -0.0034645232, -1.72941, -8.223996, 1.5681328, -0.08427011, -0.07983339, -4.8489404, -0.056817632, 0.9344706, -2.5191658, -0.2455401, -0.82984203, 8.030547, -1.1724827, 2.21214, 1.8971491, -2.1651888, -0.022232564, -0.10978856, 0.0646836, 1.939337, -1.8990515, 3.329908, -2.7089972, 6.957781, -0.9696546, -0.31323874, 0.49967092, 1.5323701, -0.12922685, 1.8702804, 0.02680776, 0.45358166, -0.73306596, 0.0637167, 1.1913126, 0.007832873, -0.13104172, -2.0395126, -0.68300116, 0.014001772, -4.627946, -0.49855027, 2.1893716, -1.0164201, -1.4465318, 0.35806495, 2.720738, -1.6477387, -0.0123633975, -0.10379067, 5.7239084, 2.0183675, 4.345435, -2.0066755, -0.20854858, -1.8032379, 0.9915092, -0.018558914, -0.01369588, 0.07432172, 0.017428135, -0.1237749, -0.15770794, -2.3403842, -0.05975946, -0.70736104, -0.14062795, 0.027467031, -1.2852768, -0.022941887, -0.42572784, -0.08465729, 0.056608178, 0.02347435, 0.07687563, -0.024506202, 1.0715841, -0.10582122, -1.9814018, 0.087842, 0.18305182, 0.0073840385, -0.02757206, 0.093260646, 0.5930141, 0.18148188, 0.07728079, -0.096519455, 0.08473794, -0.05195304, 0.1185712, 0.01055245, -0.10636065, 3.2177703, 0.74411094, 0.060184695, -2.2443497, -0.03767075, 1.4428433, 0.035501886, 0.059852216, 0.04076502, -0.11965639, -0.015633129, -0.051386826, -0.08262351, 0.0880353, 0.06272851, -0.30070788, -1.1126593, -0.2463498, -0.039858587, 3.9754415, 4.585373, -0.082096174, 0.504099, 8.473675, -0.0927794, 0.119675905, 1.2943059, -0.5223963, -0.12185466, -0.1273394, 0.1334934, -0.15754187, 0.030599872, -0.48299327, 0.025446419, 2.7208688, -6.767349, -0.03536055, -0.0436623, -0.40018812, -0.0929777, 1.1764569, -0.0058453754, 5.3326664, 0.060678303, 0.41513643, 3.1096547, 3.8485215, -0.15334196, -0.03410609, -0.10824215, -0.82284, -0.09271674, -0.10076753, 2.1699016, 0.23194817, 10.167783, -0.14210708, 0.010270362, -0.16941224, 0.054632798, -0.08676741, -0.1321024, -0.02424992, -0.8168891, -3.2844758, 1.350952, 0.9989635, 0.007395214, 0.29962882, -0.052381624, -0.1215683, 0.518525, 0.12812962, -0.9069967, -0.7056181, 0.49326667, 0.1356092, 0.8257382, 0.50423914, 0.12575576, -1.5101293, 0.53361523, -0.498358, -0.06118304, 0.007458475, 0.31817743, 0.7977082, 4.2865024, -0.29589683, -0.058300655, -0.13501471, -0.051140405, 0.1823622, -0.6604052, -0.73225385, 0.12237242, -0.024718525, 0.041079212, -0.57683694, -0.6225247, 0.9436258, 0.04802532, -1.9597398, -1.3978394, -1.2550098, -0.13921931, 1.2903372, 0.30399138, -1.1675893, 0.1524427, -0.0142763695, -0.21416181, 0.1535908, -0.44565433, -0.16867027, -0.034179613, 0.25758457, 1.01061, 0.69261104, 0.0028539884, 0.01501807, 1.0129795, -0.013296121, 0.05447214, -0.53341764, 1.0037953, 0.6073153, 0.35808352, 0.15915953, -0.4333888, 0.35044348, 0.32863718, 0.8537594, 0.6769188, -0.064371906, -0.3409119, 0.36703378, 0.20208558, -0.06583101, -0.14871255, 0.823667, 0.11222001, -0.051147208, -0.0022281336, 0.7188759, 0.43817312, 1.6337701, 0.33834574, 0.8769298, 0.030463748, 0.14009546, -0.3532666, -0.8583397, 0.27472392, 1.4111962, 0.23563746, -0.91856563, -0.17281711, -1.2518468, 1.177531, 0.15240337, 0.39068392, -0.43182924, -0.045183256, 0.07044403, -0.051555492, -0.08173522, -0.2092184, -0.046063792, -0.110917434, -0.006140279, 0.11208351, 0.002744845, -0.040460087, 0.050690025, -0.035317603, -0.55099213, -0.18552995, -0.05586904, -0.042204488, 0.054243818, 0.11429174, 0.6295666, -0.09811946, -0.89454657, -0.0019050835, 0.033484872, -0.02345583, 0.085250914, -0.0010953121, -0.6522919, 0.25688413, -0.06619475, 0.054421604, 0.016402742, -0.056804813, -0.0037450253, -0.09381738, 0.04554115, -0.26833662, 0.30254894, 0.030999983, 0.5888133, 0.060120102, 0.4437867, 0.04823495, -0.5094364, 0.06342337, 0.07410323, -0.03253197, 0.0061894404, -0.03514954, -0.40361914, -0.88749224, 0.47984028, 1.3562622, 0.29548892, 0.09875544, 0.8376269, 1.1167164, 0.17824765, 0.47059587, 1.607874, 0.16108595, -0.040690105, -0.68537587, 0.4426722, 0.11912939, 0.17439793, -0.16175598, 0.3062846, 0.27135614, -0.05014469, -0.028766898, -0.16453578, -0.5028945, -0.061021697, 0.19606555, 0.29058713, 0.08832284, 0.982653, 0.06031043, 0.22808081, 0.12847498, 0.5018996, -0.26757875, -1.0733474, 0.12728797, -0.04442419, 0.27683634, 0.2671378, 0.15575555, 0.16715498, -1.0752666, -0.25902817, 0.8106995, 0.15382342, 0.20327668, 0.19274239, 0.44324905, 0.043447632, 0.40584236, 0.0675233, 0.017156668, -0.873424, -2.2818158, -1.1871922, -0.23381796, -0.14020255, 3.090638, -0.091357574, 1.3042847, -0.22867936, 6.3677087, 3.2591758, -0.5616328, 0.066829704, -1.5341289, -2.1415043, 0.76573306, 3.0831256, -1.0052835, 0.93853325, -1.0359415, 0.8875893, 1.2691168, -1.140152, -2.009344, -0.048386406, -0.038981766, 0.015629552, -0.04348497, -0.04801111, -1.0528398, -0.53425163, -0.16134714, -0.0633422, -0.2017745, -0.39713255, 0.41792354, 0.19041583, -0.18287465, -1.6185179, 4.004508, 0.32111207, -0.12611079, -1.239817, -3.511082, -0.18821241, -0.10646255, -0.116971396, 0.27558333, -0.22273363, 1.0022422, 0.27813157, 0.10375437, -2.3732646, 2.934425, 2.3949292, -4.9914346, -0.16758889, 4.44206, -0.040207516, -0.027835377, 0.012188315, 0.15516132, -1.0724484, 1.3067105, -2.7683089, 2.0396109, -0.033973828, -0.14422396, -0.050160106, 10.5505295, 0.31993294, 0.84826505, -0.25747293, -0.039901167, -0.21208793, -0.059970856, 0.08593701, 0.18679121, -0.15838136, -4.1040754, -0.9143008, -0.7013353, 0.70994776, -0.038105085, -0.33119604, -1.5230327, -2.6599402, -1.6883255, 1.2315582, 0.060503572, -0.1583303, -0.07692442, -0.94771, 2.900668, 2.5829225, -0.12159152, -0.1322983, -1.1376554, 0.5693533, -0.1603804, 0.009908518, -0.071204506, -0.04334687, 0.16335946, 0.02519575, 2.7252686, -0.16689749, 0.40264443, -0.10419429, -0.020299241, -0.5052904, 0.037845, 0.058213178, 0.09786304, -0.1127735, 0.052369107, -0.004578744, 0.00022807137, 0.12125426, 0.015323353, -0.6998573, -0.10398359, -0.058110498, 0.019643703, -0.055712372, -0.08396241, -0.86263067, 0.061864533, 0.10164174, -0.029093953, -0.07245021, 0.1341862, -0.14985214, 0.15262847, -0.026737954, 0.4781834, 0.04627104, -0.0282209, 0.4512373, -0.05474303, -0.6590875, 0.10978333, -0.24397364, -0.060354028, -0.099978924, 0.053573713, 0.021960383, -0.09067195, 0.12132956, 0.16647705, 0.17216207, -0.18468101, 0.21332164, 0.0036370226, -0.4677868, -2.2256238, -0.06116968, 1.5939525, 0.07129768, -0.11623535, 0.025244487, 0.1386061, -0.49548003, -0.10339684, -0.1309154, -1.0276756, -0.1395985, -0.08652339, 0.36870667, -0.21369867, 1.3613969, 0.58276385, -0.24431694, -0.1603908, -1.0875313, 0.0066027013, 1.2227497, -0.24991852, 3.518026, -0.15587321, 1.0306098, -0.47186172, 0.29581237, -0.19838043, 0.015361569, -0.07878113, -0.32910866, -0.14820544, -0.09853441, 0.74252725, 0.35703212, -0.17824477, -0.1569082, 0.02166737, -0.1653011, -0.042534318, -0.10342693, -0.19526714, -0.12946852, 0.17084213, -2.8217752, -1.7767586, -0.993134, -0.0650599, -0.115137026, -1.665226, -0.11320938, 3.7987278, -0.08714837, -2.1005166, 3.264708, 0.6505293, -0.12862322, 3.865913, -1.0332894, 1.1817814, 2.6307464, -2.1448016, -0.6845775, -1.5846261, 3.76915, 0.38772646, -0.854642, -1.1345145, -0.5572796, 0.023562374, -0.021470193, 0.020239498, -0.048001505, 4.757726, -0.10433212, 0.04982186, -0.017661203, 0.07031673, 1.0095726, 0.022585746, 0.43419242, -0.034709353, -0.7702894, 5.4210014, 3.1617312, -0.032486174, 1.4772356, -5.6602435, -1.3725771, -0.07296034, -0.11778762, -2.5941575, 0.06326167, -0.16800039, -1.7661088, 0.20698906, -1.0349894, 2.4847746, -1.3986424, 0.7963205, -1.5678014, 0.105772935, -0.2864826, -0.12987202, 3.1737463, -0.63344175, -2.5147321, -3.7108698, -3.1667273, -1.9379959, 0.20807198, 0.19680247, 0.46738052, 10.168532, -1.2015759, -2.222176, -0.04763484, 0.45883307, 0.28969643, -0.067594595, -0.11080182, -2.1576033, -0.15066211, -5.194015, -0.5824792, -0.036074985, -0.6322599, 0.20229802, -3.9890158, 0.20373274, -0.4050227, -3.8760798, 7.026443, 1.0361938, -8.082971, -0.5544242, 1.3124125, -4.869502, 0.03322043, -0.798902, -0.1433432, -1.6716942, -2.2509837, -0.055153184, 0.065762125, -0.049459565, -0.032371983, -0.10972919, -0.23286252, -1.6168343, -0.01341262, 2.199301, -0.059964173, 0.03146803, -0.4890749, 0.062342472, -0.39943543, 0.056717895, -0.05326071, -0.016529767, -0.102449045, -0.12246968, -0.2781473, -0.15288322, -0.5558739, -0.027072737, 0.068145715, -0.05065443, 0.054578748, 0.06505111, 0.10954755, -0.1410308, 0.044709302, 0.02976305, -0.012503814, -0.111810796, -0.08804199, -0.0063784947, -0.059156563, 1.2898707, 0.16667254, -0.0188074, 0.045521747, -0.18475942, -0.4627651, 0.041854173, -0.26524174, -0.075108886, -0.03600621, -0.024248822, 0.038362287, -0.10043444, 0.10021047, 0.5097892, -0.50336444, 2.3835511, 0.64163405, -0.050275486, 3.7419171, 0.9276748, -0.052752428, 1.1904342, 0.76525307, 0.05842109, -0.007041169, 3.8515985, -0.44289118, -0.98768985, -0.04767857, -0.7915798, -0.36333862, 0.018058328, -0.1741054, -0.010066834, -0.44068348, -6.77028, 0.049454644, -0.15141985, -0.4458646, -0.07897045, 0.13539338, -0.08496256, 2.4938257, 0.048944257, 0.88457775, -2.4752839, 0.37187687, 0.03882913, 0.01309817, -0.028886903, 0.8234722, -0.08850361, -0.035397533, -1.8205398, -0.9207669, -0.8695769, -0.06255169, -0.025911918, -0.06542675, 0.044507742, -0.1439117, 0.028019922, 0.12057049, 0.36710572, 2.1687677, -1.9237076, -1.3259083, -0.14336774, -0.08383141, 1.8761616, -0.008390601, 2.6399453, -0.05816269, -3.1690784, -1.0301224, 1.1852156, 0.09266244, -1.0062736, -0.0024154882, -0.084397025, 0.7592393, 0.6176738, 0.027211403, -1.8533847, -1.4114442, -4.1733565, 0.11697589, -0.5361825, -0.7692696, 0.092321664, -0.0667837, 0.6885481, 0.020412598, 0.46881953, -1.2540241, 0.008657921, -0.011551031, -0.004800361, -0.902546, 1.9233655, -4.147597, -0.039393824, -1.2551106, -3.057745, 0.66524035, 0.043131575, -6.3609033, -2.249212, -0.55389506, -0.036764644, -0.19625689, 1.2155395, -0.0002834642, 0.024578156, -6.8127685, -0.8633743, -0.42320594, -3.313713, -3.6113234, -0.61514133, -1.103085, 0.420894, -0.7469557, -1.2026142, -2.1722367, 4.788166, 0.56011266, -0.31096, 1.9200127, 0.43037647, -1.0862701, -0.62728107, -3.2122288, 4.411994, -0.9606218, -0.023587374, -0.33657295, -0.0026286908, 1.4950162, -0.03807593, 1.257178, -2.171263, -1.3174815, 3.8708074, -2.3355553, -0.05327795, -2.5459375, -0.88449925, 1.9545199, -4.7922125, -2.7865243, 0.12908784, 4.0849786, -4.4397273, -1.0200588, -1.6040252, -2.1631904, -0.52744704, 5.455297, 0.30389887, -0.2759995, 0.63116103, 1.1728865, 0.042423815, 0.510615, -0.011886984, 0.024509948, 0.022134915, -0.075954095, 0.2400536, -0.09250083, 1.7612256, -0.110987365, -0.036352262, -0.021251252, -0.016378792, -1.129708, 0.0512372, 0.08073195, 0.023427099, 0.037352115, -0.011716466, 0.41846082, -0.19166192, -2.389693, -0.06324567, 0.11803621, 0.05131867, -0.12696666, 0.04548632, 1.7473018, -0.020764345, -0.0021057213, 0.0028307831, 0.13024764, 0.03463571, 0.02886685, 0.015886001, 0.070425935, 2.081875, 0.7728037, -0.06418876, 1.0009681, 0.11125275, 1.3355289, -0.033939857, 0.009875627, -0.07762254, -0.07467986, 0.0340693, -0.073321946, -0.10604919, 0.05678864, -0.28294298, 0.4695114, 3.7419665, -2.0089297, 0.10470377, -1.7013633, 0.3181155, -0.0743473, -0.3861203, -3.9598238, 0.10095006, -1.1591862, 0.72134846, -1.0300184, -0.43307728, -0.13090812, -0.04875162, -0.83510953, -0.5041685, 0.30578694, -0.042379357, -0.8135305, 1.1328146, -0.06650025, -0.39082637, 2.1758018, -0.0791226, -6.627744, -0.26933128, 1.4611704, -0.079638086, 1.9698288, 0.5912386, -0.26889396, -0.15017714, 0.029352056, -0.037305143, 2.6433828, -0.094819054, -0.45300803, 0.8556477, -0.18655264, -3.0496094, -0.0019346889, -0.011954227, 0.017262207, -0.13159738, 0.032277245, -0.038086485, -0.07454663, 2.7170374, 2.29829, -0.57134753, 0.22088994, 0.056456815, 0.04672132, 2.7064817, -0.057168506, 0.60469186, -0.030286437, 0.42580417, -1.1273328, 2.7811923, -0.06787558, -3.0957694, -0.19790377, 0.3661196, -1.6259638, 0.49823463, 0.46016762, 0.028321195, 0.33384296, -6.0339937, -0.6105531, -1.2672968, 2.5188527, 0.021743217, 0.10225193, 0.020312872, 0.017252455, -3.032749, 1.5879894, -0.10372912, -0.03947045, 0.12585883, 1.5518035, -1.3823458, -0.904442, -0.011671066, -0.084533826, -0.63953084, 7.291306, 0.15065384, 1.1779402, -3.9960833, -2.0322595, -0.048957396, -0.073514804, -1.7048223, -0.053216543, 2.1318376, -0.22505265, 0.5331992, 0.01188661, 1.1582366, 0.21131112, 0.029275957, 2.4887228, 2.5354853, -0.06995603, 0.035003934, -0.15228188, -1.7529584, 0.15999374, -1.0605478, -1.2059017, 0.41393465, -0.4951268, -0.05122991, 0.6499836, -0.23190582, -0.5503608, -1.6997596, 0.025620947, 0.1614156, 0.79552174, 0.025323767, -5.5328946, -0.1700264, 0.15696439, 1.6756359, 1.0674206, -0.03254743, 0.38832632, 0.43325394, -6.3842807, 1.4757819, -0.033142135, -1.324262, -0.92100567, -0.2515146, 1.7085766, 0.081016324, 0.7864703, -0.55388826, 1.8896166, -0.78620136, 0.14941734, 2.6291156, -3.0601022, 0.11912963, -0.99385935, -0.02359767, -0.17593154, 0.07499185, 0.33551177, -2.7176092, -0.03100697, 1.4322366, 0.13912334, 0.03271499, 0.068236925, 0.14954142, -1.8294104, -0.032291938, 0.039254252, 0.052814342, -0.0004183239, -0.046049837, 0.1418536, 0.05832487, -4.1633716, -0.14569917, 0.09921628, -0.0064118556, 0.09629744, -0.01646832, 2.3059893, 0.87451535, -0.0033795724, 0.041197825, -0.00011362619, -0.047296863, 0.02455881, 0.030814013, -0.10319948, 2.7812052, -1.0154582, 0.12665178, -0.22849034, 0.05196391, -0.7908285, -0.10305846, 0.08938164, 0.10298164, 0.042686105, 0.037530664, 0.04381422, 0.03993017, 0.10246565, 1.371432, 0.3914275, -0.72603536, 1.4980674, 0.032458626, -4.724395, -1.6391183, 0.024301833, -0.1518872, 2.4699001, 0.20750833, 0.19097991, 5.309706, -0.5225504, 0.14784795, 0.14637233, -0.74987733, -0.1252573, 0.011230778, -1.2035435, 0.01226613, -0.40412027, -1.6325097, -0.003283372, 0.08515605, 1.4325259, 0.10161434, -0.65528333, -0.050480638, 2.9024694, 0.07703015, 0.040416036, -0.9087592, 1.5118536, 0.086554684, 0.11120034, 0.08790295, -0.42884615, 0.18129948, 0.2969959, -0.21646602, 0.92523295, 0.97494006, -0.055182096, 0.13775064, -0.012557577, -0.007970637, 0.03901417, 0.25709915, 0.10317178, 1.4170716, -0.7930841, -2.2077963, -1.3726512, -0.15304308, -0.028725144, 0.39541376, -0.1336772, 1.182882, -0.13265236, 0.5569024, 1.8626194, -0.16536911, 0.08021628, -1.3633718, -2.028124, -0.20531446, 1.8062371, -0.65167385, 1.2631878, -1.1817033, 0.40658903, 0.25084347, -1.0523447, -2.0033588, -0.041686896, -0.058121745, -0.07507415, 0.108035326, -0.12446486, -1.4621011, 1.8453453, 0.007721707, -0.30165246, -0.07194925, -0.39790508, 0.16664779, 0.4956114, -0.22351147, 1.0283505, 1.9067394, 0.9357816, -0.13048305, 0.68891335, -0.25165865, 1.8009226, -0.13660173, -0.12913856, -0.5069728, -0.00566354, -0.0038587365, 0.31321418, 0.046517447, -0.13518517, -1.3540946, 0.10588054, 1.2176965, 1.7384712, 0.846871, -0.13310778, -0.42313713, 0.22444288, -0.71153533, -1.511988, 0.032182507, -1.0158198, 0.5000035, 0.045060143, -0.17329553, 0.06488357, -2.3457308, 0.19753867, 0.5530156, -0.89110273, -0.05182828, -0.1991502, -0.011253174, -0.72177523, 0.065237306, -0.16070168, 0.2519617, -0.2570326, -0.61889416, -2.9741595, 0.040186543, -0.29695648, -0.43058744, -0.379337, 0.4426062, 1.4114429, -0.686622, -1.3474537, -0.14146435, 0.96707726, -0.6268849, 1.4621966, -1.6586517, -1.501294, -0.4155235, -0.33297223, -0.015339718, -0.21436056, 0.09424399, 0.1414359, 0.19716805, -0.41464657, -0.06847498, -0.2458955, 0.028899023, -0.08532584, 0.06493273, -0.15816808, -0.014641408, 0.7876187, 0.027424106, 0.11430662, -0.0142728565, 0.06370254, -0.18813162, -0.21356952, -0.11713595, -0.2553231, 0.20555, 0.032812838, 0.07077343, 0.032778136, 0.035562824, -0.77872187, 0.055427942, 0.049109947, 0.057369392, 0.010932467, 0.09324125, -0.1128108, 0.03797308, 0.069161475, 1.3728864, -0.113079414, -0.06631254, 0.12211334, -0.003846454, -0.23343898, 0.1477678, -0.14818735, -0.09859502, -0.07024299, 0.25888288, 0.12846018, -0.116972856, 0.021628091, 0.17718594, -0.11421632, -1.3424095, 0.30923578, -0.06950641, -0.79064137, -0.5188428, -0.11134564, -0.6799725, 0.1906101, -0.2053871, 0.048577506, 0.08109562, 0.57268053, -0.086908504, -0.06382794, 0.33677962, -0.10841926, -0.28101906, 0.46669248, -0.20976354, 1.5062677, -0.92008626, -0.25535715, -0.28606096, -0.28027308, 0.15206178, 0.21770673, -0.039017845, -0.23042105, -0.27258995, 0.05985381, -0.33773452, 3.0762978, -0.05225183, 0.14791848, -0.22621398, 0.2332671, -0.17316628, -0.1506268, 0.33907112, 0.4104256, -0.30643862, -0.43585268, -0.14497203, -0.25445604, -0.15925708, -0.30121753, -0.19442518, -0.08639244, -0.23370317, 0.20743449, -0.10730088, 1.332553, -0.26730368, -0.3377, 1.9314436, -0.34769177, 2.0185416, -0.016908143, 1.5208943, 1.7324393, 1.0249304, 0.019889096, -0.8777359, -0.72687936, 0.36546642, 1.6125219, -0.5949952, -1.1818868, 0.4298107, 0.50823426, -0.3548631, -1.0756116, -1.0934582, -0.06741543, 0.16073847, -0.15678158, -0.02251814, -0.13285396, 0.40630347, 1.328207, 0.0072709746, -0.478883, -0.1414801, 0.52894473, -0.551499, -0.011295135, -0.24030897, 0.56564075, 2.5623636, 0.79902893, -0.747693, -0.28768486, 0.10269721, 1.4632086, -0.16306205, -0.056111168, 0.595466, -0.30459607, -0.20894507, 0.050885774, 0.09662398, -0.105596475, -2.7467155, -0.0125703635, 0.25920004, -2.5543222, 0.5433565, -0.25613803, -1.0932947, 0.11509762, -1.1895039, -0.21024792, 1.3088583, 1.3299282, 1.6477668, 0.09612141, -0.42570135, 1.186053, -0.27073613, -0.031483367, 0.43325782, -1.2758002, -0.38801858, -0.15300068, -0.009841049, -0.35320157, 0.021443954, -1.0853717, 0.73024815, -1.2400751, -0.8244162, -5.3895082, -0.5067099, -1.8877805, 0.05736473, -0.5010928, 0.9593436, 1.9304122, -1.5931444, -1.0940504, -0.45799434, 1.4296662, 0.7408085, 1.1287739, -3.2260625, -1.5043969, 0.6457588, -0.7416979, -0.033966187, -0.48344484, 0.031820953, -0.045192428, 0.046202123, -0.08601379, 0.12968609, -0.12086766, -0.6125034, -0.12528838, -0.086936824, -0.5620267, -0.07428645, -0.2513484, 0.12453866, -0.051798135, 0.0055878228, 0.115195446, -0.22485644, 0.028726136, -0.16056672, 0.11462033, 0.016919402, 0.09295187, 0.16211985, -0.03839981, 0.006623246, -0.2985469, 0.011307475, 0.041610796, -0.045473777, 0.13759464, 0.11692492, 0.08741498, 0.06849633, 0.02251852, 0.4477188, -0.10533101, 0.035198748, 0.10606433, 0.09230124, -0.35402137, 0.19269137, 0.22718753, -0.08876589, 0.09024708, 0.32506254, 0.09037746, -0.111224495, 0.31209022, -0.43294796, -0.24677919, -1.7881895, 0.15546662, -0.0129626645, -0.78319484, -0.94864976, -0.6940292, 0.8004746, -0.09436483, -0.15556037, 0.12772824, 0.21000129, 0.20086639, -0.8966654, 0.07807148, 0.44388935, -0.2161784, -0.22670136, -0.032436527, -0.55942184, 0.06164757, 0.7743816, -0.45555383, -0.47124138, -1.0600185, -0.050743196, 1.4114083, -0.40348986, -0.3086381, -0.4285757, -0.017328432, -0.29041722, 2.1304398, -0.47569817, 0.07735863, -0.074206255, -0.93571573, -0.4006363, -0.08748451, 2.3544736, 1.174239, -0.040399216, -0.39861572, -0.10441024, -0.22476888, -0.4180648, -0.40698728, -0.45052126, -0.22212218, -3.0691917, 0.9332107, 2.1116364, 1.3225588, 0.09480457, 0.056686573, 1.5481367, 0.062172297, -0.6682837, 0.26827332, 0.1381866, -4.21626, -2.0415032, -0.027190907, 1.683142, 2.0228763, -0.47619691, -3.0413444, 0.36108658, 1.4453691, 1.284952, -2.66576, 1.9902873, 0.9515276, 2.061766, -0.06934945, 0.022056788, 0.031698182, 0.001758097, 0.09025621, 1.0342643, 0.10741628, 0.17024067, 0.023657888, -0.00556338, 0.24928191, -0.63808954, -0.5519788, 0.035659295, -0.7140291, -2.3514407, 1.8359216, -0.0063843345, -0.97560996, 1.3798546, 0.61049694, 0.17552789, 0.053248566, 2.4096024, 0.043489035, -0.12954208, -0.5264979, 0.037486807, 1.772646, 2.77371, -0.5008055, -2.526752, 0.7643872, -2.2403467, 0.018421859, -0.043902695, -1.3240844, -0.5027281, -0.23303467, 2.1728687, 0.63389975, 0.279264, 0.3173875, 0.18317583, -0.06551634, 1.339372, -0.07840235, 0.39159533, -0.030684914, 0.35268745, 0.19250946, 0.04878913, 0.9626362, 0.4033922, 0.12089637, 5.414942, 0.11365009, 0.049626566, -0.38899627, 0.06251987, 1.1585741, -0.63708097, 0.9191572, 1.1101918, -3.2886207, -2.4060535, 0.51290554, 0.13993253, -0.4982241, 1.2679327, -0.7537955, -0.29619992, 0.06449165, 2.9503694, 4.468058, -0.049600232, -0.19647144, 0.08125937, -0.016983911, -0.0402679, 0.11703112, -0.0074515105, 0.16771996, -1.4297359, 0.0694735, 0.021341966, 0.46179283, 0.025325594, 0.01710804, 0.0010942112, -0.09287865, -0.044653, 0.017624047, 0.0064037032, 0.20044121, 0.027190045, 1.89438, 0.09547494, 0.01645239, 0.03207115, 0.1067364, 0.070882894, 0.6532719, -0.13193431, 0.06659793, -0.027797159, -0.10855275, -0.12197864, -0.09257853, -0.102794126, -0.1978979, -1.144055, 0.45651135, -0.10714095, -0.14140789, -0.052994084, 2.8420079, -0.045579914, 0.1303462, 0.24201478, -0.0076374304, -0.08862216, -0.032780156, 0.04864363, 0.02831727, 0.16045503, 0.2967889, -0.38485575, -0.23368712, 0.027959028, 2.2800643, -1.5723827, 0.2606443, 0.43343744, -1.2061962, 0.09261862, 0.076397866, -0.23939072, 0.494162, 0.14208615, 0.11236818, 1.5671747, 0.014390857, 0.24531418, 0.26785684, -0.0017459337, 1.5383524, 1.9178352, 0.231671, -0.07274298, 0.5202162, 0.06612996, 0.48225808, 0.21779165, -2.2852108, 0.09246479, -0.28635266, 0.58961004, 2.244929, 0.06405355, -0.0028956512, 0.14281648, -0.91199577, 0.16512977, 0.0075087952, 1.297844, 0.8031145, 0.042033024, 0.088832915, 0.082413636, 0.2001434, 0.20462868, -0.03855535, 0.14319128, 0.03943738, 2.1150703, -1.0777438, -2.1208322, -1.2972555, -0.058976904, -0.14728801, 0.37286535, -0.13528876, 3.0564165, -0.058888055, 0.37864333, 2.4431279, -0.69987357, -0.0028634693, -1.0801213, -2.1654565, -0.21441196, 2.9303765, -1.2691885, -1.3901902, -1.2996012, 0.7548451, -0.30148995, -1.1619132, -2.104825, 0.07109754, -0.07076408, -0.07001175, 0.040594246, -0.048396427, 0.54561603, 0.82516855, -0.2117976, -0.23732314, -0.1558058, -0.17877708, 1.0401721, -0.20789973, -0.13149472, -0.5810446, 1.0739133, 0.98788, -0.100908235, 0.88937247, -1.7125161, 1.9108707, -0.16052361, -0.21754636, 0.55232775, -0.10245782, 0.10549567, 0.23364235, 0.09053412, -0.34277067, 0.48769423, 1.0731002, 0.8506695, 1.294871, 0.09076989, -0.08148593, -0.112694345, 0.6667845, -0.7192146, -1.3486453, 0.12375832, -1.2747672, 0.4199586, -0.035531666, -0.18996848, 0.13709515, -1.0585538, 0.5045308, 0.47675544, -0.94762605, 0.016483705, -0.188906, 0.14625101, -2.337937, -0.14863405, -0.22203365, -2.7479396, -1.139467, -0.5611988, -3.205899, -0.013833441, -0.814509, -0.23292604, 0.0893759, -0.1939392, 1.498723, -0.59507763, -1.2727439, -0.08999238, 0.75441754, -1.2520757, 0.4683301, -1.5960764, -0.18408628, 0.5460017, -1.3610158, 0.023080753, 0.74836826, -0.025751913, 0.17958081, 0.174549, 0.050458785, -0.014162133, -0.07329148, 0.7959412, -0.11904686, 0.0009863786, 0.27847096, -0.018208204, 0.33703417, 0.0072171213, 0.22132266, -0.10563502, 0.13918611, -0.110401854, -0.2725657, -0.025684882, 0.78668463, -0.26419628, 0.026992215, 0.026305562, 0.006797285, 0.06257001, -0.8156322, 0.07037323, 0.22461873, -0.17129011, 0.15715805, 0.18902558, -0.007981217, -0.04697357, 0.064061694, 0.4830266, -0.019190798, -0.014819007, 0.2559895, -0.047639802, -0.3615121, 0.11156024, -0.2768378, -0.1869778, -0.208917, -0.027568702, -0.0054397443, -0.07116531, 0.038467582, 0.21047236, 1.1445527, -1.4106312, 0.36009127, -0.04059736, -0.42877483, -1.6299778, -0.13596575, 2.454301, 0.31121793, -0.126528, -0.057395555, 0.28042653, 0.014490553, -0.17007984, -0.028575866, -1.195118, -0.0364802, -0.034354772, -0.58023995, -0.5277728, -0.4109966, 1.3090917, -0.29729122, -0.01704064, 0.5577808, -0.018480616, -0.10448281, -0.27486753, -0.7887221, -0.29621682, -0.8025679, 0.22953883, 2.8820004, -0.2010205, -0.075045004, -0.12052793, 0.5503606, -0.15829921, -0.22457834, -0.2973637, 0.28636223, -0.048688453, -0.65238494, 0.020645067, -0.18650703, -0.2359104, -0.34444577, -0.18021609, -0.2416916, -1.9398512, 0.8472432, 1.8347329, 0.8084958, 0.014250743, 0.12571123, -0.059566233, 0.009668938, -0.6142336, 0.16397153, -0.60118777, -1.6715717, -0.11953084, 0.031340774, 1.0890759, 1.9628601, -0.35634992, -1.1484137, -3.1777365, -0.6055905, 0.94677216, -0.39432254, 0.30768287, 1.0709466, 1.7107419, 0.07487868, -0.018741416, 0.13673884, 0.061549224, 0.115098655, -0.44083515, -0.6375693, 0.08724446, -0.0013263599, 0.18242945, -0.024953349, -0.19918054, -0.6458597, 0.108351305, 0.31827804, -1.6662971, -1.13247, 0.10949435, -0.09670879, 0.298138, -1.6345174, -0.025287183, -0.032984708, -0.84106386, -0.0049971193, 0.11353628, -0.1454532, -0.005321857, 0.16464998, 1.1510211, -0.17097904, 0.058439873, -0.2078395, -0.15861264, 0.056496575, 0.1780467, -0.2838782, 0.9663994, 0.873636, 0.07545224, 0.62421334, -1.1180525, 0.039151814, 0.037161246, -0.21087642, 0.3696801, -0.95390975, -0.6787492, 0.18437798, -0.018896144, 0.23486166, -0.021316146, 1.1431304, 0.11163189, 0.13740805, 0.40223387, 0.58600456, 0.030265598, 1.5432944, 0.07636215, 0.6365063, -0.4765445, 0.41870108, -0.7960745, -1.2634784, 0.600161, 1.2574301, 0.19984835, -1.0815765, -0.25434002, -1.4243084, 0.53993744, 0.0051426003, 0.23813078, 0.16062723, 0.033657294, 0.22775151, -0.052521423, -0.059407238, 0.048168495, -0.32574767, -0.04456028, 0.022586167, -0.0056981915, 0.020297544, -0.071307324, -0.0013091654, -0.038968824, -0.62184787, 0.05952364, -0.14000978, -0.0884783, 0.051176626, -0.10536016, 0.05702869, 0.041402504, -0.8799377, 0.0071075247, 0.04139587, -0.08892633, 0.06994526, -0.063179284, 0.9472492, -0.6346296, -0.23491053, -0.08008459, 0.098438144, 0.032235682, -0.15742235, -0.08323413, -0.041283194, -0.8854754, 0.28073072, -0.076773345, -0.22713837, 0.06274313, 0.37889984, -0.046639718, 0.20127802, 0.07924415, -0.018566387, -0.019874603, -0.0042639845, 0.1221715, -0.031249736, -0.14687064, -0.015004714, 0.5706205, -0.23503928, 0.016362755, 0.89403254, 1.3328629, 0.00059470115, -0.44681638, 0.12064121, 0.05989496, 0.14788096, 0.07052626, 0.07212599, 0.041659668, 0.031383272, -0.32450336, 0.103506796, 0.048866116, 0.30752116, 0.083763935, -0.38923138, -1.0570579, 0.016204799, -0.0026983211, 0.5140741, -0.21216571, -0.08220588, 0.0458731, -0.37726352, 0.08340085, -0.6717081, -0.16997647, -1.050897, 0.0034999438, -0.08658464, 0.16880406, 0.27099726, 0.07085643, 0.3816816, -0.78582567, -0.75183094, 0.19185056, -0.0077614556, 0.17119132, 0.10737606, 0.05870933, -0.049535852, 0.27118492, 0.037457544, 2.3131785, 3.8759596, 2.8190475, 0.13715439, -0.009401699, -0.11376693, 0.623266, -0.024623103, 2.232332, -0.051814765, -0.38810727, 0.39367118, 0.8844723, -0.061652377, 0.2699596, 2.8606477, 0.43982577, 2.042087, 0.39914986, 5.6605783, 1.1237698, -1.1512059, -1.34449, 0.93890065, 1.7744323, -0.18550617, 0.018780943, -0.07292569, -0.0054932036, -0.169798, 3.2797554, -1.8149182, -0.03953421, -0.049097463, -0.19470704, 1.7213199, 4.1329074, -0.3263916, -0.15402488, -0.79603577, 1.1180884, 1.645065, -0.0740187, -1.3514404, 2.0200162, -6.945718, -0.252894, -0.1694816, 1.1308568, -0.06324312, -0.20576517, 0.69470763, -0.28467157, -0.4034836, -1.0704964, -11.278893, 0.76186126, 1.5278937, -1.2232515, -0.06295874, -0.08722257, -1.5394485, -0.49384692, -1.9033884, -0.46932974, 3.653478, 0.36570293, 0.009476412, 0.84707886, -0.35664165, -0.07539841, -0.5153383, 1.6300467, -0.090428755, 0.072082005, -1.2523614, -0.020577546, 8.751463, -0.3397591, -0.27601585, -4.547584, -3.34048, 0.060858704, -0.951166, 0.084175676, 2.3871877, 1.2826803, -3.2398453, 5.71907, 4.3341765, -10.180637, -0.84897965, -0.07710903, 0.19338806, 1.1412663, 5.2705965, 7.2054186, -0.14272626, 2.4145892, 6.5729666, -0.16013424, -0.24778095, 0.03950429, 0.08471782, 0.08160883, 0.9693907, 1.0868185, 0.0065350174, -2.0825183, -0.02601668, -0.09132482, -0.20745665, -0.047872394, 0.070139535, 0.09883961, 0.14156266, -0.12345699, 0.0018746967, -0.032987345, -0.36115953, -0.03552504, 2.6857393, 0.017614711, -0.081064925, -0.043576792, 0.03424715, 0.047115397, 0.7417507, 0.3163045, 0.06783063, -0.058801174, -0.070914336, -0.045801036, 0.0065053958, 0.23611188, 0.0819191, -13.261538, 0.41762143, 0.0188909, -0.64497095, 0.010365856, -0.79835445, 0.008692675, 0.47971976, 0.021853346, 0.015590977, -0.06762363, 0.052900728, 0.0020245381, -0.03981238, -2.1721516, -0.6105965, 9.887132, -1.4746611, -0.02967072, 3.752968, 0.6416008, -0.17926744, -0.14330976, 1.4235785, -0.049896635, 0.14089735, -3.096767, -3.19741, -0.16540934, -0.07356233, -1.8524315, 5.230047e-05, -0.12127245, -0.77469176, -0.059798773, -0.738185, 2.618715, -0.0913627, -0.15098324, 1.2690724, 0.04589533, -5.543307, -0.041756876, 0.75505435, -0.09053388, 0.1557121, 3.7256484, -0.79455453, -0.25259742, 0.08630559, -0.0715073, 2.3951242, -0.01492485, -0.26118818, 3.698306, 0.6365368, -5.384163, 0.015506482, -0.18267587, -0.14675155, -0.18111508, -0.120509475, -0.087044194, 0.070512965, -2.0890136, 0.32298788, 0.78838784, -0.88382447, 0.07723358, 0.071949646, 0.309871, 0.061453696, -0.30293316, 0.09695107, -0.37795824, -1.6979783, 1.0440845, -0.06420177, 0.8703235, 1.5797448, 0.37721735, -1.0625876, 0.6284705, -0.9927474, -0.25307408, -0.35095417, 0.5602998, 1.0547893, 1.978294, 0.35788345, -0.09615818, 0.16719161, 0.04178275, 0.21509933, -0.56235856, -0.7297697, 0.14289455, 0.09259854, 0.20879883, -0.6339861, -0.45168436, -0.72217906, 0.13483116, 0.64660454, -0.7785214, -1.24285, 0.20550814, 0.14799158, 2.340475, -1.3065138, -0.024527075, 0.12698284, -0.8014697, -0.06865183, 0.036081918, -0.29609048, 0.111270994, 0.40945613, 1.2518103, -1.0797985, -0.75454867, -0.21041545, -0.12406606, 0.04328011, 0.22049044, -1.0230685, 0.9706132, 0.40500405, 0.6260271, 0.7255475, -0.3792284, -0.058947634, 0.041011535, 0.1295021, 1.4833745, -0.49157438, -0.4930102, 0.14303055, -0.0904639, 0.26865637, -0.12409148, 1.0984058, 0.31030282, 0.28827488, 0.42915502, 0.45483854, -0.09694085, 1.6196772, 0.13577917, 0.82467127, -0.7691255, 0.07298557, -0.45714474, -1.2180885, 1.1588249, 1.973972, 0.15016739, -1.3592614, 1.1870574, -1.5972457, 0.47807539, 0.06744627, 0.48446158, 0.24696736, 0.05072803, 0.16791238, -0.09535708, -0.012167, 0.03584611, -0.47294223, 0.04199676, 0.18267737, 0.16245244, 0.14615986, -0.021654118, -0.68516284, 0.053985123, -0.5394737, -0.1128684, 0.0023302555, 0.091504, -0.025961969, -0.05543314, 0.05915653, -0.034750286, -0.9659646, 0.1252956, -0.0045275465, -0.04649405, -0.13378485, -0.021291342, 0.53017217, -0.48427412, -0.050595883, 0.07298598, -0.14149612, -0.02179192, -0.0056668455, -0.1952942, -0.026434163, -0.56176597, 0.12205481, -0.04885588, 0.09381493, -0.1549803, 0.30687687, -0.020869264, 0.04000282, 0.0970902, 0.039196182, 0.023675054, -0.01370182, 0.051140662, -0.06992397, -0.06208437, -0.22812153, -0.3792333, -0.19397324, 0.006677786, 0.5740779, 0.9290668, 0.07247379, -0.07933138, 0.03759452, 0.1323223, 0.12868847, -0.013720834, -0.09330501, 0.17071438, 0.048899572, 0.38303718, 0.16164257, 0.11502361, -0.024783457, 0.10030515, -0.47925195, -1.0414882, 0.109620884, 0.09711685, 0.37640843, 0.011657248, -0.050879445, 0.18571764, 0.25593528, 0.024103308, -0.5386791, -0.16126166, -1.2195011, 0.20423172, -0.04245303, 0.17065535, 0.30955228, 0.103490345, 0.112434775, -0.3385702, -0.7506532, 0.21441902, 0.13648163, 0.13434139, -0.0057249647, 0.1124424, 0.08886556, 0.11266957, -0.015588983, 0.010660601, -2.2887716, 0.92577606, 0.60031265, -0.011601733, 0.17826162, -5.9314103, -0.00589997, -3.3591714, -0.03543455, -4.408856, -6.140157, -3.315973, -0.013952026, 4.7596874, 0.044207487, 0.96040606, -6.5966, -0.062352184, -1.2869079, 0.055219363, -4.4874983, 3.9847581, 0.18163925, -0.3236566, 1.6872499, 0.020268854, -0.024597934, 0.049886376, 0.03177632, 1.9548373, -3.981332, -0.03321455, -0.022015944, 0.07039491, -2.2721183, 1.0076526, 0.80014753, 0.09748484, -5.11442, -5.557347, -1.8315346, 0.106071375, -6.6724253, 6.4016333, -5.3821554, -0.15020938, 0.0313466, 8.446305, 0.22563857, -0.79618, -2.6270618, 0.0052838996, 1.1614454, 10.7807665, -2.5503697, -3.247869, 3.2443273, -5.767344, 0.032653384, -0.023485934, -6.441225, 5.0442424, 2.7793007, 3.830224, 7.5990696, -3.6768212, 0.16499472, 0.20476224, -2.500313, 7.6252837, -0.6259677, -6.2662206, 0.4972078, 0.3443023, 0.51995426, 0.09903481, 13.639408, 1.6932492, 0.08717258, 2.048184, 2.337878, 0.03991886, 9.085851, 0.18109204, 8.886386, -0.3693407, 2.8515608, -1.9091542, -6.4755116, 4.421311, 2.5037942, 0.020127034, -1.3199881, -0.43385607, -3.7523644, 8.831407, -0.06388135, 2.545291, 4.64772, -0.021569643, 0.39577675, 0.030240461, -0.06133093, 0.021481436, -0.5560314, -1.8265694, -0.061685584, 3.2857218, 0.031141473, 0.0534094, 0.49385786, -0.07511196, -0.5480332, -0.0062771174, -0.06806309, -0.033818606, 0.03877636, 0.08355386, 0.25990742, -0.06532845, 4.47476, 0.082613796, -0.10440564, 0.028542092, -0.0020046309, 0.11350948, 1.143415, -0.53219867, -0.01380242, 0.059583783, 0.08875197, -0.06728735, 0.047590118, 0.0156658, -0.011508073, 1.51349, 2.4017084, -0.08886422, -2.0521104, -0.048775513, -1.5589623, 0.058628958, -1.474805, -0.011193952, -0.015929172, -0.0817102, -0.034255195, 0.039374102, -0.009322297, -0.014313387, -0.16420527, 1.8927482, 0.31752938, -0.09401288, -4.4975753, -0.9531891, -0.08934043, 0.25880888, -1.4694608, 0.05692879, -0.13968289, 0.7607684, 1.9551286, -0.032879528, -0.0082555525, 2.3030453, -0.10221134, -0.033618674, 1.5230045, -0.14702906, -1.4425806, 11.3839035, -0.08984216, 0.00051616575, 2.3299325, -0.04465706, -0.7319085, -0.037175007, -7.040572, 0.0030143394, 2.5782144, -0.14125939, -6.468372, -0.021760158, -0.050220195, -0.034621537, 3.289056, 0.07350099, -0.042653583, -1.9836521, -0.79592246, 2.2370539, -0.059966337, -0.035068333, 0.015116869, -0.0015606744, -0.055034593, 0.031506047, -0.040384, -1.0010515, 0.84333193, 2.010188, 1.2440488, 0.03602674, 0.12919669, -2.120243, 0.050214943, -0.91908556, 0.11323399, -0.5706862, -1.6664366, -0.2143449, -0.02612965, 2.1448941, 2.0217013, -0.91146344, -0.46049237, 1.0311908, -0.47490433, 1.1437755, -2.879035, -5.7038016, 1.22789, 1.8780653, 0.08865596, -0.0751468, 0.101164125, 0.03311782, -0.079696685, 1.1664964, -0.38297105, 0.1285136, 0.23512164, 0.14677866, -0.37837976, -0.30596018, -0.25463572, 0.24739891, -0.7673467, -0.91017675, 1.5873145, 0.040393796, 0.21297027, 0.445981, 0.49567136, -0.008491186, 0.23252077, 3.3995502, 0.17033905, 0.07180697, -0.08264867, -0.06848262, 0.20821089, 1.4381156, -0.38407007, -2.5492594, -0.7985631, 0.21464357, 0.08973466, 0.12627351, 0.21295911, 0.88254595, -0.24159326, 1.4254335, 0.5838982, -0.75685894, 0.071199656, 0.111486405, -0.12142698, -0.26861146, 0.6793068, -0.36955437, 0.770194, -0.016201727, -0.015797716, -0.07579894, 0.07546016, 0.21817413, 0.25579724, 1.2167807, 1.4535706, 0.63580734, 2.181521, -0.08523813, 1.2130159, -1.1782141, 0.0021982132, 0.30006415, -1.4606788, 0.64160043, 1.2664632, 0.22766379, 0.023160845, -0.14860362, -1.284529, -0.018032266, 0.11021161, 0.70097005, 0.495408, 0.2483994, -0.11990198, 0.05647495, 0.04807414, -0.09050997, 0.34302384, 1.1568353, 0.030601183, -0.38619867, 0.22216554, -0.007677458, -0.03980167, -0.013795596, -0.91061246, -0.16234651, 0.026934234, 0.15500182, -0.11643739, -0.04247866, 0.29719278, 0.1075608, -0.077541985, 0.0017321141, -0.022502426, -0.007430756, -0.032149367, -0.048772626, 0.70012176, 0.015714541, -0.06718228, 0.020179767, 0.051694486, 0.011107944, -0.05333111, -0.016780427, -0.086279355, -0.51536804, 0.58941466, -0.049570564, -0.14834455, -0.11402034, 1.2722982, -0.13763995, 0.21520098, 0.122614175, 0.019904178, -0.14387901, -0.008989878, 0.10199085, 0.008873859, -0.5420207, 0.2979266, 0.8606846, -0.3691237, -0.010013215, 0.49660525, 0.62703264, 0.46073288, 0.24710347, -0.22776055, 0.15812372, 0.09739913, -0.15830822, 0.10141583, 0.027630158, 0.029928068, 0.82899064, 0.09584357, 0.31678602, 0.15040381, 0.31955725, -0.13948315, 3.231265, 0.18486452, 0.13879204, 0.10737216, 0.116090134, -0.23249492, 0.17637402, -0.66759133, 0.027456857, 0.391345, 0.91970134, 0.4880906, 0.08114885, 0.025943799, 0.22334479, -0.68403214, 0.20040159, 0.3106061, 0.36685792, 0.31235102, 0.26495737, 0.4678074, 0.06126203, 0.28651625, 0.18735595, 0.2671944, 0.16856395, 0.12599874, -1.6075786, 0.01731745, 1.7579273, 1.2882836, -0.022479879, 0.11806287, -0.33708853, 0.008238067, -0.3527199, 0.15542574, -0.5896185, -1.6729517, -0.053956013, -0.08370741, 0.8417071, 1.4815958, -0.37044308, -1.2390242, 0.8672321, -0.65073127, 1.0763178, -0.3834243, 0.69332516, 0.86651456, 1.7315269, -0.100486614, 0.037564244, 0.092103906, 0.13985358, 0.018647956, -0.562778, -0.73227143, 0.06913581, 0.09903314, 0.02875722, 0.3387432, -0.17640755, -0.67478144, 0.20171311, 0.20742089, -1.6535484, -1.2264401, 0.05501351, -0.27179825, 0.44892117, -1.4678283, 0.110293254, 0.23292767, -0.82140255, 0.11778587, 0.20924115, -0.16869812, -0.1641804, 0.22438605, 1.2841986, -0.11088736, -0.028830862, -0.20158003, 0.21820402, -0.07090559, 0.13163209, -0.35401452, 1.0216535, 1.1249205, 0.23652032, 0.63316023, -1.1072757, 0.097967096, 0.23204328, -0.48109478, 0.49682876, -0.57673573, -0.6291268, 0.26351824, -0.13644537, 0.124556676, 0.05270668, 0.9991208, 0.23003075, 0.19924012, 0.5304768, 0.60801655, -0.012257187, 1.4372321, 0.0029616791, 0.7084279, -0.5015774, 0.18922631, -0.4604705, -1.1942636, 0.68580776, 1.356019, 0.060361017, -1.011015, -0.23876886, -1.5608176, 0.67586833, 0.15706933, 0.04333077, -0.04252509, -0.033195842, 0.021829223, -0.08735865, 0.037441075, -0.13713664, -0.12900478, 0.10192103, 0.24345137, 0.015438631, 0.05527879, 0.1522014, 0.04590738, -0.071953826, -0.5050946, 0.006152105, 0.07200224, 0.12183002, 0.09909713, 0.10468923, -0.023391554, -0.09356113, -0.9136396, 0.015652722, 0.012983039, -0.022355098, -0.16696496, 0.028695364, 0.72717154, -0.47659063, -0.08494956, 0.06833687, -0.07716323, -0.19342233, -0.17331146, -0.009791102, -0.046281964, -0.58400846, 0.078875735, -0.09021779, -0.023965413, 0.036984418, 0.36385968, -0.22289269, -0.11084789, 0.123143956, 0.10272948, -0.045839574, -0.09414422, 0.20170972, -0.010161568, 0.074998826, 0.03607185, 0.63501877, -0.38540688, 0.026626348, 1.2524315, 1.2286515, 0.10561793, -0.29739445, 0.078935415, 0.113912046, 0.13546288, 0.09362249, 0.21196887, 0.11108885, -0.0062726242, -0.14428785, 0.1884172, 0.09264378, 0.22246394, 0.16178524, -0.48081988, -1.0726383, 0.066146344, 0.14586075, 0.35001934, -0.03408807, 0.12457905, 0.15082307, -0.33166525, 0.055038925, -0.6286769, 0.039812256, -0.8893697, 0.039426535, -0.020318229, 0.25436205, 0.283254, 0.075891025, 0.26002467, -0.9292713, -0.852087, 0.31963438, 0.09090327, 0.096928045, 0.20217215, -0.0005646924, 0.063616924, 0.18170156, 0.085432135, 0.8859032, 1.6416776, -1.2146934, -0.07823067, -0.16484997, -0.08614638, 0.24235032, 0.09403701, -0.008396074, -0.19447623, 0.97677755, 1.3449712, -0.70114315, 0.049685273, -0.78441787, -0.60448563, 0.1462458, 1.3562, -0.5091682, 0.46422282, 0.3488958, 0.30310357, -0.21953353, -0.5966383, -2.045254, -0.12422639, 0.05126111, 0.043274056, -0.025637366, -0.1401082, 0.4016355, 0.80531466, -0.14224976, -0.15828073, -0.23254634, 0.88684714, 0.3632028, 0.49503815, -0.13191603, 0.4526634, 1.5008214, 1.3319126, -0.1517421, -0.72496074, -0.3865306, 1.3956534, -0.07374458, -0.25578588, 0.7377689, -0.13692787, -0.061926726, -0.14428285, 0.14155617, -0.2730518, -1.3136203, -0.054183252, 0.120827295, -0.044041358, -0.28022283, -0.0988246, -0.003951086, 0.8329203, -0.9368359, -0.6456911, -0.24463932, -0.46674109, 1.416753, -0.33283454, -0.7116455, -0.91558164, -1.4090776, 0.21706888, 0.526119, -0.15308727, -0.104833156, -0.4155528, -0.06892141, -0.8428197, -0.055505373, -0.0336817, -0.28525683, -0.80344313, -0.5431802, -1.548068, -0.13091613, -2.2967937, 0.39924827, -0.13941452, 0.5921094, 1.1369822, -1.6412916, -1.3740884, -0.21794087, 1.576188, 0.3327105, 1.3142468, -2.5996573, -0.14046666, -0.15704274, 0.03752049, 0.017569793, -0.1583989, -0.050554745, 0.042621586, -0.005557593, 0.09945962, 0.13896725, 0.0150142275, 0.004886408, -0.21631043, -0.019294249, -0.4321142, -0.027746944, 0.45911592, 0.08517036, 0.061688803, 0.10423441, 0.025376381, 0.07836899, -0.22342433, -0.04195982, 1.0959092, -0.085217275, 0.017475132, -0.028064609, -0.04754608, 0.00978235, -0.3905589, 0.24387762, 0.067508034, 0.056996472, -0.0024797465, 0.04797337, 0.15008907, 0.10780017, 0.020346696, 0.38190767, -0.30467814, -0.06363939, -0.44029418, 0.007872322, -0.2172488, -0.06497401, 0.36352304, -0.29614678, -0.020405397, 0.056369465, 0.13314268, -0.17746483, 0.03171986, -0.71979165, -0.8565099, -1.3485264, -0.34271586, 0.07263576, -1.1229225, -1.3370829, -0.2219022, -0.20697114, -0.81380814, -0.048290323, 0.038617466, -0.29084662, 0.18970628, -0.12197531, -0.20146158, 0.15255037, -0.17715682, -0.078582905, 0.39851597, -0.080111526, 0.72376406, 1.0675962, 0.036083825, -0.16152295, -0.43026483, 0.07446226, -0.40909892, -0.18931448, 0.34899017, -0.09326496, 0.57775885, 0.2066211, 0.8297027, -0.16944724, 0.01928321, -0.15403049, -0.22423264, -0.19669685, -0.057605054, 0.9066476, 0.62859523, -0.676674, -0.29594925, -0.15750416, -0.18212073, -0.07605235, -0.17668435, -0.13399838, -0.067014664, 1.631585, 0.1532647, 0.23079208, 1.1580797, 0.061851155, 0.00467996, 0.7645244, 0.0071163215, 1.0609449, -0.09346557, -0.9133714, -3.792787, -4.3058443, -0.06667947, -1.516137, -0.37422118, -0.48864844, 4.4573283, 0.36439663, 10.4433565, 2.7693954, 0.8473025, 7.6896963, 0.113885835, -0.2867587, 0.02652821, 0.061856072, -0.056429006, -0.08070715, 0.05862332, -0.94392604, -1.4825177, 0.022707848, -0.05728678, 0.035995055, 2.8471208, -0.9030817, 2.0800755, 0.006697657, -1.301156, 4.9770555, 6.205709, 0.015084692, -4.362214, -5.3856864, -2.8133488, -0.026923897, -0.056439657, 1.8817408, -0.072356656, 1.9904449, -0.07398879, -0.4038226, 1.3910159, 0.6686723, 0.54677546, 3.077537, -3.067008, 2.167719, 0.06046498, -0.22002308, -3.212088, -6.827178, -0.9338106, 2.0437646, -0.1658609, 0.543611, -0.5234687, -0.42832005, -3.8624315, -4.584742, -2.8772826, 6.777099, -0.1302486, -0.8186911, -0.93380505, 0.1724918, -3.2022924, 1.170359, 0.01466358, 4.503205, -8.438346, 0.001324357, 0.4685219, -0.57619077, 1.8353602, -8.780955, 0.19324672, 4.458125, 5.898806, -1.8965005, -4.293897, 0.06752632, -5.3316994, -0.07972175, 4.6711555, 2.7038825, 0.013655359, -0.8705439, 1.720175, -0.086572915, 1.5569673, -0.11363952, -0.0033652645, 0.08687329, -0.3956322, 0.7760836, -0.08545098, -11.847781, -0.17314896, -0.08635457, 0.0019620375, -0.03404056, -5.5953856, 0.023269877, -0.067209765, -0.0044660293, -0.028293446, -0.15612423, 1.792143, -0.01749255, 3.422107, -0.054743838, 0.02426967, 0.033425126, 0.05360932, -0.014353522, -1.025916, -0.62988645, 0.07125447, -0.07413829, 0.028660228, 0.05523843, 0.12555742, 0.2511894, -0.018762374, -0.28556192, 0.5141918, -0.05703295, 0.060473062, -0.009340383, -3.3276713, 0.032706242, 0.40462652, -0.08867018, -0.028333174, 0.0150900725, 0.025566256, 0.1007192, 0.021336284, -1.4652426, -0.116944656, -6.515712, -1.9156221, -0.08320107, -0.6969339, -4.6220584, -0.040033873, -0.2132615, 5.2253466, -0.12324061, -0.5016674, -0.8720215, -0.69309735, 0.09892626, 0.019725375, 0.4661305, -0.01581337, -0.055125013, 1.197172, 0.07252599, -2.2502751, 1.4769895, 0.021150766, -0.16116242, 0.69365656, -0.018090602, -1.241537, -0.012293947, 2.0206656, -0.059803024, 0.5621572, 0.9547444, -3.0023887, 0.08472143, -0.019032147, 0.053881027, 0.56549627, 0.12706895, -0.519204, 2.1408734, -0.78977734, 2.9673178, -0.026585221, 0.1679247, -0.037338126, 0.04422827, -0.08397726, -0.0906877, -0.21916641, -0.084611006, -0.047331404, 0.009007754, 0.023656998, -0.028024266, 0.071361944, -0.075813554, 0.044356927, 0.03960802, -0.006186396, 0.015523013, 0.060853843, -0.07925143, -0.009417298, -0.12528622, -0.008945971, -0.07554486, 0.14243041, 0.056779828, -0.087667026, -0.0685041, -0.04687255, 0.004393968, -0.008850069, -0.0489021, -0.052398458, 0.012360785, 0.024019156, 0.028147386, -0.11074434, -0.01730811, 0.027286133, -0.076708235, 0.051860128, -0.061048854, -0.07384851, -0.046990417, -0.02084714, 0.057972714, 0.044058893, 4.3310843e-05, 0.14404628, 0.07985304, 0.022902418, 0.05470127, 0.14035332, -0.0072438726, -0.017355714, 0.044684786, 0.04393817, 0.035386514, 0.018351488, -0.06837473, -0.10259892, 0.08733396, 0.054258868, -0.12686634, -0.017991085, 0.051198572, 0.060723897, -0.04963694, -0.0432619, 0.027482558, -0.015867854, -0.016614588, -0.048371222, 0.1711984, -0.10029085, 0.065251365, -0.09826368, 0.01213893, -0.15564863, 0.06016157, -0.005713698, 0.030508364, 0.028948845, -0.04758158, -0.05042242, 0.19760697, -0.032982383, 0.023315009, 0.038720623, 0.0074154455, 0.074321575, 0.06461003, -0.026214467, 0.052158475, -0.049275383, -0.023431148, 0.057846237, -0.017369848, 0.028063696, -0.12064375, -0.13790458, 0.05181569, 0.022250514, -0.044868004, 0.023447568, -0.054945506, -0.011405695, 0.15044262, 0.0037903995, -0.032945666, -0.10434917, -0.015525561, -0.08037448, -0.10528275, 0.032648027, -0.053169355, -0.09082077, -0.060299944, -0.058060728, -0.10174791, 0.08358349, -0.0557952, 0.0902651, -0.018469462, -0.05834832, -0.041805487, -0.05810487, 0.04161609, 0.011195792, -0.065777086, -0.009119581, -0.03425295, 0.022326652, 0.056943815, 0.016643116, -0.063139245, -0.02395399, 0.10914364, -0.07755484, 0.03879976, -0.017999507, -0.08382494, -0.096054256, 0.043194976, 0.020069296, 0.021915685, -0.05746879, -0.00048246022, -0.097770326, 0.00647118, -0.048130266, -0.03091994, -0.09503624, -0.0013388857, -0.007716544, -0.04057485, -0.07410348, -0.049545456, 0.061401036, 0.057891782, -0.10675467, -0.110795, -0.050595228, 0.020505512, 0.026635306, 0.13545902, -0.12141816, -0.045218136, 0.024582969, -0.024587527, -0.01949456, 0.07438359, 0.07352041, -0.0882319, -0.026544094, 0.0041372096, -0.12727505, 0.04324304, -0.21210968, 0.06745371, -0.1423777, 0.031810064, -0.075095356, -0.07797192, -0.042884644, -0.08277906, -0.15691467, 0.132934, -0.01859644, 0.043150384, -0.06149409, -0.028891578, 0.06970102, -0.0762455, 0.100140326, -0.029862303, 0.034323286, -0.022790367, 0.057961356, 0.032740057, 0.1232755, 0.07523064, 0.101691686, -0.0291082, -0.15155496, 0.016921902, 0.15025853, 1.452311, -0.5884316, -1.8048601, -0.29914275, 0.13859592, 0.079965636, 2.159025, -0.06405004, 3.6660955, 0.003276047, 3.1698453, 2.5649438, -0.13823083, 0.01737553, 0.49489084, -0.7390575, 0.10548962, -2.895158, -0.17199144, 2.1910574, -1.9795051, -1.188406, 0.52349275, -0.29928726, 0.8495718, 1.1889105, -0.07991597, 0.09351361, -0.0051883855, 0.00076578185, 0.4635004, 0.19682346, 0.11242346, 0.24502529, 0.16453373, -1.2449641, 0.7346598, 1.0058933, 0.010618381, -1.0064658, -2.0111914, -0.2282826, 0.07944945, 1.9638541, 1.5093287, 0.54788727, 0.13195753, 0.016231889, -0.2678262, 0.20985895, 1.2397267, 0.7460159, 0.38317, -0.010380816, -0.36403757, 4.083038, 1.6400863, 1.9528387, 2.1212037, 0.10862912, 0.14789787, -4.2009153, -0.5489717, -1.4338268, 0.1192958, -1.306885, 0.19241734, 0.15277618, 0.32261604, 0.6295682, -0.05152218, 0.560831, -2.9301376, 0.33313644, -0.46334484, -0.107150905, 0.08027755, 1.0894427, 0.027978709, 0.18842842, -0.83388525, 1.6123015, 0.52993375, 2.1048377, 0.346545, 3.0733006, 0.92773724, -1.0303041, 2.0873811, 0.7026598, 2.3600755, 2.1997137, 0.28536162, 0.9245997, -0.6121304, 0.84005904, 2.5918431, 0.019758593, -0.43892637, -0.79596514, 0.03838533, -0.41018587, 0.09754923, 0.047366094, -0.13311014, 0.61887, 0.4866603, -0.05335406, 0.34164262, 0.17029324, -0.022255966, -0.042380966, 0.09069767, 0.13914219, 0.0042147343, 0.032396846, -0.15989354, 0.006173918, 0.05701986, -0.6379714, 0.07577331, -1.5187956, -0.020339526, 0.11504329, -0.050103467, -0.015033426, -0.05941562, -2.0606444, 0.23869357, -0.109323554, -0.012255373, -0.121601395, -0.02839629, -0.09055113, -0.047977813, 0.0020246324, -0.2964911, 0.27831805, -0.03178375, 0.22031875, -0.07055589, 0.38088682, -0.013919252, 0.4598981, 0.07207801, 0.1622615, 0.09475502, -0.11555063, -0.021989536, -0.025237404, 0.5891944, 0.24043947, 4.04325, 1.0815516, 0.17939141, 1.6139225, 0.43284285, 0.013034599, -0.24008733, 0.40322438, 0.09722437, 0.103790715, 0.48574442, 2.2199166, 0.09891942, 0.14463492, 0.9585455, 0.17112683, 0.06843297, -0.07196478, 0.31841877, -0.70110554, -0.88761073, 0.25488108, 0.103423394, -0.42498118, -0.036854416, 0.46325555, 0.2835094, -0.5142329, 0.13478802, 1.3120719, 0.36653402, -0.7079939, 0.08961612, -0.052478716, 0.09548109, 1.5918272, -0.007060932, 0.16426027, -0.28059036, 0.66273576, 3.4869642, 0.26297385, 0.121496476, 0.09008389, 0.09978565, 0.09290085, 0.21414591, 0.1017053, -3.077725, 4.9678373, 2.8306909, -0.091806084, 0.13187557, 0.12887919, -1.093448, 0.013457397, -0.6460159, 0.09963899, 2.0909145, -0.056330465, 0.6540366, 0.16527046, 2.0973623, 1.1877397, -0.21766384, -0.5212074, 0.11720887, 2.1531281, 1.0364506, 1.9217533, 1.0848303, 0.5036993, 1.6677681, 1.0591425, 0.055118002, -0.0025987662, 0.039188404, 0.049008586, -0.28331333, 0.8857098, 0.07871385, 0.17542529, 0.09764097, 2.4987469, -1.5491285, 1.0951567, 0.20936473, -0.41686782, -0.48678145, -1.8667297, 0.18256678, 0.20384023, -0.08428184, -0.654814, 0.017151136, 0.04628294, -0.79609114, 0.025494276, -0.058712833, 1.3806716, 0.332231, 0.25279418, 0.55674607, 0.72629756, 0.61834383, -0.35355753, 0.49655136, 0.04232027, 0.10915934, 0.7293344, -0.0032099565, 1.5762663, -0.6536684, -1.5321109, 0.6459468, 0.29862642, -0.11066735, 1.5439856, -0.5447994, 0.6995978, -0.9469906, 0.74304634, 1.036499, 0.54632455, 0.09778714, -4.7398753, 1.0329562, -0.035730615, -4.899679, 1.8196168, 0.5062037, 3.3704002, 0.22624785, -3.547427, 2.2337785, 1.2778411, -2.66604, -1.6111346, -1.8369099, 1.7791023, 0.12343356, 0.85128963, -0.054638907, -3.2675028, -3.8320193, -0.031624425, 0.8297248, -4.388458, -0.0036369315, 0.19345197, 0.09133412, 0.042519715, -0.11834576, 0.40261966, -2.0720313, 0.12175022, 0.2058079, -0.06166127, 0.0487192, 0.100323275, 0.09743179, 1.4516048, -0.088817164, 0.1175186, 0.08140821, 0.073224954, 0.048072863, -0.47929898, 0.1557851, -1.8136393, 0.044444893, 0.05646297, -0.06204874, -0.038651526, 0.025838083, 3.7435296, -0.89762324, -0.027317636, -0.013439346, -0.08069246, -0.067136586, -0.049853016, -0.082672894, -0.0048399954, -0.30970272, -1.3157192, -0.093232416, 1.3036317, 0.027371615, -0.28938836, -0.05792499, -1.1565918, 0.04818974, 0.08917235, -0.124666646, -0.00028621964, 0.07725819, 0.0019557402, -1.3543901, 1.6241066, -0.66460294, 2.6693242, 0.14234373, -2.2401628, -0.104871474, 0.41977313, 0.0895591, 1.2909197, 0.17501, -0.13145757, 2.9455414, -1.0919888, 0.09228761, 0.04511862, 1.4727411, 0.15399945, 0.14617217, -1.4299865, 0.33076674, 1.0563453, -1.144752, 0.24801207, 0.22017199, -0.52554744, -0.082724355, -1.0703504, 0.0928595, 0.082153104, 0.16560134, -0.48594365, -0.34983698, 0.75095993, 0.21157026, 0.07925918, 0.19865054, -0.64430094, 0.13297349, -0.33847308, -0.30995265, -0.6522593, 1.4324572, 0.26568946, 0.13119921, 0.29479003, 0.25436813, 0.20896472, 0.43992385, 0.32410413, -0.24217363, -0.74057895, -2.1297574, -1.3285857, -0.15073745, 0.006053498, -0.8361067, 0.04565229, 1.9232883, -0.107248604, 0.110928096, 1.024577, 0.044962946, 0.0013928134, -0.44465095, -1.9588577, -0.33895278, 0.10597928, -0.9038133, 1.3131375, -1.1047134, 0.10213316, -2.402937, -1.0261345, -1.9054674, 0.050470766, -0.10782631, -0.21666794, 0.18275891, -0.17363995, -0.20500715, -0.82012415, -0.20748216, -0.08371364, -0.029105276, -1.3776889, 0.14027266, 0.920101, -0.21387842, 0.021225145, 0.40676767, 1.6009936, -0.16284737, 0.66483545, -1.0606905, -0.07338334, -0.027855197, 0.0052384585, -0.6196499, 0.12550204, -0.48469836, 0.34749785, 0.050271295, 0.56036156, 0.27123156, 1.4516625, 0.3773313, 0.25294334, -0.45267013, -0.1080915, -0.06669627, 0.22707626, -1.615823, -0.5914632, 0.96195453, -0.7309594, 1.1865035, -0.07337355, -0.16728283, 0.38206816, 0.47403324, 0.8348857, 0.4996617, -0.17802024, 0.004155555, -0.23505978, 0.036010846, 0.09932589, -0.30911085, -0.21687323, 0.14661208, -1.5735481, -0.13797247, -1.5189611, 0.04143924, -0.20939267, -0.11294442, -0.16715494, 1.0777273, 0.8949234, -0.5835993, -0.6474631, -0.037608135, 1.3050369, -1.0094867, 1.0906196, 0.41479528, -0.13738133, -1.2233539, 0.09226328, -0.13172197, 0.17086454, 0.13968842, -0.077657364, 0.08559541, -0.0707974, 0.49068415, 0.03270629, -0.026448065, -0.074875295, 0.07237093, 0.027039511, 0.12747283, 0.29359716, -0.14570391, -0.0016569693, 0.031002892, 0.053480573, -0.098276384, -0.22510445, -0.12580274, 2.321238, 0.0029552397, -0.044391774, 0.006139611, -0.049877226, -0.010758699, -0.7956981, -0.057468824, -0.066016234, -0.19889563, -0.034086853, 0.031075979, 0.008685584, 0.16555776, -0.0036332111, 0.8853304, -0.03407793, 0.074236475, 0.14367977, 0.117052376, -0.5478979, -0.015126086, -0.10767209, -0.07089908, -0.029438533, -0.08868877, 0.019745555, -0.17061962, -0.049322404, 0.04288681, -0.18994813, 0.16914082, 0.28708652, -0.0011244242, -0.3675812, 0.082186125, -0.0526092, 0.029756313, 0.03355281, -0.07660547, -0.18587743, 0.034436423, -0.88050365, -0.1839573, -0.13565332, 0.14808784, -0.04059327, -0.119777165, -0.5357506, -0.069908656, -0.03244219, 1.0681734, 0.0014604884, -0.10377597, 0.019319696, -0.062643036, 0.31359965, -0.057325076, -0.6030562, -0.12583442, -0.0128168175, -0.07463457, 1.1466371, -0.18049815, -0.0701197, -0.27170745, -0.01311863, -0.18951014, -0.24527493, 0.1532409, -0.027202435, -0.48902935, -0.09959737, -0.11540589, 0.013963089, -0.104953475, -0.17243455, -0.18608794, 0.016260395, -2.5999777, 0.87988675, 2.1905806, 1.1116093, 0.2108063, 0.07792915, -0.69232994, -0.071345374, -1.2114149, 0.031828117, -1.2036265, -3.9519906, -0.53970987, 0.039540634, 1.5455017, 2.0642056, -0.4782446, -1.5201899, 0.9907147, -0.27941296, 1.0537668, -1.0170847, 0.21573678, 1.0490668, 1.9908894, 0.07508823, 0.034665134, 0.18236631, 0.13059583, 0.11067778, -1.7384253, -0.8394247, -0.053139046, 0.12839274, 0.19869465, 0.18314095, -1.3111962, -1.2697148, 0.06580321, 0.4026652, -2.1732492, -1.0140262, 0.102019385, -0.77837056, 0.41455337, -0.68740636, -0.00434037, 0.020204637, 0.3617136, -0.009793443, 0.3777578, -0.30320746, 0.008925301, 0.28907776, 0.057260297, -1.3202327, -0.8895715, -0.20856963, -1.7005253, 0.047492154, 0.09428815, -0.3916806, -0.40739393, -0.16835739, 1.0349596, 0.50420856, -0.8552049, 0.21867914, 0.22199053, -0.030385876, 1.1982248, 0.26401427, -0.81550306, 0.04198692, -0.04482116, 0.23268554, -0.09220101, 1.1102462, 0.08076778, 0.14848499, 2.728992, 1.6332923, 0.00315098, 1.4492021, 0.1496317, 1.2696425, 0.5352745, 0.07199904, -0.025682306, -2.1714513, -0.1651334, 1.626335, 0.16283913, -0.8141617, 0.036177497, -1.4327667, 1.2606362, 0.16809258, 1.6648061, 1.0310609, 0.047070764, 0.56755185, -0.018727956, -0.0028207973, -0.06473076, -0.9487074, -0.5279636, 0.09153055, -0.16468208, 0.21930137, 0.12564811, -0.21176057, -0.1578251, 0.34265524, -0.14522168, -0.04231163, -0.16652076, 0.03288545, 0.09482671, 0.010129565, -0.07484516, 0.052595906, 0.052225385, 0.006490277, -0.020126918, -0.016206384, 0.08190716, 0.7605147, -0.97766256, -0.14531401, 0.056193877, -0.12428495, -0.013081535, -0.074630275, -0.08292078, -0.025529208, -0.71761405, 0.43175694, 0.12406641, -0.23249342, -0.08522202, -0.12717965, -0.08826776, 0.03725497, 0.16109622, 0.095246665, 0.048807144, -0.171746, 0.2057013, 0.10068442, -0.1468149, -0.09864755, 1.6639657, -0.29131645, 0.012189996, 0.59712183, 1.3373646, 0.2342036, -1.3829153, -0.64716786, 0.097354196, -0.003882785, 0.07897661, -0.074434996, 0.06718757, 0.12160035, 0.54990834, 0.13659185, 0.05417343, -0.042315077, 0.035059303, -0.9456318, 0.4564083, 0.18318939, 0.048283502, -0.012245013, -0.019375704, -0.7657148, 0.14656061, 0.3356538, 0.047620714, 0.34309897, 0.017899124, 1.0017747, 0.13173966, -0.061729584, 0.4397094, 0.47549844, 0.13395518, 0.056695316, -1.0447012, -1.765744, 0.14430909, 0.051015288, -0.027625447, 0.1292218, 0.10330994, 0.041265253, 0.1667133, 0.065266974, -4.532083, -0.7260162, -3.0402567, -0.7914591, -0.081911966, -0.06397316, 6.720896, -0.020516887, 7.6532907, -0.091454774, -2.2307718, 9.046298, 1.9548653, -0.022140788, -0.40449026, -3.075541, -0.08146393, 6.239974, -2.3607888, -1.3365254, -2.6871185, 0.024988413, -0.06440315, -0.70860326, -0.8515221, -0.31076366, -0.088186756, -0.061313506, -0.089810774, -0.054714736, 8.30957, -0.3707952, -0.2099606, -0.059555676, -0.28443056, -6.680416, 0.67483145, -4.0637646, -0.045456804, -2.0644393, 9.217768, -1.100558, -0.18794121, 2.9107757, -1.0441478, -2.0556118, -0.12736769, -0.1070555, 4.295772, -0.2070479, -2.9717462, 5.094304, -0.37520018, 0.20953715, 0.8252363, -0.36880034, 2.2661104, -4.46149, 3.3593082, 0.010676963, -0.08473182, -0.7524772, -1.8204733, 0.30310014, -3.0492911, 1.1144925, 3.3617918, 0.09117716, -0.14260261, -1.4021533, 0.9947249, -0.34753183, 2.5518188, -0.4185542, 0.9486718, -0.79366285, -0.048998773, -0.1560925, -1.2643216, -0.053190578, 3.67808, -0.53873426, -0.66172194, -1.0541161, -0.08748145, -5.384109, -0.7571821, 0.78296906, 5.3321466, 12.888244, 5.4679646, -6.4758425, -0.1272766, 0.57204336, -1.2617276, 7.3084817, 1.0614885, -0.1845426, -2.2897887, -3.560309, -0.04451923, 0.86767805, 0.10286452, -0.023038428, 0.17977373, -0.5451508, 3.1068707, -0.11382067, 3.973558, -0.21357971, -0.019699797, -0.9171899, -0.09650648, -0.01257534, 0.1482192, 0.09670906, 0.0899999, 0.04564244, -0.0080144135, -0.99771845, 0.003221127, 2.0308316, 0.03697184, 0.052404556, 0.021052547, 0.08509971, 0.023055358, -2.5592418, -0.14077213, 0.21156307, -0.08916787, 0.05488245, 0.13349001, 0.002141463, 0.06724734, 0.011243562, -8.749874, 0.61896765, -0.0026446697, 1.9081428, 0.020208715, -0.27510452, 0.15816069, 0.48588297, -0.16632047, 0.1108568, 0.142148, 0.081541695, -0.13772163, 0.00060433353, 0.59483707, -2.6398015, -4.5994477, -0.3565548, -0.1216067, 1.9218346, 0.9690997, 0.02536127, -0.28624612, 6.5279784, 0.05442892, 0.05318397, -1.3912299, 0.77476865, 0.0020333307, -0.004470026, -0.73624504, -0.060443603, -0.2694478, -1.6746613, -0.28295368, -0.63381714, 5.6636624, -0.2509839, -0.036268916, 1.2151232, -0.07665436, -3.482454, -0.078032315, -0.97126263, -0.13488333, 1.9530382, -0.962277, -0.5112262, -0.16513394, -0.10911485, -0.2847428, 8.69336, -0.23388591, -0.11755508, 2.9869895, -0.9794958, 2.090591, -0.10654947, -0.32028833, -0.16029152, -0.026000986, -0.13341667, -0.12366802, -0.03157652, 0.13451158, -0.8923263, -2.1240058, -1.1947352, -0.2032778, -0.030598253, 0.3502947, -0.20302023, 1.0752972, -0.0749168, 0.5940966, 1.9957119, 0.75675935, -0.06809196, -0.94419605, -2.1730754, 0.21151625, 1.2426482, -0.7776252, 0.69781965, -1.2037866, 0.8632282, -1.4036467, -1.14371, -1.8712096, -0.06485859, -0.11193401, -0.16492815, -0.13313377, -0.10013021, 0.9343277, 0.6224975, 0.0062111337, -0.017886428, -0.10041951, 0.18331715, 0.29501352, -1.0905769, -0.0059490544, -0.0363126, 1.6309332, 1.3687861, -0.2485788, 0.3174763, -0.34823313, -0.13115644, -0.18046826, -0.167513, -0.6809899, -0.005182134, -0.0013924353, 0.2148096, -0.027091589, -0.12734991, -1.1265863, 0.16868393, 0.14597648, -1.385429, -1.8225139, -0.046557263, -0.07369085, 0.5191705, -1.0801417, -1.430498, -1.266697, -0.117034316, 0.8016788, 0.09988999, -0.10109292, 0.3441721, -0.29565015, 0.43693745, 0.52349067, -0.14414217, 0.07028204, -0.29046497, -0.066394344, -0.7329825, -0.06794398, -0.11762271, -0.59768647, -0.5508067, -0.052640464, -1.4417446, -0.033559233, -1.2663583, 0.9087369, -0.3832487, 0.4510337, 1.2006432, -0.6356864, -1.4878606, -0.06616434, 0.91129833, -0.4264526, 1.5176008, -0.78432983, -0.11607837, -0.642151, -0.435984, 0.06498862, 0.009136056, -0.078924336, 0.06707639, 0.038674075, 0.6337426, -0.0038122956, -0.07407225, 0.013475946, -0.17892756, -0.04973747, -0.010873962, -0.027525393, -0.24604405, 0.16130298, -0.06233223, 0.03920239, 0.09373079, -0.044412136, 0.025989559, 0.033397283, -0.5928701, -0.13495557, -0.022945475, -0.06300487, -0.20922548, 0.078773506, -0.69979376, 0.07445218, 0.04282371, 0.00407586, -0.04392166, -0.12655285, -0.009115131, 0.11163087, 0.08549215, 0.8054968, -0.11033264, 0.10169271, 0.18908057, 0.04895196, -0.38334048, 0.048580907, -0.009976826, -0.11281146, 0.026591698, 0.010733918, 0.006741572, -0.010878051, 0.08004906, -0.24134785, -0.20753902, -0.74278283, 0.17958106, -0.09167024, -0.38311103, -1.1170722, -0.11407679, -0.060685113, -0.07327009, -0.1111013, -0.06087767, 0.100298, -0.6547469, -0.043058593, -0.09783431, 0.077078976, -0.13398996, 0.029281462, -0.16781656, -0.039329246, 0.37027216, 0.7806522, -0.059790898, -0.11354634, -0.3452096, 0.10766235, 0.06802471, -0.17402184, -0.54580146, -0.18774869, 0.56849587, -0.49081212, 1.5583909, -0.22420146, 0.010930736, -0.26688147, -0.2985845, 0.015248506, -0.22356132, 0.42814362, 0.07151863, -0.32755026, -0.07245695, -0.095505215, -0.057392336, 0.016735816, -0.053926103, -0.0726491, -0.03387314, 1.0432343, -0.8469576, -2.256489, -1.1945722, -0.08160492, 0.004364762, 0.22512221, -0.031491652, 0.4595156, -0.049264017, 0.74837404, 1.7066724, -0.20992193, -0.09361052, -0.57421666, -2.1160471, -0.057851873, 1.9566422, -0.89732695, 0.35625017, -1.2626126, 1.8793215, 0.91250986, -1.3692, -1.8599771, -0.08064413, -0.05971808, -0.09262067, -0.16325462, -0.060232297, -1.2738929, -0.1767869, -0.15484147, -0.018012205, -0.13241115, -0.30025455, -0.36455905, -0.0590689, -0.061045323, -0.5549212, 1.3170922, -0.6509593, -0.027934713, 0.16973083, -0.2543793, -4.8803625, -0.14241393, -0.13257942, -1.5799148, -0.13351251, -0.06966527, 0.04537083, 0.11519351, -0.23273788, -2.4409583, 0.16155897, -0.10137349, 0.31136942, 2.0892122, -0.12847231, 0.025122955, 0.2075961, -0.90100527, 0.2945215, -1.2309642, -1.4021872, 0.6713214, -0.042042956, 0.01102995, 0.29091462, -0.47155207, -1.566224, 0.8570902, -0.22566487, 0.001013506, -0.16236107, 0.041254982, -0.29396138, -0.27628508, -0.15560608, -0.70379245, -1.3182199, -0.006983441, -0.9462507, -0.16192347, -0.6115192, -1.5900197, -0.02266067, 0.48132813, 2.0890872, -0.695902, -1.7118027, -0.18773316, 0.40730107, 0.50476694, 0.19713823, 0.7387704, -0.0820205, -0.734118, -1.8694375, -0.09728958, -0.1886837, -0.011482909, 0.06117381, 0.056888476, 0.46061465, 0.051977247, -0.09003055, -0.06465129, -0.087193295, -0.02419275, -0.18043756, 0.0015711258, 0.4044983, 0.06632898, -0.0009938783, -0.023461051, -0.016447, -0.066429, 0.15148523, 0.008222879, -2.9419675, -0.12706041, 0.04262268, 0.08864549, -0.004066754, 0.03624572, -1.027155, -0.8316236, 0.060339462, 0.1060149, 0.020859987, -0.08497999, 0.11234248, 0.19889355, 0.091848165, 0.58091456, -0.10628481, -0.023680065, 0.27448383, 0.06528098, -0.16457282, 0.1250006, -0.10605085, -0.12701665, -0.018696649, 0.042094044, -0.08757465, -0.0801466, 0.02201883, 0.17548631, -0.1930699, -0.7762564, 0.14215156, -0.01364726, -0.7687683, 0.523144, -0.17447092, -0.6096236, -0.20385718, -0.121833615, -0.058245037, 0.08452503, -0.5432405, -0.025729734, 0.07309215, -1.233071, -0.098128185, -0.053082936, 0.40312168, 0.052423622, 2.1261117, -1.1981544, -0.1536485, -0.13491179, -0.24344403, -0.023932196, 0.10156527, -0.073497295, 0.0018945201, -0.15476206, -0.039003626, -0.024796361, -1.977727, -0.11759987, -0.10735202, -0.24874139, -0.18199018, -0.17910202, -0.16888677, -1.2395083, 0.5204144, -0.3342843, -0.11514302, -0.07681445, -0.15996535, 0.04537531, -0.12992938, -0.120183006, -0.053204507, 1.7861074, -0.84477425, -2.0760632, -1.1428616, -0.058928493, -0.039816946, 0.2887478, 0.0012879011, 0.5905812, -0.15164489, 0.49083486, 1.5877221, 0.034383323, -0.093178645, -0.7816833, -2.137911, 0.010881238, 1.087652, -0.970241, 0.7160383, -1.0880301, 0.47990054, -0.681301, -1.0999122, -2.044122, -0.010959367, -0.048023805, -0.22109874, 0.06663461, -0.20384647, 0.58894396, 0.55323887, -0.007836777, -0.14018708, -0.18709417, -0.29622608, 0.30015826, 1.2591, -0.10779258, -0.32138917, 1.7073942, 1.2066005, -0.11885563, 0.032935765, -0.17767596, 1.3630922, 0.00653435, 0.04638758, 0.74592435, -0.1575005, -0.120262675, 0.15432249, 0.055632647, -0.34747434, -1.1732627, 0.21887718, 0.068916395, 0.08388975, -0.07353643, -0.109053254, -0.14216883, 0.33693588, -0.941528, -1.2028424, -0.19075304, -0.56778085, 1.1104903, -0.033673976, -0.25036514, 0.1786536, -0.39255255, 0.6401988, 0.7436975, -0.47738236, 0.023423472, 0.0034037044, 