#pragma once

#include <stdint.h>

// Weight 0, shape: (2, 40)
const double weight_0_infrared[] = {
-0.07031394, -5.56278610, 1.07490778, 0.90812886, 
    1.34709477, -1.96685815, -1.24908853, -1.23336315, -3.62634110, 
    2.46435380, 1.50242960, -3.06153274, -1.06670821, 0.40279466, 
    1.06488812, -1.07128596, -0.10444941, -0.26184085, 0.64436477, 
    2.52792645, -3.05628395, -1.56215918, 0.10994064, 1.11764073, 
    0.96769577, 1.08169281, 0.25121886, -0.43034697, 0.69052625, 
    -1.72703898, 0.27181366, -4.08147001, -0.58193290, 0.37628791, 
    1.08535671, -1.07933187, 0.56162310, -0.84285682, -2.95448947, 
    0.19840795, 5.27424431, 1.10085344, 2.10460210, 0.74000144, 
    -2.53037000, -0.57674289, -1.99648845, 2.45109987, -0.92885184, 
    -0.81602740, 3.73597169, 1.77781320, -0.03608156, 0.91146624, 
    0.27308151, -1.60297024, -2.41987586, 1.57325625, -0.01813754, 
    -2.07743692, 0.30048263, 1.77175260, 0.40301657, 1.19957972, 
    -1.06495857, 0.75594509, -1.57541990, 1.70487273, 0.42084914, 
    0.61883944, -3.49022603, 1.14032054, 1.24325645, -0.26242766, 
    -1.90930712, -0.02940788, 0.18147370, 2.35718822, -0.79666007, 
    0.12156044
};

// Weight 1, shape: (10, 40)
const double weight_1_infrared[] = {
1.64125395, -2.55128837, -3.08577561, -0.37291884, 
    1.28484213, 3.23219252, -0.04439220, 0.68628412, -2.57184577, 
    0.17472591, 0.78333306, -3.58396721, -0.07761464, 1.18127179, 
    0.22977325, 0.74521422, -1.08880723, 0.98856896, 3.19697881, 
    0.93828231, -1.55221844, -0.21555120, 0.33088025, 0.70859504, 
    0.49806198, -0.84508514, 2.43121529, 0.42378518, 1.53000200, 
    0.51872975, -0.70581323, -0.78527623, -1.59671319, 0.06571812, 
    1.54658318, -0.55489969, -1.83493650, -0.62683165, -0.77226216, 
    -0.39649895, -1.08196509, -0.61510527, 2.86720204, 1.49940395, 
    -1.26162732, -1.05156398, -1.05105734, -0.21650249, 0.27502754, 
    -0.65861714, -4.03437853, -0.62828219, 0.09514371, -0.28859967, 
    -0.81421429, -0.23240045, -0.49409589, 0.24028763, 0.29321796, 
    0.21491207, 0.60879648, -0.26373291, 0.48366341, 0.08787519, 
    0.52441311, -0.18269052, -0.68836910, -0.46186474, -0.82239825, 
    0.90908730, -0.27219093, 0.37852916, -0.10620519, 0.44403145, 
    0.72342134, 0.24372090, 0.07388601, -0.17367184, 0.08781936, 
    0.12898545, -1.05803573, 0.40576836, 0.58017355, -0.69953650, 
    -0.33263740, 1.43013239, 1.36788821, -0.87128073, -0.02113770, 
    0.37060544, -1.62115622, -0.41569662, 0.09220814, -1.25623667, 
    1.02881849, 0.74962437, 0.47573841, -1.80582178, -0.39733705, 
    1.72230506, 0.74981058, 0.81460690, -1.12865591, -0.54341871, 
    0.66792572, -0.28006667, 0.39785421, -0.43092209, -0.10581577, 
    1.23092186, 0.06354698, -0.33715802, -0.47797272, 0.79979664, 
    -0.04373170, -0.11755256, 0.60920811, -0.99412477, -0.36645100, 
    0.29451180, 0.90727818, 1.45871973, -1.05564320, 0.79423976, 
    1.96589541, -0.93136758, 1.18510687, 0.06488261, -1.83537114, 
    0.45824507, 0.37923273, -1.27986228, 0.51098013, -0.20566726, 
    -1.89583099, 2.12696981, 1.07472754, -1.24652565, -0.70103526, 
    0.18693757, -0.08047686, -0.40109989, 0.38422605, -0.08224473, 
    -0.56158757, -0.37330070, 0.63401425, -0.52436125, 0.70772034, 
    -0.94259125, -0.50570685, 1.03958654, 0.72609258, -0.78006995, 
    -1.17485178, -1.16407979, -1.28078401, 0.83316427, -0.87046117, 
    0.25958011, -0.19686028, -2.27803659, 0.72916526, 0.01173646, 
    -0.18324912, 1.36229932, -2.06687522, -0.37556866, -2.16844416, 
    2.08368468, -0.60491681, 0.83159012, 0.88993907, 0.34402052, 
    -0.56740183, -0.61199319, -0.02696946, -0.76808447, -1.53819120, 
    0.06393339, 0.02998160, -1.26921129, -0.46829444, 0.19188106, 
    -0.18695888, -0.65783632, 0.84651977, -0.19151479, 0.55457580, 
    -0.56465983, 0.55671114, 3.07748342, 0.54315495, 0.36844063, 
    -1.09871137, -0.65625501, -0.35646534, -0.16117226, -1.83267200, 
    -0.74189579, 0.21638250, -1.53669906, 0.91630375, 1.05411911, 
    -0.56064147, -1.15269053, 1.61092174, -0.05730154, -2.62046623, 
    -0.38450244, 0.88297457, 0.72910804, 0.63963526, -1.72400153, 
    -1.15116286, 0.44209763, 1.28427935, -0.01122791, 0.61337948, 
    0.98807466, 0.82146037, -0.76319629, 1.32230961, 0.10755080, 
    0.19981129, -0.46179870, 0.68079311, -0.35733771, 0.09563079, 
    -0.85231441, -1.01900387, -2.63993096, 1.00945914, 0.24497825, 
    -0.19475995, -0.40647367, -0.91477346, -0.20352732, -2.54771638, 
    0.62783563, 1.10178685, -0.35433030, 0.06076529, 0.33996588, 
    -0.63058376, 0.45141509, -1.60132658, -0.26791355, 2.07640266, 
    1.35131514, 0.93158036, 0.50318903, 1.57126236, 0.82769233, 
    0.71628302, -0.80503583, -1.09549332, -0.28553864, -0.16367383, 
    0.13359702, -0.57824165, 0.21446359, -0.56266415, 0.41513348, 
    0.39768988, 0.31426740, -2.27514267, 0.61151284, -0.07966851, 
    -0.00777284, 0.16735959, 0.97393835, -1.01398420, -2.07007241, 
    -1.05182922, 0.88815230, -0.24270402, 0.82694852, 2.45352125, 
    -0.22249195, 3.20898008, -3.08803010, 1.98873234, -0.42116064, 
    0.21912843, 1.06698549, -0.43799663, -0.02788221, 0.91547161, 
    -0.65727890, -2.45366240, -0.09853497, -1.34779155, -0.48921090, 
    -1.24055111, 0.60966164, 0.10839215, -0.59958959, 1.18498683, 
    0.65859878, 0.67412746, -0.20258684, 1.00428438, -0.02444362, 
    -0.43691593, 0.20041794, -1.39601672, 0.37061262, -0.03426874, 
    -0.09647103, -0.79966456, 0.28542644, -0.40788138, -0.40223423, 
    -0.35701579, 0.14143263, 0.60288608, 0.52568448, 0.22177035, 
    1.35042024, -0.47377557, 0.22701025, -1.38001132, 0.13165389, 
    -0.17909311, -2.46677589, 0.51273197, 0.73159969, 2.35313487, 
    -1.15015125, 0.60472232, 0.60323423, 0.38496810, -0.51377231, 
    -0.11533660, 1.65176952, -0.08580457, 0.53175890, 0.96578562, 
    -0.93359005, 1.81267273, -0.11879835, -0.10075439, -0.37648684, 
    -0.15529254, -0.30160832, 0.45783433, 0.07935709, 0.11336353, 
    1.23666573, -0.18292482, 1.04071546, -0.05475165, -0.27922460, 
    0.18557563, 0.18919948, 0.12321314, 0.36387357, 0.26361445, 
    0.02250026, 1.34715176, -0.52057344, 0.27569529, 0.63807625, 
    -1.88094330, 0.12636295, 0.69055033, 0.22666615, -0.47983027, 
    -0.31275904, 0.91985875, -2.11188293, 0.21700704, 0.17448243, 
    0.79838729, 0.52521282, 0.16520256, -0.67286599, 1.97550774, 
    1.98677564, 0.17335305, -0.62946522, 0.07076341, 0.42321044, 
    0.74872953, 0.33279923, 0.03153738, 0.08882491, -0.31880280, 
    -0.54019350, -0.16855909, 0.82195354, -1.52484345, 0.14872830, 
    0.01983445, -1.29331625, 2.59536958, 0.51310277, -0.84791422, 
    0.03225473
};

// Weight 2, shape: (40,)
const double weight_2_infrared[] = {
0.35648906, 1.84458995, 1.13875556, 1.19362235, 
    0.95454347, 1.51183951, 0.48350787, 1.06133282, 1.74722588, 
    0.13486332, 0.60941583, 1.14462197, 0.86594415, 0.17189364, 
    0.66413826, 1.00547612, 1.26256394, 1.07455683, 0.58493197, 
    1.16076171, -0.12934868, 1.56087255, 0.02414997, 0.55990487, 
    0.11469018, -0.43002164, 0.05294685, 0.55015236, -0.52267462, 
    -0.74951196, 0.66351765, 1.28882504, 0.44004199, 0.57486606, 
    0.69218683, 1.07879055, 0.42161527, 1.71988904, 1.37727547, 
    0.99550843
};

// Weight 3, shape: (10, 2)
const double weight_3_infrared[] = {
-0.52775675, -3.00381446, 1.60633469, -0.13581944, 
    -0.20017296, 0.19420189, 0.56209904, 0.75161541, -0.49406266, 
    0.81063324, 0.92979449, 0.58117378, -0.44546038, -0.41484842, 
    0.80554205, -0.49189022, 1.48060060, 0.24856317, 0.64100420, 
    -0.51456493
};

// Weight 4, shape: (2,)
const double weight_4_infrared[] = {
0.05033266, 0.00216375
};
